layers 4
layer 0 Flatten
layer 1 Dense
784 64
[ 0.04253302  0.03194575  0.0528705  -0.00225814  0.0725246   0.06427627
 -0.02799486  0.07721705 -0.01511414 -0.08005188  0.04878008 -0.07386326
 -0.04733394 -0.06380682  0.00459535  0.05216301  0.04230028 -0.06965158
 -0.05408635  0.0173697  -0.00243926  0.04793372 -0.00439673  0.03187777
 -0.07694796  0.03866434 -0.04455946 -0.01945257  0.06805295  0.08220165
 -0.0560232  -0.03912292 -0.02870346  0.03089635  0.04200584 -0.02959419
 -0.07684537  0.06368306 -0.02284658 -0.04893119 -0.00116587  0.00910337
  0.07926125  0.06589661 -0.0624475  -0.02522947 -0.04866548  0.05023479
  0.06010065 -0.05876693  0.02446281  0.00073168  0.02703632  0.07882937
 -0.03457676 -0.03818379  0.00073422  0.06383098 -0.07419872 -0.02482647
 -0.03819267  0.0771758   0.07671195  0.04545867]
[ 0.01708613 -0.0077829   0.03872401  0.04079119 -0.03697473 -0.01841586
 -0.00327118 -0.07305139 -0.04509543 -0.04583577  0.04121908  0.01902875
 -0.08259261 -0.00913559  0.01020136 -0.04175095  0.06193442  0.00208742
 -0.06838851  0.02542819 -0.06864057  0.07947638  0.0656736  -0.06690624
  0.03256855 -0.03927912  0.01436403 -0.07900824 -0.00693931 -0.05307133
  0.00011205  0.04774974  0.08101853  0.00641845 -0.00437    -0.0281917
  0.06947558 -0.05949283  0.03587183  0.0696081  -0.08099382 -0.02610498
  0.00163934 -0.00470565  0.04383845  0.0542637  -0.00248884 -0.05080611
 -0.05873031 -0.07410743 -0.02153171 -0.0095294  -0.01889535 -0.0462707
  0.0148667   0.04426885  0.0066179  -0.01345363  0.00887281 -0.05662765
  0.01784727 -0.00867275  0.05216659  0.0261047 ]
[-0.04836654  0.00309826 -0.02280218 -0.04655524 -0.04350876 -0.04103795
 -0.07013971  0.0403909  -0.05407503  0.0138188  -0.02330242  0.06842113
  0.01695994 -0.03417597 -0.03198249  0.08068075 -0.02691219  0.02569707
  0.04364749 -0.022128   -0.05848562 -0.03747896  0.04350813  0.0011784
 -0.082187   -0.04808912 -0.0359381  -0.00698715 -0.0356758   0.0424554
  0.01289472 -0.0345196   0.0749666   0.05663421 -0.02281822 -0.0715037
  0.06968399 -0.0753831  -0.01070761  0.02921702  0.03395717  0.07618108
 -0.08093353 -0.00948595  0.02038143 -0.04215552  0.01855037  0.02926894
 -0.02498332 -0.05378153  0.08106182  0.03981429  0.00196473 -0.04777513
  0.07907108  0.03995268  0.0102145  -0.07258537 -0.02262283 -0.08238038
 -0.00787473 -0.07640882 -0.04903844 -0.05440305]
[ 0.03070446  0.07828008 -0.07969607  0.04855341  0.03759438 -0.06933391
 -0.02523557 -0.01550028 -0.06313193 -0.03156864  0.07618771  0.05591182
  0.01620213  0.01045071 -0.06576139 -0.00202662 -0.06457457 -0.06586608
 -0.01892266 -0.03780718  0.07892234  0.07480843 -0.04082069  0.00206869
 -0.01009505  0.00576226  0.01508658 -0.02238943  0.00734061  0.02027718
 -0.05858451 -0.00240902 -0.00544532 -0.08045878  0.00962986 -0.00700261
  0.081438    0.03461993 -0.08150879 -0.05539069  0.05830719 -0.02520504
  0.07668457 -0.03894836  0.05928213  0.07192261 -0.07721318 -0.01349241
  0.064657   -0.05506051 -0.00057302  0.06924822  0.07863995  0.00921585
 -0.03225107 -0.0750761  -0.08296857 -0.05985685 -0.04098976  0.05696847
  0.03365318  0.05307113  0.03794643 -0.00624777]
[-0.0378366   0.02404754 -0.0763601  -0.00989044  0.08195601  0.06196063
 -0.06570716 -0.01649449  0.03387659  0.06998358 -0.02051074  0.00372939
 -0.05184563 -0.07804433 -0.04420779 -0.07512475  0.04029129  0.07819524
 -0.03756255 -0.0502187  -0.01221663  0.02778284  0.06083158 -0.04642626
  0.00028939 -0.06415218  0.05758301  0.06182548  0.0661683   0.02592295
 -0.07964295  0.06810195  0.04945355 -0.07468498  0.03214815  0.00879085
 -0.0208711   0.02404347  0.0081792  -0.08232538 -0.00833096 -0.07612179
 -0.04999758  0.0059959  -0.04532014 -0.06198809  0.04783083 -0.04154453
 -0.04779532 -0.04935163 -0.0350531   0.05681773 -0.07551935  0.03244305
 -0.06515729  0.01139294 -0.03291049  0.08073477  0.04006876  0.03026103
  0.07117624 -0.05583424  0.0422807   0.02392583]
[-0.04479485  0.00229978 -0.02159721 -0.07391376  0.07175485  0.08232189
  0.01349165 -0.05646015 -0.05159498 -0.01822269  0.01297001  0.01152217
 -0.01451978 -0.00221024  0.03345785 -0.01895297  0.04320358 -0.06443268
 -0.03723588 -0.01926227 -0.01220082 -0.00363096  0.07318378 -0.03439546
  0.03083231  0.00673912 -0.00146645 -0.01168141 -0.01221438 -0.02399835
  0.07634059 -0.08336557 -0.00209705  0.03196743 -0.08160603  0.05867075
  0.03935134 -0.02604083 -0.06805141  0.03589673 -0.00803778  0.03326658
 -0.00414715 -0.05297268 -0.04650083 -0.03305827  0.07432695 -0.0798502
  0.05750554  0.02681917  0.03172445  0.06632843 -0.01608349  0.04898965
  0.07929406  0.01900611 -0.03427385 -0.00778472 -0.04524558  0.03248078
 -0.08063105 -0.03828758 -0.06426892 -0.01372001]
[ 0.08109345 -0.06520796  0.08047111 -0.07984494 -0.02666834 -0.00170066
  0.02093622  0.00169282  0.05355696 -0.00287744 -0.00707115  0.06086045
  0.01082711  0.02138675  0.07347699 -0.06641067 -0.08258655 -0.05207399
  0.06124451 -0.04575614 -0.05093524 -0.05887968  0.02025837 -0.04494379
 -0.0010103   0.01786604 -0.07606079 -0.01495374 -0.07933631  0.02678066
  0.06479428 -0.03031612 -0.06776044 -0.03963955 -0.05511929 -0.06127265
 -0.07735061  0.01174927 -0.00446057 -0.0600524   0.06152687 -0.00781047
 -0.03046046 -0.06813347 -0.01054017 -0.06591474 -0.02267632 -0.00975332
 -0.0641243   0.06448316  0.01833834 -0.01841167  0.02770515  0.07074513
  0.02638266 -0.05332669 -0.0284561   0.05540463  0.00644287  0.03094247
 -0.07687629 -0.06464873 -0.04589062  0.02624879]
[ 0.04507347  0.06589995  0.06301457 -0.07749532  0.04263894 -0.00191429
  0.07511107  0.0178962   0.07609021 -0.04939499  0.05628178  0.05645841
 -0.05133371  0.07914976 -0.04904456 -0.0191271  -0.07941346  0.01982276
 -0.07494913  0.031363   -0.03202874 -0.02122557  0.05936285  0.04254939
  0.05711076  0.06422002 -0.00109266 -0.07329607  0.07716063 -0.04341035
 -0.07938956 -0.05452982  0.05263657  0.02365182 -0.03485243  0.02788562
  0.00506549 -0.07862994  0.04450618  0.07523561 -0.02925849 -0.0225525
 -0.0819969   0.06935553  0.01043115 -0.01296677 -0.06747064  0.06912126
 -0.05398172  0.05481792  0.03726356  0.04730838 -0.07134452  0.00650842
  0.03996103  0.07576948  0.03306543 -0.06153537 -0.08336738  0.05950987
  0.07783142 -0.07998669  0.00942338  0.05979732]
[ 0.02443101  0.00453649  0.05598717  0.04266303 -0.05215409  0.03962964
  0.05165964 -0.08221772  0.0756109   0.00766862 -0.02711474 -0.00908954
  0.0428871   0.05413117 -0.00912216  0.07195989  0.0441054   0.00413463
  0.02290504 -0.05324469 -0.00316855 -0.0117586   0.01952589 -0.07320507
 -0.02262712  0.02318394  0.04152557  0.0263603   0.04723873 -0.0719499
  0.01827479  0.06753578  0.02665073 -0.03911814 -0.03528381  0.0227944
  0.03581352  0.0696552  -0.06770502 -0.01343422 -0.05027937  0.02568126
  0.04420405 -0.0705246   0.02635562 -0.04629725 -0.04972674  0.05770174
 -0.06820306  0.08121424 -0.08004484 -0.00728831  0.04197302  0.07371732
  0.02171786 -0.05130493 -0.06888017 -0.04483199 -0.02755576  0.02765501
 -0.01147887  0.04483003 -0.07283507 -0.02493966]
[ 0.08361708  0.05958722  0.04534858  0.0614268   0.02045627  0.06948601
 -0.01277985  0.06371064  0.01968466 -0.03115016  0.016868    0.07320092
 -0.02391885 -0.01653472 -0.05645519 -0.03792966 -0.05582604  0.07945795
  0.07846228 -0.05016403 -0.01804717  0.04191367 -0.0632005  -0.03976665
  0.07865331 -0.07312483 -0.01615667  0.03774855  0.07618219  0.0067876
 -0.0676287   0.01758329 -0.05771183  0.05823155  0.02247611 -0.07889583
  0.04118217 -0.00467326  0.07779203 -0.01006503 -0.05076126 -0.08259754
 -0.00221591  0.05829465  0.07477439  0.04146091 -0.05583993 -0.07815031
 -0.07231876 -0.03064993 -0.01738669  0.05484203  0.02397348  0.03497503
 -0.06992954  0.03812207  0.0134162   0.01029067  0.0447245   0.04069974
 -0.06996865 -0.01169463 -0.03397052  0.02807318]
[-0.05067328 -0.03624124 -0.08035124 -0.07939985  0.03455701  0.03882986
 -0.01467412 -0.04426817 -0.03683932 -0.04082035  0.02204407  0.07406702
  0.00643748 -0.02050258  0.04060023 -0.05650259 -0.03553652 -0.01253259
  0.02611709  0.02880397 -0.03292054  0.07016424  0.02269773 -0.01940943
  0.00697609  0.0613909  -0.01854656 -0.07018133  0.05694991 -0.02796979
  0.00443349  0.05902409  0.06209178 -0.07832269  0.03174755  0.00761512
 -0.01765807 -0.02642247 -0.0181318  -0.05770952  0.06009705  0.03047138
  0.06598932  0.07199932 -0.06955277 -0.02949145  0.01495003 -0.03676654
  0.07835361 -0.05875129 -0.04477919  0.03774495 -0.02265917  0.06868706
  0.00100362  0.03702083  0.0560082  -0.02647229 -0.02990428 -0.00242061
  0.07355738  0.04043691 -0.06630949  0.00295463]
[-0.00204244  0.04008404  0.00266157  0.01044266 -0.05619318  0.05916921
 -0.03578648 -0.04169887 -0.0179572   0.06444701  0.02202854  0.01079763
 -0.04367942  0.06198422  0.02348436 -0.05817756 -0.00401172 -0.05826662
  0.05699193  0.05399293  0.05354284 -0.06439318 -0.01742198  0.04221302
  0.03196683  0.00851817  0.06800299 -0.01539262  0.04147249  0.05487249
  0.08005283  0.02600745 -0.00259068 -0.05287004  0.06964428  0.05232104
  0.06720843 -0.03680138 -0.06291105 -0.00719666  0.07885418 -0.06539724
  0.01768733 -0.07962127  0.00230887  0.01437967  0.04435938 -0.00465349
  0.00113897 -0.02502     0.05299886 -0.06554663  0.04983387 -0.07344386
  0.05105757 -0.02532734 -0.02158459 -0.04706399 -0.04208308 -0.07059602
 -0.02118617  0.04472343  0.07912896  0.04790505]
[-0.0495574   0.05095081 -0.00960036  0.05727544 -0.08335186 -0.1004919
  0.08004157 -0.08778641  0.07316054  0.01762896 -0.01449319 -0.06820628
 -0.0811633   0.08240051 -0.08842541  0.13328832 -0.04000898  0.00187733
  0.00724422 -0.1045566   0.00764213 -0.02741883  0.1152252  -0.0104819
  0.0292543  -0.05839424 -0.10067185  0.12268991 -0.00068141  0.05018046
  0.03014667  0.03001454 -0.06534754 -0.07213201 -0.07885561  0.00423687
  0.01411105  0.04099991  0.08367216  0.01297943  0.05169362  0.03021158
 -0.09970886  0.05369532  0.0795921  -0.01616517 -0.04484856  0.00462815
 -0.00904711  0.04334193  0.03565407 -0.06243536  0.11592744  0.0331856
 -0.07154601 -0.00463009 -0.06553305  0.11211654  0.02289687  0.01823095
 -0.02036033  0.05189355 -0.06934196  0.04173922]
[-0.06099216  0.07705069 -0.0415934   0.01886517  0.01468345 -0.01039143
  0.1299217  -0.07113186 -0.05500541  0.04900539  0.00638741  0.08055069
  0.07465775  0.10191182 -0.05828055  0.03576278 -0.06937206 -0.07865902
  0.03268963 -0.08573078  0.098648    0.0200562   0.08694004  0.00101927
  0.09230734 -0.01464169 -0.08339949  0.0081718  -0.04449849  0.05747805
  0.04696133  0.01951046  0.06158812 -0.03466761 -0.01472633  0.05121715
  0.04453129 -0.05872875 -0.07144772 -0.00115368 -0.03980989 -0.05671192
  0.0886333   0.10472906  0.01033976  0.04886723 -0.06683686  0.00644094
  0.03308013 -0.00334619  0.08568959  0.02305796  0.07760724  0.11330115
  0.01616936 -0.03461165  0.07640844  0.0831407  -0.00897317  0.01962106
 -0.04666441  0.03325569  0.04072383  0.04730786]
[-0.03424225 -0.0321135   0.01495942  0.07509575 -0.04946563 -0.03237238
  0.00327034 -0.05976174  0.04448372  0.10357096 -0.03132034  0.03959363
  0.0053808  -0.02400045 -0.06480228  0.00879678  0.01569395 -0.05398291
 -0.03239217  0.00621517  0.03927341 -0.00145406  0.04306922  0.07568984
  0.05525891  0.02615152  0.01239591  0.06485309 -0.00388448 -0.03769277
  0.05701158 -0.05383586  0.07414912 -0.07773364  0.0810269   0.07283636
  0.10133181  0.03152471  0.00148427 -0.0801534  -0.11106694 -0.03082485
 -0.03162644 -0.08022226  0.0228927  -0.02882543 -0.00505786  0.06952339
  0.06263379  0.04738098  0.00277764 -0.02226207  0.05802853  0.02804574
  0.06026893 -0.04900227 -0.02653828  0.03812302 -0.05041656  0.03615076
 -0.0322344   0.02507734  0.0824754  -0.07359762]
[ 8.40301216e-02 -8.29737335e-02  1.19479522e-02  2.28849873e-02
  7.78073743e-02  8.67875665e-02 -5.25187030e-02  4.30732034e-02
  4.10176665e-02  4.23953682e-02  2.96011474e-02  1.41267134e-02
 -4.92163934e-02  6.55001625e-02 -5.64922541e-02 -7.06361234e-02
  4.52268943e-02 -5.75820729e-02 -3.71632241e-02  1.24731325e-02
  3.74545902e-02  1.03371814e-01  5.43011464e-02  6.45453557e-02
 -9.60901007e-02  5.87150045e-02  1.51138911e-02 -7.61912018e-03
 -5.93385510e-02  3.74476016e-02  3.96147482e-02 -4.79632430e-02
  4.29453589e-02 -2.80843452e-02  4.83495817e-02  8.37061480e-02
  4.34030108e-02 -3.39090936e-02 -3.59501503e-02 -8.45976546e-02
 -9.29924473e-02 -5.81501387e-02 -6.39150804e-03 -5.79818599e-02
  4.72977944e-02 -5.15086437e-03  1.47410706e-02  7.46350959e-02
  6.37015700e-03 -9.29757953e-05 -7.75807872e-02 -4.73035499e-02
  5.83721362e-02  5.54611608e-02  7.85681531e-02  5.67215569e-02
 -1.28045306e-02 -2.36739349e-02  8.78491476e-02 -8.26620832e-02
  4.64456901e-02 -2.78425179e-02 -4.49354313e-02 -1.10546350e-02]
[ 0.01200194 -0.03524318  0.07046825 -0.02199183 -0.04143553 -0.07957552
 -0.06709059  0.03400423  0.01630937  0.05081015 -0.07491265  0.06703425
  0.05910481  0.04061086  0.04051725 -0.07718486  0.01958353 -0.02764236
  0.02452374 -0.05710852 -0.0094176  -0.01100891 -0.01934528  0.06233389
  0.04165373  0.00318227  0.08371348 -0.00872742  0.00637126 -0.03148437
 -0.08220645 -0.04503759  0.0497169   0.06007939 -0.05109171  0.01426099
 -0.06272414 -0.01483077  0.03646169 -0.0089701   0.01401263 -0.02378998
  0.0010099   0.0519694  -0.06057886  0.05168851 -0.05880433 -0.04384728
  0.0196839  -0.05542069  0.05634337 -0.05242481  0.00369353  0.02342264
 -0.00959055 -0.01174221 -0.04830716 -0.05970933 -0.0756778  -0.03628432
 -0.08240369  0.04468835  0.03440192  0.04263595]
[ 0.03507633 -0.03837517  0.07098796 -0.0763182   0.0086328  -0.05853732
  0.05314239 -0.06284557  0.07362632 -0.0583162  -0.0339049   0.06939519
  0.01319689 -0.00881524  0.0374837   0.03068706 -0.01707131 -0.0322062
 -0.08250174  0.07000268  0.05791669  0.07637196  0.05912446  0.00840338
  0.04524394 -0.00935961  0.0072668  -0.04223078  0.00192261 -0.02323077
  0.03110648  0.01620871  0.06106827  0.05720627 -0.0155149  -0.04951995
  0.08239613 -0.04282627 -0.03896679  0.0441177  -0.07376355 -0.02512855
  0.05335455  0.03128972 -0.06875503  0.03863777  0.00754695  0.03479569
 -0.04375036 -0.05870424  0.08207617 -0.08085885  0.07762221 -0.03838907
  0.01951033 -0.05920978 -0.0798061  -0.00349914  0.04408685 -0.02386953
 -0.07568851 -0.0065912   0.01413894 -0.05871615]
[-7.6709814e-02 -4.3144017e-02  7.7828489e-02  2.4212494e-02
 -4.0434539e-02  7.9000689e-02  8.6976960e-03  9.0129003e-03
  8.1496216e-02  4.8365138e-02  3.8702913e-02  4.2604409e-02
 -9.7658113e-03  2.0476505e-02  8.3576493e-02 -2.7898580e-02
 -4.2976905e-02  6.1785571e-02  7.4607931e-02  7.0982672e-02
 -1.5709490e-02  3.7448265e-02 -5.5643171e-03 -3.9096646e-02
 -5.9421778e-02 -5.0911456e-03  2.8809190e-02 -4.3240603e-02
  3.9871700e-02  7.5832047e-02  4.0585168e-02  7.7422522e-02
 -4.4318207e-02  2.5895365e-02  1.2206562e-02 -5.6754611e-02
  5.6382917e-02 -8.0539517e-02 -7.5191408e-02 -7.7282183e-02
  1.4931843e-02  7.8707784e-03 -7.8947447e-02 -5.2696690e-02
 -1.5934162e-02  2.8059758e-02 -5.5389926e-02 -2.4233148e-02
  5.9211202e-02  1.4843941e-03 -2.3010328e-02 -5.1826332e-02
  5.3454272e-02 -7.6873928e-02 -6.2513605e-02  6.5407895e-02
 -3.2091130e-02  6.1116062e-02  5.4411590e-05 -5.0124764e-02
  6.5455176e-02  7.5266533e-02 -3.0392691e-02  2.4560519e-02]
[-0.00167508 -0.04633814 -0.05094125  0.05096675 -0.04308859 -0.07313912
  0.05699172 -0.00523689  0.08246445  0.0626241  -0.00832149 -0.00074022
  0.00099882  0.02093694  0.04109857 -0.06784252 -0.0234521  -0.06279188
  0.00055403  0.0176045   0.05721421 -0.07557707  0.07924769  0.03706742
 -0.07900793 -0.05420741  0.01837916  0.01072198  0.0006659  -0.07813888
  0.00768136 -0.02682727  0.03688882 -0.01154742 -0.07444672 -0.017799
  0.02521194  0.04317636  0.05324677  0.04324586 -0.0203929   0.01065616
  0.06908522  0.00705874 -0.0646141   0.07289409  0.08281618 -0.04280636
  0.05626468 -0.05965578  0.06664082  0.0386763  -0.02893515  0.06280125
  0.03857181 -0.04965568  0.06675813  0.02288733 -0.02958541 -0.00233048
  0.02607971  0.07938003  0.03928368  0.06554198]
[ 0.01928132 -0.00908439  0.02791286 -0.07622902  0.01287338 -0.00727943
  0.0338828  -0.03367829  0.04705817  0.08322384 -0.0326012   0.06355851
 -0.00633079  0.07236832  0.07389357  0.01116473  0.0485029   0.01125775
  0.05035945  0.04032318 -0.0720913   0.03469123 -0.07255059 -0.0102279
  0.01435254  0.06588048 -0.06409937 -0.08300748 -0.07775383  0.04034258
  0.06348794 -0.08168946  0.0297066  -0.04196915 -0.03168065  0.00112633
 -0.08130645  0.01903366  0.01081263 -0.00657171 -0.05726942  0.04778627
 -0.06907368 -0.0307754   0.02934878 -0.05516485 -0.05031065  0.04721519
 -0.05082783  0.00443465  0.06682358 -0.05027586  0.02904617  0.02550797
  0.0331794   0.07305122 -0.00424445 -0.06833526 -0.03107225  0.03669687
 -0.0456054   0.02324683  0.02749183  0.02469206]
[ 0.01321768  0.03142282 -0.06418531  0.04615227  0.06774192  0.0511098
 -0.02165091 -0.02134624  0.05719642  0.00540051 -0.01573979  0.01267857
  0.03667541  0.07522316  0.02291192  0.06528848  0.01840058  0.03166595
 -0.08008321  0.06132901 -0.04488477 -0.03664028  0.0027303  -0.03904085
  0.04649042  0.00970738  0.00235277 -0.06171627 -0.00598045  0.06594492
 -0.00121752  0.00403183 -0.06576278 -0.03772426  0.00605664 -0.00668508
 -0.05470351 -0.02972244  0.00904647  0.06547243 -0.02814407 -0.06823549
 -0.06530704  0.02275756  0.06257804  0.04834657 -0.0782752   0.00245448
 -0.05853046 -0.08244625 -0.07077144 -0.0460429  -0.0820061   0.04216542
 -0.06425036 -0.01025426  0.00795657 -0.06131866 -0.01517477 -0.07884011
 -0.02319457 -0.05299424 -0.06574992 -0.00522269]
[-0.07368799  0.02584425 -0.07226385 -0.0039108   0.03664826  0.05652232
 -0.04046249 -0.0247723  -0.04987178 -0.01341364  0.07195383 -0.06439947
  0.04286432  0.05738502 -0.04997526 -0.07228437  0.04198224  0.01600242
  0.06709603 -0.0793051   0.06977273  0.08077713  0.05376824  0.07525609
  0.00294157  0.04536416  0.03768066 -0.04294167  0.05755737  0.00534791
 -0.0647752  -0.00302011 -0.01632148 -0.05184719 -0.06328607  0.04201027
  0.05022899  0.0305635  -0.0055297   0.02900145  0.02124735 -0.07493888
 -0.07870883  0.08044594 -0.06500884 -0.01362981  0.01315142 -0.05536845
 -0.01097415 -0.00243848 -0.08268887 -0.07410494  0.03543565 -0.01107148
  0.00569277  0.0173468   0.00709832 -0.07355241  0.01408739 -0.0362413
  0.0539095  -0.06197656  0.03318752 -0.07983597]
[ 0.00250275  0.00156977  0.00130489 -0.04800343 -0.06210025 -0.01395959
 -0.07060093 -0.06522398 -0.04940925 -0.06964339  0.03137281  0.02653411
 -0.01792428  0.07884746 -0.08088328 -0.03455913  0.02733362 -0.08108583
  0.06166548  0.04813611  0.0561519   0.0464033   0.03194754 -0.06650272
 -0.04653538 -0.08015286 -0.08329915 -0.06292088  0.07142787  0.05539256
  0.06702065 -0.0179999  -0.0501205  -0.01480132  0.01531888  0.04949749
 -0.00783773 -0.0352122  -0.04055896  0.0400414   0.0075008  -0.06882948
  0.00424066  0.04114927  0.06672714  0.03906456  0.0598389   0.05216336
  0.01064457 -0.00708634  0.03117661  0.00132328 -0.07558165 -0.01959044
  0.02625084  0.04128454  0.01771302  0.04255816  0.0365483   0.00283901
  0.06357808 -0.00581949 -0.07564428 -0.07958607]
[-1.89477131e-02 -1.25201344e-02 -3.86389159e-02  1.31510571e-02
 -4.19772938e-02  5.28038964e-02 -6.17819279e-03  3.39009613e-03
  6.82371333e-02  6.35853633e-02  3.16637605e-02  8.17321762e-02
  2.59210169e-02 -6.69994801e-02  4.04101908e-02  2.99838334e-02
  4.43774536e-02  1.27484798e-02 -9.80175287e-03 -2.34523565e-02
  1.59412175e-02  6.45379797e-02  6.86584637e-02  6.43125102e-02
 -3.74470577e-02 -9.99620557e-03  7.77737573e-02 -4.74032313e-02
  4.79266271e-02  2.35788375e-02 -8.12446401e-02  3.55844200e-03
 -4.93635274e-02  4.82716635e-02 -2.07322091e-03  2.20252946e-02
 -7.14875758e-04  6.64016381e-02 -2.92267054e-02 -2.90195197e-02
 -4.71825898e-02 -6.07947111e-02  7.74321333e-02  5.70265204e-03
  5.04248664e-02  1.31124705e-02 -5.22677600e-02 -6.75243288e-02
 -3.41731571e-02 -2.57311612e-02 -5.91283590e-02  5.59265539e-02
  2.91127339e-02 -6.60258755e-02 -6.50615990e-02 -2.13500708e-02
  2.58640200e-02  3.37926596e-02 -1.68559179e-02 -3.46850343e-02
  5.35226539e-02  5.25053069e-02 -4.96357679e-05 -7.35964924e-02]
[ 0.02216652  0.07069121 -0.02292584 -0.01407193  0.01099695 -0.02862203
 -0.02466372 -0.02805208 -0.07194567 -0.01309667  0.03300603 -0.025981
 -0.01663049 -0.07561025 -0.08049861  0.05224652 -0.01866709 -0.05472393
 -0.03149256  0.06792251  0.00233871 -0.05615277 -0.06460301  0.08159708
  0.05003215 -0.05366864 -0.00672683 -0.0175153  -0.05176974  0.07847602
  0.08087907  0.06176852  0.07063565 -0.01034221 -0.08401377  0.07557728
  0.0127344  -0.07830245 -0.04653646  0.05407431  0.033448   -0.06023847
  0.05153223 -0.0628336   0.06577382  0.01470021  0.02601664 -0.0694475
 -0.0200341  -0.00879705 -0.05088446 -0.03596132  0.05761088  0.01581755
 -0.02040923  0.02853767 -0.03345839 -0.08228871  0.0791711   0.0304328
 -0.01193018  0.00470421  0.05137133 -0.03668793]
[ 0.05517135 -0.01813754 -0.06960411  0.0299907  -0.07821766 -0.04797844
  0.0418764   0.03665273  0.03190037  0.00156558  0.04784627  0.0258264
 -0.08357846 -0.06147796 -0.01097935  0.04048991 -0.00789262  0.03030887
 -0.03816789 -0.07640005  0.0638494  -0.02687857 -0.05952428  0.07637829
  0.06326189 -0.05981838  0.06347679 -0.04923692 -0.0509413  -0.01645073
  0.04829269 -0.03118864  0.04436498  0.05427698 -0.03281537  0.0027473
 -0.03540805  0.04679155  0.07588743  0.02517919  0.06242049 -0.0110206
  0.07155053 -0.06440435  0.07546163 -0.05306634 -0.01154738 -0.08125792
 -0.08271141 -0.06376097  0.06050452 -0.00520957 -0.03914187 -0.00536794
  0.0796294  -0.01691937 -0.00012945 -0.01256759 -0.06472193 -0.01188418
  0.04936459  0.02761772 -0.01543935  0.04844662]
[ 0.03737749 -0.04901303  0.01586197  0.00463205  0.06290574 -0.07079241
  0.05668753  0.06310242 -0.03115624 -0.0820204   0.06146822 -0.01144291
 -0.03500577 -0.00885886  0.02685714 -0.02633537 -0.07728495 -0.00277979
 -0.08345522 -0.07775088 -0.01857205  0.00374561 -0.01275897  0.04495134
 -0.0222839  -0.00224796 -0.01924208  0.00314784 -0.03709041 -0.02683006
  0.04274128  0.02441791  0.07757687  0.03011197  0.07656271  0.02531675
  0.03277797  0.07696082 -0.07279266 -0.08125583  0.00296395  0.04148779
  0.03578093  0.07782593  0.03789479 -0.08355742 -0.07426865  0.05014276
  0.05247105 -0.00781416  0.04611438 -0.01281629 -0.0694057  -0.01814973
 -0.04519125  0.01116771 -0.03458643 -0.04331761 -0.05164061  0.00850786
  0.03264769 -0.06612846  0.05970485  0.02090237]
[-0.02230925  0.02792084  0.07889207  0.08267995 -0.02488958 -0.06758682
  0.00339601  0.01413627  0.04031676 -0.05253248  0.00848289  0.0094756
  0.01928307 -0.02755885 -0.02105793  0.06643622 -0.06160757  0.05793711
  0.06309048  0.06967657 -0.06892844  0.06900018  0.06797322  0.05943695
 -0.03203098 -0.08002704  0.06845021  0.03846434 -0.03940831  0.0339035
  0.02207327 -0.07424527  0.04405483  0.02345201 -0.043414    0.01972365
 -0.07509114 -0.08298943 -0.06915342 -0.06891136  0.03809196 -0.08038142
  0.03184257  0.07200446 -0.06089673  0.06014182  0.04361948  0.00396974
 -0.06634773 -0.03640834  0.04884603 -0.07789933 -0.05945144 -0.01938821
  0.02981611  0.07250533  0.02593438  0.01447899  0.03230724  0.06486947
 -0.03357069 -0.00081063  0.08102939  0.05169749]
[-0.06882961  0.03565077  0.04755767  0.07415991 -0.06914487  0.07985752
  0.05036195  0.0754297   0.00175878  0.06353384 -0.02553508 -0.00126941
  0.06049874  0.05750298 -0.02547885 -0.05828477 -0.00660296  0.02083216
  0.0553069   0.00087351 -0.02678071  0.07018047 -0.04424569 -0.0539536
  0.07479433  0.00557366 -0.06659988 -0.01353228  0.07649624 -0.08006514
 -0.06025461  0.048857    0.02387684 -0.01045016  0.03182452  0.04130783
  0.03906235 -0.05839479 -0.07897551 -0.03723075 -0.05899776 -0.04006688
  0.05583527 -0.00684002  0.03989659 -0.01214945 -0.05071205 -0.04226536
 -0.0171138   0.02970975 -0.04808147 -0.06422281 -0.00296374 -0.03113291
 -0.02803341 -0.04423652  0.06100216 -0.05164504  0.04612961 -0.02944635
 -0.05019303 -0.06199501  0.0588891  -0.01197186]
[ 0.06876212 -0.06843013  0.06765702  0.03132608 -0.04966665  0.06460933
 -0.07017408  0.08211594 -0.0459331   0.02379599  0.0211328   0.0238936
 -0.02603635 -0.04031746 -0.01355474 -0.05068534  0.02419137  0.03750148
  0.00756214  0.04988659 -0.07131751 -0.05846154  0.06122174  0.0533736
 -0.01312307  0.00587159 -0.05424434 -0.0806267  -0.03070928  0.01262051
  0.08356049 -0.02138282  0.02144437  0.01918867  0.07423725 -0.05023888
 -0.04656675  0.02845056  0.06899322  0.04818591  0.03581505  0.0669724
 -0.02424289 -0.05898581 -0.0021015  -0.00467693 -0.08397991  0.02502379
 -0.01535915  0.00729416 -0.04570283  0.04467998  0.04519463  0.04413537
  0.07248201  0.02199169 -0.01689593  0.06412428 -0.05226938  0.07628431
  0.05686653 -0.02230787 -0.03963866 -0.02975684]
[-1.58241019e-02  1.26572475e-02  6.02001622e-02 -7.00983182e-02
  3.29379439e-02  5.66441491e-02  5.00001758e-03  3.62098813e-02
 -3.07160355e-02 -5.65361977e-02  1.41418874e-02  6.00720569e-02
 -6.06329292e-02  1.10566393e-02 -2.31403634e-02  4.47475538e-02
  2.71467119e-03  8.08408037e-02  1.04460716e-02 -6.91953525e-02
 -6.73387647e-02  2.05867887e-02  2.50638574e-02  4.05318439e-02
  3.84169295e-02  6.44819215e-02  4.72916290e-02  5.92125431e-02
 -6.60194755e-02 -6.50092214e-02 -7.20542222e-02 -6.44643530e-02
 -7.56858587e-02  1.57619715e-02  2.02204511e-02 -4.73886915e-02
 -3.68775651e-02 -5.42361960e-02 -2.75745988e-05  2.91326120e-02
 -4.15410399e-02 -7.94124827e-02 -6.64518774e-03  7.02578947e-02
 -6.13365285e-02 -6.11618534e-02  7.36086816e-03 -6.82881325e-02
 -7.02301413e-02 -7.16599077e-03 -8.18792135e-02 -8.35896656e-02
  3.55131924e-04  1.52077377e-02  6.45295754e-02  2.12891251e-02
  1.67965591e-02 -8.15066025e-02 -1.73960105e-02 -3.56963277e-03
  3.97488475e-05  2.37348899e-02 -2.13639513e-02  8.12975094e-02]
[-0.01674723  0.04254184  0.06580553  0.00428262  0.06298519  0.07084512
  0.07501479  0.07193939 -0.03849644 -0.01339684  0.0433358  -0.08042032
  0.06557869 -0.05869375 -0.02616914  0.00473404 -0.02176874  0.00274201
  0.03084858 -0.06198543 -0.05885728 -0.00860484 -0.0321139  -0.03666392
 -0.05571363  0.02852269 -0.01290956  0.05095986  0.0322492  -0.07910275
 -0.0298153   0.04267598  0.06554893 -0.02477803 -0.05692327 -0.02824579
 -0.04878297 -0.00257923 -0.07560656  0.09619391  0.02119557 -0.00103438
  0.02699901 -0.03654797  0.0642653   0.06149638  0.04079431 -0.05669497
 -0.02376732  0.0280442   0.00573537  0.04939114  0.05524771 -0.02461853
 -0.00892811  0.05233715  0.07790283 -0.01446007 -0.02265466 -0.04185621
  0.05456885 -0.05792969  0.07838766 -0.07100261]
[-0.08563001  0.01593371 -0.01967231  0.01374352 -0.03899298 -0.02031536
  0.00571489 -0.02841537 -0.03239559 -0.03399695  0.03302013 -0.0977259
 -0.05047679 -0.06080331 -0.06704613  0.05430156  0.02927385  0.04275163
  0.07869028 -0.10569591  0.01703776 -0.0666097   0.02907694  0.02611181
  0.02769184  0.01824118 -0.10390142  0.0713973   0.00400808  0.07785413
  0.11484155  0.01011499  0.06169999 -0.05820131  0.03979981  0.05065335
  0.06217834 -0.03719611 -0.04505552  0.11704361 -0.06645256 -0.00084453
 -0.02639229  0.08689442  0.08315533  0.06667171 -0.07088139  0.08983457
 -0.05709192  0.0628281   0.10338989 -0.08172484  0.11504556 -0.04783127
 -0.00185507 -0.07511982 -0.02549313 -0.08668887 -0.05591778  0.09553222
 -0.05571856 -0.09009316  0.02000225 -0.06884728]
[-7.85691445e-05 -8.53484794e-02 -3.56028229e-02  7.41836205e-02
 -1.49997458e-01 -1.10046305e-01  9.53015536e-02 -1.31003603e-01
 -8.60912651e-02 -1.22781552e-01  8.92849863e-02 -1.05363928e-01
 -4.61433455e-02  2.18981504e-02 -6.51768818e-02  2.18900636e-01
 -4.23466414e-02 -5.99095970e-03  1.81004733e-01 -6.95815012e-02
  6.16587466e-03 -4.69316281e-02  1.40183903e-02  3.95114012e-02
  3.66749521e-03  4.49521504e-02 -4.78518233e-02  8.06640089e-02
 -3.16051953e-02  4.21582162e-03  1.41691804e-01 -9.08106491e-02
 -9.72844958e-02 -1.24252141e-02  5.87918684e-02  7.25014582e-02
 -1.77093476e-01 -1.49615198e-01  1.62627548e-02  1.98644474e-01
 -9.18918923e-02  1.73834100e-01 -7.84882382e-02  2.98802406e-02
  1.58145532e-01 -7.21671879e-02 -3.74123342e-02  8.17549452e-02
 -1.47643955e-02  1.08441189e-02 -1.62616260e-02 -8.13098997e-03
  1.70416787e-01 -5.67765757e-02 -4.31630500e-02 -7.84004852e-02
 -6.39956892e-02  8.73894021e-02 -1.69621080e-01  9.06119421e-02
 -3.10248584e-02 -1.36512101e-01 -6.29880428e-02 -5.66552617e-02]
[-0.05218158 -0.07065965 -0.06332907  0.06120782 -0.00831659 -0.0927245
  0.12210809 -0.08655253 -0.06207404 -0.01426323 -0.03656185 -0.07446627
 -0.07300662  0.06384327 -0.18036051  0.11688892  0.01837842  0.01183387
  0.01892853 -0.05916831 -0.11413821  0.05678045  0.04109893  0.06573206
  0.1567144  -0.01748587 -0.02921334  0.09406292  0.07114422  0.01508849
  0.14485632 -0.02987031 -0.11039086 -0.02029908  0.105013   -0.04337333
 -0.03483736 -0.05270908 -0.00224762  0.181685    0.04437614  0.13632928
  0.00916186  0.11404141  0.00738715 -0.00734151 -0.10158701  0.15217619
 -0.02777945  0.00801666  0.11865611 -0.01118891  0.08366996 -0.01165106
  0.06151307 -0.06251702 -0.02528515  0.06294953 -0.15239525  0.04931207
 -0.03551228 -0.09466421 -0.01455634 -0.08226062]
[ 0.01817521  0.01672908  0.07874724  0.15324953 -0.09819093 -0.09458873
  0.06318499 -0.11064672 -0.0894025  -0.14881635  0.08874465 -0.10437028
 -0.02911341 -0.08197406 -0.06726115  0.01774717 -0.02305565 -0.12329991
  0.02197442 -0.08388811 -0.0062584  -0.01724209  0.06109727  0.00556189
  0.15088457 -0.13329723 -0.08331186 -0.02615499 -0.02435623 -0.02158346
  0.11107674 -0.12769647 -0.08553921  0.00380286 -0.01477192  0.02939425
  0.01803985  0.04082129  0.0225      0.11402846 -0.09005489  0.12394275
 -0.04906961 -0.00603136  0.03127703  0.02767873  0.02317662  0.14649282
 -0.05349392  0.11748116  0.04583486  0.00457261  0.15933004  0.00658286
 -0.01324327 -0.00150669  0.0361611   0.04036609 -0.0595932   0.05732707
  0.06720895 -0.02694792 -0.04187986 -0.08023924]
[-0.08012306  0.00038139 -0.02824302  0.05770127 -0.04617774 -0.12928107
  0.08833324 -0.17740005 -0.13728431 -0.0941957   0.03164377 -0.00555846
 -0.11185315  0.0617034  -0.11624301  0.11204679  0.0309325  -0.11648598
  0.01137355 -0.09674384 -0.04538741 -0.02167257  0.04597172  0.1351653
  0.06402718 -0.03801174 -0.09014793  0.14346269 -0.10756835 -0.12368678
  0.18636298 -0.016718   -0.03161001 -0.08497903  0.03542484 -0.00270208
 -0.04374371 -0.04359365  0.03992427  0.17840105  0.0200285   0.0767016
 -0.02141384  0.15772317  0.12470206 -0.08600039 -0.01825704  0.03007815
  0.05866907 -0.00993005  0.10932856 -0.09916108  0.13644771  0.00346706
 -0.01264706 -0.10548061  0.000472    0.03091302 -0.12436386  0.1880715
  0.10176948  0.05306833 -0.04524077  0.07442109]
[-0.02284474  0.06450568 -0.07914773 -0.07993376 -0.14994767 -0.1528909
  0.20582414 -0.13401598 -0.05934213 -0.14751829 -0.01949337 -0.03837172
  0.02822915  0.00713187 -0.07159906  0.14250714  0.01599186 -0.03312077
  0.175179    0.0044882  -0.0678721   0.07521614 -0.06520871  0.06619573
  0.0683089  -0.10906107 -0.16868478  0.14288746 -0.08146626  0.04978291
  0.13320608 -0.01523414 -0.17479414 -0.1563181   0.01574472  0.06194816
  0.09472954 -0.01160872  0.0054942   0.13947734  0.09780703  0.13629258
  0.0924932   0.08540484 -0.00039156 -0.09638868 -0.09500305  0.11362513
  0.18079744  0.00678651  0.07333033  0.0942345   0.14724511  0.03345085
  0.04742386 -0.0447236  -0.0296379   0.03456083 -0.21110184  0.04873433
 -0.04004416  0.11488467 -0.09965692  0.06323694]
[ 0.00495403  0.09361453  0.04894937 -0.0902127  -0.10088137 -0.14130746
  0.12438327  0.03034441 -0.1557371  -0.07430197  0.07698565 -0.06696066
 -0.01880987 -0.00557909 -0.06701974  0.03060971  0.08463455 -0.11937966
  0.03106101  0.08720498 -0.06404065  0.11453605  0.10883649  0.00810808
  0.03502616 -0.04209896  0.01841705  0.10891443  0.0419866   0.0690397
  0.06157157 -0.02792534 -0.09672441 -0.07633118  0.06576205 -0.03270956
  0.00863227  0.03990724 -0.06748739  0.03673467 -0.0345708   0.09069731
 -0.01490335  0.06722049  0.04308086 -0.08332659 -0.10632888  0.10551772
  0.11363158  0.11935203  0.12854579 -0.01935025  0.05561152 -0.10902347
  0.0641594  -0.09238296 -0.04959828  0.0019492  -0.03174763  0.01625678
  0.05572069 -0.05181169 -0.06381436  0.05479575]
[ 0.08546034  0.06084816 -0.03182965 -0.1584083  -0.07779838 -0.18695344
  0.14674406 -0.06668026 -0.11661644 -0.041809    0.00964282 -0.10540774
 -0.0292949  -0.10470145 -0.11972123  0.08477245  0.11034427  0.00572003
 -0.04261695  0.12392043 -0.02362315 -0.04146018  0.09609717  0.03003692
  0.07054739 -0.01808081  0.03003208  0.18094426  0.16603944  0.13816667
  0.17440489 -0.13574757 -0.11605661 -0.16627343  0.00670562 -0.05490387
 -0.00704093 -0.09440158 -0.03470451  0.0551003  -0.00398786  0.01786925
 -0.15076433  0.11649518  0.07681429 -0.00691484 -0.06345895  0.09409887
  0.00408662  0.11988485  0.14611292 -0.08411599  0.02067034 -0.09493341
 -0.04076338 -0.01154203 -0.08082461 -0.08638669 -0.00365931  0.12596703
  0.04310847 -0.10410046 -0.10818381 -0.07009409]
[ 0.13913749  0.11564597  0.01672345 -0.03305772 -0.21724398 -0.1960087
  0.31814513 -0.10727341 -0.17484213 -0.06748667 -0.0788018  -0.05304116
 -0.13825916 -0.02538563 -0.05091897  0.18916984  0.16782461 -0.12342247
 -0.00191309  0.13909414 -0.11225853 -0.05411235  0.10104036  0.07232448
  0.111966   -0.0807253  -0.11458959  0.14642796  0.1114666   0.1110955
  0.17126109 -0.15392329  0.0700974  -0.18543811 -0.02401114 -0.10759813
  0.11946245 -0.19449623 -0.02899221  0.09041457 -0.08016076  0.07802653
 -0.04599358  0.05940844 -0.01771201 -0.04291334 -0.08543889  0.04767768
  0.09598652  0.08532815  0.05190936 -0.0775358   0.03340519  0.00610151
 -0.0717898  -0.05867128  0.02578058 -0.03684593 -0.21386941  0.0796564
  0.00520736 -0.07251892 -0.08526917  0.05083551]
[-0.07255113  0.08443382  0.03704563  0.00432997  0.13964319 -0.1446589
  0.2701589  -0.00049639 -0.00118902 -0.0686448   0.1061783   0.04921245
 -0.06357741  0.01371777 -0.14966062  0.0111624  -0.01008699  0.01918216
  0.11241502  0.10750769 -0.04523478 -0.02067652 -0.01782455 -0.00736802
 -0.11412112 -0.06181345  0.02076656  0.06380087  0.04679616 -0.00590569
 -0.01814322 -0.0913706   0.06451605  0.1015048  -0.2027226  -0.0675177
  0.01150225 -0.14547871 -0.11075904 -0.13494399  0.15298982 -0.09313773
  0.20432496  0.07018852 -0.01602252  0.04516091  0.04290451  0.16212383
  0.16796595  0.07633069  0.05561691  0.055232   -0.02183304  0.01041074
  0.06499202  0.07173701  0.00424261 -0.02782553 -0.04372348 -0.10196286
  0.00729515 -0.18424478 -0.02107888  0.05374698]
[-0.03509162 -0.15863065  0.10807724 -0.02642933  0.0191507  -0.03791488
  0.30285016 -0.07947805 -0.13729656 -0.04771562  0.0397045   0.06929479
 -0.12397969  0.13251416 -0.07219346  0.10248345  0.11705736 -0.13372836
 -0.06648543 -0.11434183 -0.07635392 -0.0334918   0.14968984  0.01149868
  0.10452104 -0.14695016 -0.16229516  0.12226226 -0.03726969  0.03181674
 -0.03174816 -0.11293301 -0.15225586  0.12518215 -0.02974704 -0.06997646
 -0.10651848  0.06419463 -0.18588029 -0.09095974  0.08949222  0.2328036
  0.0341982  -0.02212139 -0.04413524  0.10870127 -0.17707103  0.19203365
 -0.01519502 -0.01031632  0.17948772  0.0974199  -0.03603128  0.11687902
  0.02274673 -0.0827352  -0.04892709 -0.06624677 -0.14222789  0.16634071
 -0.08124336 -0.15786642 -0.04095512  0.10037763]
[ 0.18020922 -0.20664336  0.04528949 -0.0164557  -0.17000055  0.05397241
  0.46566704 -0.02802101 -0.08514732 -0.11485723  0.09290045 -0.06583018
  0.00331366  0.06462266 -0.06019133  0.07825942  0.1269953  -0.07753185
 -0.10477441 -0.17001216 -0.07127398  0.1049068   0.17271438  0.06960694
  0.00743373 -0.07484163 -0.12209241  0.10453558  0.10363968 -0.06558796
  0.08754839  0.04238266 -0.12858891 -0.10786196  0.1582561  -0.14938445
 -0.0539217   0.13253038 -0.22766054  0.03036043 -0.18181391  0.21308883
 -0.09572903  0.09263428  0.09486782  0.01793298 -0.09052412  0.05777839
 -0.10903142  0.05795317  0.01368887  0.09760115  0.02335533 -0.05998936
  0.06247763 -0.14516512 -0.09501899 -0.08098772 -0.14424734  0.11930109
  0.00552986  0.10099179 -0.00478311 -0.05625951]
[ 1.1700048e-01 -1.6923840e-01 -1.9550804e-02 -8.3422512e-02
 -1.7686966e-01 -3.6248118e-02  2.1475753e-01  4.1679606e-02
 -5.8623704e-05 -2.2964123e-01  4.9365576e-02 -5.0846398e-02
 -1.1634508e-02 -5.4752279e-02 -5.8637999e-02  1.0074330e-01
  4.6870071e-02 -1.5447308e-01 -1.0112138e-01 -1.4148237e-01
 -3.9035443e-02  4.2402025e-02  9.8675981e-02  2.1769460e-02
  5.6095440e-02 -4.9306754e-02 -2.2496051e-01  8.0412716e-02
  7.5403489e-02  3.0380588e-02  8.0501437e-02 -8.1790864e-02
 -1.4032142e-01 -2.4497107e-02  1.7057559e-01 -1.4856458e-01
  3.6949571e-03  8.0399998e-02 -7.7905916e-02  6.6090271e-02
 -2.4253404e-01  2.2038521e-01 -1.3829939e-01  4.1330293e-02
  1.4173841e-01 -6.5621711e-02 -1.8716274e-01  8.3930306e-02
 -1.3297096e-01  9.8128505e-02 -2.5729280e-02 -3.6235865e-02
  5.3817999e-02  1.5389822e-01  6.5803312e-04 -1.0304848e-01
 -7.8347579e-02  3.6787335e-02 -3.4291517e-02  7.3769189e-02
  2.1161623e-02  1.7094843e-01  4.1234031e-02 -2.2767194e-02]
[-0.19889602  0.06840485  0.17367724 -0.12502727 -0.18316023 -0.29315838
  0.30216822 -0.12134067 -0.13507447 -0.0661763  -0.05306066  0.04720917
 -0.10338729  0.21642162 -0.125429    0.08310682 -0.0961243   0.06896985
  0.18311642 -0.10528222 -0.00997373 -0.0044483  -0.1361333   0.07320633
  0.03177048 -0.00099895 -0.23920494  0.2192625  -0.06236237  0.05075989
  0.07051578 -0.1229142  -0.02728005 -0.1696475   0.05780431 -0.08076115
  0.1285026  -0.0136118  -0.08745497  0.29405388 -0.01622185  0.2312617
 -0.21160588  0.22803472  0.02086774 -0.11450835 -0.07996131  0.07843954
  0.1832882  -0.03302347  0.15100005 -0.0292969   0.23213033  0.05483558
 -0.03201472 -0.08753511 -0.02360471  0.09750575 -0.10507941  0.17370918
  0.03566173  0.14636603  0.00143897 -0.06229928]
[-0.1409297   0.0165926   0.14599657 -0.06743313 -0.17095791 -0.07891334
  0.19088277 -0.20715813 -0.2350475  -0.09375807 -0.03855011 -0.04818161
 -0.16216351  0.23083918 -0.13938403  0.03757545 -0.13490023 -0.00710995
  0.10148355  0.00066146 -0.07009389 -0.09181887 -0.062575    0.11472315
  0.18204896 -0.07006262 -0.23482472  0.16784087 -0.00591234  0.04378129
  0.20516512 -0.10976743 -0.02986326 -0.09781592  0.12415304 -0.12441045
  0.04202411 -0.0619794  -0.01326051  0.22664116 -0.11223833  0.2669601
 -0.00499697  0.22996053  0.01627786 -0.01863977 -0.09763584  0.01733886
  0.20204827 -0.07375579  0.21906272 -0.16365738  0.1929775   0.23809738
 -0.00883657 -0.06958055  0.03808724 -0.06693206 -0.16314806  0.13661173
  0.01957662  0.08574063 -0.08551624  0.06310767]
[-0.08953109 -0.02973462  0.12150236 -0.09480966 -0.22122183 -0.22555003
  0.18958597 -0.10084403 -0.13245387 -0.1691737  -0.04119742 -0.0797607
 -0.11781716  0.24076016 -0.07761977  0.08946875 -0.00541515 -0.05364659
  0.07599487 -0.13011482 -0.05033338 -0.13176034  0.13671477  0.03279322
  0.1213036  -0.16876179 -0.20654371  0.08980542 -0.00399558 -0.03057208
  0.18412352 -0.04825526 -0.07974891 -0.05074126  0.06834397 -0.19494009
 -0.00885331  0.00951022 -0.06071472  0.11028579 -0.04680261  0.12647222
 -0.10871129  0.13681304  0.0267886  -0.06868586 -0.16760337  0.15129043
  0.17981449 -0.10573331  0.1310123  -0.0715262   0.21384533  0.17783181
  0.06975096 -0.03244203  0.01029152  0.00586136 -0.09693457  0.14655367
 -0.01951375 -0.01909344 -0.02078032  0.01175161]
[-0.10616218  0.12712814  0.02927257  0.0451834  -0.07362182 -0.07893652
  0.06469805 -0.21148892 -0.12339602 -0.05072146 -0.00769372  0.02602258
 -0.06208797  0.0781152  -0.07121239  0.04507222 -0.09300133  0.09210373
 -0.03760779 -0.15343721 -0.03067354 -0.09718716 -0.05153401 -0.03403809
  0.10642879 -0.09837862 -0.09131661  0.16771905  0.03752907 -0.09199347
  0.10313739 -0.11925668 -0.03301668  0.07521631 -0.06675428 -0.02595457
  0.03642622 -0.07831134 -0.0340175   0.17074221  0.12746564  0.21886295
  0.00349232  0.1050663   0.04761471 -0.10668274 -0.05039625 -0.01860083
  0.14736374 -0.0021978   0.14119029 -0.06889139  0.08638953  0.0972231
 -0.01605066 -0.13600229  0.02028342  0.07626767 -0.13151756  0.14963329
  0.08314176 -0.03369838 -0.08148111  0.05225838]
[-2.3066723e-01  5.8800746e-02  5.9893705e-02  6.2380977e-02
  4.6539005e-02 -1.4235668e-01  5.3844843e-02 -7.5694665e-02
 -1.4568937e-01 -2.3765666e-02 -4.4763006e-02 -1.0761121e-01
 -1.0315145e-01  1.5546677e-01 -5.4724589e-02  1.0114397e-01
 -8.3536565e-02  4.4444345e-02  1.3425575e-01 -1.4249939e-01
 -8.0054082e-02  1.5875327e-03 -5.4072838e-02  2.2637434e-02
  4.3886520e-02 -1.2903892e-01 -2.0799807e-01  3.2897726e-02
 -2.6909091e-02 -4.9456968e-03  7.2805062e-02 -8.9474767e-02
 -4.8582908e-02  1.6084187e-02  7.4801631e-02 -1.0256776e-01
  2.9344769e-02 -1.2651056e-02 -1.0929264e-02  1.5972453e-01
  1.8258445e-01  1.1169484e-01 -4.9218763e-02  1.7967625e-01
  7.1811110e-02 -2.1436363e-02 -1.1486647e-01 -7.1452521e-02
  7.4712776e-02  2.5494013e-02  1.1791584e-01 -4.3083083e-02
  9.9149801e-02  4.3041274e-02  9.5218420e-05 -1.4192435e-01
 -8.8852867e-03  2.8352172e-03 -9.0522438e-02  8.7740488e-02
  8.8439167e-02  1.7538238e-02 -3.7651658e-02 -2.7270664e-02]
[-0.17028828  0.04299445  0.05491092  0.00337761  0.02113523 -0.11719153
  0.09099077 -0.12334811 -0.14218746 -0.12553826 -0.02081198  0.00308359
 -0.10026191  0.05367512 -0.0325688   0.06974373  0.05996091 -0.03952869
  0.0088708  -0.07130751 -0.06278769 -0.01388782 -0.04152502  0.07668611
  0.15603136 -0.05354431 -0.18559457  0.11803652  0.02670468 -0.05261398
  0.07231663 -0.08645076  0.06566208 -0.11746288  0.05768462 -0.03795095
  0.00782377  0.01386643 -0.03307579  0.10010389  0.08731921  0.1380383
 -0.08280105  0.10690223  0.05372345 -0.07291176 -0.13199969 -0.09077121
  0.10696251 -0.0177787   0.1751902  -0.1267797   0.18939322  0.05012453
  0.03909207  0.01311774  0.01415294  0.07077241 -0.1266224   0.05351285
 -0.02503901  0.02810089 -0.00811252 -0.043355  ]
[ 0.03716118 -0.02572972 -0.03448529 -0.0503122  -0.0145994  -0.00229475
  0.08033437 -0.03723227  0.0089694  -0.07831448  0.07299263 -0.00608984
  0.06853821 -0.01100327  0.08040651 -0.07770149  0.02308487 -0.05201862
 -0.02677966 -0.0296781  -0.07480694 -0.06578558 -0.00805978  0.05282103
 -0.00943349 -0.01143297 -0.01186978 -0.01425977  0.0157162  -0.05256411
 -0.06339163 -0.01693133 -0.01957855 -0.00770743  0.01601695 -0.07963719
 -0.02955406  0.0681537   0.06220051  0.08197527 -0.03662459 -0.02090359
 -0.05458798  0.06117219 -0.02537761  0.00985833 -0.0632342   0.04087007
 -0.02507619  0.06792726  0.0317267   0.04647542  0.07376684  0.02816236
  0.01204374 -0.04273342 -0.0607532  -0.06386632  0.0768199   0.06095762
  0.01448648  0.02351627  0.07678988 -0.02774628]
[ 0.0768329   0.02399229 -0.05321368 -0.00555323 -0.07897574 -0.00974325
  0.02269775  0.06751268  0.02940115  0.02115025 -0.07007004  0.01803228
 -0.01847931  0.04818942  0.07729746  0.03323191  0.008261    0.02985446
 -0.01437061 -0.03999654  0.07502501  0.03540039 -0.0828037  -0.05815516
 -0.06375337 -0.05049327 -0.00600073  0.05224519 -0.00912555 -0.05539883
 -0.05060185  0.08408641  0.04749825  0.08326008 -0.04832972 -0.05714825
  0.01506565 -0.0489716   0.02810007 -0.06468303  0.04158332  0.00790738
 -0.01992227 -0.07349648  0.06556002  0.05434626  0.02997832  0.07534764
  0.03726558  0.08316713 -0.01384852 -0.03536369 -0.0175612  -0.01040374
  0.04790675  0.0263589   0.08265346  0.06733321  0.05050286  0.01522133
 -0.01045355 -0.0827955   0.04962227  0.05704593]
[ 0.00509749 -0.02455094  0.02148059  0.0148571  -0.06998932  0.01926207
 -0.07752807  0.02313944 -0.04120103  0.03786063 -0.03389576  0.07122952
  0.00780737 -0.0732682   0.01257209  0.08367763  0.00646602 -0.05498751
 -0.0340042  -0.06526726 -0.07383893  0.06140506 -0.01031401 -0.02470768
 -0.01822414 -0.05453383  0.02413099  0.0365816  -0.05360357 -0.06911513
  0.03963792  0.02096282 -0.03084691  0.02126763 -0.07039433  0.00458611
  0.01872725  0.01954275 -0.03522643 -0.012289    0.03680009  0.03620304
 -0.01650851  0.02703305 -0.07897942  0.0128671   0.01552918 -0.04179933
 -0.01287106  0.04577621  0.00695495  0.05402853 -0.03208933 -0.00245199
 -0.07129348 -0.06598908  0.08279275 -0.00841075 -0.00672773  0.05913437
  0.04228977  0.02957354  0.07416274 -0.04155103]
[ 0.02825242  0.01702283 -0.01265515  0.0188554  -0.05718753  0.03650524
 -0.01227017  0.02893669 -0.06150968 -0.01051357 -0.02539879  0.02730004
  0.06344055  0.07089756  0.02932772 -0.019922   -0.01772519  0.03287669
 -0.01424846 -0.02441729  0.05208201 -0.02991938 -0.00519182 -0.08066438
  0.07284854 -0.06691246  0.07700477 -0.07243655  0.04912401 -0.04144871
 -0.04669674 -0.0252845   0.08270711 -0.06862542  0.06279819 -0.03951573
  0.00128367  0.06477895  0.07265996  0.06904022  0.06804187 -0.02450882
 -0.00807716 -0.0374531   0.01713996 -0.06136844 -0.07621944 -0.08038995
  0.02836708  0.0745073  -0.04001249 -0.02571626 -0.01949286 -0.08047915
  0.01951809  0.02143188 -0.07490128  0.02465987  0.08319157 -0.06013986
  0.03051607 -0.0076443   0.05891267  0.07409626]
[-0.01504128 -0.00875774  0.03929651  0.07186111  0.0199092   0.02618323
 -0.08246773 -0.02643318  0.01503906  0.04716288 -0.00433811  0.06875557
 -0.00236424 -0.03358184 -0.04479866 -0.03261673 -0.03130735 -0.08253158
  0.06125387 -0.0286817  -0.05845997  0.02304599  0.07650881  0.02031196
  0.07037031 -0.04621563  0.01304832  0.04377217 -0.06159816  0.0339957
  0.0330302   0.06832732 -0.07421958 -0.07248197  0.00566421 -0.06965028
 -0.01823027  0.04423576  0.00657231  0.0555694  -0.06298535  0.0651178
  0.02858064 -0.08146081 -0.02673919 -0.04985152 -0.0480888   0.05937187
 -0.00489808 -0.06571208  0.07125793  0.05128371 -0.01820348  0.00644368
 -0.05811631 -0.06831483 -0.01312314  0.04607848  0.01737522 -0.0626799
 -0.05581559  0.01374181 -0.04481071 -0.06524035]
[ 0.07712341  0.00097372  0.03334241  0.05265396 -0.06507157 -0.03151145
 -0.00874834 -0.06048083 -0.01772954  0.0332239   0.01617702 -0.04765626
  0.07094943  0.06374655 -0.00275212  0.08199374 -0.01410663 -0.03833891
  0.07075085  0.043749    0.01726136  0.07988051  0.01412707 -0.01945536
  0.06059232 -0.04266389  0.00135055  0.00400943  0.02896704 -0.01153956
 -0.07203144 -0.04120681  0.07782129  0.05668854  0.07976558  0.03240836
  0.02023232  0.01492693  0.03936107 -0.03116995  0.01141137 -0.03642003
  0.03858028  0.07894487  0.00851582 -0.07252926 -0.05725338 -0.00462164
 -0.03748099 -0.00829896 -0.06819911 -0.00278222  0.04304545  0.05186216
  0.00952792  0.03151496 -0.06152135  0.01804174  0.04283839 -0.02626885
  0.04534329 -0.01694831 -0.03920201  0.01651359]
[-0.0600785   0.05357252  0.01924179 -0.05040337 -0.01406948  0.02983754
 -0.02180576  0.03941617 -0.0566478  -0.05453715 -0.03360286  0.03952827
  0.05976466  0.01461814 -0.06551069  0.03256213 -0.07775249  0.00829067
  0.02068782  0.07357302 -0.02906139  0.01630764 -0.04683206  0.04438902
  0.03562531  0.02769902 -0.02782645  0.07516723  0.05106966 -0.0577522
 -0.02026287 -0.01067285 -0.07063274 -0.07789725  0.01165963  0.05189925
 -0.00131076 -0.06207526  0.01300608 -0.04821506 -0.08110051 -0.01804677
 -0.03825622  0.02116949  0.03066403  0.07541098  0.00396902  0.01836995
 -0.04592111 -0.01919346 -0.00485644  0.06807076  0.02667844 -0.02252293
  0.08217671 -0.07172955 -0.06157019  0.02373562 -0.0197695   0.06309798
 -0.03012823 -0.01122075  0.06085064 -0.01569808]
[ 0.14456862 -0.1485982   0.00613491 -0.0348359   0.03151494  0.04654911
  0.07407067 -0.1755734  -0.12662803 -0.1739108   0.00868015  0.03638702
 -0.01406831  0.07268748  0.04390239  0.01572641  0.03969511 -0.01283688
 -0.11775367 -0.09332741 -0.04529092 -0.00875751  0.10558527  0.03741352
  0.05602122 -0.07589789 -0.13320427  0.06653833  0.16185799  0.02071624
  0.0383957   0.02206322  0.03586293  0.06763993  0.02209967  0.01721714
  0.08043224 -0.06849617  0.03729048 -0.00329851 -0.07515559  0.0217891
 -0.139742    0.07882494  0.02351152  0.02815825 -0.16330217  0.04288676
 -0.12573396  0.02827089 -0.00405032  0.04200589 -0.00146922  0.05056322
 -0.02246143  0.0474318   0.06195143 -0.12604463 -0.03797623  0.07282473
  0.05619757 -0.11894565 -0.00234477  0.07274123]
[ 0.13937284 -0.04474073  0.06237948 -0.02875423  0.01464076 -0.00988291
  0.11985657 -0.14921866 -0.06283895 -0.12421599 -0.01564565 -0.0016292
 -0.01770864  0.06166419 -0.09696995  0.12409225  0.01260093 -0.05853418
 -0.10327046  0.00728602  0.02896252 -0.04696293  0.1070656   0.02181441
  0.11311855 -0.06271743 -0.18593122  0.07954073  0.08383517  0.06527899
  0.20271948 -0.11696959 -0.08784162 -0.0723738   0.03557353  0.04677426
 -0.04801651  0.03959235 -0.08809794  0.11144923  0.0196854   0.1299029
 -0.10391741  0.13951384  0.11262435  0.05824479 -0.12526411 -0.01515719
 -0.09627328 -0.05675158 -0.07576516  0.16038819  0.08479664 -0.01215786
  0.02395559 -0.0788709  -0.05719992 -0.04666417 -0.15636247 -0.01758754
  0.0117887  -0.13311307 -0.00745115  0.15202318]
[-0.04535684 -0.07916518 -0.00504267 -0.09097189 -0.0013942  -0.10963675
  0.16211686 -0.14119299 -0.13926929  0.04116036 -0.01138091 -0.1211343
  0.00656005 -0.02092046 -0.10068295  0.05656255  0.02999359 -0.01586527
  0.11311355  0.04584397 -0.04398594 -0.06725275 -0.02557757 -0.02548964
  0.07348332  0.01381833 -0.13706444  0.14543575 -0.09896171  0.00251046
  0.0492158  -0.0851639  -0.01968525  0.00347232  0.0692823  -0.01525701
  0.03913595 -0.00137306  0.01257242  0.18214162  0.06387391  0.23546615
 -0.06139077  0.0875343   0.2171748  -0.07126248 -0.04856445  0.00546891
  0.09262733  0.05752192  0.05490552 -0.05560807  0.10707303 -0.08057343
 -0.03629842 -0.02467492 -0.01425293  0.03636067 -0.04697489  0.17577569
  0.01271572  0.06945264 -0.03279815 -0.00089745]
[-0.03027275 -0.04058197  0.0283539  -0.06437856 -0.10071807 -0.0365471
  0.20872985 -0.0234356  -0.1160138  -0.00164091  0.10162286 -0.0244433
 -0.00619715 -0.07322599 -0.06881526  0.16954888  0.14593588 -0.05889884
  0.19539805 -0.05799567 -0.02341196  0.08340976 -0.07787619  0.06882539
 -0.00412622  0.00659414  0.00631196  0.15417175 -0.10462642 -0.04518972
  0.10174138 -0.18650043 -0.03250413  0.13114029  0.07647149  0.06115829
  0.05639302 -0.04049104  0.08507773  0.09904904 -0.0420238   0.13312219
  0.04726784  0.03332388  0.13903196 -0.03609615  0.04172422  0.24558498
  0.06119903  0.00831024 -0.00363926  0.04827487  0.17713861  0.0260662
 -0.01874341 -0.03753068  0.02958443 -0.01705343 -0.0801771   0.11773559
  0.04480333  0.05304281 -0.04739752  0.05743153]
[ 7.56803676e-02  9.14800316e-02  1.49398353e-02 -1.28791062e-02
 -2.33909652e-01 -4.50227372e-02  1.53720975e-01 -1.65529683e-01
 -1.37810305e-01 -3.39538902e-02  1.07102334e-01 -3.63901220e-02
 -1.04928147e-02 -5.61632076e-03 -2.69358307e-01  2.57457554e-01
  1.36882886e-01  2.55610235e-02  9.01693627e-02 -7.42236823e-02
 -1.36784106e-01  2.49898969e-03  7.53593519e-02  5.32260202e-02
  1.42865404e-01  6.91709965e-02 -5.36414385e-02  2.01382577e-01
  1.00160465e-01 -2.13891491e-02  2.06789419e-01 -1.21162310e-01
  1.52973197e-02 -7.77916834e-02  6.49067983e-02 -5.37899956e-02
  5.48019335e-02 -5.18233813e-02 -1.38003826e-01  1.73596784e-01
  4.01699208e-02  1.29967421e-01 -7.04537798e-03  1.50370851e-01
  1.77980855e-01 -4.05880027e-02 -1.42347455e-01 -1.74699046e-04
  1.37314662e-01 -5.03607616e-02  9.47754458e-02  3.62780951e-02
  1.50940478e-01  6.56224266e-02 -2.24681087e-02 -2.45170984e-02
 -3.21178660e-02  8.97628888e-02 -1.22721702e-01  1.50010884e-02
 -4.03792784e-02 -1.49217788e-02 -1.60106763e-01  7.09809884e-02]
[-0.07505965 -0.1111929   0.12271788 -0.09008532  0.03494648 -0.10247848
  0.02500756 -0.08951648 -0.25391933 -0.0292241   0.171669   -0.02616105
 -0.0022725  -0.02411636 -0.25475073  0.15121275 -0.02057017  0.02668981
 -0.0054903  -0.00276361 -0.0713084   0.01374746 -0.06380606 -0.07545252
  0.09091818  0.00681059 -0.03186293  0.21444479 -0.02344025  0.0122786
  0.19516894 -0.21081106 -0.26265782 -0.16823292  0.27615368 -0.06480058
  0.14052127  0.01744397  0.03088829  0.2274123   0.0209026   0.3477086
 -0.05321961  0.07592823  0.25483653 -0.1316819  -0.04074669  0.10560255
 -0.0441327   0.21468678  0.00835069 -0.12057123  0.06779246 -0.09094635
 -0.04923277 -0.12502721 -0.0287387   0.0670332  -0.17183886  0.24982508
  0.00488196  0.17580356 -0.10894654 -0.06947847]
[-0.09614614 -0.12562293  0.03269201 -0.10282394  0.22903626  0.02175278
 -0.16875812 -0.04597688 -0.11258613 -0.13817398  0.09348702  0.10339133
  0.17638677 -0.03221219 -0.15683137  0.18371806  0.04533163 -0.07424833
  0.14186175 -0.13064227  0.03361385  0.14623559 -0.09708618 -0.14634237
  0.0273434  -0.03374184 -0.13032295  0.14147496 -0.02329756 -0.10460456
  0.06915753 -0.21197692 -0.32595924 -0.08935804  0.304738   -0.07673177
  0.1509471   0.18065947 -0.18865998  0.16303726  0.00798645  0.42384118
 -0.0564808   0.00782818  0.33400866 -0.09500067 -0.08577827  0.12341925
 -0.15613429  0.1287657   0.00682153 -0.111514    0.18796283 -0.02696178
 -0.00148103 -0.02715162 -0.18177351  0.15940501 -0.1550512   0.05769121
 -0.06017138  0.16328475 -0.04731759 -0.07284015]
[-0.04790197 -0.15712461 -0.15762115  0.04122891  0.19689377  0.06649619
 -0.08282819  0.05170173 -0.23778632 -0.22100286  0.19481744 -0.07689934
  0.0874829  -0.0265529  -0.13188587  0.05193176 -0.03742151 -0.11110106
  0.19041002 -0.16485864 -0.13238214  0.10675422 -0.11752675 -0.00297552
  0.0395183  -0.04617464 -0.17194     0.0720999   0.00158307 -0.06135498
 -0.06259049 -0.245769   -0.19297497  0.03965446  0.25469437 -0.09020621
  0.20392063  0.16122776 -0.14868     0.11186615  0.04439156  0.28638947
 -0.00346859 -0.00619763  0.31332517 -0.01589452  0.00164061  0.05528654
 -0.13234796  0.19400851  0.00907843 -0.07680506  0.08094741 -0.11678256
  0.0496817  -0.19676301 -0.12913957  0.0882362  -0.19008888  0.08473629
 -0.00041639  0.16880728 -0.05323071 -0.14601578]
[-0.04419139 -0.01373684 -0.06590056 -0.01810657  0.00677389 -0.03934637
  0.07836214 -0.03582858 -0.21076544 -0.04135466  0.1556907  -0.10115577
  0.17367792  0.06441199 -0.22341295 -0.00337395  0.01546027 -0.04242141
  0.30295092 -0.08566073 -0.16457501  0.15386525  0.02164009  0.01191179
  0.03644614 -0.13922188 -0.13598837  0.04872791 -0.08347043 -0.11512711
  0.01300906 -0.27395448 -0.1500788   0.09352335  0.2674527  -0.12817056
  0.10786807  0.05803624  0.00906264  0.17695446  0.00552431  0.28978837
  0.00261224  0.02715135  0.35281944  0.0519196  -0.11546113  0.11188371
  0.08215632  0.06316597 -0.02564011 -0.06513925  0.17192426 -0.06731468
  0.01455372 -0.1167654  -0.13030986 -0.03765888 -0.1567323   0.15376921
 -0.04444797  0.17003287  0.03258569 -0.12512746]
[-0.05075217  0.07835008 -0.13808659 -0.0176307   0.09230481 -0.07541354
  0.09365968  0.05949038 -0.24274671 -0.15518267  0.23087461 -0.0792268
  0.22585157 -0.0526883  -0.33173946  0.05808397  0.00924192 -0.22158073
  0.24687651 -0.05398184 -0.15426035  0.2114024  -0.12404448  0.15459989
  0.14719284 -0.29444605 -0.06718626 -0.05750468  0.03625296 -0.07613389
 -0.03086198 -0.27005747 -0.12692581  0.12698463  0.09165648 -0.09046656
  0.17376593  0.0447654  -0.0781422   0.15076391 -0.11726094  0.18715894
  0.04888181 -0.07382102  0.26198357  0.02196055 -0.02765086  0.24415138
  0.1482877   0.20140545  0.04746761  0.05751636  0.15687859 -0.1391317
  0.05600394 -0.1070122  -0.18968162  0.01135733 -0.20184997  0.10541444
  0.05182664  0.23697439 -0.1548596  -0.2789191 ]
[-0.3148727   0.17596108 -0.00481455  0.05456977  0.02560805 -0.07499541
  0.1593425   0.03906255 -0.2334695  -0.26512125  0.19881731 -0.19706713
  0.04223236 -0.02659793 -0.335074    0.06409463  0.23227629 -0.3005369
  0.22840399 -0.09022713 -0.26672423  0.15402627 -0.15669012  0.09054746
  0.00816762 -0.08824723 -0.07387478 -0.10625284 -0.08200642 -0.10897957
 -0.22496839 -0.4260131  -0.07593983  0.28748655  0.06307083 -0.30235958
  0.00168896 -0.10522743 -0.00489038 -0.04669325 -0.18233192  0.10274495
  0.05021134 -0.14888303  0.17322168 -0.14518055 -0.08548132  0.20173407
  0.22344439 -0.03271388 -0.02215722  0.18279772  0.20231988 -0.05510617
 -0.03987341 -0.08549929 -0.2088897   0.00314386 -0.23538509 -0.14163834
 -0.0273126   0.00701201 -0.04880065 -0.14822698]
[-0.31961432  0.19638322 -0.13043943  0.10637935 -0.13258287 -0.16167478
  0.18684024  0.10419065 -0.15134543 -0.23723885  0.22582303 -0.12805761
  0.07354852 -0.12794042 -0.22041048  0.13081428  0.03864995 -0.1398649
  0.23525812  0.03482604 -0.0618884   0.13836606 -0.1951173   0.01822512
 -0.11016683 -0.05276251  0.03007474 -0.04384406 -0.19584326 -0.10533544
 -0.29011038 -0.46163747 -0.04256335  0.085958    0.30323887 -0.28440106
  0.10913093 -0.11628718 -0.04132886  0.11242697 -0.1663543   0.20313919
  0.00747155 -0.0589373   0.10488599 -0.16985305  0.08508702  0.2232897
  0.21037808 -0.00190997  0.01632743  0.19245465  0.1767385  -0.00441296
  0.00961648 -0.21193899 -0.13915317 -0.00364434 -0.22408582  0.04771611
  0.14083783  0.24880771 -0.19283515 -0.26717323]
[-0.18260859 -0.04416637 -0.07145905  0.1751701  -0.17698565  0.00827145
  0.25790787 -0.05791419 -0.1760809  -0.23662534  0.19356771 -0.17005308
  0.05184697 -0.04719874 -0.14015786  0.08459938 -0.11393539  0.00340636
  0.3003388  -0.06665906  0.10107991  0.08813255 -0.16437317  0.18903966
 -0.11068427 -0.06958281 -0.21709841 -0.0760783  -0.13001111 -0.08266871
 -0.27215016 -0.34239835  0.00392446  0.14399017  0.29000735 -0.24059333
 -0.04170425 -0.16603501 -0.12285127  0.05715756 -0.23077773  0.31164414
 -0.01179722 -0.1109909   0.2633671  -0.2325628  -0.09948219  0.21106789
  0.12458222  0.08250356  0.06819492  0.23175243  0.1867671   0.05354765
 -0.05438956 -0.06499575 -0.09286028 -0.10780948 -0.23345058 -0.09909744
  0.20983645  0.12247996 -0.02213393 -0.0806457 ]
[-0.22265273 -0.0073638  -0.11460675  0.17123479 -0.13926074 -0.09867426
  0.20336281  0.04409525 -0.07682683 -0.15138102  0.15039644 -0.14461225
 -0.04466481  0.06625506 -0.15918525  0.00053117 -0.17500606 -0.07724634
  0.07364997 -0.09397147  0.21261032 -0.0608025  -0.16525102  0.19413982
 -0.15211841 -0.05079753 -0.07576147 -0.00525975 -0.2531506  -0.09733033
 -0.22824094 -0.3513589   0.04977684  0.20554808  0.2670264  -0.16396439
  0.00579557 -0.18074714 -0.21685076  0.09265784 -0.31783736  0.20022523
 -0.13967584 -0.14183204  0.14381328 -0.19536835 -0.11017494 -0.05705337
  0.04387906 -0.07093687  0.23674594  0.09756967  0.12373127  0.04436866
 -0.04622813 -0.2522761   0.08471173 -0.02086405 -0.10600218 -0.03230554
  0.13889162  0.03509521  0.10024247  0.03521416]
[-0.22460313  0.04775522 -0.04343617  0.19316182 -0.39589813 -0.07468572
  0.24384679 -0.04141031  0.0261608  -0.1724597   0.1024233  -0.06983856
 -0.01575635  0.10863401  0.01782037  0.06786456 -0.15375161  0.03128337
  0.10306966  0.06780241  0.23812546 -0.12833746 -0.01603525  0.11302825
 -0.19669609 -0.08527809 -0.11435926  0.00410384 -0.14293762  0.00993983
 -0.04936008 -0.16364169  0.06612489 -0.20697992  0.1899346  -0.06743042
  0.04946451 -0.20567189 -0.07114247  0.02369859 -0.06276093  0.04469303
  0.03360183 -0.02494149  0.09178155 -0.26462165  0.10806768 -0.068361
  0.09596906 -0.10399745  0.10356146 -0.06330045  0.20840508  0.18847455
  0.01413153 -0.18745883  0.03223284 -0.03141476  0.0586873  -0.10483983
  0.1743076   0.01353889  0.01856487 -0.07593349]
[-0.31575716  0.02927965 -0.08599757  0.09070286 -0.35687003 -0.11250097
  0.16690944 -0.1043195  -0.03773734 -0.12647387  0.14423415 -0.09609585
 -0.02414405  0.10270859 -0.03836398 -0.05039646 -0.07556394  0.07009326
 -0.03180299 -0.03204723  0.10118029 -0.06123522 -0.02702907  0.16580994
 -0.19852358 -0.02658583 -0.15492904  0.04335017 -0.05312052 -0.10318658
  0.10902239  0.06172681  0.0320091  -0.2155342   0.00230697  0.07566474
  0.05423915 -0.20923698 -0.18924092  0.15849912  0.15129673  0.1695736
  0.03544693  0.06564374  0.00144289 -0.16196936  0.09037378 -0.02682105
  0.02836798 -0.13597931  0.1123361   0.04131923  0.07177387  0.10219616
 -0.04744557 -0.15485013 -0.1273072   0.01001874 -0.02149589  0.02496305
  0.24464466  0.03530674  0.03063386 -0.20510931]
[-0.27363947 -0.07118454 -0.11027471  0.06356427 -0.30136412 -0.1468449
  0.27613017 -0.2037567  -0.27976957 -0.00446346  0.10504251 -0.01877903
 -0.16395901  0.14005792 -0.22488102 -0.11652928 -0.17973861  0.02972961
 -0.02206124 -0.06477877  0.00377569 -0.09130082  0.01757845  0.14237858
 -0.18037376 -0.06682644 -0.40330064  0.13123672 -0.17058057 -0.05117552
 -0.03924112 -0.06457382 -0.00421698 -0.02429435  0.04864364 -0.05382965
 -0.06426897 -0.16655459 -0.08721376  0.0876783   0.17103371  0.16159746
 -0.07909354  0.1676416  -0.05858482 -0.22287898  0.00403542  0.01227919
  0.06993224 -0.16355018  0.15000114 -0.03207383  0.19870268  0.1922044
 -0.03116895 -0.0739294  -0.16327637 -0.09808233 -0.11705906 -0.06015968
  0.19747128 -0.07569952  0.03968138 -0.09070081]
[-0.21953525  0.11095975 -0.20289642 -0.00891805 -0.08746302 -0.17758055
  0.22230312 -0.0280027  -0.31077325 -0.08331339  0.06742071 -0.12661438
 -0.09073982  0.11409358 -0.17129692 -0.08605616 -0.28870302 -0.00594576
  0.08996971 -0.13750067  0.08326352 -0.05269155 -0.00300401  0.06079895
 -0.06502742 -0.10511643 -0.3349592   0.11788268 -0.09426821 -0.16484508
  0.02678809  0.01046112 -0.08478071 -0.01377464  0.07588248 -0.02349083
  0.02946405 -0.16828471 -0.00653654  0.16681725  0.2005515   0.18147315
 -0.09462278  0.11551098  0.04753368 -0.22623104 -0.01243114 -0.12345604
  0.11301009 -0.22650944  0.20646657 -0.00553294  0.1485086   0.06324196
  0.00740715 -0.15681787 -0.19942018 -0.12927599 -0.11543377 -0.02026192
  0.06795746 -0.02267548  0.0635998  -0.02767181]
[-0.22314323  0.12613545 -0.1254705  -0.02956216 -0.0866098  -0.0844566
  0.07503846 -0.0828914  -0.30782115 -0.07008784 -0.03260812 -0.11390138
 -0.08622412  0.32764295 -0.06318255 -0.08930629 -0.32867038  0.11763684
  0.2515251  -0.23231408 -0.05220561 -0.02491097 -0.04213543 -0.06420089
  0.14417996 -0.09797192 -0.36669907  0.21065608  0.00495868  0.01421984
  0.0486143  -0.10096175 -0.16077708 -0.04396411  0.2247996  -0.11385442
  0.11308187 -0.12841491  0.07527167  0.21689214  0.16323718  0.3461799
 -0.0616121   0.21528208  0.05563086 -0.08635674  0.01078823 -0.10040811
  0.06843309 -0.07155419  0.26273108 -0.10262552  0.15111175  0.14075951
 -0.01570227 -0.11918357 -0.04015194 -0.06786798 -0.09624371  0.0562268
  0.06661966  0.11352737 -0.10937417  0.20443447]
[-0.15785302  0.12511608 -0.18176195 -0.07284608 -0.09552161 -0.23796451
  0.24869137 -0.23613465 -0.1655493  -0.13881393  0.02670031 -0.14699066
 -0.08742151  0.29442182 -0.07966504 -0.11891577 -0.24025673  0.21518016
  0.20175959 -0.10547784 -0.11806463 -0.06182938 -0.08587532 -0.01259451
  0.12740089 -0.04819285 -0.18831782  0.10392752  0.14678267 -0.05015085
  0.22895089 -0.17824097 -0.03228029 -0.04021645  0.0590296  -0.10949992
  0.157449   -0.06388191 -0.02319643  0.2581298   0.12881553  0.2559497
 -0.0183628   0.29193163 -0.05624163 -0.15152723 -0.02063783  0.03687781
  0.17864566 -0.07982896  0.3755247  -0.2174295   0.13881339  0.29017028
  0.04762728 -0.0878338  -0.09361374 -0.01211395 -0.22031738  0.17395
  0.03498708  0.06288681 -0.07071431  0.18959913]
[-0.12288384 -0.07751092 -0.19114424  0.00077934  0.00152603 -0.16361336
  0.1894528  -0.06889751 -0.12918799 -0.20248538  0.01423349 -0.02054632
  0.06112768  0.22715676 -0.21502225  0.02438583 -0.2423833   0.20133984
  0.06770506 -0.16484548 -0.09094468 -0.01384012  0.07449926  0.06191598
  0.1130565  -0.3162851  -0.18177071  0.06663499  0.07962429  0.04362925
  0.14878213 -0.10317112 -0.04346482 -0.23712736  0.20452519 -0.06525405
 -0.05119463 -0.01496575 -0.1277639   0.19853756  0.08730485  0.16724962
 -0.1612643   0.12461987  0.11816038 -0.25634882 -0.16080777  0.09104614
 -0.06539062  0.0614729   0.13477474 -0.1853539   0.33719185  0.08892029
 -0.05542558 -0.03482796 -0.07958256 -0.13840978 -0.17611714  0.0929546
 -0.00342529  0.07737818  0.01976903  0.09074949]
[-0.02393028 -0.120228   -0.14926657  0.0360794   0.02358285  0.01768636
  0.14742228  0.0291035  -0.02342068 -0.02952274  0.04143427  0.00780231
  0.05573674  0.03317196 -0.17331919 -0.05773039 -0.15384872  0.07906766
  0.06897698 -0.10474952  0.08009505  0.04301763  0.07653643 -0.0563099
  0.02638859 -0.18348739  0.00526693  0.01536316 -0.04859871  0.01777551
  0.05554345 -0.05008892 -0.14220047 -0.13049977  0.05334164  0.07943534
  0.01586094 -0.03535658 -0.08365239  0.11857025  0.12589405  0.06380955
 -0.08951709 -0.01216638  0.08819996 -0.06223328 -0.05766666 -0.07590835
 -0.1014624   0.00433179  0.07893663  0.03180518  0.03651373  0.00533991
  0.06745019  0.05398523 -0.00499091 -0.10950733 -0.05381195 -0.06802472
 -0.08936253  0.09231861 -0.01995638  0.04569377]
[-0.04756808  0.05881435 -0.05467683  0.0064886   0.01730208  0.01684472
 -0.08625613  0.08286068  0.04659576 -0.1223427   0.15703791  0.1109953
  0.04234035 -0.05653269  0.00442102  0.04034947 -0.04093651  0.03758856
 -0.03880218  0.03303087 -0.07058413  0.07914007 -0.07927617 -0.10404357
 -0.01232289 -0.09215849 -0.04887446  0.05386447 -0.02490699  0.01698054
 -0.05672731  0.03095912  0.0116641   0.04293531  0.07330029  0.06334545
  0.01570904  0.00405374 -0.1699753   0.02173761  0.12855658 -0.08274006
  0.10359345 -0.07228931  0.01587015 -0.11767158 -0.03108078 -0.03947469
  0.02589791  0.04033411 -0.08884468  0.02616725 -0.0817664   0.01715965
  0.01506663  0.02750958  0.0219889   0.03873978  0.00763259 -0.05302203
  0.05517243  0.05878463  0.06841195  0.04363781]
[ 0.00050865 -0.00693119  0.02386113  0.0181377   0.07591812  0.02038893
 -0.05526597  0.07922942  0.07069256  0.01633462  0.00518761  0.05209552
  0.0263675   0.06012455 -0.05844152  0.02179787 -0.03758137  0.05131537
  0.07615619 -0.04897998  0.02626421 -0.00294643  0.07648509 -0.00266641
 -0.07687254 -0.01468383 -0.0611734  -0.04231566 -0.06340726  0.03639434
 -0.0341017   0.00093979  0.02079823  0.06009301  0.07920598  0.0211477
  0.03080019  0.02538525 -0.0705308   0.07745156  0.04247535  0.02123618
  0.0192876  -0.01602583 -0.03770286 -0.01197559 -0.06094267  0.08248156
  0.01805472 -0.01978077  0.02245387  0.01381593  0.06064265 -0.06782509
 -0.08269444  0.08272146 -0.00789493  0.07514551  0.06808858  0.02199852
 -0.00100119 -0.05308253  0.05874207 -0.02760951]
[-2.5843587e-02  4.4595100e-02 -6.0153238e-02 -1.5391380e-02
 -4.4171404e-02 -6.1015129e-02  7.8527980e-02  8.4015168e-02
 -7.2684303e-02  3.4296535e-02 -8.2628585e-02 -7.5600624e-02
  4.0698804e-02 -1.5324473e-02 -4.7688711e-02  6.9060706e-02
  3.2823592e-02 -1.9516125e-02  5.2078702e-02 -2.7167883e-02
  4.8644282e-02 -5.3538248e-02 -1.9945517e-02  1.8236987e-02
 -5.0524618e-02  4.8566930e-02 -2.2955440e-02 -7.1939267e-02
  1.5431851e-02  8.3044954e-02  1.7901070e-02  6.8841092e-02
 -6.3781217e-03 -3.0258346e-02  2.3684829e-02 -1.4993995e-02
 -7.2494581e-02 -6.3575059e-02 -2.0217225e-03  8.0850385e-02
 -7.1956217e-04 -5.3531852e-02  5.2787162e-02  7.8424789e-02
 -4.6575431e-02  3.5471767e-02 -4.7102090e-02  1.4888950e-02
  7.2366662e-02  4.5365386e-02 -6.5639615e-05 -4.1754644e-02
 -7.1533136e-02  2.5271282e-02 -7.3310614e-02  4.9143828e-02
  1.9164503e-02 -2.3056936e-02  6.4414419e-02  1.1818498e-02
  6.3099563e-03 -4.6379074e-02  7.9633228e-02  8.3855160e-02]
[-0.03527607  0.05003188  0.06527305  0.05297112 -0.05816693  0.07342849
  0.04090727  0.00413086 -0.03824408  0.06769963 -0.0496682   0.06085256
 -0.03750486 -0.05146784 -0.0291595  -0.00462493  0.04101128 -0.03891252
  0.08355989  0.08308328  0.04620055 -0.0017444  -0.02180373 -0.00824584
  0.04299317 -0.04103751 -0.00364032 -0.03713599 -0.00832656  0.07709671
  0.06051508 -0.04902817 -0.06437154 -0.0056755   0.07394069 -0.02979592
 -0.06134359 -0.00544646 -0.04093065 -0.07858572  0.05789671  0.00239705
 -0.03566339 -0.02407634  0.03181592  0.02321027  0.02257714  0.03992864
 -0.00591517 -0.06552669  0.01412211  0.06284899  0.01962268  0.03191219
 -0.0101479  -0.01846746  0.03261317 -0.07570794  0.07442688  0.04838949
  0.07418556  0.02633283  0.06502769  0.034605  ]
[ 0.03781765  0.06858436 -0.04175059 -0.03856351 -0.07104114  0.0299926
 -0.06317884  0.04384056 -0.02089413 -0.0201006  -0.00815728  0.07320368
 -0.01010805  0.0096292   0.00625833 -0.0174643   0.07877127  0.03562184
 -0.03436863 -0.04097889 -0.05365071  0.02867974  0.02520135 -0.04050866
 -0.05132177 -0.07960723 -0.03314806  0.00524168 -0.04716125  0.0548219
 -0.03851682 -0.06835341  0.02289218 -0.07883681 -0.03497525  0.04778817
 -0.05750679  0.03808597 -0.05070495  0.00431088  0.0739819   0.00200251
  0.04650777  0.04324733 -0.06360424  0.05019959  0.01468966 -0.03543216
 -0.06996682 -0.06455247 -0.08258972  0.06026807 -0.00784645 -0.04504944
 -0.01774713 -0.01431751  0.0473737  -0.04116423 -0.05213578 -0.04616814
  0.02731805 -0.04934464  0.05316054 -0.01380474]
[-0.10981601 -0.0675996  -0.04221822  0.06249144  0.02737191  0.04719325
 -0.00552845 -0.04405419  0.04996284 -0.00541167  0.09255683  0.04002931
  0.15722694 -0.02468399  0.0728626   0.05942782  0.00594273  0.07433382
  0.03851322 -0.11518415 -0.04060811 -0.04579013 -0.05432299  0.01353513
 -0.03979661 -0.01521661  0.06832904 -0.04810775  0.05229946  0.0833628
 -0.08552495  0.02383496  0.08226746  0.11711857 -0.07507006  0.02060871
 -0.16216367 -0.00435774  0.1043572  -0.07295223 -0.02971162 -0.05347291
  0.15479952 -0.03517489  0.03401764  0.13542338  0.03499496 -0.04199858
  0.13676378  0.03278382 -0.02790815  0.17431137 -0.08451287  0.03149272
  0.0094559   0.02138227 -0.07813302 -0.14101474  0.04218246  0.01333084
  0.05134792 -0.12730068  0.1742178  -0.03307584]
[ 0.08564305 -0.13840286  0.01667529 -0.09163278  0.06714603  0.15753943
  0.12049688 -0.21850516 -0.12709196 -0.03982538  0.03256675  0.05244095
 -0.05387545  0.0217108  -0.07888508 -0.04173003  0.02413607  0.07423197
 -0.03790891 -0.09768683  0.00782467  0.05492565  0.06481952 -0.01105799
  0.17415002 -0.12606    -0.22146133  0.16197735  0.15510406  0.09398139
  0.16903931 -0.03432418  0.09391817  0.17278235 -0.00889857  0.04863556
  0.03945368 -0.05401332 -0.11919077  0.01249096 -0.01291484  0.04274769
 -0.04654027  0.106337    0.01599928  0.17413276 -0.16870764 -0.02475839
 -0.15679726  0.12170504 -0.01377342  0.09179024  0.01895239  0.20455554
  0.06078913 -0.00566785 -0.10854508 -0.04470024 -0.07252674  0.18751816
  0.06983204 -0.18285932 -0.00574206  0.01609527]
[ 0.02511225 -0.06089058  0.02092185 -0.00164015  0.02242815  0.13477199
  0.14189824 -0.24359722 -0.23911922 -0.11903436 -0.02902978  0.07537337
 -0.13692632  0.11089806 -0.02499625  0.13019621  0.09363551  0.04344143
  0.03112998 -0.02636558  0.04695421  0.07284346  0.07601465 -0.06846723
  0.11071781 -0.15993004 -0.23727486  0.15290393 -0.02939568  0.0028575
  0.1922345  -0.03362667 -0.0179116  -0.11898708  0.01882876  0.04351481
  0.01729792 -0.11993684 -0.10353231  0.10565272  0.1418207   0.09379655
 -0.05295699  0.25379622 -0.01157751  0.08805721 -0.19964188  0.03868771
 -0.10892076 -0.03387835  0.00957297 -0.10986663  0.23315248  0.03124645
 -0.01141259 -0.19233632 -0.20315465  0.09040832 -0.02849816  0.23616238
  0.16381545 -0.09226762  0.1261642  -0.04983472]
[-0.074908   -0.0013853   0.05351995 -0.06970732  0.09379033  0.01109299
 -0.04771601 -0.10762493  0.04014951 -0.24258168  0.04289997 -0.09706239
 -0.00865209  0.06272151 -0.0773122   0.05731033 -0.0880453  -0.04129391
  0.01322747 -0.17796648 -0.09988866  0.03239423 -0.06137519  0.04599845
  0.07695117  0.06189694 -0.1767125   0.01410776 -0.15884955 -0.12683722
  0.08538035 -0.19869368  0.01690497 -0.1884963   0.05498032 -0.01751781
  0.18617533  0.06220044 -0.02057039  0.03843965 -0.08197998  0.17905095
 -0.15171069  0.04561343  0.08805379 -0.22976445  0.06604747 -0.01829392
  0.00095248 -0.00862696  0.04817368  0.01910826  0.10922203 -0.06994848
 -0.01593402 -0.12833403 -0.07379881  0.15500313 -0.18960923  0.13461621
  0.0970391   0.07255129  0.05258775 -0.04721231]
[-0.2490487  -0.07998562 -0.03881479  0.0610689   0.13521172 -0.06093058
 -0.0380279  -0.10764059 -0.06330942 -0.21415976  0.04413523 -0.04918892
  0.03959414  0.02962496 -0.09726556  0.19060801 -0.00971217 -0.13118063
  0.08673674 -0.11004473  0.02225823  0.07947036 -0.10219541 -0.04235529
  0.107026   -0.09586548 -0.28967625  0.12867102 -0.1472147  -0.14850122
  0.22911927 -0.14391638  0.12077812 -0.11261775  0.18218608 -0.06326822
  0.20622489  0.14905566 -0.00173785  0.18505752 -0.06068088  0.20652328
  0.01080669  0.1281572   0.11973525 -0.06722794 -0.02479261 -0.06114837
  0.07271703  0.03680811  0.00131783 -0.08454169  0.19088978 -0.12758511
 -0.01215101 -0.14679644 -0.06119963 -0.03227356 -0.19685267  0.12504072
  0.14609152  0.08247852  0.11708925 -0.09945795]
[-0.09739636 -0.0695328   0.00470536  0.06233208  0.1104405  -0.07443987
  0.03670281 -0.09507652 -0.0342715  -0.27000841  0.00785485 -0.00762685
  0.09526829 -0.11576109 -0.22277318  0.18230844 -0.08993344  0.03299109
  0.12312341 -0.16090699  0.0747144   0.08097379 -0.15211032 -0.00127514
  0.09179614  0.00707124 -0.16220738  0.05413487 -0.07574399 -0.07282162
  0.13868234 -0.25168556  0.06682938 -0.10597176  0.1697344  -0.11472981
  0.05545604  0.07393392 -0.06121034  0.04199293 -0.02114854  0.13100801
 -0.11936156  0.03297355  0.17304945 -0.08713518 -0.04190192 -0.08286357
  0.04711045 -0.0657744  -0.06392377 -0.08098628  0.08642317 -0.00676536
 -0.05158672 -0.05761378 -0.17790295 -0.03211197 -0.2890912   0.16427197
 -0.08379649  0.11472348 -0.02669697 -0.02975177]
[-0.23837426 -0.23065999 -0.10931297  0.0495333   0.09285516 -0.01965311
 -0.11735933 -0.10954632 -0.16026317 -0.3205207  -0.07445621  0.11244307
  0.15904729 -0.13042864 -0.23651503  0.13186765 -0.19318664 -0.22059572
 -0.09763864 -0.18630104 -0.1290327   0.16129738 -0.11218224 -0.10696109
  0.09725159 -0.21287335 -0.13242634  0.04726969 -0.05314972 -0.04530314
  0.1261401  -0.3449309   0.10213194 -0.30084294  0.17851101 -0.06032301
 -0.01468553  0.04074543 -0.23395376  0.22951089  0.00870133  0.13069262
 -0.21663007 -0.12323415  0.28430367 -0.21135445 -0.16834123  0.04355286
 -0.13092567  0.02273643  0.03883426 -0.13988923  0.27998117  0.05634903
  0.04962005 -0.02623524 -0.18828718  0.06381723 -0.24560009  0.09511919
 -0.00782365  0.11961412 -0.00438032 -0.12108719]
[-0.08761363 -0.09434118 -0.29801312  0.08058579  0.05897873  0.03816669
 -0.06918582  0.01400768 -0.2437573  -0.356411    0.10055394  0.13315098
  0.18423204 -0.16555528 -0.22234042  0.07770819 -0.01051914 -0.22775058
  0.06541107 -0.2082552  -0.13355264  0.15156579  0.12237072 -0.17290938
  0.19213167 -0.15506105 -0.1750374  -0.03824485  0.0217881   0.02333994
  0.04382639 -0.40658316  0.00521751 -0.07893119  0.25429627 -0.04344925
  0.1090358   0.15421066 -0.27173367  0.174168   -0.07105999  0.3134446
  0.01868837 -0.07976966  0.21932365 -0.20947357 -0.18381277  0.16551334
 -0.1062917   0.10709238 -0.00852205 -0.05297366  0.16377479  0.04812694
 -0.07578681 -0.05582328 -0.20434266  0.10790717 -0.31171355  0.10930503
 -0.03237773  0.2816922  -0.07964472  0.01370219]
[-0.24923353 -0.18614379 -0.21376975  0.20357391  0.14677376  0.05004312
 -0.22217204 -0.05469054 -0.24843949 -0.30230567  0.11539613  0.03105917
  0.18002014 -0.21261907 -0.13840872  0.05905122 -0.06536934 -0.16739468
 -0.07638293 -0.24181008 -0.02563895  0.12052144  0.06122363  0.03698945
  0.15148701 -0.23622724 -0.24699908 -0.03454791 -0.06136688  0.05726456
  0.04973433 -0.36844712  0.01967099 -0.05823955  0.160502   -0.12345039
 -0.00991629  0.07681043 -0.2873538   0.11542086 -0.06807683  0.29953694
 -0.10468258 -0.18978944  0.2716879  -0.1605761  -0.09222533  0.0867999
 -0.17115287  0.05813827  0.03595783 -0.00476377  0.2507736   0.07451948
 -0.02789664  0.01766515 -0.07736167  0.08507266 -0.2962202   0.10483949
 -0.04491827  0.12049341 -0.04325481 -0.00425108]
[-0.01128204 -0.01107289  0.03965036  0.11824604  0.21370848 -0.07517044
 -0.2850194   0.10268831 -0.08369848 -0.2637567   0.05800071 -0.00246645
  0.17657283 -0.22273621  0.05661256  0.01333114 -0.23115827 -0.14235167
  0.03653568 -0.10482769 -0.13823518  0.19874513  0.17855603  0.02415986
  0.17135383 -0.30640998 -0.3407881   0.00960289  0.13833725 -0.01923088
  0.07166735 -0.19728488  0.10616591 -0.21790414  0.17847316 -0.06076286
  0.17509837  0.09710228 -0.09272997  0.16721973 -0.26870295  0.21900022
 -0.13108109 -0.23993003  0.15184039  0.00215743 -0.13482647  0.14986104
 -0.11508914 -0.01947236  0.04615562 -0.02613069  0.04543376 -0.03986305
  0.02105035 -0.05336825  0.03140369  0.2111381  -0.3407897   0.20938905
 -0.10909469  0.17593089 -0.07200642 -0.02330237]
[ 0.05509709 -0.04880694  0.07065319  0.23785667  0.22144778  0.05048885
 -0.08040255  0.1627091  -0.23042858 -0.21206124  0.18387397 -0.05443178
  0.2001848  -0.32222408 -0.22995149  0.12305909 -0.25319594 -0.29211342
  0.06563419 -0.18078145 -0.06388101  0.2262405   0.01915161  0.19952147
  0.14497982 -0.29708412 -0.2880082   0.00273473 -0.00474678 -0.08014767
  0.18395421 -0.05949108  0.19760385  0.07189044  0.05604516 -0.07381491
  0.06179405  0.19586267 -0.16045694 -0.01488183 -0.2729693   0.08907648
 -0.12203154 -0.24599303  0.2513798  -0.01561248 -0.18037897  0.04410704
  0.03864178 -0.08913703 -0.1315668   0.11929614  0.08492029 -0.05214753
  0.07536511  0.01651315 -0.0483      0.1293241  -0.4000535   0.1559255
  0.03316025  0.10109506 -0.06149601  0.0061643 ]
[ 0.07284405  0.04110211 -0.12353289  0.16504288  0.03115394 -0.07999998
  0.09553701  0.04967141 -0.3034255  -0.23290563  0.08282456 -0.06841601
  0.03864554 -0.22719368 -0.20811746  0.25629315 -0.16897003 -0.20544678
  0.15558307 -0.10507272 -0.08162965  0.10696835  0.03943722  0.21493366
  0.11921656 -0.20448172 -0.13784    -0.01831974 -0.05131096  0.07443155
  0.03257746 -0.03178665  0.01278852  0.11981303  0.06671808 -0.21939357
 -0.01905398  0.05270785 -0.28983295  0.11258526 -0.3740314   0.14881338
  0.01182957 -0.09235173  0.11599749 -0.25592247 -0.21203676  0.00080882
  0.1767255  -0.02071291 -0.12076059  0.15313828  0.17529596 -0.01602422
  0.0766589   0.00325722  0.01080196  0.14011043 -0.428024    0.20030633
 -0.09612947  0.11412328 -0.14105596  0.07069036]
[ 0.07308621  0.1812618  -0.11333042 -0.05678493 -0.15706371  0.08864874
 -0.03426288  0.12067147 -0.21019787 -0.09748504 -0.07107402 -0.2898692
  0.02821227 -0.06411306 -0.37978703  0.21640629 -0.23356618 -0.07561056
  0.07236876 -0.1389199  -0.05324442  0.06807391 -0.14848642  0.09893485
  0.07560379 -0.06958308 -0.11284595  0.06628153 -0.02783848 -0.09444207
  0.02176649 -0.2097689   0.00776866  0.10237526  0.03600739 -0.22737119
  0.19236407 -0.15509006 -0.37264165  0.12568149 -0.349421    0.08905267
  0.02813789 -0.11386127  0.00655522 -0.32972077  0.01957582  0.0652149
  0.13397321 -0.14354114 -0.10070282  0.26565295  0.09397787  0.00373801
  0.05125852 -0.1005308  -0.04571906  0.18671678 -0.32334933 -0.0158176
  0.07577921  0.07427135 -0.04827698  0.03146119]
[-0.05711687  0.05923899 -0.22661163  0.1080747  -0.1843417   0.04238051
  0.01865572  0.24059525 -0.25599754 -0.13493384 -0.03309616 -0.07249724
 -0.03162004 -0.10147466 -0.13293204 -0.03355352 -0.16914219 -0.11831577
  0.02249438 -0.09267502  0.1044285   0.16650654 -0.04355737  0.08059437
 -0.03123534 -0.10319578 -0.07926258 -0.04537832  0.10008107 -0.15592621
 -0.03282778 -0.16406845  0.09069181 -0.00441094 -0.04166364 -0.18419497
  0.09895869 -0.02835742 -0.49211854  0.20432916 -0.2829186  -0.03196418
  0.00348795  0.03483693  0.06531768 -0.22376168 -0.16496651 -0.00368326
  0.09876304 -0.17038703  0.02232926  0.2847736   0.16656187  0.11681086
  0.05087042 -0.15846355  0.14032046  0.10213389 -0.20954834  0.03648822
  0.00891604  0.05537178  0.09602891  0.15934718]
[-0.0045606   0.01494318 -0.22999562  0.04070154 -0.12139998  0.00750419
 -0.01385167  0.11837516 -0.05253604 -0.15777989  0.0425556  -0.15863594
  0.05628502 -0.21437413  0.08952485 -0.11619199 -0.20418164 -0.10757734
  0.18261562  0.161676    0.11693233  0.16363525 -0.15438263  0.06697315
 -0.040454   -0.14487141 -0.21373639  0.12943456 -0.03314958 -0.08353927
  0.09140708 -0.1019737   0.17102565  0.07633474 -0.01070126 -0.24763265
 -0.01217524 -0.19256195 -0.47751722  0.03707251 -0.15613091  0.04184018
  0.06905127 -0.08489873  0.06252036 -0.1543943  -0.1257111  -0.14562818
 -0.02050397 -0.13369218 -0.0572415   0.2850792   0.12195326  0.08264951
 -0.07436558 -0.10775951  0.2643455   0.12538783 -0.17706104 -0.10829344
  0.06180859  0.22415641 -0.01850286  0.14091353]
[-0.24158183 -0.11302226 -0.04235618 -0.10370911 -0.24227911  0.03466631
 -0.00457892  0.01631721 -0.07798509 -0.04697491  0.01371271 -0.02401575
  0.01467405 -0.09641659 -0.05273146  0.07407212 -0.08488886  0.15212621
  0.07492744  0.12949875  0.09376991  0.01473266 -0.15908827  0.0680034
  0.00582833  0.08061921 -0.08654886  0.1873472   0.04087357 -0.02708903
 -0.01268885 -0.05148067  0.05210907  0.01080792 -0.00363825  0.01154364
 -0.04538276 -0.11970373 -0.3243737  -0.01034757 -0.13713256 -0.02704756
  0.00241522  0.06278158 -0.00444488 -0.00993286  0.00380801 -0.40767696
 -0.06334719 -0.12247482  0.03654236  0.10996569  0.06087966  0.02475092
 -0.0661277  -0.17292932  0.11809587 -0.05286169  0.02716633 -0.06795005
  0.11074793  0.09758302 -0.1565785   0.123743  ]
[-3.53484124e-01 -1.76072180e-01 -4.83462326e-02 -1.22724153e-01
 -4.71189469e-01 -7.82048255e-02  1.33067906e-01 -4.17998806e-02
 -8.32577199e-02  8.64028581e-04 -1.01338461e-01 -2.85773762e-02
  1.27068445e-01  1.07812965e-02 -7.50449970e-02 -9.99365896e-02
 -1.78620458e-01  7.71013573e-02  5.13347723e-02  1.03476994e-01
  1.88127354e-01  1.69388473e-01 -1.14534833e-01  6.59055188e-02
  1.16187103e-01 -5.35233282e-02 -4.21913788e-02  1.97688207e-01
 -4.91184667e-02 -1.26636893e-01  6.20397851e-02  7.91599751e-02
  1.44309685e-01 -6.02700077e-02 -8.38388652e-02  6.89182654e-02
 -1.50908917e-01 -2.28027910e-01 -3.27631742e-01  2.79586442e-04
 -1.61921270e-02  2.36634500e-02 -3.72014038e-04  6.94157630e-02
  9.92994681e-02 -1.29453003e-01  1.71947442e-02 -1.97248369e-01
  9.72854067e-03 -1.04341015e-01 -4.93151993e-02  4.04569767e-02
  1.49125516e-01  2.68237948e-01 -8.31825659e-02 -1.61349192e-01
  1.21006720e-01  3.98638239e-03  2.08839942e-02  1.49187759e-01
  1.26322061e-01 -8.24966431e-02 -1.55313864e-01  8.82211328e-02]
[-0.41371378 -0.16220084 -0.38101998 -0.08615738 -0.25377908  0.01355909
  0.25403118  0.02507548 -0.15194055  0.00725569 -0.0252848  -0.04441731
 -0.05192124 -0.07812503 -0.06263001 -0.18171197 -0.17666446  0.03673653
  0.02259366  0.08065905  0.18856992  0.17426455 -0.01649614  0.1140236
 -0.03312245 -0.06564801 -0.1584616   0.02849355 -0.11856732 -0.17447402
  0.0435217   0.12336981  0.14207648 -0.08298591 -0.06192616  0.00919193
 -0.11154145 -0.2754233  -0.11866062 -0.08937596  0.02214796  0.13108613
 -0.04025021  0.15039854 -0.03725851  0.03122245 -0.13143931 -0.17004497
  0.01523416 -0.10521975 -0.0016321  -0.03148168  0.11297715  0.24650681
 -0.08049586 -0.1123502  -0.04227317 -0.01445135 -0.01935842  0.06330817
  0.07978426  0.027849   -0.25946414  0.10234386]
[-0.30885565 -0.02948632 -0.1607222   0.04517206 -0.1533364   0.24358822
  0.19826686 -0.15557884 -0.15269835  0.00855626  0.02321461 -0.17345823
 -0.10402006  0.00976577 -0.07052309 -0.16888182 -0.09396604  0.04404296
 -0.14613977 -0.12328679  0.08358826  0.00326377  0.08828892  0.17182115
  0.13908273 -0.03136319 -0.11363921  0.01017723 -0.15943563 -0.10306017
  0.1887887   0.00084554  0.193061   -0.18411234  0.05514113 -0.03522687
 -0.12412018 -0.26251078 -0.09113392 -0.16367514  0.06849536  0.0983681
 -0.14419998  0.03191765 -0.01489741  0.04611071 -0.01202883  0.03157188
 -0.01058164 -0.18410261  0.03882973  0.00972771  0.07900613  0.18236807
 -0.07713264 -0.10289495  0.07250918 -0.1453239   0.00572118  0.01267766
  0.05577476  0.03104525 -0.10373428  0.1529949 ]
[-0.07544669 -0.02811886 -0.10733624 -0.02936875 -0.0801129  -0.057705
  0.2504195  -0.09144931 -0.18118857  0.02078954 -0.17531139 -0.25077325
 -0.13612963  0.23645775 -0.07962792 -0.20147677 -0.02157127 -0.02262237
  0.08974562  0.13814914  0.07578477 -0.18333322 -0.01772735 -0.00149983
 -0.12573712  0.14841086 -0.02580418  0.05187495 -0.07197818 -0.07738865
  0.03619481  0.06097239 -0.0124594  -0.23075044  0.08375379 -0.17627181
  0.02475734 -0.12878384  0.1141724  -0.09108252  0.11601664  0.03928105
 -0.05894853  0.26385447 -0.06004703 -0.15465826 -0.07021877  0.14729789
  0.06523933 -0.04764094  0.11969288 -0.14960395  0.08088111  0.13552147
 -0.01631904 -0.22991782 -0.18321311  0.06492414 -0.00052423  0.06348073
 -0.06486408  0.1108757   0.00196912  0.0731217 ]
[-0.16511036 -0.01665855 -0.07884856 -0.04513533  0.09704278 -0.06181791
  0.0744997  -0.00172103  0.0274954   0.12578498 -0.07081404 -0.13608705
 -0.09455809  0.14063531  0.06528796 -0.15614921  0.11622652 -0.13205856
  0.038319   -0.05618458  0.08238862 -0.22142944 -0.1600923  -0.00817574
 -0.06146795  0.11768682 -0.06910928  0.00532405  0.00592146  0.09489749
 -0.14435317  0.00984267 -0.09134594 -0.1400568  -0.00561719 -0.18712878
  0.01886696 -0.13267489  0.14783444  0.01204567  0.05240491 -0.02101551
  0.05301386  0.00343458 -0.01046077 -0.03289754 -0.03178707  0.04779301
  0.13541345 -0.04043722  0.26685607 -0.09200526  0.05451974  0.07092041
  0.01962648 -0.02407777 -0.19263881  0.01122639  0.05554055 -0.07094996
 -0.16689806  0.05939311  0.06323039  0.0615869 ]
[-1.54648051e-01 -9.69147384e-02 -2.36249000e-01 -1.94434389e-01
  1.27249390e-01 -1.64110601e-01  1.45837411e-01 -1.68455452e-01
 -4.12196331e-02  1.20953314e-01 -1.16968170e-01 -2.15446398e-01
 -1.46401033e-01  2.32551083e-01 -6.81200176e-02 -2.34847274e-02
 -1.33831784e-01  2.00607050e-02  1.59613013e-01 -1.59660697e-01
  7.60269016e-02 -2.22118571e-01 -1.83653161e-02 -3.41395251e-02
 -1.20908298e-01  1.49323702e-01 -1.37187302e-01  1.26884624e-01
  3.13721743e-04  7.21987709e-02 -4.67404537e-02 -3.93080525e-02
 -2.27802277e-01  3.17131020e-02  2.64718605e-04 -1.27591968e-01
  2.23672733e-01 -1.50794789e-01  6.51245415e-02  1.67803448e-02
  1.46932453e-01  1.41790584e-01  3.92963849e-02  5.10978214e-02
  2.01796070e-01 -7.05743581e-02 -6.36345148e-02  2.77094990e-01
  1.69966340e-01  8.43221769e-02  2.02653214e-01 -5.29225357e-02
  1.13898858e-01  1.16959140e-01 -3.03482115e-02 -7.00138137e-02
 -9.52695608e-02 -9.38698947e-02 -8.91329646e-02  6.81327283e-02
 -1.65003538e-01  1.48346648e-02  8.75445455e-02  4.77944575e-02]
[-0.03153055 -0.09437573 -0.20735382 -0.10245609  0.10927392  0.05509575
  0.07247979 -0.08594958 -0.06614422  0.09540345 -0.09376687 -0.07560677
 -0.08316936  0.1190549  -0.20506446 -0.02108769  0.01763734  0.08102151
  0.00254193 -0.07838665 -0.05556814  0.06245996 -0.19532616  0.07181627
  0.0715427   0.00462473 -0.03874698 -0.13604943  0.06593591  0.09507152
  0.10881408 -0.03515836 -0.01425598 -0.02117894 -0.01649401  0.00311574
  0.09139209  0.0514144  -0.02831345  0.11035017  0.012236    0.09469292
  0.00545732  0.09278969  0.2251548  -0.21538466 -0.03449715  0.08230826
 -0.12532829  0.04917711  0.08854371  0.09408527  0.17565669  0.04629786
  0.04520064  0.01606959 -0.05780749 -0.10261595 -0.00440172 -0.00612161
  0.04917766 -0.07617334  0.11945491  0.03233851]
[ 0.01208321 -0.03608879 -0.05561989  0.09463661  0.08067659 -0.10493895
  0.03960085  0.01232383 -0.07790907  0.07239694  0.08231957  0.04544014
 -0.09927345 -0.07260855 -0.05875539  0.0072046   0.15075873 -0.05631046
 -0.0726678  -0.01116598 -0.03176818  0.01738156 -0.07639892 -0.03077554
  0.0558125  -0.08552477  0.13243882 -0.0455698  -0.05478391 -0.00576986
  0.16958712 -0.06898469 -0.1258918  -0.00398656 -0.06634467 -0.00041581
  0.0507203  -0.04201917 -0.03090248 -0.04227599 -0.0337781   0.04596633
 -0.10775167 -0.04129428 -0.10364924 -0.00272019  0.04445367  0.10211344
 -0.1294204  -0.00130925  0.00164163 -0.05597584  0.02266245  0.00220633
  0.07080371  0.10231845  0.14553548 -0.02647317  0.01122992 -0.10344957
 -0.01819151 -0.02436424  0.14392546 -0.05329905]
[-0.07005719 -0.08288191  0.04677138  0.0522048   0.05971175  0.04925947
  0.20080516 -0.13209501 -0.11843368  0.00882984 -0.00024215  0.01934278
  0.03159156 -0.02404131  0.01214956  0.00118978 -0.04770188 -0.06728019
 -0.08099554  0.06621994 -0.04753689  0.04110503  0.05371905  0.06172472
 -0.02755133 -0.0439059  -0.01144427 -0.01894456 -0.00502313 -0.04503866
  0.01794195 -0.13703339  0.01066304 -0.0781009   0.11098098  0.02682116
 -0.07274453  0.02919306 -0.08599031 -0.00057444  0.11616645  0.05383058
  0.05002785  0.11303913 -0.04697003 -0.16258284 -0.05084851  0.13991502
 -0.10998033 -0.03521125 -0.10420277 -0.11344799  0.00396901  0.09189977
 -0.05861704 -0.06782835  0.04936593  0.04761917 -0.02796322 -0.08486586
 -0.0626512  -0.02555788 -0.00469032 -0.19116035]
[-0.03656423 -0.06639127  0.06453816 -0.0542319   0.01334056 -0.01781356
  0.06363074 -0.07938211 -0.03068693  0.04398433 -0.08267144  0.077622
 -0.06100344  0.0350814  -0.02635179  0.00107995  0.01808783  0.00101367
  0.08040922 -0.02713054 -0.02616304  0.03608592  0.08243968 -0.00401483
 -0.07077248 -0.0361861   0.00102167 -0.00276525 -0.02579987  0.03801962
 -0.07919725  0.00526603  0.0030834  -0.07844893 -0.04148693 -0.02916969
 -0.08033572  0.02195442 -0.06297047 -0.0265898   0.02084459  0.04924937
  0.0134308  -0.01930356 -0.07384826 -0.05217467 -0.06773844 -0.05992682
  0.05523033  0.00139648  0.00258817 -0.05511221 -0.07315218  0.02060177
  0.08379144 -0.07346115 -0.02949753  0.00407098 -0.02593816 -0.0688706
  0.05992375  0.01424158 -0.02009535  0.08372582]
[-0.03876971  0.05065889 -0.06635227 -0.05075493  0.08099339 -0.0168923
 -0.0269749   0.07916977 -0.07922515  0.02116924 -0.00705581 -0.05748828
 -0.05572059  0.06556808  0.01274625 -0.06204266 -0.02084263 -0.07652024
  0.02103923 -0.07256399 -0.03051336  0.04757173 -0.01346726 -0.08030538
  0.08120131 -0.06456617 -0.08310613 -0.01684994 -0.08305033  0.07528416
  0.05334622 -0.07066222 -0.03026167  0.0105158   0.02050909  0.05467606
 -0.05017508 -0.05735191  0.03171574 -0.05740972  0.02898075  0.07223385
 -0.00992803 -0.02459006 -0.07060755 -0.06890029  0.03420532  0.01127371
  0.06095584 -0.01152255 -0.01295292  0.00112242 -0.0621995   0.03994398
 -0.05645796  0.07376706 -0.05685892  0.00899371 -0.08378953  0.01095195
 -0.03715315  0.02542091 -0.03069323 -0.07311901]
[ 0.00957101 -0.01596434 -0.04111437  0.10045663  0.05610348  0.07699241
  0.06603163  0.05939179 -0.03580866 -0.01961604  0.02079722 -0.03332825
  0.04280598 -0.06999719  0.07264435 -0.06557231  0.0597019   0.02721372
  0.01205793 -0.04034065 -0.08329087 -0.05901447 -0.03326204  0.00063713
 -0.02800762  0.06452957 -0.00873048  0.0724412  -0.05746742 -0.02153803
  0.06386565  0.06635462  0.03165177 -0.07760813 -0.00554521 -0.01659222
 -0.01874444 -0.07483853 -0.00076208 -0.05220854 -0.06198329 -0.01693724
 -0.03811336 -0.05030322  0.03588572 -0.04283822 -0.06029929  0.04995453
 -0.06223533  0.05289538  0.05217113 -0.04711354 -0.04029758 -0.04198016
  0.05794793 -0.06429335 -0.00779456  0.08162054 -0.03394547  0.05020356
  0.0164977  -0.05803739  0.09940848  0.07610777]
[ 0.09662174 -0.11828012 -0.07173991 -0.01061357  0.00840908 -0.0509048
  0.08094663 -0.01865025 -0.02892007  0.12515989  0.08348158  0.017822
  0.14046197 -0.1139541  -0.09773753  0.14472729 -0.04376187  0.1005648
  0.063429    0.04196077 -0.002663   -0.04358711  0.1069057  -0.05801644
  0.0266268  -0.0087778   0.0488454  -0.08691987  0.02565729  0.02067569
 -0.05016597 -0.03325558  0.05681996  0.01216489 -0.1731356  -0.01810329
 -0.03759249  0.10133474  0.02314398 -0.08783313 -0.05742956 -0.06803759
  0.14300813 -0.09990908 -0.04150366  0.08387894 -0.03302633  0.04935772
  0.1706158   0.05310204 -0.0042296   0.1034293  -0.09306151  0.09429529
 -0.06643784  0.14683469  0.0126822  -0.00746551 -0.04277944  0.00609902
 -0.02062581  0.00616981  0.0784792  -0.00473713]
[-0.0042992   0.01822893 -0.03611948  0.16635185  0.10419049 -0.01930616
 -0.02709695 -0.07441469  0.14206584  0.14037518 -0.12638634  0.19305995
 -0.02344332 -0.06202013 -0.09296788  0.10460304  0.01185031  0.21985239
 -0.01782443  0.0014278  -0.10816728  0.00937378  0.07258125  0.18539123
  0.11478537  0.00935881 -0.12418438 -0.01328722 -0.18216655  0.02194129
  0.08148316  0.08111802  0.18713184 -0.117433   -0.08634145  0.0746038
 -0.06447135 -0.09620134 -0.02100542 -0.07843485  0.1037216  -0.10892033
 -0.12506779 -0.03440636 -0.00073476  0.18062498  0.00794159 -0.16029786
 -0.04483783 -0.00473203 -0.09711594  0.00617155 -0.10522936  0.19535203
  0.00055044  0.25040668 -0.06858986  0.04544659 -0.00352096 -0.00695526
  0.10058831 -0.23462248  0.16881822 -0.02978275]
[-6.98405057e-02 -9.49440151e-02  2.88079008e-02  2.41925358e-04
  2.28526071e-01 -5.86494692e-02  2.81542353e-02 -1.01144351e-01
 -1.73385322e-01  3.86966281e-02 -1.16849050e-01  1.12550193e-02
 -1.39983639e-01 -1.44456804e-01 -4.60986719e-02  9.64144021e-02
 -1.54354051e-01  7.31482059e-02  2.60860212e-02 -1.22863449e-01
  1.40698791e-01  6.48031607e-02 -1.19916171e-01 -8.88152719e-02
  3.07799667e-01 -2.06650421e-02 -4.06582169e-02  1.54989019e-01
 -1.48263916e-01 -1.68908015e-01  2.17011869e-01  6.06524162e-02
  6.50632568e-03 -3.47304456e-02 -7.00762868e-02  5.49900755e-02
 -1.75462171e-01 -1.65963396e-01 -7.15540797e-02  7.43294507e-02
  2.77814660e-02  2.64084071e-01 -1.71897471e-01 -2.32170168e-02
  1.64023235e-01  6.14135191e-02  1.15448907e-01 -1.04629740e-01
  1.56071186e-01 -5.32072112e-02 -1.43855527e-01 -1.13827638e-01
  1.16255008e-01  1.01276413e-01  5.61063662e-02  1.22655667e-01
 -1.44410565e-01  1.00883335e-01  1.49990981e-02  8.01905617e-02
  9.49526727e-02 -7.19097033e-02  4.51353602e-02 -7.36361369e-02]
[-0.27351633 -0.2050945   0.17990135  0.10680462  0.27083293 -0.10194997
  0.04467664 -0.03759406 -0.18919982  0.06725182 -0.07810463 -0.18173364
 -0.03790958 -0.07739506  0.08353604  0.09809555 -0.09135498  0.06307637
  0.10482767 -0.16923857  0.07846286  0.03377478 -0.13260806 -0.03557526
  0.10858407 -0.08175924 -0.15008545 -0.0917138  -0.05714896 -0.1362184
  0.28498453 -0.10368323  0.12410193 -0.1038929  -0.05922605 -0.04356112
 -0.10392352  0.03644235 -0.05600017  0.1770483  -0.02818328  0.27224177
 -0.20592715 -0.10816213  0.1545299  -0.12911294 -0.0238002  -0.23872748
  0.06803251  0.04655795 -0.05008427 -0.159285    0.1583214  -0.10363717
 -0.03203313  0.00779702 -0.15633062 -0.16557641 -0.04242337  0.03537593
  0.0286725   0.13706024 -0.08238494 -0.15388975]
[-0.15409711 -0.2117461   0.04352842  0.04474568  0.20161892 -0.10468107
 -0.01343723  0.08193511 -0.15393358 -0.1218709   0.09147152  0.01345842
  0.24681117 -0.19314618  0.06403377  0.0979751  -0.08761527 -0.00886401
  0.07559225 -0.20613204  0.10447289  0.16336286 -0.16925414 -0.10501001
  0.3848945  -0.01018572 -0.18796013 -0.02846243  0.16126917 -0.14444478
  0.08660419 -0.16955328 -0.06572077 -0.12035213  0.06843603 -0.14245997
 -0.14974478  0.01169548 -0.02387781  0.07465249 -0.2189629   0.20168428
 -0.132489   -0.20476419  0.15803608 -0.21715231 -0.0106666  -0.04939498
 -0.05998678 -0.09863409 -0.24658103  0.05164251  0.22044113 -0.20685214
  0.06712335  0.01114684  0.06156391 -0.06462822 -0.12892196 -0.00593116
  0.00632335  0.12657048 -0.00557296 -0.17656082]
[-0.17153092 -0.28695297  0.0744599   0.02188993  0.08459811 -0.164787
 -0.06323101  0.01141967 -0.09539288 -0.20673262  0.01324359 -0.04421046
  0.06434675 -0.21259657 -0.02579399  0.05284108 -0.14834854 -0.15709576
  0.10683075 -0.08115672  0.14786343  0.08387439 -0.08377606 -0.01496452
  0.18749386 -0.08479273 -0.0927326   0.07164967  0.08635912  0.072078
  0.15123029 -0.1806244   0.07850749 -0.04056202  0.08010913 -0.05024868
 -0.06231574  0.04900433 -0.12917809  0.13247801 -0.13989986 -0.04769631
 -0.23437177 -0.14255941  0.13124795 -0.23409119 -0.00028974  0.02905775
  0.08230571 -0.0073608  -0.24895193 -0.03832943  0.15281856 -0.12568684
 -0.04211971 -0.02735096  0.024861   -0.06676045 -0.13706686  0.17212895
  0.00956307  0.02883998  0.17441359 -0.17975044]
[-0.00378563 -0.39414653 -0.12589557  0.17674601  0.24319431 -0.13491465
 -0.13611221 -0.00432612 -0.2490337  -0.25009632  0.04102806 -0.13264035
  0.19266601 -0.31489387 -0.05989077  0.05163535 -0.26974937 -0.35667497
  0.14357728 -0.23922755 -0.00310371  0.10109536 -0.04547745 -0.0122013
  0.10250083 -0.26382446 -0.2049192   0.04658918 -0.05842111 -0.06382508
  0.1550154  -0.16675642  0.13981093  0.01879076  0.11007988 -0.12514217
  0.08979108 -0.03004101 -0.12415626  0.03050477 -0.3659205   0.03575029
 -0.10936448 -0.27469093  0.18744607 -0.18490992 -0.2265853  -0.07350741
 -0.09163246  0.0255508  -0.22197385 -0.10140374  0.11317141 -0.04421142
  0.03259992 -0.0832149  -0.02507076 -0.06705886 -0.19451778  0.10378513
  0.09842621  0.00078272 -0.03419495 -0.2887649 ]
[-0.15277956 -0.16572128 -0.26787066  0.23621818  0.0645205  -0.07658047
 -0.09758585  0.15924892 -0.34657493 -0.38677296 -0.0091646   0.03156579
  0.06474216 -0.2922997  -0.06820278  0.02225309 -0.23139222 -0.35683712
  0.05552536 -0.21233234  0.07756975  0.24172382  0.08809773  0.01339309
  0.122643   -0.24663535 -0.18759038  0.12701866  0.03644987  0.03327925
 -0.01330475 -0.22294939  0.18876846 -0.10557076 -0.04695477 -0.10413823
  0.08057072  0.08749964 -0.19232671  0.18871771 -0.20061101  0.02367505
  0.00337967 -0.12377678  0.04186869 -0.3421567  -0.17333372  0.18526915
 -0.07834754  0.10753891  0.02298615 -0.12869652  0.13081197  0.0816241
 -0.02051471 -0.12630478 -0.04714987  0.01352188 -0.45008528  0.15303402
 -0.05369428  0.14914042 -0.0340212  -0.08194979]
[-1.37698308e-01 -2.71171600e-01 -1.84050724e-01  2.39540383e-01
  5.11865504e-02 -1.42770512e-02 -4.26790304e-02  1.46695018e-01
 -3.18544179e-01 -3.37307334e-01 -7.18237180e-03 -7.35564381e-02
  1.58654183e-01 -2.16395468e-01  2.19487678e-02 -1.35649636e-01
 -2.50734538e-01 -3.63498747e-01  1.06746830e-01 -8.99252072e-02
  1.20080754e-01  1.59957454e-01  9.78874117e-02  1.58054933e-01
  1.88326970e-01 -2.29814753e-01 -2.57533997e-01  4.34201397e-02
  4.42881323e-02 -4.80600409e-02  3.27367052e-05 -1.51603557e-02
  2.52340555e-01 -6.75726831e-02  8.11602548e-02 -3.50653492e-02
  1.20678976e-01  4.11507934e-02 -1.03848338e-01  1.26410306e-01
 -7.53600672e-02  1.35897055e-01  2.27665491e-02 -5.18894829e-02
  1.41823903e-01 -2.16057226e-01 -9.72857475e-02  2.23831788e-01
 -1.57514274e-01 -5.75531274e-02  1.84913456e-01  1.00344718e-02
  1.04771793e-01  6.79085702e-02  6.53224066e-02 -1.23715736e-01
 -1.40244871e-01  8.84354860e-03 -2.70024538e-01  9.52958688e-02
 -2.81795003e-02  2.50061061e-02  7.39033446e-02 -1.24991320e-01]
[ 0.00995756  0.02594047 -0.11058411  0.22192028  0.14666878 -0.05196605
 -0.06329698  0.1042136  -0.23447758 -0.2136686   0.01102969  0.05640766
  0.20321243 -0.22805206  0.1020179   0.12965186 -0.1609972  -0.14856324
  0.04662183  0.14181593  0.14703055  0.23864545  0.16134854  0.23737834
  0.07846309 -0.05262777 -0.09412308 -0.03632153  0.09153129  0.08501928
  0.23113535  0.09333465  0.16807598 -0.05730161  0.08712846  0.11831023
  0.06017802  0.23138161  0.05075774  0.02463871 -0.17752405 -0.04528718
  0.13189657 -0.13498811  0.08207109 -0.01980802 -0.14456992  0.19328141
 -0.18249865 -0.09727962  0.00133684  0.06940966 -0.03101615  0.07383928
  0.05513964 -0.0212971  -0.02054592  0.03170608 -0.25822228  0.1442126
  0.14993656  0.04413935  0.15408981 -0.14919245]
[ 0.15033929  0.19632223 -0.16989672  0.20719723  0.14316365  0.0948424
 -0.0921983   0.12358782 -0.27961746 -0.22108296  0.09222856 -0.18884166
