layers 7
layer 0 Flatten
layer 1 Dense
784 64
[ 0.01215147  0.07225368  0.00143011  0.00582463 -0.02903422  0.05794729
 -0.02250174  0.02253264  0.0511635   0.03549621 -0.06649347 -0.08288614
 -0.00223234  0.07114217 -0.04617277  0.0566958   0.05723894  0.04687902
 -0.06997159  0.01327492  0.00246833 -0.06718029 -0.00917735 -0.07631538
 -0.04042491 -0.02243454  0.04026758 -0.06389785  0.0817192   0.02437255
 -0.00631158 -0.00867281  0.02705259  0.00846354  0.01467807 -0.02977312
 -0.06748247  0.04551335 -0.0233423   0.02055442  0.06868964 -0.06602401
 -0.08032218 -0.02666138  0.04282098  0.08363471 -0.02797603 -0.03318363
  0.00372189  0.02113464  0.02761251  0.07149927 -0.04272295 -0.0336169
  0.04045559  0.04789642 -0.03435838 -0.05334572 -0.07068759 -0.04351541
  0.04923857  0.05081164  0.01056068  0.0461195 ]
[ 0.07312729  0.07648516  0.07441818  0.03015471 -0.00443407  0.02457005
  0.05291364 -0.05251634  0.00342688  0.04272843 -0.00718693 -0.05603774
 -0.06805215 -0.00162724 -0.00756207 -0.01417251  0.04526175 -0.04910681
 -0.07757993  0.06097857 -0.01829989  0.00506639  0.02931061 -0.06874308
 -0.00225195 -0.04168774 -0.00700902 -0.04004229  0.02456489 -0.0631979
 -0.02304607  0.05870474  0.07688297 -0.02565345 -0.06719202  0.02517343
  0.00150926 -0.03518111 -0.07407668  0.02655784 -0.08175626 -0.06657915
 -0.03673084 -0.06020985 -0.0671175   0.05070191  0.04117637 -0.04871754
  0.07252678 -0.00816562 -0.05999599  0.06140777 -0.08263474  0.04389619
 -0.06957255 -0.06496193  0.05291196  0.08233554  0.04866659 -0.00196769
 -0.07973913  0.00125677 -0.03310079  0.02270546]
[ 0.0189603   0.03759478  0.03629666 -0.05813941  0.06794823  0.07864308
 -0.05959491 -0.00276539  0.01271902 -0.08020408  0.01276887  0.043869
  0.03059924  0.01546193  0.00819527  0.0437377  -0.07357437  0.00266081
  0.08095122  0.08098309  0.08265603 -0.07686701 -0.02403025  0.00502164
  0.07344221 -0.04039744  0.03377996 -0.07546909  0.06139603 -0.01026183
  0.01030916  0.04651066 -0.01674365  0.08209852 -0.05907587 -0.04569966
 -0.06545588 -0.05564123  0.03056823  0.01794499  0.06472891  0.03945655
 -0.00802726  0.07047872 -0.07054611  0.0229435  -0.01118471 -0.02293085
  0.05634447  0.03827793  0.03275378 -0.03957202  0.07820871  0.05604411
 -0.07864286  0.06047363 -0.03427209  0.02305505 -0.04544681 -0.05443963
 -0.07453056 -0.00205687 -0.04859579 -0.05681083]
[-0.08311892  0.00678076  0.01577801 -0.03615034 -0.05534368 -0.08126435
  0.08367645 -0.02802809 -0.0121396   0.0198216   0.0088305   0.04183459
  0.05125304  0.00973563 -0.0219105  -0.03048857  0.01397669  0.07083439
  0.04299688 -0.08044624  0.03800943 -0.04119493 -0.03719054  0.00759923
 -0.08340619  0.05401551  0.04738563 -0.06652446 -0.01446149  0.07165343
 -0.04596244 -0.0646203   0.05483738 -0.0141091  -0.037682   -0.03862303
 -0.01657054 -0.04590127  0.04252706  0.00476766  0.04814508 -0.01956107
  0.07239584  0.03639655  0.05900266  0.03863699  0.01929159  0.03648234
  0.06978362  0.00106049 -0.04735943 -0.05068191 -0.06097967  0.06713519
 -0.06199561 -0.07365345 -0.0726334  -0.05975683  0.02372929  0.0159939
  0.05022272 -0.08194117  0.07486751 -0.06244538]
[ 0.04791921 -0.01214493  0.01200663 -0.06299014  0.02050486 -0.06857339
  0.07143181 -0.03299402 -0.05701204 -0.00154077 -0.01073272  0.01818754
  0.04550204 -0.03708768 -0.03908517 -0.02552546 -0.05416701  0.01713692
  0.0361719  -0.01880965  0.02965985  0.04815743 -0.06288768 -0.06790886
  0.05380084  0.06606112 -0.00270332  0.02400815 -0.08121558  0.05920801
  0.06793187  0.01098596  0.05606579 -0.04718985  0.005688   -0.0137101
 -0.00060818  0.05715223 -0.04794643  0.04271639  0.07307702 -0.02835238
 -0.01975229 -0.01729841  0.02413887  0.04165275  0.00116111  0.05468588
 -0.04409385 -0.06567281 -0.0166228  -0.02074847  0.07352483  0.05921765
  0.00662971 -0.01350036  0.07805143  0.00645214 -0.05803042  0.00055502
 -0.06935934  0.05110315 -0.07288717  0.00157077]
[ 0.05504116  0.08008189  0.02824157  0.03444945  0.03068291  0.03573659
  0.05964469  0.00113119  0.04808231  0.05709729  0.06309054 -0.0162113
  0.02952031 -0.03270571  0.08039952  0.01046855 -0.07401313 -0.07076176
  0.01086991  0.0325777  -0.06969171 -0.04045393 -0.06582232  0.02565906
 -0.06371717 -0.06352536 -0.03934721 -0.04179538  0.0777209   0.08047799
 -0.02162218  0.03340087  0.04906573 -0.01679489 -0.00049844  0.01803201
  0.01829599 -0.04306115 -0.01945832 -0.07676078  0.0701259   0.04449142
  0.04673382 -0.01864601  0.02233845  0.03989328 -0.01010099  0.05489295
  0.04953957  0.04897911 -0.03931145  0.08180333 -0.00642132 -0.07266788
 -0.06313227 -0.04317853 -0.03446341 -0.00373974 -0.05992556 -0.02896505
 -0.0160422  -0.02208979 -0.06331608  0.06219552]
[-0.02154464 -0.00889882  0.0049917   0.06496105 -0.01753503 -0.00143675
  0.04719272 -0.01348311 -0.03394471 -0.05147325  0.05626585 -0.02903565
 -0.00065307  0.0746193   0.04393249 -0.0731985  -0.05512524  0.00893057
  0.03450767  0.04988234 -0.03004815  0.05463452  0.02168142 -0.01792368
  0.02178765 -0.07377446  0.04626735 -0.00725818  0.07593603  0.0013332
 -0.00638831  0.0073683  -0.02709348 -0.0118264  -0.01948181  0.0391524
 -0.04537764 -0.00909833  0.02200151  0.01367503 -0.07636219  0.00693865
  0.0682615   0.03238931 -0.04629741 -0.05594604  0.0729792  -0.01712624
 -0.07440316 -0.07512072  0.02047019  0.01978961  0.01534276 -0.01349598
  0.02143567  0.02831829 -0.01082528  0.08258738 -0.06249768 -0.01512972
  0.03017341 -0.02902704 -0.0623513  -0.05610873]
[ 0.00925965 -0.01054735  0.02698573 -0.01124193 -0.05343134  0.02229818
 -0.08247777  0.02612008  0.06491878  0.0086986  -0.07604043 -0.02457111
  0.00485297  0.03101969  0.02769963 -0.07687902 -0.02053107 -0.04833127
  0.07601953  0.07639266  0.04396264 -0.02897604  0.05209605 -0.00410411
 -0.00241099  0.01775259  0.02818412 -0.01956058  0.01614682 -0.07613172
  0.01951843  0.02010188 -0.04881878 -0.04824684 -0.03009705  0.00956625
  0.07886691  0.07216836 -0.04299299  0.05403001  0.01943831 -0.00507005
 -0.006735   -0.0613546  -0.02990981 -0.08339953  0.00752214 -0.00155982
  0.02370855 -0.02932325 -0.05124043 -0.01043558 -0.0799965   0.00659876
 -0.03511342 -0.0746449  -0.0011286   0.02104387 -0.02567705  0.06207342
  0.02557594  0.04119716  0.05528324  0.00395821]
[ 0.02585723 -0.02028272 -0.06866276  0.01452068  0.01779526  0.04706032
  0.04008244  0.03476629 -0.02294102  0.0316563  -0.06925957  0.05476191
  0.03145056 -0.08148785  0.05455615  0.04936483 -0.05772404 -0.02207267
 -0.04531138  0.06189034 -0.02962772  0.08321106  0.00945729 -0.034101
 -0.04993432 -0.08225653  0.07562002  0.00998575 -0.02045347  0.01571584
  0.08226072 -0.04064512  0.01530863  0.03323903  0.0840558  -0.07519576
  0.00488575 -0.08159396 -0.03628559 -0.02001681  0.01974798  0.0781017
  0.08137602  0.07799967 -0.02471665  0.03232734 -0.05347151 -0.00703207
  0.06287184  0.03015538  0.05017415  0.07871068  0.04002003  0.04694476
 -0.05417517  0.06114138 -0.05906083 -0.07094178  0.00156914 -0.05260418
 -0.04129964 -0.00481862  0.05388959  0.0829125 ]
[-1.7989174e-02 -1.2447700e-02 -3.8338453e-04 -8.3603926e-02
  1.2514301e-02  5.7869337e-02  3.1441636e-02  3.2282911e-02
 -6.3376762e-02 -4.3198951e-02  4.3253191e-02 -5.3916700e-02
 -6.1353214e-02  3.0050777e-02  4.0215820e-02  5.8342777e-02
  3.2904632e-02  2.1100931e-02  4.3282621e-02  1.1357442e-02
  6.9598697e-02 -3.8758781e-02 -5.4980528e-02  5.0937541e-02
  3.1728864e-02 -4.6881847e-02 -8.2631372e-02  1.2097098e-02
 -1.5789449e-02  7.8304075e-02 -1.5187144e-02  2.6211143e-05
 -8.2921520e-02  3.4167401e-02  2.1325886e-02  6.6644050e-02
 -1.7970063e-02 -3.8288757e-03 -2.2034220e-02  6.6051118e-02
  2.2639297e-02 -5.8094192e-02  5.2854948e-02 -7.6582871e-02
  3.5339884e-02 -4.2765044e-02  7.4952073e-02 -3.2983549e-02
 -3.4223936e-02  2.1785341e-02 -4.7847666e-02  3.0692771e-02
 -6.9629773e-03  7.4477397e-02  4.4583283e-02 -6.0336739e-02
  8.0510527e-03  7.5773545e-02  7.1202241e-02  7.9829954e-02
  6.2494047e-02 -6.6460446e-02 -5.8604948e-02 -6.3599631e-02]
[ 0.03138554  0.01427519 -0.02844862  0.06363521 -0.07210759 -0.02729952
  0.049963    0.03405134 -0.0551816   0.03213388  0.03715669  0.03841969
  0.03569157 -0.08200996 -0.07682377 -0.06564772 -0.05342638 -0.01516315
  0.05042214  0.07398937 -0.0371106   0.01464903  0.07558922  0.06337781
  0.07012332  0.05404524 -0.02260781 -0.05090678 -0.0382973   0.04553378
  0.05848294  0.06908088  0.00179711 -0.04499634 -0.02395978 -0.02057786
 -0.02604869  0.0473465  -0.01223409  0.00207081  0.02577873  0.03451025
  0.02126291  0.03378305 -0.03397074 -0.01838006  0.04501119  0.04819982
  0.03648663 -0.02318178 -0.01100147  0.04249873  0.02103421 -0.00919259
  0.06882506 -0.02906234  0.03156195  0.00035053 -0.01676957 -0.06031985
 -0.0494847   0.04191834  0.04669929  0.05339869]
[ 0.01319873 -0.00977532 -0.01980653 -0.01225551  0.05414022 -0.08327467
 -0.03813041 -0.0148059  -0.0623292  -0.04881605 -0.03567769  0.03570833
 -0.00329299 -0.07882686  0.00545572  0.05289827  0.00657278  0.05034361
 -0.04958814 -0.05671677  0.00265369  0.01262538  0.04473668 -0.07864312
 -0.0188192  -0.00401549  0.05667768  0.01156037 -0.07573517  0.02824699
 -0.0560027   0.05107524 -0.02301602  0.02817544  0.07240073  0.05927487
 -0.05031165 -0.08033799 -0.0376442   0.06492385  0.05788677  0.02188568
 -0.06125443  0.05650955  0.07966309 -0.07267496 -0.01056004  0.0306284
  0.068035   -0.03166555 -0.06312802 -0.06751023  0.07045429 -0.04641888
 -0.02548956  0.06703859 -0.02885152 -0.00985271  0.04160466  0.03278491
  0.08367053 -0.04513064  0.03274349 -0.01884651]
[ 0.04256289  0.00657171 -0.0527664   0.06451777  0.02782095 -0.03996488
 -0.09902536 -0.05975489 -0.04716786  0.02093838 -0.08536194  0.04498261
  0.03266849 -0.06746529 -0.00740043  0.08809661 -0.00979644 -0.01089703
 -0.00257641  0.02055847 -0.00439509 -0.0198445  -0.06200555  0.11147729
  0.04041323  0.01536997 -0.0229248   0.06529048  0.04601796  0.11730242
 -0.01392517 -0.05009137  0.10225555  0.00848111 -0.06160549 -0.03372798
  0.05963964  0.10995737  0.036324   -0.00438763 -0.11843681  0.07367052
  0.0406896   0.06064927  0.10151339 -0.06998962  0.06898306 -0.08018735
  0.1076987  -0.01734879  0.00401146 -0.0309524   0.01746107  0.0244406
 -0.0042186   0.01596997  0.07553916 -0.05040026  0.05594931  0.01282762
  0.00262852  0.05191543  0.01561865 -0.06137168]
[ 0.01786691  0.07466965  0.07187439 -0.00312781  0.06802227  0.08322232
 -0.07361459  0.00423862  0.10093489  0.0708074   0.06119812  0.01154167
  0.05638417 -0.07070871  0.10980986 -0.01160349  0.01886236  0.04911816
 -0.08890168  0.00832327  0.06152724  0.07800492 -0.06543133  0.09995283
  0.03311387 -0.09698677 -0.10041439 -0.07499015 -0.01596317 -0.01117814
  0.01543957  0.00487579  0.05613005  0.06640882 -0.05008979 -0.04127678
  0.03378143  0.12182014  0.00749787  0.06557801 -0.08426516  0.12381411
  0.00652625 -0.05074145  0.02082581 -0.0412899   0.13087814  0.037305
 -0.02603099  0.05358389 -0.03318853 -0.07151527 -0.00726432 -0.03860478
 -0.0516652   0.07687344 -0.01904768  0.13002023 -0.01098239  0.0058281
  0.01494752  0.10590423  0.03662395 -0.03176147]
[-0.02872566  0.05321499 -0.06865239 -0.00293474 -0.02525501 -0.06947139
 -0.07520974  0.15206864  0.03623835 -0.05292603  0.14017437  0.01516482
  0.0696877  -0.01457569  0.08224767  0.0080329  -0.03947169 -0.0137365
  0.0810754   0.09880737  0.03250698  0.08296215 -0.02189382 -0.01330655
  0.12008745  0.05714538  0.08744269 -0.06652277  0.0108775  -0.01822756
  0.03439564 -0.02241181 -0.03050767  0.02371331 -0.09354481  0.09037643
 -0.03470077 -0.02887709  0.02454926  0.01158802  0.05806103  0.06330077
 -0.02936639  0.0696454  -0.0371556  -0.01123727  0.04154498  0.01240666
 -0.03040174 -0.03079977 -0.06175489 -0.00795294 -0.07149746 -0.01163815
  0.0903976   0.03181967  0.01262602  0.05788627 -0.04033753  0.04142238
 -0.03176452  0.04957309 -0.07976153  0.00691202]
[ 0.04691913 -0.04338474  0.00504994 -0.02584928 -0.0242473   0.07875862
 -0.0609093   0.03265038  0.0684759  -0.0293663   0.0487597  -0.05422394
 -0.04277533  0.03540614  0.0046913   0.07661692 -0.00696618  0.02639633
 -0.05950538 -0.05025571  0.0066716  -0.00589771 -0.07519647  0.00695366
 -0.01012434 -0.01611537 -0.02452104 -0.04766424 -0.05283806  0.02862516
 -0.01248807 -0.04187062  0.06617128 -0.06003481  0.0811874   0.04891421
  0.05320303  0.01075569 -0.01641295  0.07573693 -0.0378986  -0.03182499
 -0.0585269   0.06914609  0.07594474 -0.054903   -0.0369852   0.07969711
  0.05878383  0.05648246  0.03256808 -0.054224    0.07635317 -0.08353013
 -0.07820807  0.01192011 -0.05342825 -0.04865326  0.02677178 -0.02757555
  0.03860734  0.05580654  0.00983817  0.03351259]
[ 0.02052907  0.06117735  0.00489537  0.06428448  0.01875298 -0.02541207
 -0.02251095  0.08028074 -0.04172683  0.0523651  -0.07211184 -0.07129756
 -0.06696699 -0.05130834  0.03142983 -0.02357681 -0.02440073  0.07746484
 -0.00146257  0.03150661  0.03703471 -0.00314264 -0.04190864 -0.01602282
  0.04909124  0.02101792  0.03953706  0.07003973  0.01858237 -0.00789899
  0.00982247 -0.08173763  0.00183251  0.04288471  0.0571046  -0.01787984
 -0.06230495 -0.04806534 -0.06994546  0.01293056 -0.02929229  0.03402156
  0.03359618  0.01314422  0.03350664 -0.05725987 -0.06404258  0.07673705
 -0.07733499 -0.06963827  0.06713555  0.03627688 -0.0830799  -0.03628173
 -0.08246116 -0.00578464  0.04444582  0.00829191  0.03470755  0.02908428
 -0.03276968  0.08092859 -0.02966306  0.00246201]
[ 0.06903026 -0.05541235  0.04211766 -0.00486451  0.05295866 -0.05431912
  0.00635153  0.05811547  0.02116583  0.0627762   0.030661   -0.0633786
 -0.0271141   0.03360131  0.07053299 -0.05453968 -0.00909949 -0.00534191
  0.07893736  0.01967113 -0.05690109  0.0577914  -0.03125492  0.00461288
 -0.07593669  0.02926195  0.01939415  0.05411182 -0.08179292  0.03129133
  0.07691208  0.01935767  0.04731958  0.02201826 -0.08210842  0.05797089
  0.02535206 -0.01608066 -0.04669346  0.00053374 -0.03010284 -0.07972778
 -0.05964242  0.06166448 -0.07059676  0.05924325 -0.01419407  0.05464194
  0.05572882  0.03785034 -0.01186701 -0.02166126 -0.07708785 -0.05225942
 -0.0409916  -0.08219927  0.04631821 -0.07569679  0.0602142   0.05183502
  0.02591472  0.0539873   0.0591102  -0.02832709]
[ 0.01785363 -0.02815265 -0.06236893  0.05332655 -0.04009281 -0.07215033
 -0.04268972 -0.05900755 -0.02571138  0.02032295 -0.04123497  0.01826188
  0.07096816 -0.07544113  0.0614856   0.04078365  0.00271435  0.02239234
 -0.06034414  0.0403963  -0.0620789  -0.01049527  0.04015762 -0.01283891
 -0.02051722  0.05673412  0.06725656  0.01783868 -0.04512415  0.01675099
  0.06645621 -0.00844073  0.04103989 -0.03924776  0.08003258  0.02846169
  0.07437404  0.04856732  0.05267008  0.07229815  0.00659619  0.05614347
  0.06859819  0.07383741 -0.07483636 -0.05886532  0.05004496  0.04475535
  0.03217775 -0.05999625 -0.01562031  0.08149268 -0.03063399  0.08077104
 -0.06926765 -0.04180576  0.05547855  0.04423093  0.04457823 -0.06461492
 -0.08311896 -0.01722848  0.00258021 -0.07349209]
[-0.07066641  0.02949071  0.05801234 -0.07218843  0.0725069  -0.0011951
  0.07335796 -0.07022244  0.02784389  0.00647878 -0.08154043 -0.00571577
  0.04149289 -0.08042771  0.05311503  0.02698608  0.02930412  0.06742699
 -0.07724432  0.03132185 -0.02109774 -0.06644577 -0.08285723 -0.05800838
  0.01648025  0.08065294 -0.07963639 -0.06571234  0.07365955  0.05109375
  0.08132065  0.05717839 -0.05623269 -0.06322224 -0.03323744  0.02055424
 -0.06059502  0.0283002   0.06354576 -0.03239568 -0.05719933 -0.00398811
  0.03323299  0.05697548  0.07889759  0.04899231 -0.00979932  0.05587728
  0.04026525 -0.07122636 -0.05976335  0.02987151 -0.05393696 -0.04886368
 -0.01389501  0.03219816 -0.04242913 -0.06419722  0.08102272 -0.06233437
  0.0219679   0.06269509  0.08231052 -0.0446879 ]
[-0.07452461  0.06126488  0.07094706 -0.03804614  0.03730956  0.02613402
  0.07108433  0.01600558  0.03248072  0.04953947 -0.05886047  0.05238122
 -0.08117525 -0.01879472 -0.05445052 -0.01681706 -0.07566358 -0.08063438
  0.06892451  0.01184688  0.04370887 -0.00681004 -0.04535444  0.05681812
 -0.03098589 -0.04349006  0.07878949  0.01780278 -0.05060054 -0.05806257
 -0.00321163 -0.06391872 -0.00181616  0.01188301  0.04247602 -0.05757532
 -0.02328666  0.04297215 -0.05170976 -0.06786659 -0.06260099 -0.06578907
  0.03996173 -0.01991632  0.08259036 -0.06441333  0.02116551  0.06692564
 -0.01584907  0.04925231  0.04591345 -0.06905209  0.03514052  0.02722458
  0.01540919 -0.03133364  0.013327    0.04886761  0.00785953  0.04147033
  0.01196355 -0.05577626 -0.04006433  0.05176721]
[-0.01571508  0.05832917 -0.01675621  0.08183036 -0.01045175 -0.01887269
 -0.07443009  0.01389058 -0.01941453  0.0473207   0.02656341 -0.05061479
 -0.05009581  0.0498166  -0.05124729 -0.03432182  0.07398481 -0.04403335
 -0.02330945 -0.0215584   0.02793977  0.00019234 -0.07359405  0.07398988
  0.02253661  0.03467844 -0.02060137  0.01285142 -0.0756635  -0.07718612
 -0.03805288  0.00101577  0.05555653 -0.02856484 -0.08042032 -0.04279338
  0.0602837  -0.02505257  0.0594238  -0.05167847 -0.04661079 -0.0275965
 -0.06395347 -0.02516315  0.01382953  0.05087861 -0.04159882 -0.01628089
  0.03503621  0.02249799  0.04188017  0.07775476  0.02631813 -0.00836986
 -0.07261463 -0.05753272 -0.07909881  0.00857247  0.03212769 -0.01455604
 -0.08316094 -0.06650917  0.01072302  0.01582929]
[ 0.06106815 -0.06928203  0.03406667 -0.01803183 -0.06789081 -0.03068314
  0.01887305  0.03338392 -0.05496478 -0.04761435  0.00982155  0.06325083
 -0.06165987  0.0320376   0.04115573 -0.01826376 -0.06769293 -0.033573
  0.02415311  0.04263642  0.03650958 -0.03726177  0.02400173  0.05657472
  0.04571807 -0.03734366 -0.00969935 -0.00757108  0.00434341 -0.01336807
 -0.06674536  0.05583031 -0.00809028 -0.06352677  0.07162134  0.00739817
  0.06836877  0.06383345  0.0307242  -0.08115318 -0.02494357  0.05077779
 -0.01814041  0.03121554  0.06034673 -0.00510115  0.00512443  0.01353304
 -0.05574979  0.06611189  0.01308111 -0.01255712  0.03926557 -0.03271971
  0.07987065  0.02987983  0.0627175   0.01595078 -0.03290269 -0.04939794
  0.02774747  0.03568064  0.00518085  0.07752948]
[ 0.0568291   0.05315677  0.08311682  0.01697513 -0.05371571  0.04767995
  0.01411086  0.02540198 -0.08183722 -0.04020433  0.04652459  0.05361422
  0.04644399  0.01087879 -0.03098816 -0.05758408 -0.00224475  0.07357284
  0.02665747 -0.08211502  0.038661    0.06850918 -0.08335505  0.07712413
 -0.05943351  0.04292896 -0.03335111 -0.00017945  0.06388224  0.0380704
 -0.07052095 -0.01108275  0.05228538  0.06020132 -0.05993907  0.00104048
 -0.0038593  -0.00044211 -0.00088157 -0.07820994  0.01480538  0.05502639
 -0.02824609 -0.08222105 -0.00795156  0.03600811  0.00277939  0.07459477
  0.03478575 -0.01725487  0.00842547 -0.04838566 -0.06356835 -0.07703404
  0.07987205  0.01813668  0.08045468  0.02599743 -0.03403436  0.00251459
 -0.04537048  0.08052776  0.07761879 -0.0767172 ]
[-0.06808155  0.03222492  0.06303257  0.07382835 -0.04010741  0.0155232
 -0.02796983 -0.03973228  0.07632714 -0.06032459  0.04328518 -0.07180508
  0.08321076 -0.04093677  0.01312316  0.00771195 -0.06232166  0.02015186
 -0.03146456  0.00716134  0.05504055 -0.02191414  0.01228088 -0.05503566
 -0.02825706  0.05705499  0.07352989  0.04275311  0.05739593  0.06408066
  0.01657812  0.05491092  0.03991847  0.03547796 -0.0782354  -0.06870287
  0.00767043  0.00682412 -0.01652339  0.03694176 -0.0519687   0.00445393
 -0.04436522 -0.07697159  0.0206929  -0.0063925  -0.00828747  0.00398312
 -0.01634091 -0.0415403  -0.04877795 -0.02396441 -0.03906163 -0.01710615
  0.00835699  0.01632041  0.00469579 -0.00943918 -0.05710902  0.07722525
  0.03877486  0.06952662  0.02814329  0.05563853]
[ 0.077824    0.02489963 -0.06267522 -0.01388861 -0.02194147 -0.06885097
 -0.0498302   0.0815874   0.0282793   0.03565852  0.0570462   0.05949666
 -0.01989145  0.00390515 -0.00177613  0.08373887  0.01949709 -0.01920164
  0.04166075  0.05234056 -0.07260878  0.08285522 -0.01571424 -0.00073367
  0.03826357  0.02480954 -0.04293657 -0.02932164  0.07176032  0.06912074
  0.08319908  0.0321386  -0.05470119 -0.05216656 -0.03116111 -0.07333239
 -0.01136364  0.08295954 -0.04753154 -0.02161289  0.01345314  0.04753179
  0.06007821 -0.08232692 -0.06451828 -0.04553539 -0.0561024  -0.07211914
 -0.07896155  0.04473639  0.04483511  0.07441954  0.07820753 -0.04312898
  0.00339864 -0.01194123 -0.00398424 -0.0695705  -0.03502308 -0.06783126
 -0.0218069  -0.05096618 -0.07017497  0.06429667]
[ 0.0080117   0.04211084  0.01679818  0.06419899 -0.08233444 -0.04962929
 -0.07191639  0.02030408 -0.04703493 -0.00300092 -0.06770547 -0.06334926
 -0.05687127 -0.0458594  -0.07870188 -0.06990214  0.01555464 -0.00571551
 -0.02835242  0.05831484  0.0804906   0.01633883 -0.00858878 -0.03580933
 -0.06462164 -0.01338691 -0.0262357   0.00692198  0.00927096 -0.06124939
 -0.05755137 -0.04352121 -0.0155175   0.07047228 -0.03503997 -0.04215373
  0.03085742  0.0810317  -0.01862854  0.01550515 -0.04785338  0.06335699
  0.0379219  -0.07882674 -0.05405325 -0.03013256  0.07779367  0.06110754
 -0.0358445   0.06697918 -0.02721828  0.01934197  0.08354188  0.01251563
 -0.04365321 -0.018759    0.05921947  0.0622255   0.05202249 -0.00073706
 -0.03815371 -0.06818957 -0.06431587 -0.00026876]
[ 0.02962181 -0.00885496  0.0370663  -0.00517397  0.04723238 -0.01293882
  0.03647615  0.04274716 -0.07063962  0.07914976 -0.0603103  -0.03340079
 -0.02035407 -0.05345522 -0.04261126  0.05191446  0.02558444  0.00181706
 -0.0744417   0.00124241  0.06430349  0.06162239  0.07482148  0.02281189
 -0.06268728  0.03796002 -0.00638612 -0.04860828 -0.08276241 -0.01726022
  0.00860344  0.00835273 -0.04068588  0.0719794   0.08305258  0.07735562
  0.01106462 -0.03502125  0.00646087  0.06413355  0.04843924 -0.06806841
 -0.0706981   0.03733537 -0.07503362 -0.08094661 -0.0271013  -0.04586539
  0.03329083 -0.04465431  0.07781377 -0.03165993 -0.02493264 -0.06543805
  0.01866913  0.00771032  0.05950292  0.08236039  0.07712225  0.00204352
 -0.08065227  0.07975975 -0.01440986  0.03601208]
[ 0.07252979 -0.05884986 -0.06667784 -0.04759022  0.03109198 -0.05907178
 -0.08263011 -0.00591963  0.07201912 -0.04728373  0.02712282  0.01596531
 -0.03823459  0.01286129  0.03289112  0.06993026 -0.07246356 -0.00742605
 -0.00528412 -0.04761142 -0.02940568  0.01104695  0.07984798 -0.07161681
 -0.06874114 -0.06037402 -0.01471639  0.06838962 -0.07976916 -0.01661657
 -0.02997734  0.0661247  -0.06950849  0.07211306  0.01395416 -0.06801954
  0.06562918  0.08176591  0.05190057 -0.01630602 -0.00735559  0.07933422
 -0.05977635  0.05278154 -0.04051532 -0.06654066 -0.06212717 -0.07777515
 -0.03602961 -0.02343382  0.07685181  0.02124526 -0.07340788  0.0688156
  0.04116095  0.01051191 -0.03388366  0.00887807  0.08206988  0.05870076
  0.06078845 -0.05123781 -0.08357099 -0.00080215]
[ 0.07312039  0.02857308  0.08318753 -0.02175622  0.06948941  0.01186021
 -0.08264302  0.04960353  0.06777573 -0.06719051 -0.00149214  0.04710352
  0.03425568  0.03498744 -0.0066918   0.07492011  0.0307854  -0.03259613
  0.04077986 -0.0369129   0.03376027  0.02958164  0.06233325 -0.07708677
 -0.07209806 -0.0606038  -0.06008136 -0.06214586 -0.02256487  0.03824393
  0.05766191  0.00838921  0.06973387 -0.07598118  0.07591169  0.02635209
 -0.0007764   0.04128336 -0.07460098 -0.08284865  0.04596477  0.04027715
  0.03874877  0.0797589   0.03261694 -0.06776817 -0.01780393 -0.00875467
 -0.06855191  0.06738108 -0.04273183  0.02553689 -0.01626288  0.02926245
 -0.07300129  0.01998857 -0.00944847 -0.01948261 -0.0620062   0.03367863
  0.07833476  0.07333965  0.07180265  0.04328925]
[ 0.02056864 -0.05242778  0.08256962  0.04660694  0.04205818 -0.01347063
  0.06987476  0.02553063 -0.06348372  0.06162482 -0.01924124 -0.07332766
 -0.05747532 -0.07537858 -0.05007026 -0.04687192 -0.02743383  0.02960819
  0.02694774  0.03286761  0.07833713  0.00573695  0.06983645  0.06652965
 -0.05497397 -0.06956641 -0.01636399 -0.052964   -0.07519837  0.0796042
 -0.00033345 -0.00785506 -0.006751   -0.04116008  0.00837482  0.02298261
  0.02507677  0.07260551  0.06560054 -0.01519123 -0.08282807 -0.07313684
 -0.0555874   0.00516172 -0.04205922 -0.04397639 -0.06832859  0.04512272
  0.02994069  0.05671611  0.00496947  0.01594062 -0.05001242  0.08088962
 -0.01269223 -0.01173548 -0.07585821  0.01109207  0.07312264  0.04351457
  0.05253273  0.03997524 -0.05076933 -0.08208757]
[ 0.02921919 -0.03024246 -0.06680059 -0.06509915 -0.00103491 -0.0449178
 -0.01677542  0.01443412  0.02261094  0.03183627  0.0482345   0.07083904
 -0.08034613  0.03968798 -0.05343531 -0.03811382 -0.01551463  0.03761277
 -0.05535268 -0.03518648  0.06393974 -0.02259391 -0.05233107 -0.08348031
  0.0079099  -0.06836013 -0.0042113   0.01018817 -0.01050357  0.02257809
 -0.02713367 -0.04181752  0.02271065  0.01782747  0.02698043 -0.03451178
 -0.01115525  0.06018256  0.07229743  0.03199194  0.05004222  0.0412152
 -0.0673223   0.06491867 -0.04973442  0.03786629 -0.08296502 -0.05463152
  0.00408259  0.05375404 -0.02880469 -0.02796043 -0.02007204 -0.04958437
 -0.06264606 -0.06122087 -0.01052754 -0.066019   -0.07472596 -0.07128538
  0.07029315  0.06479888 -0.02162218  0.06259292]
[-0.06815796 -0.03922389 -0.04584582 -0.02737024 -0.04294309  0.06373424
 -0.04562272 -0.04149965 -0.01360578 -0.03831012 -0.07132968  0.08323145
 -0.07345571 -0.03277476 -0.01966603 -0.03344618 -0.02203368 -0.06697609
 -0.02351932  0.04001125  0.03453112 -0.02396558  0.04165331 -0.03417528
 -0.08128162  0.04376419  0.04694767  0.04764396  0.07908317 -0.00849912
 -0.0239314   0.0160246  -0.06128298  0.00300621 -0.04451511 -0.06596924
 -0.01893773  0.05327052  0.08004987  0.05856437 -0.06060369 -0.04576089
  0.04726643 -0.04645996  0.07495431 -0.04220305 -0.0011627   0.05668674
 -0.00942924 -0.02457743 -0.01909105  0.03298744 -0.03867485 -0.04664582
 -0.04337946  0.08447064 -0.01368464 -0.00431505  0.06967301  0.05856671
  0.00403629 -0.02452301  0.0660341   0.06247053]
[-0.06465864 -0.04240972  0.01262161  0.04307062  0.05033004 -0.00910383
  0.00718824  0.00334171  0.06942496 -0.05172888 -0.06958558 -0.05018342
 -0.03919997 -0.01274064 -0.05776974  0.0742382  -0.02191344 -0.08832097
 -0.03593642 -0.091629    0.07658216 -0.03718354 -0.08504172  0.05800445
 -0.06107829 -0.03961661  0.04342141  0.02873897 -0.04492841 -0.05998931
 -0.02378927 -0.03915229 -0.02488531  0.00158434 -0.0620753  -0.04829979
 -0.01302428 -0.00266005 -0.09412836 -0.06167724  0.00571983  0.09158473
 -0.0044844  -0.06947574 -0.02244455  0.03085351 -0.00285744  0.01684042
 -0.00227645 -0.00450985  0.03620137  0.0631332   0.06433075 -0.00217277
 -0.01477436  0.01556948  0.0791812   0.05733699  0.03753435 -0.05382837
 -0.07426831  0.07091567  0.02978572 -0.07240249]
[-0.07760683 -0.09888234  0.00926072  0.00102081  0.02288863 -0.0650962
 -0.06582122  0.04845029  0.07357734  0.03743517 -0.07169732 -0.03889864
  0.02565576 -0.0492586  -0.0119389   0.02292237 -0.00788233 -0.06590346
 -0.0470062   0.01836422  0.00553113  0.01336675  0.00804255  0.08151603
  0.05037351 -0.11650641 -0.05953558  0.02399045 -0.03144918 -0.02248964
  0.02389644  0.0488205   0.07888194  0.06728514 -0.06533506  0.01723963
  0.0582828   0.03108405 -0.08408421 -0.02528531 -0.07243632  0.07019144
  0.05201986 -0.0248372   0.05716228 -0.00438825  0.09395179 -0.06882303
  0.08864278 -0.10203245 -0.03553953  0.05251802  0.05949404  0.08333122
 -0.01189023  0.02718168 -0.04854335 -0.05810322 -0.05900544 -0.08504213
 -0.01293384 -0.03461134  0.01343737  0.02666344]
[-0.06717982 -0.06365865  0.02824445 -0.07436091  0.05917719 -0.04175632
 -0.12360879  0.05285642 -0.06124337  0.06148024 -0.0069697   0.01749968
 -0.10685635 -0.06146881 -0.01469486  0.11165785  0.02924495 -0.00125401
  0.05085518  0.02391057  0.00044535 -0.02780315 -0.02748042  0.03015445
  0.03693516  0.00083881  0.04302886 -0.07752848  0.03748443  0.09118141
 -0.10851728 -0.0874406  -0.04997008  0.0706004  -0.06169924 -0.04773521
  0.07267684  0.00606094  0.02223826 -0.02593362  0.0202463   0.02201128
  0.06488342 -0.0315236  -0.00434809 -0.00767967  0.07792485 -0.08248832
 -0.00991937 -0.05105419 -0.09452134 -0.02569174  0.0158433   0.02851513
  0.01690325  0.00929289  0.00191546 -0.04855642 -0.00072647  0.04636193
 -0.02721064  0.00520136 -0.01171288 -0.03278248]
[ 0.02825413 -0.00430642  0.00954602 -0.06059339  0.09772961 -0.06069314
 -0.01738484 -0.01254616 -0.04078947 -0.01154245 -0.04880638 -0.00733067
 -0.09330287 -0.01649559  0.08968744 -0.00775491 -0.02825021  0.02001216
  0.02418544 -0.0193482   0.01528587  0.08901881 -0.06918489 -0.01351968
 -0.00112062  0.00087572 -0.02363287  0.00614015 -0.03725484  0.08302613
 -0.02954826  0.00553082 -0.0170086  -0.05852455 -0.08515986 -0.00226319
 -0.03878727  0.01406079 -0.10238308 -0.12699103 -0.10753701  0.02869617
  0.08799175  0.01061732  0.04587199 -0.03440415  0.03810804 -0.00586383
  0.06577232 -0.06783444 -0.08789049 -0.06072971 -0.00295569 -0.01688727
  0.0458644   0.07727496 -0.02518395  0.04221302 -0.08781265 -0.07277358
 -0.02511269  0.04557557  0.0802686  -0.05187956]
[ 0.06231098  0.05639488  0.02130345 -0.1052655  -0.01591874 -0.0138509
 -0.07947092  0.08164775  0.07623411 -0.04284036 -0.04818004  0.06017256
 -0.1088682   0.02926644 -0.04733183 -0.01251686  0.00584161 -0.03660873
  0.08686692 -0.03909823 -0.02025485  0.03694488  0.03962637  0.03064438
  0.02095189  0.01832023  0.0259436  -0.10647004 -0.13267535  0.09712616
 -0.11936425 -0.06776032  0.11362895 -0.07770082 -0.0039753  -0.06980502
  0.03759092  0.12958416 -0.01962626  0.00993115  0.01334518  0.02486315
 -0.06171308  0.00062075  0.0669252  -0.06268359  0.06539636  0.07328147
  0.0160511  -0.05624676 -0.12598175 -0.01135206  0.05887277  0.05703886
 -0.03216438  0.09953825  0.06659442  0.06484431 -0.00152918 -0.07315999
 -0.00678895  0.05471053 -0.03583935  0.02502953]
[ 0.04853348 -0.01000975  0.04754538  0.01279966  0.05284283  0.02486479
  0.00077216  0.01008617 -0.04607128  0.02695358  0.06553098  0.07791624
 -0.07652867 -0.00445228  0.05806213  0.00047349  0.02521111  0.03376568
 -0.00325428  0.05933164 -0.04459533 -0.01722459 -0.09724358  0.05689353
  0.03590765 -0.09557842 -0.07622205 -0.11325119 -0.00945204  0.07342985
  0.00426384 -0.03875332  0.04865104 -0.119784    0.01121023 -0.17028454
 -0.03869472 -0.03045111 -0.03130491  0.04804834 -0.03982359  0.113006
  0.07401794 -0.02675908  0.04283569  0.05172592  0.11134885 -0.00325183
 -0.01277458 -0.07848049 -0.14881681 -0.02787251 -0.08669118 -0.0595555
 -0.03443527  0.11348908  0.02664519  0.06858951  0.1180761  -0.04800959
 -0.061465   -0.05639816  0.01478577  0.11351464]
[-7.39991441e-02 -1.35496706e-02 -5.31702898e-02  5.92108332e-02
  6.13154955e-02  1.50644062e-02 -5.78457452e-02 -2.81542204e-02
  1.74742062e-02  4.92023639e-02  1.42321214e-01  9.51299444e-02
  9.93990991e-03 -1.01977959e-01  1.66625798e-01  1.91305444e-01
 -9.09088552e-02  6.91227466e-02  6.37402833e-02 -7.70194307e-02
 -3.98109294e-02 -6.04636843e-05 -1.38765961e-01  4.42240499e-02
  8.33747759e-02 -8.42781644e-03  6.81720078e-02  3.84218954e-02
 -1.65594444e-01  1.77989766e-01 -1.27150148e-01 -7.63243735e-02
  2.07382724e-01 -2.86329053e-02 -9.62578952e-02 -2.28827357e-01
  8.25433508e-02  6.48365021e-02 -4.54902239e-02  5.56836501e-02
 -1.10507786e-01  8.76040664e-03  3.39548700e-02 -3.86445522e-02
  3.18116945e-04  4.57738787e-02  1.69916198e-01  2.17206962e-02
  1.60248756e-01 -2.15349972e-01  3.15912664e-02 -1.30284309e-01
  3.97778563e-02  1.56259283e-01  1.91807318e-02  1.29784286e-01
  4.55405228e-02  2.85999868e-02  6.91793263e-02 -2.06919491e-01
 -1.21437982e-01  2.87133008e-02  5.70049211e-02  5.59809133e-02]
[-0.11913653 -0.05049753 -0.00309085  0.06956661  0.13928998 -0.03297168
 -0.12848838 -0.20293716  0.05678602 -0.05193416 -0.0045748   0.13014817
 -0.1102324  -0.05708712  0.03988508  0.2007894  -0.0164958  -0.00729512
  0.03453563 -0.0440089   0.04529871 -0.01919061 -0.08358651  0.06293105
  0.17249857 -0.0997078  -0.01691855  0.0419043  -0.11772863  0.05341812
 -0.0324485  -0.0183993   0.16195703 -0.07493586 -0.11092998 -0.15866521
  0.04924684 -0.04365707  0.01820287 -0.01636883 -0.08767646 -0.04421432
  0.06330589  0.03587927  0.00028554  0.03503061  0.15663216 -0.15632771
  0.20239645 -0.17166631  0.00633034 -0.0401239   0.03951721  0.13625354
  0.02468029  0.05122316  0.01002549 -0.03938287  0.10825731 -0.15862821
 -0.07434084  0.00396554 -0.01810165  0.12123717]
[-0.17915107 -0.13994502 -0.06365411  0.08326895  0.02660607  0.05084557
 -0.05492195 -0.09066401  0.04340365 -0.03049922 -0.03422275  0.04195705
 -0.03956536 -0.185784    0.09121422  0.15257792 -0.06064812 -0.1105952
  0.14032607 -0.02586752  0.12102319 -0.01634168 -0.10910815  0.02559027
  0.16163716 -0.0512529   0.0320811   0.02848991 -0.06510868  0.21539134
 -0.01368114 -0.11515367  0.16797063 -0.08479919 -0.08883557 -0.03713069
 -0.06542524  0.07089624 -0.0462065   0.20141783 -0.0886476  -0.03009278
  0.03664551 -0.01780214  0.0506494   0.03756434  0.22493467 -0.06115006
  0.18729255 -0.19413029 -0.04829449  0.01444557 -0.01861118 -0.02136015
 -0.03404673  0.13727461 -0.12411801 -0.00923101  0.21121132 -0.15367778
 -0.07495882 -0.09896761 -0.02049255 -0.02789917]
[-0.11900856  0.08648337 -0.05990597  0.08428714 -0.13437167  0.06749348
 -0.05666099  0.07601303  0.0274472   0.12173672  0.21075337  0.02951709
  0.07146103 -0.1027275   0.03856078 -0.18326348  0.10470594  0.02645345
  0.00855654  0.10276034 -0.04840927 -0.00130306  0.11561713 -0.01475562
 -0.02169987  0.01851846  0.09962557 -0.05103954 -0.0658196   0.10342994
 -0.06735231 -0.04218783 -0.01010467  0.02939631 -0.01955601 -0.14836884
  0.06019088 -0.11537702 -0.05544475  0.07852159  0.05218932  0.03656913
  0.0212798  -0.15920565  0.09641937 -0.0687004   0.05802069  0.0867032
 -0.06774684 -0.07042432 -0.07044752  0.06701827 -0.16564354 -0.09866399
  0.16288583  0.00032658  0.06302316 -0.00619505  0.06545369  0.04746521
 -0.04691208 -0.00110968  0.06026989  0.11805639]
[-0.01625312  0.05366035  0.04603551 -0.03193126 -0.00274473 -0.01155219
 -0.15155749 -0.01347121 -0.04569737  0.10678235  0.22924818 -0.00099889
 -0.04104813 -0.06335936  0.08253167  0.00447446  0.00163754  0.10905801
 -0.04345041 -0.04351974 -0.09317315  0.10194641 -0.05692549  0.13003376
  0.02654601 -0.08331017 -0.03254148 -0.08528122 -0.05788555 -0.03087066
 -0.21334332  0.08293723  0.1224261   0.04683245 -0.11584871 -0.04780304
 -0.01107583  0.0108395  -0.18076465 -0.01371663 -0.06246217 -0.07452079
 -0.01027392 -0.20577712  0.07114992 -0.0156283   0.01446588  0.00462337
  0.02215982 -0.14710449 -0.18489878 -0.04621854 -0.22461614  0.07845572
  0.05708398  0.0469713   0.05269542 -0.1103856   0.13175061 -0.09962803
 -0.09589171  0.03387379  0.17563272  0.20019834]
[-4.14414443e-02 -1.70805708e-01 -6.91676289e-02 -7.62061328e-02
  9.19065252e-02 -1.82930417e-02 -3.56160291e-02  1.51759192e-01
  9.90948305e-02  1.60397157e-01  1.07367806e-01  1.04216434e-01
 -1.46044299e-01 -1.93532750e-01  1.67868763e-01  6.15319535e-02
  1.60968944e-01  5.75100593e-02  1.33090928e-01  1.93162829e-01
  1.22843664e-02  1.29601300e-01 -2.09177155e-02  4.63355556e-02
  1.26969203e-01 -5.69083244e-02  4.54500876e-02 -2.12315887e-01
 -3.21343653e-02  8.66120532e-02 -2.59230405e-01 -8.10899962e-07
  2.51928627e-01 -1.32258266e-01 -2.55814433e-01 -4.22814190e-02
  2.01753378e-02  1.27311483e-01 -1.68611497e-01 -1.43995462e-02
  3.15988213e-02 -2.54917294e-02  6.94151223e-02 -1.64542109e-01
  2.22333863e-01  2.59012207e-02  8.65520909e-02  6.79432899e-02
  3.94629762e-02 -1.12681545e-01 -2.95048535e-01 -1.91471372e-02
 -2.09723294e-01  8.79641622e-02  5.55673540e-02  1.54135883e-01
  3.11339144e-02  8.08918029e-02  2.94437945e-01 -1.31601930e-01
 -9.91015360e-02 -1.72422871e-01  2.13377282e-01  2.44401619e-01]
[-0.0551642  -0.02126776 -0.04851112  0.05725783  0.04894626 -0.04497441
 -0.12321012 -0.08308991  0.1485333   0.08174811  0.08792382  0.02919249
 -0.01783123 -0.2002695   0.154265    0.18860444  0.05649314 -0.04871305
  0.06520709 -0.01376022  0.00273585  0.03777226 -0.10125962  0.13801487
  0.20260948 -0.02354763  0.02789489 -0.06978062  0.00704804 -0.01780442
 -0.1148838  -0.00549178  0.19291762 -0.14272703 -0.14047919 -0.03131854
  0.10181749  0.0639138  -0.09247205  0.09486208 -0.0943513   0.01943845
 -0.08218414  0.14584139  0.06081624 -0.01075521  0.06456866  0.01694377
  0.24308501 -0.06624047 -0.18417387 -0.00206343 -0.10555665  0.04414618
 -0.0894501   0.12748118 -0.12216091  0.04303742  0.17334779 -0.12012827
 -0.01290531 -0.05106895  0.1355776   0.09603989]
[-0.0030463  -0.04625402 -0.07154778  0.08814903  0.13881214  0.02228365
 -0.15538934 -0.12913671 -0.01645692  0.04749665 -0.03323436 -0.07948593
 -0.07121408 -0.2386071  -0.01037256  0.1512047   0.02429065 -0.04971651
 -0.03597139 -0.09957494  0.12236252  0.02547466 -0.14106108  0.15060407
 -0.05563046  0.02128986 -0.01799028  0.04997703  0.02314842 -0.08142158
  0.08314279 -0.16675292  0.09872195  0.07251528 -0.12345696 -0.11911219
  0.04344535  0.10996649 -0.10245884  0.09256086 -0.04177989  0.09477245
 -0.0128621   0.15332238 -0.08252391  0.05595943  0.02181353  0.02524734
  0.0603844  -0.01779704 -0.10039576 -0.07172271  0.02252522  0.01666429
 -0.10765108  0.07413565 -0.05484477 -0.10207401  0.12339695 -0.23478623
 -0.10160899 -0.02810084  0.15913668  0.07981017]
[-3.25858295e-02 -1.56710878e-01 -1.00776732e-01  1.79885790e-01
  1.11513913e-01 -6.53064698e-02  3.50432768e-02 -1.68253452e-01
 -6.14267364e-02  7.67255798e-02 -2.80702766e-02  9.62878168e-02
 -8.85213688e-02 -1.02980882e-01  7.36601353e-02  4.43026200e-02
 -1.23279206e-01 -1.01122528e-01 -4.17672805e-02 -1.10681459e-01
  2.36393474e-02 -3.18805454e-03 -1.55067578e-01  1.02514885e-01
 -1.90108400e-02  1.47345066e-02 -1.12529740e-01 -1.01181790e-01
  6.80543808e-03  4.25383970e-02  2.01888848e-02 -1.19513504e-01
  1.67712778e-01  6.44883290e-02 -1.46118790e-01 -6.54412955e-02
  1.44878775e-03  1.82701200e-01  3.52293663e-02  1.39163241e-01
  2.41705868e-02  6.14784360e-02 -9.66189802e-03  4.23192196e-02
  2.54420694e-02 -2.53761485e-02  1.35196699e-03  1.62929241e-02
  1.50329962e-01 -1.22861311e-01 -7.23725855e-02  6.04326949e-02
  8.00014734e-02  6.24148399e-02  1.21569225e-04  7.59800971e-02
 -1.78969968e-02  7.41679668e-02  8.48342031e-02 -1.18410721e-01
 -8.08073357e-02  5.42612150e-02  1.81210026e-01  1.06460728e-01]
[-4.21559028e-02 -5.88150583e-02 -4.21669632e-02  1.59602970e-01
  1.58760086e-01 -4.77641746e-02 -4.37747501e-02 -1.58721149e-01
 -9.44612771e-02  8.89652222e-02 -1.39250755e-01 -3.59757505e-02
 -6.22194409e-02 -2.12554842e-01 -9.76879615e-03  1.84618890e-01
 -1.72473583e-02  3.12582292e-02 -1.20350393e-02 -5.60531132e-02
  1.36148259e-02  5.86669780e-02 -1.64844587e-01  1.75031260e-01
 -1.41541357e-04  5.76473884e-02 -1.53092206e-01 -9.28519443e-02
  1.72512550e-02 -5.38852513e-02  1.13146910e-02 -4.16081734e-02
  2.30203062e-01  2.76293196e-02 -8.87769535e-02 -1.61488682e-01
  1.30937010e-01  1.48990706e-01 -9.34050679e-02  1.20185725e-01
 -3.32078664e-03 -9.35778841e-02  1.85510330e-02  4.56401370e-02
  1.22884676e-01 -5.92515320e-02  1.22211359e-01  3.34312543e-02
  1.16598368e-01 -1.14891663e-01 -6.84301835e-03  7.25036440e-03
  1.40862674e-01  8.32580328e-02  5.05036041e-02 -1.38104765e-03
  8.29336718e-02 -1.16835274e-01  1.20345287e-01 -6.06592000e-02
 -1.13061368e-01 -4.85616457e-03  6.45947307e-02  8.91725570e-02]
[-0.12319889 -0.05227653 -0.03972539  0.08025879  0.07939576 -0.0956329
 -0.0551043  -0.12158523 -0.06088565 -0.01153083 -0.12104925  0.064578
 -0.0302694  -0.17223953  0.11045571  0.08601011  0.06109592 -0.00146374
 -0.1244223  -0.13252236 -0.01366233  0.09390501 -0.10603999  0.04861742
  0.11638235  0.06324891 -0.17505318 -0.03859787 -0.07955389  0.02042734
 -0.08903579 -0.03085947  0.04108304  0.02874818 -0.03271015 -0.06007055
  0.09358259  0.11900469 -0.07446968  0.0876987   0.06805841  0.10238511
 -0.07890421  0.02026517  0.10878632 -0.0408513   0.01788802 -0.04702598
  0.16110082 -0.05430602  0.01557734 -0.09493615 -0.03621481  0.09736026
 -0.02857912  0.09493723  0.01428065 -0.02438616 -0.07215355 -0.11301617
 -0.02018608  0.1302642   0.12800926  0.07430772]
[-1.85502023e-02  9.27051064e-03 -3.96846421e-02 -1.00570952e-03
  8.35416168e-02 -5.26240245e-02 -3.20341513e-02  2.04325076e-02
 -8.85441825e-02 -2.25019120e-02  8.57938826e-02  7.32143596e-02
 -1.15846306e-01 -1.62410695e-04  1.19479924e-01  1.15430012e-01
  1.73312090e-02  5.63594028e-02 -3.27990018e-02 -1.10576034e-01
  2.38887127e-02  3.12189460e-02 -9.68110636e-02  6.56180829e-02
  5.60192019e-02 -2.82326713e-02 -1.61779374e-01 -1.28740966e-01
 -5.80407791e-02  3.64202820e-02 -1.66606575e-01 -9.10065174e-02
  1.01611674e-01  4.67988327e-02 -2.97002103e-02 -7.72034898e-02
  1.77089557e-01  1.50586203e-01  8.73365425e-05  5.25695756e-02
 -4.29959856e-02  1.44591415e-02 -5.93632981e-02  4.62984387e-03
  5.35647161e-02  8.23518857e-02  1.65148512e-01  1.39850499e-02
  1.00495614e-01 -1.68017238e-01 -1.11573465e-01 -2.84517650e-02
  8.42528716e-02  1.22270755e-01  2.90046111e-02  5.94523363e-02
 -2.94973254e-02 -5.60460165e-02  1.63968317e-02 -1.63492054e-01
 -7.40218982e-02  6.54546469e-02  9.19357240e-02 -6.65707365e-02]
[ 0.03128545 -0.04037219 -0.04170004  0.0592084   0.07280974 -0.05276516
 -0.06674482  0.03290248 -0.08993252 -0.0038912  -0.07311729  0.07635792
 -0.09526177  0.04340795  0.06342348  0.10429473  0.01147554 -0.00373847
  0.01661219 -0.11049652  0.01379332  0.05392265 -0.06484414  0.12623239
  0.0021057   0.01514882 -0.07954005 -0.10731844 -0.08257514  0.01167897
  0.01994993 -0.14431109  0.12163234  0.02563247 -0.07713264  0.01063238
  0.00936608 -0.02510492  0.06011551 -0.02645515  0.05733566  0.05787442
 -0.05477469  0.0473377   0.03645677 -0.05991288 -0.01035709  0.07029245
  0.05264366  0.005367   -0.08494083 -0.03063701 -0.09300171 -0.01992702
  0.0646107   0.10337161 -0.08410545 -0.09162501  0.05123929 -0.08961625
 -0.01156199  0.07361632  0.06545363  0.0189126 ]
[-0.0034348   0.06311338 -0.01435134 -0.00948127 -0.02235061 -0.01969686
  0.00397199 -0.01613473 -0.02341269 -0.0234916   0.01257823 -0.06024741
 -0.0523559   0.05537196  0.07219123  0.02146625  0.07762199  0.0492292
 -0.04164376 -0.0824151   0.00773562  0.06788578 -0.04363526 -0.0693533
  0.05963289 -0.06523991  0.08394631 -0.07505699  0.03297647  0.04680874
  0.06744523  0.03785475 -0.06536137 -0.03119186 -0.04888891 -0.00315458
 -0.00923506 -0.01801962 -0.05377465 -0.00922009 -0.07188103  0.02616188
  0.07250509 -0.00976607  0.01964883 -0.05313483 -0.00353457  0.04739162
  0.05043573 -0.06044064  0.07431527 -0.01460735  0.07997756 -0.02250743
  0.0634718  -0.0032557  -0.06992352  0.07333175  0.07904429 -0.01831775
  0.02269445  0.06242395 -0.00578444  0.01630056]
[ 0.03550098 -0.06666707  0.02724004 -0.03385541  0.04680937 -0.00059374
 -0.01270539  0.05547329 -0.06954527 -0.05462233  0.06426621  0.05714478
  0.06581751 -0.04820372 -0.05972174 -0.00976766 -0.00375502  0.05244797
 -0.07661175 -0.02298299  0.00479797 -0.03186058  0.0751041  -0.01245099
 -0.04663692  0.033207    0.00689986  0.0694808  -0.04059949  0.00454313
  0.02940754 -0.00823415  0.03438636  0.04093523 -0.06334153  0.03300521
  0.00305761  0.05661427 -0.04572457 -0.00032312  0.07003098  0.00187159
 -0.00563756  0.01623763 -0.03683434 -0.04132511 -0.03819502 -0.06579025
 -0.03410329 -0.0391535   0.04897314  0.01685153  0.03861815 -0.0600446
 -0.06661647 -0.01836301 -0.00689084  0.07854303  0.01858722  0.0215222
  0.02729868  0.07117147 -0.02529154  0.03686479]
[-0.00115143  0.07335522 -0.06018743 -0.04073646  0.0171999   0.05899698
  0.05657073 -0.04623589 -0.05016989 -0.0179563   0.03410052  0.01863977
  0.05009759 -0.07920044 -0.04574729 -0.05326408  0.07568451  0.05568074
 -0.01350725  0.02978543  0.0496283  -0.06964897 -0.06631328  0.00031087
 -0.0636393  -0.07770977 -0.02451387 -0.00341683  0.06253544 -0.01487269
 -0.08123391  0.07232568  0.03286278  0.0397233   0.0720607  -0.0251095
  0.06205487 -0.07899023 -0.00693914 -0.02929985  0.02666958  0.02621666
  0.05665595 -0.07744749  0.07235644  0.05500772 -0.07343651  0.00379159
 -0.02457035  0.0464524  -0.00119623 -0.00501428  0.05157489  0.06901728
  0.06303389  0.02656227  0.0686041  -0.05566343 -0.06161565  0.02620658
 -0.06389203  0.0824373   0.02807165 -0.0568067 ]
[ 0.06583964 -0.03128453 -0.03417109 -0.06409925  0.01478159 -0.06737779
 -0.04420451 -0.04462246 -0.01736146 -0.06907552 -0.07541288  0.0497153
 -0.07552115 -0.0810545   0.02491158 -0.02390331  0.03166312  0.03438626
 -0.01522817  0.04528662  0.0495194   0.02377215 -0.05753533  0.0283754
 -0.08252273  0.00571974 -0.05182758  0.00508776 -0.04232472 -0.01511604
  0.0758139   0.00668115 -0.03506014 -0.07863458 -0.00776347  0.07467837
  0.03144998 -0.02195483 -0.02789196 -0.08297082  0.03820968 -0.06288657
 -0.07592652 -0.00358342  0.0539142  -0.08149809 -0.01010566  0.05649314
 -0.07167499 -0.04656109 -0.06648375 -0.03214077 -0.04456945  0.02561055
  0.00087593  0.0762595   0.03823298 -0.04910033 -0.04991349  0.04312106
 -0.0091747  -0.06543171 -0.01787186 -0.05434042]
[-0.02320612  0.01159435 -0.03004731 -0.02032796 -0.00261693  0.08406828
  0.02453431  0.01544448 -0.04652981  0.02146852  0.0442557  -0.01017092
  0.0078217   0.00245242 -0.06695907 -0.0805425  -0.03584061 -0.04218905
  0.06657089 -0.00732567  0.08371677 -0.02608545  0.06253203 -0.00346653
  0.02066996  0.03739742  0.05989429  0.02555865  0.00207954  0.05170626
 -0.04630224 -0.05515312 -0.03755002  0.07149995  0.0501202  -0.05346036
 -0.06871029  0.00591205  0.00829385 -0.04365126 -0.06791598 -0.02904274
  0.0318758  -0.02219667 -0.03177011  0.06843021  0.00873803 -0.08184855
  0.05491256  0.03377154  0.05699434 -0.06516358  0.08204462  0.04855909
  0.0765039  -0.03421643 -0.00463556  0.08249765  0.04933595  0.0157226
  0.06120174  0.04880951  0.08059355  0.04709133]
[ 0.06666408  0.04783254 -0.03629002 -0.04742904 -0.0378056   0.00951023
  0.01224252 -0.04775762 -0.04955262 -0.0128241  -0.06113548  0.03437032
  0.04918375  0.04886442  0.02065371  0.07042601 -0.0438909   0.02588889
 -0.03915454 -0.03776467 -0.02447296  0.05618966 -0.0026933  -0.02737529
  0.06238005 -0.08035106  0.03026185  0.0678388   0.0567309   0.05888904
 -0.07788457  0.0255924   0.07335424  0.01925838 -0.07692729 -0.01514088
 -0.07053477  0.04938567  0.02297634  0.02961535 -0.06413844 -0.05918971
 -0.05662897  0.01841909  0.02255815  0.04318763  0.0706475   0.08410137
  0.00200175 -0.08186612  0.05198783  0.07675564  0.00802793 -0.05553428
  0.05845425  0.02746227  0.05777482 -0.07380831  0.07473757 -0.02438731
  0.00479698  0.04955154  0.001298    0.0436995 ]
[-0.06264617 -0.00129197  0.00661627  0.03177904  0.01687177 -0.02344484
  0.04137215  0.03936051 -0.05961477 -0.0181786   0.07725826 -0.03907216
 -0.08001717  0.03262515  0.0277279   0.08465318  0.05288986 -0.00102369
 -0.03261786 -0.06751987 -0.05249471 -0.01637926  0.0135173   0.10169134
 -0.02243342  0.03961485 -0.05201003  0.00521092  0.00817665 -0.00195301
  0.02141524  0.01010966  0.09630799  0.03279924 -0.07328663 -0.06014265
  0.08891042  0.08390578  0.02534153 -0.0659233  -0.05667207  0.03040883
  0.00783812 -0.07851846  0.07808738  0.07893641  0.06994762  0.01947397
  0.11675565 -0.05420302  0.01751413  0.02671041 -0.0361663   0.0154893
 -0.03755601  0.03376375 -0.07374325 -0.06274711  0.10073025  0.03012733
  0.01300866 -0.04739327 -0.03383142 -0.02244707]
[ 0.00075711 -0.05439011 -0.04391061  0.06370196  0.18453602 -0.00991823
  0.02792056 -0.0247777  -0.0353533   0.05124155  0.00059704 -0.03877681
 -0.05527642 -0.00641332  0.04897801  0.1781316   0.00699116 -0.05649262
 -0.07388927 -0.04142103 -0.00457052  0.05789328 -0.12610915  0.13200262
 -0.04359305 -0.06598167  0.11480749 -0.01869241  0.0732341   0.17900997
  0.00128733  0.09604657 -0.03442647 -0.03909071 -0.09577309 -0.02104335
  0.08983454 -0.04792211 -0.00866364 -0.12617037  0.07971715  0.02335259
  0.12485436  0.10873368 -0.06181224 -0.02617243  0.01881463 -0.12148985
  0.06670628 -0.15536274 -0.13281257  0.05646402 -0.03376713  0.0895348
  0.05579019 -0.00735346 -0.04463242  0.08822449  0.12197786 -0.13835384
 -0.16449505 -0.07919119  0.00318493 -0.05204298]
[ 0.06909522 -0.01555769  0.04512805 -0.07030626  0.11606374 -0.02582387
  0.04321652 -0.09092545  0.06101009 -0.00156549 -0.05561097 -0.03281147
 -0.09812758  0.04407907  0.0596146   0.04934137 -0.00051601  0.00958622
 -0.13220392 -0.09477506 -0.01302612  0.19031231 -0.1315081   0.05343023
 -0.04327646  0.07336511  0.05881442  0.0392138  -0.05328303  0.09728357
 -0.1439772   0.15179773  0.04025765 -0.06746074 -0.10885234 -0.08917229
 -0.05738126 -0.11282337  0.07766907 -0.12440039  0.02531768  0.08551118
  0.07832362  0.13106287 -0.00444161 -0.07353032  0.08156069  0.0195392
  0.22739147 -0.15510705 -0.06467272  0.05506941  0.01380406  0.00300376
 -0.04181938  0.02937829 -0.01799329  0.16858889  0.0405832  -0.04634892
 -0.03381685  0.02093645 -0.05809288 -0.07833952]
[ 5.06198872e-03 -1.27743036e-01 -1.03786163e-01 -3.84894498e-02
  8.90232399e-02  6.91221952e-02 -1.01253174e-01 -1.02705389e-01
 -4.84675169e-02 -3.38128209e-02  3.96726318e-02 -5.13217673e-02
 -1.21535197e-01  3.07751652e-02 -3.56786624e-02  9.57102105e-02
 -6.99168816e-02 -9.24177617e-02 -2.74359547e-02  6.08126074e-02
  2.30223071e-02  1.65790692e-02  5.48376516e-02  9.24804509e-02
 -1.58319175e-02  4.06126752e-02 -6.30214810e-02 -3.84756774e-02
  2.97481604e-02 -1.37538668e-02  7.28373080e-02 -6.47299737e-02
  8.73524770e-02 -4.27165329e-02  3.17889154e-02  6.89368397e-02
  3.17569748e-02  7.56567270e-02  4.01231945e-02  3.78971547e-02
 -8.42074081e-02 -4.44521345e-02  5.21716140e-02 -1.39325438e-02
  6.59909099e-02 -9.21615213e-03  6.70303479e-02  8.62412344e-05
  4.46121655e-02 -6.50663674e-02 -9.12342221e-02  3.30438130e-02
  3.25963125e-02 -4.87517007e-02  9.96237807e-03  6.55558929e-02
  4.60607894e-02  2.44225431e-02  8.33008215e-02 -1.11949734e-01
  2.39272416e-03  9.47322324e-03  2.78220810e-02  2.04412807e-02]
[ 0.03070387  0.00483382  0.08960658 -0.06986061  0.07390121 -0.06072363
 -0.09813945 -0.08490486 -0.04559892 -0.0279624   0.09353666  0.04934623
 -0.18817587 -0.00875557 -0.09994143  0.07044551  0.00393848 -0.03543379
  0.04293808  0.02054234  0.09602884 -0.00111203 -0.02621644 -0.03586742
  0.01780138  0.01985495 -0.1258942  -0.13166675  0.04368927 -0.04577238
  0.09968448 -0.08516528  0.02279007  0.04369914 -0.08273382  0.0002505
 -0.04882443  0.10536779  0.02783768 -0.06872965 -0.10759979  0.15110084
  0.01248259  0.07594208  0.04256997  0.05754598  0.11812489 -0.03008637
  0.05798711 -0.06575913  0.00257293 -0.02165028  0.02634249 -0.03785769
 -0.0779009   0.06360559 -0.12254548 -0.13392524  0.04594805 -0.11819936
 -0.0627244   0.13862966  0.08334768  0.10019993]
[-0.05825788 -0.11460114  0.11653091 -0.08135933  0.03240937  0.07216003
 -0.00193219  0.01193849  0.05271615  0.00566697 -0.00161776 -0.06469984
 -0.11721674 -0.12423197 -0.04472532  0.1507102  -0.04236962 -0.06945813
  0.0040183   0.04670282  0.0326563  -0.07421925 -0.07587343  0.05857856
  0.03607369 -0.03866403 -0.04108191 -0.08966811 -0.10767496  0.07206894
 -0.03737763  0.01811153 -0.06407677 -0.0083785   0.00836611 -0.06305864
  0.03265731  0.07776204  0.06954227 -0.03431791 -0.07345861  0.10716028
  0.05305284  0.06181666  0.05161276  0.04948006  0.15268771  0.00805726
  0.20827562 -0.07032832 -0.15960783  0.05607634  0.03372971 -0.02357455
 -0.10417428  0.23947899 -0.04734519  0.04309091  0.05625834 -0.10986817
 -0.00050428  0.00160328  0.06241787  0.09518832]
[ 0.00808523 -0.14511009  0.06670409 -0.02914398  0.05260481  0.08467261
 -0.09317879  0.19068709  0.11343975  0.07219433  0.1461137   0.18212256
 -0.12932572 -0.12020863  0.09736585  0.26399127  0.15352118 -0.03166246
  0.16388214  0.12215084  0.12844014 -0.1847128  -0.09228244  0.10057171
  0.10670087 -0.05131687  0.01007563 -0.23386939 -0.02441145 -0.02918191
 -0.07608239 -0.12356516 -0.05227254 -0.0041407  -0.03668597  0.01806429
 -0.16802596  0.1519176  -0.0154578  -0.09602388 -0.09570447  0.12450358
  0.13236755 -0.01824001 -0.03731203  0.00162676  0.05991878  0.16508551
  0.06599763 -0.13262832 -0.16971625  0.01253729 -0.03041999 -0.02608491
 -0.01597587  0.23449387 -0.05879146  0.00444013  0.05471464 -0.16288437
  0.04238422  0.01240844 -0.01502172  0.09110949]
[ 0.08682047  0.13355067  0.16356502  0.04698139  0.12388952 -0.14114209
 -0.13491412  0.17461112  0.1592839   0.02474342  0.2568117   0.21104306
 -0.16306475 -0.19875349  0.13680278  0.22935975  0.04707755 -0.02346632
  0.17337617  0.19912685  0.21271636 -0.11199347  0.02851713 -0.06255013
  0.34378478 -0.17774425  0.10813267 -0.18939875 -0.09021972  0.06589091
 -0.09984574 -0.09096716 -0.09419578 -0.08714394 -0.11102039 -0.02766079
 -0.13130848  0.2577754   0.08909874 -0.07948459 -0.1286303   0.07201231
  0.14032207 -0.04745917 -0.0533976  -0.04717526  0.12171705  0.26649207
  0.10587171 -0.10576356 -0.20248775  0.0031793   0.00442553  0.03601175
 -0.05114489  0.1889885  -0.10473622  0.03581992 -0.11773189 -0.13220835
  0.13404498 -0.09941369 -0.1505433   0.12752944]
[ 0.08474824  0.1647077   0.10707544 -0.03623011  0.02381791 -0.14813268
 -0.10642149  0.11350407  0.16790219  0.11340061  0.11765362  0.19325115
 -0.24229695 -0.12209775  0.17828508  0.12130571  0.15260674  0.11218134
  0.21531174  0.17970708  0.178112   -0.21578148  0.0252142   0.04887821
  0.24855529 -0.17852667  0.11825112 -0.13145289  0.03982134  0.10309974
 -0.09887179 -0.12407304 -0.08709849 -0.13891838 -0.02843035  0.0160269
 -0.06453937  0.16972883  0.1030207  -0.09271978 -0.21026643  0.13805571
  0.19603659 -0.08177863  0.05251985 -0.06056334  0.02313356  0.06884723
  0.10073221 -0.22872141 -0.3525118   0.0663894   0.00540275  0.11455195
 -0.0096799   0.22380747 -0.01820312  0.02811996 -0.0540989  -0.1470653
  0.0816794  -0.13745664  0.0035989   0.12163214]
[ 0.05806592  0.0683402  -0.0823504  -0.06523679  0.1666755   0.0791287
 -0.31717816  0.13027667  0.15009369  0.08977935  0.10423622  0.09265804
 -0.28049824 -0.1903112   0.1555614   0.09768731  0.16175565  0.01541818
  0.10222574  0.06974059  0.18949123 -0.07008976 -0.07127801  0.15779004
  0.1646814  -0.21514301  0.15205672 -0.04475811 -0.03919076  0.07526655
 -0.07864215 -0.10712709  0.11875649 -0.11571397 -0.14924535 -0.07594566
 -0.07153274  0.26640853  0.21542995 -0.07320859 -0.19295922  0.15676725
  0.2771673  -0.02271777  0.04791773 -0.14364974  0.08721147  0.07907997
  0.16414136 -0.16450104 -0.3183567   0.02135205  0.07295457 -0.06753264
 -0.05641909  0.33624396 -0.01954168 -0.03938508  0.04958623 -0.3214879
 -0.07869832  0.04876847  0.00507302  0.07084955]
[ 0.11257043  0.13532016 -0.09803408 -0.12456329 -0.01769292  0.02723144
 -0.203957    0.04732534  0.2646099   0.13963044  0.27207246  0.00399516
 -0.17613223 -0.1953444   0.2967663   0.18920271  0.16541608  0.0521119
  0.25821176  0.14106753  0.19205491 -0.06076917 -0.08272327  0.08514196
  0.13243431 -0.20727554  0.17009786 -0.2231701  -0.17920387  0.09866994
 -0.14139828 -0.12878193  0.01694408 -0.23734811 -0.27904254 -0.02513389
 -0.01802664  0.0416952   0.23585987 -0.06435383 -0.10018175  0.10045691
  0.19079654  0.01334067  0.09658742 -0.01580528  0.08303691  0.04982421
  0.03498144 -0.2345239  -0.27725703 -0.10339441  0.11308926  0.01748294
 -0.01736355  0.15611088 -0.07591287  0.15772542 -0.14219098 -0.205122
  0.07147225  0.05507652 -0.03864544  0.16739662]
[ 0.02519903  0.08287226 -0.2157353  -0.27842385  0.09741525 -0.15270098
 -0.21847178  0.1284726   0.02759796  0.26639342  0.32941446 -0.05783053
 -0.22233948 -0.2110246   0.08952069  0.00901063 -0.19192484  0.00603949
 -0.00763978  0.00286256  0.24583125 -0.01343832 -0.15569368  0.03670845
 -0.08789593 -0.20637727  0.06469627 -0.12456878 -0.21837673 -0.07379168
 -0.13013859  0.11599367 -0.05749895 -0.06535305 -0.3047365  -0.11742738
  0.25371322  0.10702746  0.21262614  0.05959802 -0.3258542   0.29171517
  0.19474004  0.0713539   0.21233617 -0.01352394 -0.04027456 -0.04588282
 -0.07511825 -0.20441765 -0.18592773 -0.14499557 -0.09012855 -0.01834612
 -0.00187014  0.1713524  -0.05059236  0.10417356  0.00143449 -0.0976761
 -0.10236916  0.05488752  0.16734493  0.18695025]
[-1.4749663e-01 -7.0601389e-02 -2.7313048e-01 -1.5311165e-01
  2.5258642e-02 -9.4800867e-02 -3.2354671e-01  3.6801912e-02
 -9.1689691e-02  2.6317289e-01  3.7663537e-01  2.4853889e-02
 -1.2499654e-01 -2.4204616e-01  1.9315533e-01  1.6210522e-01
 -5.6429384e-03 -1.3603392e-01  7.9711504e-02  7.8113765e-02
  2.0086260e-01  1.1485610e-01 -8.2173459e-02  1.4341255e-01
  2.6883718e-02 -2.2969881e-01  2.4750516e-01 -2.4283308e-01
 -2.7152553e-01 -6.9231533e-02 -1.0521255e-03 -8.1839941e-02
  1.1008180e-01 -5.8567242e-05 -3.3823064e-01 -1.4793272e-01
  2.0725818e-01  1.3124348e-01  2.2103854e-01 -1.0753503e-01
 -2.7877402e-01  2.6836964e-01  6.1504174e-02  3.0922325e-02
  1.4232884e-01  5.1749382e-02  6.5942095e-03  3.8220193e-02
  1.1120162e-03 -2.8437239e-01 -1.3249934e-01 -7.4942380e-02
 -2.4528092e-01 -9.6724272e-02  4.8204910e-02  2.1716057e-01
  3.5014868e-02  1.5271847e-01 -3.6168590e-02 -2.0663893e-01
  4.3104593e-02 -3.8708609e-02  1.2258008e-02  1.9310114e-01]
[ 0.04845368 -0.04749835 -0.30852333 -0.0852372  -0.01472066 -0.14037995
 -0.2549758   0.17429076  0.04559352  0.32440498  0.30939296  0.01518627
 -0.15259956 -0.09445662  0.00618033  0.10124136  0.01764632 -0.00358944
  0.04257978  0.04820031  0.23498839  0.01471709 -0.12521051  0.2912758
 -0.05706168 -0.19957185  0.07265145 -0.3136905  -0.1672225  -0.20181632
  0.03459288  0.1042928   0.09900399  0.04130686 -0.27877125 -0.26561216
  0.06323125  0.16610342  0.11011021  0.00319031 -0.08629572  0.27498022
 -0.02707863 -0.10902455  0.19640909  0.03329304  0.068626    0.07517343
  0.03788361 -0.4029127  -0.1975426  -0.20232217 -0.29306474  0.02502622
  0.16987683  0.11233381 -0.10370078  0.20536678  0.00202205 -0.1775498
 -0.03465684 -0.0568904   0.07178558  0.26838017]
[ 0.23988596 -0.21301723 -0.18974762 -0.1418761   0.01859605 -0.14630564
 -0.213018    0.18903193  0.02081886  0.36239675  0.29341158 -0.16572279
 -0.21942618  0.07499813 -0.07926355  0.13972637 -0.12807475 -0.04048825
  0.0166439  -0.04262526  0.163446   -0.0684165   0.04916383  0.26060003
 -0.13379961 -0.20605715 -0.04715016 -0.32015213 -0.16859418 -0.220757
 -0.03376405  0.03865205  0.05772299 -0.01246533 -0.22814636 -0.18950073
  0.15699157  0.06524594  0.01150794 -0.04049379  0.03196809  0.29707718
  0.00835226  0.0497041   0.05617711  0.00564208  0.05088549  0.12388514
  0.03601953 -0.29572794 -0.24936324 -0.22812098 -0.35241958  0.21050218
  0.1512143   0.10367318 -0.11155332  0.08270815  0.00806813 -0.16650842
 -0.09419025 -0.10522701  0.12505823  0.11770013]
[ 1.12593688e-01 -4.43202853e-01 -2.52960145e-01 -4.16330248e-02
 -3.28167193e-02 -3.41051221e-02 -4.81836461e-02  2.05293894e-01
  2.82014534e-02  1.06750689e-01  1.61831841e-01 -1.33307010e-01
 -1.42728642e-01 -2.27548573e-02 -3.24066244e-02  1.83166534e-01
 -8.51079822e-02  9.52812210e-02 -2.28212812e-04  4.52741943e-02
  1.26818821e-01 -1.44004315e-01  1.22156627e-01  2.98193902e-01
 -2.10785881e-01 -5.40361814e-02  7.09776627e-03 -2.78891802e-01
 -1.99144810e-01 -8.32562000e-02  1.19748555e-01  4.15195571e-03
  5.14133759e-02 -2.31390493e-03 -1.87131524e-01 -1.72087237e-01
  4.80884425e-02  2.03075841e-01 -1.40763640e-01  2.17580974e-01
  1.46771416e-01  2.89272964e-01 -8.24863166e-02  8.15436766e-02
  2.19989300e-01  9.29100513e-02  6.86332807e-02 -5.95026352e-02
  3.00796982e-02 -8.29802677e-02 -1.81517541e-01 -1.27181768e-01
 -2.25040451e-01  1.57169983e-01  1.16330408e-01  8.13063979e-02
 -1.48279712e-01  9.83965099e-02  2.14574069e-01 -1.70420691e-01
 -1.35809883e-01 -3.70754078e-02  1.58712327e-01  3.86403352e-02]
[ 3.73534998e-03 -3.97063822e-01 -1.76058933e-01 -6.55017719e-02
  7.77762681e-02  1.78804770e-01 -8.03104416e-03  9.51229557e-02
  2.42726617e-02  2.56772172e-02 -7.40324259e-02  3.22728854e-04
 -8.21452215e-03  7.97635019e-02 -2.16063205e-03  2.22281516e-01
 -6.59908205e-02  1.16757415e-01 -2.08572000e-02  1.19385667e-01
 -1.06526017e-02 -1.88449666e-01 -1.07142456e-01  2.39638239e-01
 -1.30320460e-01  1.01189286e-01 -2.74489052e-04 -8.64446983e-02
 -1.05616711e-01 -2.10351080e-01 -6.21496662e-02 -4.35614660e-02
  6.09581731e-02  8.21036771e-02 -2.58062869e-01 -9.87874418e-02
  1.82641059e-01  1.59070984e-01 -1.08676486e-01  1.42955765e-01
  1.86776504e-01  8.70377272e-02 -2.41421804e-01  2.25036412e-01
  5.34102023e-02  1.38292871e-02 -5.62155619e-02 -3.64990495e-02
  2.94559207e-02 -9.16086584e-02 -2.81401902e-01 -2.56964006e-02
 -2.55529523e-01  1.87593251e-01  4.85398201e-03  8.68086293e-02
 -1.00511737e-01  6.22478686e-02  2.22899392e-01 -4.27958637e-01
 -6.68790415e-02  4.04459098e-03  7.34117180e-02  1.73209589e-02]
[-0.04176995 -0.25791618  0.09192866  0.23759125  0.07815702  0.04093146
 -0.09745663 -0.04354558 -0.2451561   0.10409916  0.07839052 -0.06550007
 -0.070996    0.02468947 -0.09306737  0.04235896 -0.2573195   0.09159548
 -0.07236759  0.01393044 -0.07702367 -0.22950505 -0.12471041  0.1562207
 -0.21605933 -0.00052008  0.03747893  0.02574508 -0.09853777 -0.06401227
  0.03537058 -0.22475465  0.24944226  0.08488943 -0.2458168  -0.1868807
  0.16586089  0.15706858 -0.112139    0.05897879  0.1226121  -0.02589593
 -0.08096368  0.05604153  0.13035819  0.04595917 -0.05027737 -0.02422331
  0.08066282 -0.1887736  -0.24351947 -0.20277582 -0.05656991  0.07583483
 -0.04880212 -0.04532681 -0.109835    0.05812411  0.14570276 -0.33675855
 -0.16206282 -0.01003698  0.16765478  0.04935737]
[ 0.00549047 -0.16988176 -0.04714555  0.20044854  0.05259116  0.08295069
 -0.18844423  0.00681066 -0.1783476   0.13156155  0.11188997 -0.13868171
 -0.18988566  0.01346494 -0.14052388  0.14303778 -0.21316046  0.07926568
 -0.08042526  0.10006106  0.03043015 -0.22018376 -0.16204196  0.19400643
 -0.04008528  0.08406287  0.0269019  -0.067875   -0.00563436 -0.28524545
 -0.11030199 -0.18282579  0.25470653  0.00172232 -0.19548596 -0.31339696
  0.2253667   0.14476739 -0.03095799  0.04315136  0.14355682  0.03593667
 -0.16268872 -0.01195816  0.1175311   0.07210528 -0.04529383  0.09951679
  0.20170416 -0.28192338 -0.3361353  -0.20834658 -0.13188097  0.15846829
  0.0263568  -0.02462099 -0.04543324  0.13971989 -0.02912541 -0.2515345
 -0.11588115  0.13574888  0.225774    0.10720777]
[-0.04952587 -0.16212311 -0.2068193   0.11160199  0.13999654 -0.09228709
 -0.12781137  0.029239   -0.06566186  0.00752812  0.06316777 -0.08563917
 -0.20563738 -0.04532283  0.06957518  0.08535983 -0.11432644  0.04499127
  0.05806554  0.2188222   0.0600341  -0.08588813 -0.16996992  0.22479367
  0.0436106  -0.0987656   0.12928295 -0.14700148 -0.03870122 -0.10023037
 -0.02759324 -0.12194955  0.21336377  0.14640273 -0.21038179 -0.27548394
  0.16099606  0.2328918   0.02741573  0.05667241  0.09175222 -0.04508971
 -0.0792518  -0.03918308 -0.00617345  0.05076978 -0.06047651  0.16720985
  0.07360215 -0.17676437 -0.2898299  -0.21665838 -0.05026163  0.22087835
 -0.007873   -0.03016577 -0.11528284 -0.0325212   0.00798808 -0.2243408
  0.08101099  0.06253903  0.21650417  0.11832958]
[-0.08993957 -0.0381466  -0.01236864  0.17168595  0.03757856 -0.09047735
 -0.14090018 -0.05713706 -0.07719167 -0.0309914   0.01593237 -0.00961941
 -0.11179443 -0.00586433 -0.01774956  0.10285127 -0.04073269 -0.07000361
  0.00931214  0.14650306  0.09485088 -0.00677422 -0.06949648  0.21472803
 -0.06998643 -0.08791754 -0.00114573  0.04546725  0.01951439 -0.16729398
  0.06404919 -0.17704691  0.329318    0.04083294 -0.06996655 -0.24238926
  0.21360466  0.14308095  0.18235485  0.10035446  0.01523064 -0.04353452
 -0.03554919 -0.01114155  0.04672145 -0.02017965  0.00424192  0.06171801
  0.18149081 -0.16292696 -0.13841844 -0.00182436  0.00059684  0.2753234
 -0.00260827 -0.021566   -0.04664146 -0.10422821  0.1005111  -0.21192306
  0.02508174  0.19003649  0.19215254  0.15471251]
[-0.05417807 -0.05477028  0.06592559 -0.03564072  0.17600435 -0.07548337
 -0.13300009 -0.05396957  0.00497876 -0.01754807  0.10573941 -0.09714322
 -0.15865593  0.06790846  0.11949457  0.02394792  0.02078736 -0.025031
  0.02222432  0.09892611 -0.00696619 -0.02924911 -0.12284777  0.12336062
  0.08437228 -0.00610941  0.05002792  0.01138269 -0.00379694 -0.11304783
 -0.07344298 -0.00293809  0.18575704 -0.0205682  -0.25035    -0.13760321
  0.01659148  0.15267617  0.15417978 -0.00626828 -0.11603169 -0.08911708
  0.02667452  0.10466176  0.18172419 -0.07240333  0.07057825  0.05443925
  0.10955283 -0.10679565 -0.10327876  0.00596878 -0.08166459  0.07927068
 -0.0319622  -0.01037604 -0.01495438 -0.11750097  0.19915724 -0.23925112
 -0.03625676  0.13717574  0.2441527  -0.02841029]
[ 0.06744666  0.08622072  0.04549206 -0.00131173  0.10283339  0.02840348
 -0.09054821 -0.02849022  0.03411616  0.02007697  0.1422937  -0.01131716
 -0.04362238 -0.20875561  0.02840221  0.03676456 -0.00482861  0.05252719
  0.08628099  0.11534353  0.0308946   0.10419764 -0.08605721  0.10485619
  0.0659005  -0.05226655  0.02746401 -0.05561372 -0.0166118   0.01497997
 -0.10033244  0.02022788  0.06173242 -0.21708496 -0.10359018 -0.04440784
 -0.01776852  0.03750907  0.02050608 -0.01782083 -0.03355564  0.03930133
 -0.01223437  0.07355434  0.00546113  0.04177744 -0.04507755 -0.02652566
 -0.005873   -0.05250202 -0.11367892  0.01170895 -0.06112921  0.07058065
  0.10161984 -0.03088578  0.02938191 -0.00080885  0.15987647 -0.0691115
  0.03156874  0.02604103 -0.07543173 -0.0598276 ]
[ 0.10065882  0.10903731  0.02788028 -0.02286268 -0.09569942  0.02757085
  0.09285493  0.05684989 -0.06280635  0.07174355  0.09936191  0.05003803
 -0.03983046 -0.01598952  0.07512423  0.10431577 -0.03708458  0.09518081
 -0.00629835 -0.00518696  0.04697317 -0.06536325  0.10190547 -0.07637557
 -0.01228496 -0.09997547  0.00659986  0.07525898  0.07707212  0.03458105
 -0.05653647  0.06915276  0.09546237 -0.09501898 -0.15390673  0.01262475
 -0.08307046 -0.08690428  0.15366317 -0.00269184 -0.05124067 -0.07126261
 -0.01866276  0.03166812 -0.03217147 -0.00283292 -0.09294751  0.01716884
 -0.01587002 -0.05853469  0.04337478  0.06582981  0.00641128  0.04023651
  0.0315749  -0.10139497 -0.02000177  0.0102221  -0.09301805 -0.07870869
  0.03430833  0.01118655  0.02301825 -0.05033493]
[-0.07897151 -0.01762375  0.07000572 -0.04144506 -0.06962946  0.08361123
  0.07327271  0.02734517  0.05016316 -0.00026212 -0.02972501  0.00275917
  0.06637383 -0.03360356  0.08383165  0.02848783  0.02225218 -0.01536731
  0.04854714 -0.05687965  0.03428326  0.03091881 -0.03373755  0.00323261
  0.04429128 -0.07871138 -0.01905894 -0.00322617  0.07088407  0.06452738
  0.05012944 -0.012573    0.03705156  0.05796022 -0.05656536 -0.01363941
 -0.07430314 -0.07922705  0.08312225 -0.06825235 -0.05148653 -0.03424142
 -0.03201083 -0.06587571 -0.0309229  -0.00921261  0.07801091 -0.05251782
  0.0779415   0.00967761 -0.02125451  0.01507886  0.01450951 -0.05579782
 -0.05551228 -0.05100194 -0.03866713 -0.01298671  0.04585394  0.08291001
 -0.00075707 -0.06792374  0.05969163 -0.05188802]
[-0.06454022 -0.06501588  0.08379859 -0.02292321 -0.03932334  0.05989463
 -0.05517016 -0.08085971 -0.06042215  0.05136802 -0.02383747  0.01094303
 -0.08244093 -0.054859   -0.05690733  0.0572651   0.01605824  0.0297304
  0.06388287  0.00674611 -0.08057544 -0.0058285  -0.0034724   0.04433971
  0.05166561 -0.06468569  0.02743778  0.06762623  0.03319219  0.00701913
 -0.08252253  0.0456805   0.07593437  0.06700955 -0.07861839  0.06702574
  0.04028216 -0.04878021  0.07801148  0.07292358 -0.06550536 -0.02339414
 -0.03355844  0.07819053 -0.02445844  0.07561489 -0.07793218 -0.02448798
  0.07724612 -0.02421263  0.08266372 -0.00249191 -0.04104154  0.03564115
  0.01271589 -0.03404136 -0.03187677 -0.01501499 -0.00235533  0.02998797
 -0.02445614 -0.00441135  0.08160422 -0.04160205]
[-0.02849172  0.02139644  0.05095992 -0.08122714 -0.0160956  -0.04799906
 -0.06015306  0.02680826  0.04789551  0.0649819  -0.00356425  0.06595125
  0.07761294 -0.08275367  0.07314996 -0.00902168 -0.02737974  0.01595038
 -0.07604713  0.05205245  0.07949577 -0.06936534  0.0828022   0.04117618
  0.00928267  0.01146953 -0.01887034  0.01515882 -0.0548688   0.02758823
 -0.00735972 -0.00235102 -0.0365322   0.0461541  -0.0710085  -0.00751138
 -0.04099102  0.00577648 -0.04770951  0.08389924 -0.08293667 -0.0409607
 -0.03122142  0.05103672 -0.01360163 -0.08256335  0.06787946 -0.00440411
 -0.06753401  0.08087551 -0.06487008  0.0370013   0.08376066  0.05753727
 -0.02614848  0.06881797 -0.06700221 -0.06640778 -0.07881027 -0.08045863
 -0.04993621 -0.01831035 -0.0334793  -0.07078066]
[ 0.0566031   0.02237149  0.04839426 -0.01770478  0.02175528  0.04028048
 -0.0362744   0.01349341  0.05084255  0.03945438  0.05518719  0.01297303
 -0.04227601 -0.01903782  0.0683553  -0.03246186  0.06067257  0.0263186
  0.01690219  0.01721647  0.07604744  0.07626518 -0.07495316 -0.01613479
 -0.00093111 -0.03064823  0.04821242 -0.03686176 -0.02615042 -0.02802899
 -0.03192092  0.01121493  0.02966119  0.00063267 -0.05915321  0.02192593
  0.08029749  0.01142334 -0.07754682  0.03521482 -0.03621479 -0.03805658
 -0.06485849 -0.05005157 -0.0590415   0.00763437  0.06888928  0.01161378
  0.07985128  0.06199942 -0.06253996  0.0225833  -0.03101313  0.08179729
  0.01147334 -0.03876851 -0.06275266 -0.01985018 -0.0276431   0.03422488
 -0.01967058 -0.02332427 -0.07331154  0.06738288]
[-1.87727883e-01  1.01041332e-01 -1.36089474e-02  1.26122460e-01
 -1.90090701e-01 -5.55322729e-02 -9.68629047e-02  1.83232173e-01
  2.00965405e-01  1.31220132e-01  1.18874975e-01  9.07385647e-02
  7.22452765e-03  5.61891049e-02 -1.65314496e-01 -5.05873235e-03
  2.14250937e-01  8.71456638e-02 -9.36306044e-02 -1.93830192e-01
 -3.25971283e-02  5.93161955e-02 -4.09635194e-02  9.72421374e-03
 -1.59962893e-01  6.74351081e-02  2.99615264e-02  5.99936172e-02
  8.13383684e-02 -1.37122989e-01 -1.35400623e-01 -3.66500504e-02
 -1.60923300e-04 -9.39995274e-02  5.73660024e-02  2.50315294e-02
  1.42144993e-01 -1.14367872e-01 -8.00734013e-03 -9.68225226e-02
 -2.52607558e-02 -4.22948636e-02  3.81735736e-03 -1.42416790e-01
 -4.11234312e-02  7.67856464e-02 -6.48868605e-02 -2.38989722e-02
 -1.78152159e-01 -5.06628007e-02 -5.87952230e-03  1.22283332e-01
  2.29657553e-02  3.23952474e-02  9.91960764e-02 -6.98008463e-02
  2.14577913e-02  2.89711659e-03 -3.04591116e-02 -2.59649474e-02
 -1.21542394e-01 -1.86513327e-02 -3.19894478e-02 -1.18174188e-01]
[-1.5294507e-01  5.9415061e-02 -7.9388753e-02  2.2518933e-01
  8.2720220e-02 -6.7774365e-03  1.6967802e-01  7.8317799e-02
 -9.8265347e-04 -2.6801744e-02  1.2309105e-01  2.0414789e-01
 -2.0464019e-01  7.2916761e-02 -4.5509826e-02  1.7767258e-01
  1.3577211e-01  2.2889248e-01 -1.9584182e-01 -8.6737730e-02
 -1.1952813e-01  5.3559851e-02 -8.0843091e-02  2.1192108e-01
 -2.9323438e-02 -4.2525921e-02 -4.2417824e-02  8.3143786e-02
 -1.1969208e-02 -6.2768981e-02 -3.7393827e-02  3.8185641e-02
 -3.8508263e-03  1.6708011e-02 -7.1070120e-02  2.8012885e-02
  1.6535850e-01 -1.4160043e-01  6.3610785e-02 -2.5540397e-01
  9.9456623e-02 -6.9518428e-05  7.4549029e-03 -2.6996782e-02
  1.9804223e-01 -1.2126625e-02  2.0498859e-02 -1.3841486e-01
  1.1522767e-01 -2.2146006e-01 -8.2227245e-02  9.5984131e-02
  5.3460103e-02  1.4091527e-01  1.4013331e-01 -3.0840454e-03
 -4.5167610e-02 -7.2053792e-03 -2.5146509e-02 -1.4414845e-01
 -1.7366485e-01 -8.9617930e-02  8.8293150e-02  2.9174013e-03]
[-0.04953707 -0.1143824  -0.00081072 -0.0560967   0.21208821  0.07551648
  0.13038833 -0.14919703 -0.16935502 -0.12984262 -0.0467479  -0.07300419
 -0.09424789  0.11498546 -0.02549436  0.19896817 -0.04617042  0.00221605
 -0.12963855 -0.11271372  0.07176554  0.23082659 -0.06700005  0.14046696
  0.05189756  0.04296284 -0.17251985 -0.12823968 -0.10168482  0.15857276
 -0.10253664  0.04894692 -0.08417899  0.08570709  0.04485763  0.05698121
 -0.0549941   0.18324818  0.06534269 -0.1535287   0.07055067  0.07213482
 -0.10200007  0.08707382  0.2094419   0.03029106 -0.0660396  -0.15078528
  0.2567583  -0.07540191 -0.12701724 -0.03991896  0.05035915 -0.00915991
 -0.07373853  0.05070565 -0.04574204 -0.12111958  0.20021755  0.02565264
 -0.23373592 -0.00160723 -0.00521771 -0.08342548]
[ 0.03163538  0.02965249 -0.03027145 -0.05848249  0.03773124  0.13754107
 -0.17407572  0.06343264  0.14102146 -0.00979104 -0.01740363  0.00988706
 -0.1904125  -0.06685136  0.02406069  0.17736839 -0.07094546  0.08877715
 -0.03323732  0.06411429  0.06008405 -0.06459623 -0.05491192  0.0220086
 -0.03806439  0.09573177  0.1419587  -0.12843582  0.00878216  0.1547591
  0.09000551 -0.13158654 -0.00894182 -0.08851912 -0.12730856 -0.05908067
  0.00844299  0.21908972  0.14700687  0.04828634  0.03531442  0.01755758
  0.08182666  0.07265708  0.04012647  0.1754129   0.15704317  0.01757969
  0.22888052 -0.00520364 -0.18918602 -0.16795231 -0.02712647  0.0283017
  0.03993152  0.17929459 -0.1176568   0.09311212  0.11697946 -0.04613
  0.09413986  0.03129546 -0.08661155 -0.05722519]
[-0.05490566 -0.02346837  0.12551889  0.082122    0.04317329  0.19616002
 -0.05272746  0.21165138  0.15240148 -0.10100066  0.11718047  0.03426651
 -0.08111053  0.02776663  0.07364077  0.14412591 -0.09056845  0.05588614
 -0.06023129  0.11039793  0.13920261 -0.07737271 -0.15446036  0.02792483
  0.00806562  0.00163133  0.01703572 -0.23834799 -0.14019284  0.08215311
  0.01392363 -0.09594753 -0.01774207  0.00044085 -0.184171   -0.08611812
  0.05612815  0.2568573   0.1769703  -0.11926951  0.07588957 -0.06032594
  0.05855236 -0.06276877  0.05566343  0.16803159  0.2403911   0.14232032
  0.27904934 -0.14463475 -0.174802    0.00438257 -0.15954238  0.0352573
  0.02896567  0.17745884 -0.04059661  0.0104746   0.12366959 -0.08555964
 -0.08789127  0.18587856  0.01580962 -0.02491582]
[ 0.06145176  0.0006728  -0.06890054  0.10841892  0.07002074  0.07716278
 -0.17879908  0.13769656  0.21726954  0.04676362  0.20016465  0.00141125
 -0.20246558 -0.08078805  0.02399611  0.13896324 -0.10592764  0.0197718
  0.01519826 -0.01817252  0.16217627 -0.16411981 -0.06914527 -0.05936587
 -0.07296184 -0.14062975  0.11189543 -0.14698169 -0.1329608   0.11158115
 -0.01767269 -0.12591478  0.06006019 -0.05301968 -0.21746357 -0.00835964
  0.19129302  0.16458142  0.18078753 -0.0741699  -0.0520714   0.05806092
  0.0003094   0.09774562 -0.08800584 -0.04841962  0.12821096 -0.08719964
  0.16790739 -0.13879453 -0.17436627 -0.11512339 -0.117676    0.04258465
 -0.01039248  0.21706674 -0.12926252 -0.15371206  0.02003682 -0.22067226
  0.0674143   0.20301525  0.049296   -0.06428365]
[ 0.01450396  0.14386836  0.14961298 -0.08216687  0.03614659  0.06550352
 -0.20219669  0.17367479  0.19802666 -0.09101928  0.23554967  0.10434983
 -0.22055352  0.14307633  0.08260515  0.17177264 -0.02463109  0.0432771
 -0.0495903   0.0606994   0.18955168 -0.16395082 -0.05221552 -0.1210544
  0.00184884 -0.15183161  0.03441192 -0.34525272  0.01069504  0.20662321
 -0.18307619 -0.01724931 -0.09969468 -0.19061738 -0.14644551 -0.02924461
  0.08187714  0.18964693  0.04550137 -0.12927227  0.0846697  -0.03167593
  0.00472295  0.01656286 -0.01865918  0.04369494  0.17314018  0.04085555
  0.18947695 -0.20750833 -0.0928657  -0.09898181 -0.01954018  0.02722719
  0.0716604   0.19219975 -0.17004527  0.11733782 -0.16557105 -0.28153014
 -0.04908628  0.07268132 -0.13048753 -0.07168577]
[ 0.15885587  0.07758995  0.3451974  -0.15790921 -0.0550539  -0.03986235
 -0.05621585  0.12169041  0.20105429 -0.11748523  0.18246382  0.22627866
 -0.2725284   0.15708984  0.16373396  0.18669538  0.01012167  0.07287367
 -0.01746762  0.30720058 -0.00389648 -0.16257691 -0.19599876 -0.04820394
  0.04895167 -0.14005212  0.1492137  -0.40739816 -0.1232544   0.16811904
 -0.1940528  -0.14350572 -0.04748735 -0.11720566 -0.23692727  0.137671
 -0.1363121   0.27812576  0.02298588 -0.14090098 -0.02074522  0.12795289
 -0.00767134 -0.05724397  0.04710791  0.01020292  0.16771337  0.21259627
  0.20169564 -0.17660542 -0.1292997  -0.14962976 -0.06113288 -0.06136751
 -0.01167838  0.15426092 -0.14379224  0.04579134 -0.143287   -0.16619891
  0.08108295 -0.1838944  -0.04534833  0.01418111]
[ 0.12385394  0.12111089  0.30092686 -0.1009154   0.05653631  0.0603645
  0.07034489  0.1309544   0.18523127 -0.00639251  0.08009508  0.03848962
 -0.34291065  0.26072627  0.0274133   0.08676441 -0.05604871  0.10404114
 -0.08059417  0.05282482  0.01757028 -0.30269077  0.03178593 -0.05481587
  0.04484791 -0.13036348  0.11507523 -0.14160864  0.09445013  0.23289634
 -0.14328119 -0.10175268 -0.12061585 -0.27970564 -0.09873544  0.01944641
 -0.11327043  0.11481297 -0.0482818  -0.2566425   0.14134341  0.00636078
  0.10713916 -0.09952755 -0.11459247  0.03222208  0.1357325   0.0232506
  0.02908626 -0.0343062  -0.03504503 -0.15664555 -0.06385433 -0.11942306
  0.15217164  0.06542701 -0.23779102 -0.01510198 -0.22066441 -0.2989294
  0.11715488 -0.05686028 -0.2222203  -0.16914311]
[ 0.1151203   0.0509828   0.16646898 -0.1540484   0.05808115  0.13064446
  0.00102877  0.13197276  0.18983933 -0.00427374  0.17432621 -0.0153752
 -0.3998869   0.17048785  0.02526125  0.05036182 -0.01741389 -0.13845412
  0.11223447  0.08293941 -0.04038833 -0.16430764  0.02116019 -0.21496518
  0.10720377  0.03078138  0.20752135 -0.41297945 -0.02176099  0.2156899
 -0.03793898 -0.27283865 -0.04183305 -0.2846194  -0.06187284 -0.05543644
 -0.08160518  0.12884954  0.0332909  -0.23088397  0.02824927  0.04913686
  0.05649035 -0.10567106 -0.14036521 -0.08577383  0.05528158  0.07929823
  0.08773556 -0.08299914  0.00981486 -0.23387036 -0.101      -0.14997385
 -0.06355168  0.21919465 -0.22022018  0.1406328  -0.18841279 -0.16728325
  0.34427625  0.04737502 -0.21238987 -0.07838161]
[ 0.11346134  0.00333521  0.21220471 -0.18493265  0.15187183  0.14181624
  0.00669468  0.16844398  0.06616512  0.13733113  0.1360122   0.04634635
 -0.24092121  0.16534805  0.15592845  0.1622952  -0.10330618  0.03894295
 -0.08255943 -0.04875266  0.06912719 -0.09956897 -0.14931189 -0.081494
  0.07679366 -0.04187443  0.15665734 -0.3024059  -0.09917539  0.23226117
 -0.08970499 -0.19276421 -0.10970135 -0.08427256 -0.35829425 -0.07639384
  0.07205964  0.02478381 -0.02823265 -0.20544122 -0.02795276  0.02092878
  0.1415891  -0.04858578 -0.04953154 -0.14106938  0.07303454 -0.00711918
  0.07679364 -0.29429603 -0.04182041 -0.19129655 -0.1441535  -0.08267792
  0.12357599  0.2294766  -0.18835771 -0.04989573 -0.18735524 -0.07447531
  0.08073682 -0.0236134  -0.23637685 -0.02636845]
[ 6.61468208e-02  4.53909710e-02 -4.09788936e-02 -3.73435438e-01
  1.22782618e-01 -6.95462152e-02 -3.97029705e-02  1.32959828e-01
  1.56503797e-01  1.96578458e-01 -7.99669232e-03  4.30489667e-02
 -2.38953993e-01 -2.31660466e-04  1.84416369e-01  5.20856977e-02
 -2.38662541e-01 -3.87060270e-02 -1.18789904e-01 -1.32605776e-01
  6.12589642e-02 -4.79416177e-02 -2.10875273e-01 -4.16943990e-02
  1.06343970e-01 -2.73533314e-01  1.62616536e-01 -1.88590467e-01
 -1.49794698e-01  2.48728812e-01 -1.74980015e-01 -1.57965660e-01
  6.03690632e-02  5.37594482e-02 -4.80446577e-01  2.81592868e-02
  6.39232323e-02 -3.09197474e-02  6.76129162e-02 -2.58863419e-01
 -1.29603595e-01 -8.90528932e-02  1.47149414e-01 -2.67511189e-01
 -2.08843825e-03 -1.11129642e-01  2.52854507e-02 -6.04337901e-02
 -7.25889802e-02 -3.88213158e-01  3.27465832e-02 -1.67874806e-02
 -2.72752881e-01  7.70564005e-02  8.40111971e-02  2.68334836e-01
 -1.68710470e-01  6.84560537e-02 -1.98609605e-01 -3.21860135e-01
  8.86710063e-02  4.05593440e-02  2.76525738e-03 -5.92973568e-02]
[ 0.21810062 -0.03079367 -0.07040492 -0.38516572  0.03082092 -0.03507097
 -0.06931841  0.11089113  0.04423134  0.21523106  0.07329117 -0.11457581
 -0.34434316  0.03592927  0.08156278  0.06811119 -0.302365   -0.21724704
 -0.01799737 -0.01125494  0.10638374 -0.13464858 -0.05414891 -0.04435769
  0.13446212 -0.10597718  0.1347032  -0.01987191 -0.1294569   0.21159174
  0.01093222 -0.10959783  0.03446444  0.01305168 -0.28590938 -0.08405489
  0.11544478  0.05800056 -0.1245908  -0.12287173 -0.04095673  0.01691771
  0.11931223 -0.07335856  0.00671557 -0.15955077  0.0449337   0.05731482
 -0.12473375 -0.25947443  0.06666841 -0.16791406 -0.22532889  0.00916549
  0.00848147  0.02622033 -0.20872334  0.28999498  0.02319772 -0.14681332
  0.13493215  0.0701386   0.0013907  -0.09157417]
[ 0.14485669 -0.03418121 -0.17461707 -0.31458452 -0.00417758 -0.18593521
 -0.04483749  0.03431758 -0.08230867  0.24854341 -0.05053912 -0.2761535
 -0.20414953  0.26823395  0.08094466  0.07393406 -0.329596   -0.03475279
 -0.07567389  0.00995805  0.02336285  0.01774213  0.01357333  0.06083427
 -0.00380251 -0.01368568  0.07098316  0.01684053 -0.00140158 -0.01067569
 -0.05311122 -0.07668173 -0.00557716 -0.01096742 -0.19346729  0.02222912
  0.06901995 -0.02300703 -0.16776508 -0.14071256  0.12294371  0.03605429
  0.04483099 -0.10700987  0.10319107 -0.0308089   0.12407517  0.02088565
  0.05667531 -0.35057196 -0.03993758 -0.13700451 -0.39629668 -0.03092274
  0.2230306  -0.12813748 -0.03237081  0.328696    0.00377409 -0.09757651
  0.07224356 -0.04724613  0.07836495 -0.04766427]
[-0.02892803 -0.13174361 -0.29706657 -0.29706877  0.02476382 -0.26789415
 -0.1634877   0.07548358 -0.08488292  0.16564196  0.07073655 -0.08544951
 -0.3342526   0.12872837  0.17807434  0.09161904 -0.23916681 -0.05084622
  0.06287204  0.10499264 -0.006346   -0.00100713 -0.01336135  0.04297274
  0.03539046  0.0346894   0.08001022 -0.0188222  -0.06302114  0.02729734
  0.02431503 -0.16726227 -0.02419552  0.02780597 -0.1848875  -0.18167257
 -0.0101148  -0.02208645 -0.18393663 -0.06707548  0.03447475  0.14240354
  0.09892616  0.03935494  0.08739205 -0.18836601  0.07568134 -0.01105833
  0.05372305 -0.34236324 -0.0660906  -0.23461428 -0.33399478  0.05690882
  0.12959243  0.02467668 -0.08191171  0.30046222  0.15509753 -0.15681596
 -0.00558906 -0.14278379 -0.08193056 -0.05216449]
[ 0.12211621 -0.10056127 -0.2980704  -0.208647    0.0970539  -0.1431792
 -0.13393538  0.14457068 -0.01100966  0.20550951  0.01121463 -0.06153386
 -0.22420006 -0.05354521  0.0667749   0.04056756 -0.09694578 -0.04005313
 -0.080313   -0.06246911 -0.00935019 -0.12069227 -0.09226162  0.1782731
  0.02816628  0.0401085  -0.04682209  0.0858851  -0.16901125  0.03471073
  0.08975728 -0.05355509  0.09018388  0.17192905  0.08869997 -0.10526387
  0.05459699 -0.10899461 -0.2652755   0.06664047 -0.08546875  0.04536421
  0.0725061  -0.01943072 -0.02982855 -0.14872351 -0.12185531 -0.1438342
  0.09181071 -0.20724896  0.00999    -0.11624727 -0.3824524   0.09664392
  0.14818306  0.14353606 -0.0566224   0.2771187   0.07597722 -0.06883746
 -0.06083422 -0.04809217  0.08738787 -0.17102185]
[ 0.01342476 -0.32156828 -0.25825694  0.06701907  0.01359948 -0.17893653
 -0.08629879  0.25844902 -0.02610797 -0.08101644 -0.06179645 -0.03072164
 -0.04675119 -0.07139748 -0.12338491  0.15867075 -0.17925665 -0.08909329
 -0.09805442 -0.04708086  0.15840858 -0.08213042 -0.13012937  0.16119012
 -0.02035641  0.07745048 -0.02004681  0.09230251 -0.19419573 -0.10794529
 -0.00762984  0.02194761  0.01336204  0.06487883  0.08810944 -0.22660622
 -0.02763879  0.01058406 -0.26237902  0.03136297  0.01134214  0.06330879
 -0.03492222 -0.02143686 -0.02469007 -0.07247274 -0.16318154 -0.20292917
  0.14182079 -0.14261639 -0.01741169  0.08215619 -0.29108492  0.17484947
  0.05267623  0.0941596   0.04131798  0.12961063  0.12796868 -0.17921199
 -0.23172013 -0.00306731  0.05046552 -0.00693102]
[-2.2663304e-03 -3.2346329e-01 -8.7810852e-02  1.5799792e-01
  1.0516266e-01 -1.8921781e-01 -7.7064402e-02  1.7730205e-01
 -7.1088672e-02  5.7326086e-02 -4.8309479e-02  1.4007606e-01
 -2.1229293e-02 -4.5049086e-02 -9.7625054e-02  1.8892768e-01
 -1.4746115e-01 -5.9038199e-02 -1.5151697e-01 -1.4080489e-01
  1.3212968e-01 -7.7066302e-02 -1.1151034e-01  9.1294311e-02
 -8.2826726e-02 -1.6752791e-02  2.0287161e-04 -1.0222818e-01
 -1.3868789e-01  2.2372248e-02  5.0420403e-02  6.7102364e-03
  1.6446957e-01  1.2963138e-02  1.6439797e-03 -3.6743596e-01
 -8.6652990e-03  3.6750868e-02 -1.3791524e-01 -4.4664264e-02
  9.2973799e-02 -1.3720019e-02 -1.2408085e-02 -8.8815346e-02
  1.5493345e-01 -8.5020820e-03 -1.2443568e-01 -9.3960002e-02
  1.6612266e-01 -8.4417112e-02  1.5070849e-02 -2.9982561e-02
 -3.1910580e-02 -1.2434214e-02  8.2641944e-02 -1.2156269e-01
  4.7189619e-02  7.4383013e-02  8.1712924e-02 -3.1910199e-01
 -2.1370605e-01  1.4118971e-01 -8.1562579e-02 -1.4757112e-01]
[ 2.27654174e-01 -1.34163216e-01 -2.09690064e-01  2.37365052e-01
  1.30665973e-01 -5.78282885e-02  1.03347465e-01  8.86062011e-02
 -9.73188952e-02 -1.94787472e-01 -1.24002635e-01  1.89129427e-01
 -8.28251764e-02  1.00399442e-01 -1.72318876e-01  2.12792866e-02
 -1.45411387e-01  4.10202146e-02 -1.11834437e-01 -2.14070573e-01
  1.22636758e-01  1.98957132e-04  7.84035102e-02 -2.06869692e-02
 -3.75326909e-02  3.16802785e-02 -2.56716330e-02  1.10394724e-01
 -8.42311680e-02  2.26404816e-01  4.95653339e-02  3.14788930e-02
  1.88855037e-01  3.46048921e-02  1.50110312e-02 -2.92026699e-01
 -7.19911978e-02 -2.33500786e-02 -1.33568496e-01  9.95089412e-02
 -4.32766788e-02 -9.52042118e-02 -1.11953594e-01  6.75327107e-02
 -4.25204821e-02  5.25016412e-02 -1.68117940e-01 -1.67556733e-01
  2.35192850e-01 -1.43214434e-01  3.59287150e-02 -1.58160448e-01
 -5.55170588e-02 -1.06839016e-02  5.67956455e-02 -8.37908536e-02
  7.80055001e-02  1.84368089e-01  5.37620299e-02 -1.87627137e-01
 -1.48135975e-01  2.38042742e-01 -6.06781952e-02 -2.01135159e-01]
[ 0.1501268  -0.36961827 -0.01599264 -0.08784641 -0.14703462 -0.02560734
  0.04391372 -0.00908156 -0.08284654 -0.14276722 -0.08768404  0.03848305
  0.00770908 -0.09395902 -0.16746168  0.09020636 -0.09453966  0.13009843
 -0.09817252  0.04779347 -0.03470356 -0.06653479  0.08051885  0.07392138
  0.08718053  0.15450591 -0.05767963 -0.02424113 -0.08681813  0.09330242
  0.12439352 -0.26446608  0.12807909 -0.03866475 -0.02910153 -0.10654138
 -0.06763566  0.05004292 -0.01776616  0.25207564  0.01950167 -0.01091578
 -0.20248972  0.16894497  0.07587791  0.09327728 -0.00490078  0.05596032
  0.08244906 -0.0941821  -0.10578926 -0.03743505 -0.20093098  0.27811742
 -0.09300651  0.03753479  0.12031688  0.01965416  0.1739068  -0.06699125
  0.00626342  0.14581761  0.08818322 -0.13876632]
[ 0.19422942 -0.12343008 -0.04336863  0.0236646  -0.15976954 -0.08538352
 -0.04731883 -0.10535238 -0.05101621 -0.13722904 -0.07131262 -0.04132356
  0.07732368 -0.20355123 -0.16612379 -0.06974421  0.01361982  0.15092428
  0.02128292  0.08127555 -0.1107226   0.065883    0.08431101  0.12308726
  0.14259316  0.08363637 -0.13416958 -0.03688305 -0.16077377  0.05781369
  0.0673516  -0.18327896  0.04748826  0.0083513  -0.05407737 -0.09879594
  0.02436866  0.09514139  0.00279445  0.2733113  -0.05542422 -0.03076635
 -0.04014266  0.09923329  0.11244594  0.07577721  0.01813546  0.22322132
  0.0404334  -0.03461499 -0.18943192 -0.09895726 -0.02118731  0.17315564
  0.06735729 -0.06629758  0.12127851 -0.06195202  0.03892086 -0.07545685
  0.08424685  0.16421516  0.00216091  0.04070165]
[ 0.06560873  0.03694822 -0.11925403  0.05334951 -0.08117013 -0.05979558
 -0.07895774 -0.36175597 -0.08449065 -0.19772886  0.10852425  0.08670751
  0.10087925 -0.04892341 -0.07232271 -0.09260837  0.11746158  0.00287071
  0.00659377  0.02226043 -0.02488953 -0.03155486 -0.00195387  0.28192848
  0.04340349 -0.03992721 -0.01609427  0.06904906  0.00634086  0.12849791
 -0.00588755 -0.18487373 -0.02995003 -0.06451984 -0.12071029  0.01867709
  0.03149916  0.13569348  0.04769552  0.2291185  -0.17618747 -0.04344592
  0.02987072  0.05777688  0.07434848 -0.04280679  0.01247154  0.03619646
  0.18010546 -0.06730865 -0.09643633 -0.00760911 -0.20214361  0.29178405
 -0.02117426  0.03289777  0.08018257  0.00843828 -0.02095437 -0.16787519
  0.05809576  0.32046288  0.11761987 -0.15565348]
[ 7.09006786e-02  1.11611284e-01  1.47148728e-01  8.23664442e-02
 -9.29415319e-03  4.23829630e-02  1.06138274e-01 -1.72846034e-01
 -7.99729526e-02 -1.01188064e-01  2.47029483e-01  6.46686107e-02
  2.53191590e-02  1.95849106e-01  6.66592419e-02  3.76196741e-03
 -3.62141654e-02 -1.15834307e-02  3.55482660e-02  1.10272788e-01
  2.02950817e-02 -8.07825103e-02  3.72116752e-02  1.45071417e-01
 -2.24537179e-02 -9.02998373e-02  8.05228949e-02  2.01899484e-02
 -3.58787253e-02  1.17458753e-01 -2.77386550e-02 -1.61241982e-02
 -9.16847736e-02  2.11070832e-02 -1.66229770e-01  5.84971234e-02
  1.21620875e-02  1.94125064e-02  1.78808302e-01  8.03142861e-02
 -3.73366401e-02 -1.26056835e-01  5.55591024e-02  1.10917628e-01
  1.17911570e-01 -1.06191389e-01  9.45039541e-02 -6.57052919e-02
  5.71837276e-03 -4.22691144e-02  3.24477889e-02 -1.09874256e-01
 -1.44055367e-01  1.41618147e-01 -7.31046870e-02 -1.03417030e-02
  7.44291842e-02 -3.21655348e-02  7.38419890e-02 -1.20410599e-01
  1.02153076e-02  6.77580433e-03  1.75197958e-04 -9.40210000e-02]
[ 0.09783839  0.00414954  0.10635199 -0.10774387 -0.02563827  0.01746987
 -0.01381762 -0.05098903 -0.09217712  0.0014139   0.07887263  0.04594835
 -0.04031007  0.03230761 -0.11450431  0.0074079   0.00307935 -0.04124817
 -0.06224559 -0.00048901  0.08188828  0.09938564  0.05617076 -0.1688871
 -0.12459445 -0.19721524  0.03834278 -0.10869634  0.01969497 -0.08212686
 -0.07818141  0.01922475 -0.07720243  0.01112847 -0.03379678  0.07994059
 -0.14733951 -0.11241173  0.15869343  0.20143405 -0.11017703 -0.27040341
  0.14385088  0.09928337 -0.03045824 -0.07564848 -0.06995745  0.05237002
 -0.03720954  0.03788883  0.00348816 -0.12503307 -0.15199617 -0.14341496
  0.06795632 -0.06128669 -0.02094351  0.07869819  0.04734983 -0.03149599
  0.05896494 -0.00407006 -0.16402961  0.10127762]
[ 0.01003062 -0.07401726  0.03149794 -0.02421974  0.05591022  0.01686673
  0.01823117 -0.09942538 -0.11746908 -0.02290372 -0.05949968  0.04300524
 -0.09963967  0.16240127 -0.06065479  0.02543288 -0.0077417   0.05528007
 -0.09169146 -0.05136096  0.04676794  0.20493793  0.02423131 -0.1299791
 -0.05177858  0.02823364 -0.01775275 -0.21845141 -0.03724607  0.05145078
  0.14935796  0.06842516 -0.16042669  0.01405074 -0.11434557  0.02565902
 -0.18504557 -0.05786711 -0.10721204  0.14667033 -0.07673616 -0.11699498
  0.12504378  0.11122084 -0.03459255  0.0713154  -0.03819901 -0.02484329
 -0.04200089 -0.01193603 -0.05617333 -0.08469457 -0.15342736 -0.06958604
 -0.11126643  0.01290165  0.03612041 -0.03814549  0.18225834  0.06240755
  0.08461872 -0.011007   -0.00796112  0.05205948]
[-0.01343989 -0.00053909  0.03002511 -0.04229095  0.00157089 -0.0305365
 -0.02008249 -0.00578171 -0.033391    0.08246958 -0.05501725 -0.01297865
 -0.05940411 -0.06081412 -0.03602505 -0.06802925 -0.0533662   0.01258846
  0.03339415 -0.07869343 -0.05646518  0.07523989 -0.04603878 -0.06969311
 -0.00639954  0.00907353  0.03609316 -0.06121373 -0.024025   -0.06539907
 -0.03850535  0.08113531 -0.05966392 -0.02602737  0.05673382 -0.06334934
  0.01958653 -0.04377835  0.00727467  0.00508834 -0.04569463 -0.04530805
 -0.06494302  0.00288117  0.04547038 -0.08256463 -0.01161328 -0.06909755
 -0.01669755  0.08371272 -0.00167594  0.0083323   0.01354253  0.06651778
  0.0217765  -0.03732457  0.04548467 -0.00113303 -0.07872815 -0.04461319
 -0.03469292  0.00866351 -0.07765191 -0.01876325]
[-0.04219003  0.03362849  0.01561457 -0.06195139  0.01549065 -0.07261574
 -0.02504695 -0.07281747 -0.02967579  0.0299558   0.02616429 -0.01495405
 -0.05583839  0.01897721  0.06714638  0.02576689  0.02278443  0.05895949
 -0.05384264 -0.03532869 -0.06774523 -0.05184304 -0.06525728  0.07035065
 -0.03301477  0.07494035  0.01864537 -0.01428909  0.00022088  0.08272881
  0.05959476 -0.01142466 -0.00070581 -0.03867564 -0.04778865  0.04340086
 -0.01950938  0.04298512  0.07999829 -0.0228266   0.02500606 -0.0678957
  0.05877539  0.01385306  0.02136622 -0.03435868 -0.00587593  0.08367544
 -0.03239729 -0.01270791 -0.05479075  0.03523225 -0.02571636  0.07301416
  0.02096649 -0.05496976  0.01248325  0.05405644 -0.04239297 -0.03930447
 -0.07060172 -0.03853301  0.05752181 -0.045773  ]
[ 0.01530582  0.04771877 -0.01597583  0.05480685 -0.0297568   0.00702055
 -0.00970598  0.07511239  0.02466096 -0.07462944  0.05990716  0.05686329
  0.04999267 -0.00851642  0.03504188  0.04079255 -0.07162483 -0.02293501
 -0.02573334 -0.00241735  0.00471588 -0.01945947  0.01089513  0.0759344
  0.01916935  0.05982795 -0.00637788 -0.02437674  0.04953479  0.05020818
  0.05802856 -0.06887193  0.05556884  0.03728004  0.02099751 -0.06778046
  0.06473085 -0.00452937  0.05237945 -0.08108306 -0.07934073 -0.07980093
  0.00708081  0.00556759 -0.05007801 -0.0744248  -0.03186124  0.0096385
 -0.03957602  0.01142454 -0.0143888   0.02091371  0.0207655   0.01232721
 -0.05384028 -0.02665733 -0.06317441  0.05050633 -0.00405482 -0.05246012
 -0.08169569  0.0268781   0.02373841 -0.00494575]
[-0.19784914  0.18679693 -0.04725546  0.14012103 -0.13113472 -0.01857666
 -0.08106204  0.21924198  0.13132313  0.16853473  0.18814796  0.06119575
  0.00125169  0.06698543 -0.07559732 -0.16287418  0.18715441  0.09531846
 -0.0994907  -0.09725252  0.12233081  0.04528049  0.12276904  0.00237194
 -0.09746285 -0.01546441 -0.10322677  0.06722301  0.12073126 -0.09557971
 -0.10092259 -0.05102563 -0.00029658 -0.06659232  0.09349397  0.03991769
  0.19659011 -0.15937012  0.00366834 -0.11867374  0.10583884 -0.14309536
 -0.05575206 -0.22513124  0.06854517 -0.07328522 -0.05220218 -0.03031735
 -0.18694572 -0.00553873 -0.13332044  0.08094075 -0.01572171 -0.021844
  0.22116823 -0.1795247  -0.0151697  -0.06048151 -0.10476006 -0.12473255
 -0.13708504 -0.10032441 -0.19763738 -0.06786028]
[-0.18866108  0.088336    0.16287057  0.0937892  -0.0803301   0.11554711
  0.14923409  0.12116484  0.1116583   0.08930539  0.08136538  0.02956059
  0.20460708  0.05998949 -0.12404525 -0.05674691  0.03609238  0.19285782
 -0.19001402 -0.18212608  0.05301706  0.13894361  0.13022599  0.17475696
 -0.06530243  0.06590816 -0.19586514  0.0259349   0.20473918 -0.03795087
 -0.09000126  0.13063046  0.04693723  0.06499495  0.09998285  0.04394371
  0.24038742 -0.22137246  0.00764096 -0.13458985  0.06657934 -0.13952056
 -0.03744355 -0.05782143 -0.02440165  0.18688601  0.07323633 -0.173261
 -0.06895097  0.00314275  0.1296879   0.20151184  0.018512    0.00310254
  0.09109928  0.03201129 -0.04189065 -0.10717757  0.00698449 -0.01641047
 -0.0521304   0.15833578 -0.17776345 -0.17413224]
[ 0.05626282  0.18411662 -0.10079281  0.06715473  0.16551714  0.1425258
 -0.11258748 -0.01002646  0.08609833 -0.03535512 -0.05974111  0.09745694
  0.06565328  0.04906195 -0.10230081  0.22490427 -0.08413333  0.09500241
 -0.16918002 -0.11435729  0.20466907  0.00861795 -0.0084274   0.0993093
 -0.20541355  0.06186787 -0.0473809  -0.07878442  0.07036635  0.07948667
 -0.0620262  -0.02633454 -0.0476243   0.01601305 -0.11842939 -0.03633903
  0.14892922  0.00247527  0.13134287  0.02745768 -0.03144964 -0.04514094
  0.07313267  0.01307026 -0.05416315 -0.04186884  0.04143531 -0.12096224
  0.18765976 -0.06723378 -0.18342724  0.05173248 -0.05269496 -0.06227353
  0.15638599  0.03828468 -0.19580768 -0.08343455 -0.00262775 -0.17544445
  0.01051639  0.2334803  -0.08874804 -0.2449022 ]
[ 0.04458366  0.20312364 -0.18686472 -0.10409859  0.0481945  -0.05568707
 -0.07286414  0.05457816 -0.0372761  -0.11711296  0.09512765  0.23506965
  0.02610435  0.067112   -0.01062157  0.21280356 -0.21234044  0.17091587
  0.11175343 -0.03207529  0.11635684 -0.10221768 -0.13392355 -0.09432655
 -0.09561817  0.15249266  0.03020078 -0.1813573  -0.02229814  0.02134571
  0.01535745 -0.11572217 -0.18235606  0.13809887 -0.00302604 -0.08332507
  0.08105528  0.04709154  0.17885682 -0.0835981  -0.01289226 -0.07756313
  0.04001749  0.00693702 -0.03925838 -0.00573139 -0.11620975  0.06282916
  0.10253847 -0.00130038  0.00536465 -0.13357049  0.08440897 -0.0841781
  0.098674    0.02275771 -0.10428715 -0.03221951  0.11861884 -0.19159336
  0.0178232   0.1161805  -0.02844579 -0.17680848]
[ 0.01022505  0.1100658  -0.08130989  0.04771196  0.13911815 -0.01480207
 -0.16059475  0.21937302  0.05101803  0.02904108  0.13816574  0.11013335
 -0.04849017  0.00779877  0.13417664  0.0159331   0.02963883  0.2865074
  0.17388111 -0.11112858  0.18770178 -0.11679568 -0.0932852  -0.21934834
 -0.1610855   0.07350188  0.2634042  -0.27604866 -0.03107757 -0.07948645
 -0.10004214 -0.21186043 -0.25125203  0.0267887  -0.2028984  -0.1737405
 -0.14050046  0.12370177  0.31823087 -0.04076362  0.02649633  0.07907232
  0.13281871  0.03876166 -0.0827212   0.12389227  0.00181422 -0.07205433
  0.04536949 -0.10525478  0.03709919  0.01991511 -0.01387059 -0.1608541
  0.08319309  0.10990743 -0.04635142 -0.11078246  0.16779454 -0.14969587
  0.00299327  0.05619176 -0.27539355 -0.12456326]
[ 0.1013415   0.17725877 -0.09046186  0.08855936  0.04609095  0.04829815
 -0.06403001  0.11100584  0.14336103 -0.02457803 -0.0242194   0.03495549
 -0.0411376   0.1658516  -0.00416749 -0.01656019  0.03934439  0.06837126
  0.0197735  -0.09105559  0.04519175 -0.12210237 -0.03352204 -0.19374968
 -0.07299905  0.04944087  0.26839685 -0.29467598  0.00321764 -0.02632972
  0.08206606 -0.2192705  -0.28513125 -0.05190499 -0.13839126 -0.17581852
  0.02610072  0.11920933  0.21852043 -0.0840605   0.22746663 -0.06583066
  0.07185274 -0.00903066  0.02174899 -0.02943229  0.01503875  0.07265505
  0.11341852 -0.02674988  0.07141027 -0.11088324 -0.05635729 -0.10689397
  0.21269047  0.04732493 -0.04681848 -0.10475044 -0.06982448 -0.21123074
  0.05695829  0.08202486 -0.23561035 -0.03985859]
[-0.07440932  0.17356119 -0.04937113 -0.02155001  0.06322301  0.00091415
 -0.1140054  -0.00219842  0.23917286 -0.12464272 -0.04389752  0.22757185
 -0.08089459  0.23587874 -0.05202026 -0.08232584  0.02107743  0.12166253
 -0.11285257 -0.05195875  0.10104348 -0.09743922 -0.02687426 -0.21475707
  0.00476232 -0.11359702  0.23070586 -0.24470183 -0.02606543  0.10704965
 -0.01881102 -0.25195265 -0.4093146  -0.25665584 -0.30678782 -0.13424598
  0.12098444  0.03320674  0.19220513 -0.11099792  0.2188901   0.09208694
  0.15348393  0.02902072 -0.01958317  0.07654165  0.16620046  0.14345855
  0.18673217 -0.04100975 -0.08083407 -0.0558331  -0.05456077 -0.01020444
  0.12130498  0.10155166 -0.12291706 -0.16273417 -0.05142518 -0.16161811
  0.15518194 -0.06151526 -0.3653804  -0.02475275]
[-0.02387824  0.04373259  0.03302304 -0.21398145 -0.05281046  0.0086762
  0.0727904  -0.00049249  0.14439766 -0.09662129 -0.07835273  0.11899274
 -0.03511025  0.18523774  0.14553511 -0.02428223 -0.03257346  0.1421532
  0.00172827  0.05610068 -0.173813   -0.16920036 -0.11433186 -0.09542934
  0.01076857 -0.22715618  0.09802021 -0.26677945 -0.00790823  0.21438414
  0.01116969 -0.306553   -0.31117404 -0.27768105 -0.33218297 -0.12445587
  0.13307047  0.07171419  0.1810133   0.04342055  0.13356516  0.0328124
  0.19631441  0.03159472  0.04654798 -0.04819562  0.12682118  0.06569576
 -0.01043497 -0.02382141  0.09088264 -0.1886575  -0.08337052  0.0256958
  0.12113856 -0.13842689 -0.11489626 -0.16268638  0.05273399 -0.30579492
  0.13507147 -0.03062228 -0.32350752 -0.04052582]
[ 0.0411336   0.01813066  0.04133176 -0.37465334 -0.14033194  0.16196679
 -0.03251337  0.05076337  0.12093862 -0.16177732  0.03644931  0.10721502
 -0.12460517  0.15789592 -0.02163018 -0.09786279 -0.15625851  0.20973542
  0.04578161  0.06391578 -0.05910655 -0.32222673 -0.03190912  0.0994973
  0.05915479 -0.03730591  0.16955905 -0.27720797  0.14710443  0.1919769
 -0.05457357 -0.31573975 -0.16585596 -0.261294   -0.1097753  -0.22976358
  0.02414139  0.04191282  0.17557739 -0.01391413  0.22048472  0.04644992
  0.18684943 -0.04340434  0.01729791  0.13162412  0.14004378  0.14010653
 -0.015672    0.02579844 -0.16511203 -0.28662622 -0.21410024 -0.09473052
  0.19958876  0.06250011 -0.13596    -0.06082637 -0.01844534 -0.19704871
  0.08438154  0.11384047 -0.19139221 -0.01148218]
[ 0.19307528  0.07087903  0.06604538 -0.35117444  0.08597059  0.10573195
  0.03038845  0.09034744  0.12187365  0.01954009  0.02196764  0.03884556
