layers 4
layer 0 Flatten
layer 1 Dense
784 64
[ 5.28179631e-02 -2.82659009e-02 -5.97459450e-02  5.44142351e-02
  4.98614833e-02 -6.69284835e-02 -1.92770138e-02 -7.75218755e-02
 -3.22304703e-02 -3.82052697e-02 -4.08265293e-02  8.44398141e-03
  4.90246341e-02 -6.15739748e-02  1.51585788e-03 -6.39381930e-02
 -4.69308011e-02 -8.04174468e-02 -1.01798028e-03 -5.19343279e-02
 -1.91391930e-02  7.70639256e-02  3.46453264e-02 -4.53709811e-02
  4.67449427e-05 -6.77770376e-02 -7.44751319e-02 -6.22328147e-02
  4.07133773e-02  7.21069500e-02  6.09122142e-02 -4.90256436e-02
  6.31126016e-03  3.42061892e-02 -1.14875585e-02 -4.25172858e-02
  4.25545052e-02  7.46701136e-02 -3.29928324e-02  2.18255520e-02
  3.49313095e-02  7.82995746e-02 -6.48254603e-02  2.50575021e-02
 -4.79341298e-03  3.33523974e-02 -7.66419098e-02  3.37926000e-02
  6.71961680e-02  4.60728928e-02 -7.31357560e-02 -3.34981941e-02
  5.82307801e-02  3.98128778e-02 -4.86865379e-02  6.29839525e-02
 -3.21271271e-03 -7.87978023e-02 -2.77880393e-02  7.60883614e-02
 -3.53257842e-02 -2.21978128e-03 -2.69353501e-02 -6.62171617e-02]
[ 0.0520721   0.02676222 -0.05565076  0.00296069 -0.07335965  0.01395369
 -0.04873597  0.04676662  0.00068226  0.05193367  0.06375632  0.06616453
 -0.01418275 -0.00992661 -0.05243265 -0.02596971 -0.05457356 -0.06122974
  0.02816106  0.05758937 -0.04988184  0.05378618  0.08227063  0.05562045
 -0.07495513  0.01202075 -0.00045233 -0.01122314  0.07792167 -0.03356267
 -0.0305503   0.08338309 -0.04372224  0.02396101 -0.01925134 -0.06508035
  0.02061334 -0.06432828  0.03738058 -0.06277853  0.08271729  0.01469596
  0.01481372  0.02112006 -0.04843036  0.05302262 -0.0492005  -0.00953504
  0.07169608 -0.03799945  0.00936921  0.0404881  -0.05840968  0.068502
  0.04733541 -0.00587147  0.07922826  0.06969697 -0.03782102 -0.08192035
 -0.07603243 -0.01198351  0.04200975  0.005124  ]
[-0.0768446   0.03553967  0.00722516 -0.03736492  0.04787194  0.00738262
 -0.02745236 -0.06700668  0.07705777 -0.00641385  0.04138993 -0.05029579
 -0.07163922  0.07966896  0.03624937 -0.03028243  0.07917834  0.02396186
 -0.07160636  0.03855471  0.04418302  0.00046264 -0.07597367 -0.07816515
 -0.02915303  0.03388491 -0.04016017 -0.07865924  0.02612936  0.05265162
  0.0665324   0.01909826  0.07032145  0.07665797 -0.06473776 -0.00955325
 -0.0273706   0.03494485  0.05291571 -0.02614042 -0.07241523 -0.03329847
 -0.00044706 -0.07468888 -0.06313065 -0.0342033  -0.08192713  0.01932893
 -0.02927257 -0.02809588  0.02311285  0.02005427  0.01435056 -0.07827088
  0.00517841  0.00651076  0.04132403 -0.05823496  0.06710202  0.01182415
  0.0360906   0.05045328  0.03937203 -0.04796619]
[-0.01575389 -0.04406431 -0.03518109 -0.02554842 -0.06117436 -0.0536665
 -0.04586864 -0.02834652 -0.06104666  0.08310572 -0.063756   -0.04945899
 -0.02708638 -0.02129342 -0.00679604  0.00950655 -0.02150604 -0.06894431
 -0.05420752 -0.02775386  0.02808531  0.02529342  0.03437828  0.06795513
 -0.01894214 -0.07888249  0.03019142 -0.0129396   0.01614297 -0.00350894
 -0.03274768 -0.08038814  0.08171891  0.02107535 -0.08048368 -0.01803961
  0.00012017 -0.02812744 -0.00183367  0.00299877  0.05316525  0.02096885
 -0.03258963  0.00281706 -0.05031075  0.07939719 -0.00152434 -0.03497633
 -0.029093   -0.07722567  0.04670668 -0.05782971 -0.07342701 -0.07698344
 -0.0752776   0.07287877  0.07553791  0.00675591 -0.0084076  -0.0728737
 -0.03231635  0.002491   -0.03703564 -0.02753158]
[ 0.02777554  0.02959329 -0.0765413   0.01515457 -0.04789     0.03488701
 -0.0114071   0.02313601 -0.06869386  0.00119548 -0.05191379 -0.07699397
 -0.07759093  0.00225031 -0.02389918 -0.02524413 -0.06667709  0.03831212
 -0.05262993  0.00879049  0.00572056 -0.06451283  0.05441914  0.05966762
  0.02087355  0.0582734  -0.08377265 -0.00900899  0.02459048  0.05524736
 -0.03700349 -0.00973868  0.05115847  0.03712538 -0.00231685  0.02311405
 -0.07755663 -0.01842368  0.07543672 -0.06310165 -0.07009411  0.05813804
  0.02284203  0.00814597  0.03207908  0.07791991 -0.04411375 -0.04499875
  0.06662888  0.07707814  0.05714694 -0.05007461 -0.04045122 -0.07936375
 -0.04228802 -0.03154197  0.04329561 -0.0432492   0.06972501 -0.07911984
  0.04467487 -0.07744896  0.01234564 -0.0446079 ]
[ 5.1530153e-03  8.2047619e-02  1.0352537e-02  6.5342076e-02
 -6.9256477e-02  5.0512157e-02  2.1485724e-02 -5.8991425e-02
  5.6059770e-02  5.9477948e-02  2.9380769e-02  7.9263754e-02
 -2.3788955e-02  1.0738730e-02 -5.6331240e-02  1.6196661e-02
  3.8551234e-02 -1.7341487e-02  6.7630410e-04 -4.8746038e-02
  8.1260465e-02 -7.0025980e-02 -7.7835388e-02 -4.4209350e-02
  6.3234344e-03  4.4156231e-02 -2.8894059e-02  1.9336812e-02
 -8.3190836e-02  1.7875642e-02 -7.7390917e-02  6.3999765e-02
 -2.5308345e-02 -4.0373411e-02  9.4147772e-03  6.9195651e-02
  3.1452022e-02 -1.8468499e-04  1.6879380e-02 -2.4244189e-05
 -4.6519861e-02  7.5000226e-03 -5.8082361e-02  5.9617832e-03
  7.2222285e-02  3.3860601e-02 -4.9435385e-02  2.5191769e-02
 -5.4333121e-02 -3.4546796e-02 -6.6279732e-02 -2.5938045e-02
  4.2747699e-02 -1.5049443e-02 -7.9484880e-03  4.2003922e-02
  5.4708831e-02 -4.4623464e-03  4.9618237e-02  2.8917439e-02
 -4.9102616e-02  3.1309217e-02 -5.5297755e-02 -5.3674240e-02]
[-0.04915722 -0.01392481  0.04139539  0.0457074   0.0437889   0.00379425
 -0.01562877  0.04733228 -0.01595689  0.02151352  0.029577    0.02097962
 -0.02290243 -0.0171205  -0.0228228   0.0054898  -0.05716209 -0.03727659
 -0.07600486  0.06334917 -0.06877414  0.0366281   0.01528513  0.05569857
 -0.02702028 -0.01482008  0.05213267 -0.01913889  0.00129897  0.01132924
 -0.06582637 -0.00016917  0.05063473  0.05501554  0.03254768  0.02422795
 -0.04077012  0.00597997 -0.06972207 -0.00650688 -0.01999034  0.05840094
 -0.04838553 -0.05624356 -0.0032248   0.06741863  0.05491539  0.06958228
  0.01237009  0.0182751  -0.05544526 -0.04369897 -0.0434006  -0.01191577
  0.05339789  0.04016154 -0.00228115  0.02937593 -0.02230402  0.05381147
 -0.08087848  0.03743507 -0.06075049  0.03469478]
[ 0.0696818  -0.05762756  0.00047534  0.05467471  0.04445916  0.00398251
  0.03151438  0.07254303 -0.00292084  0.08286529  0.00371861 -0.05208161
  0.02147317  0.03672432 -0.02724403  0.02272184  0.00677027 -0.03617035
  0.00748909  0.02694305 -0.00417422 -0.08119601 -0.01376005 -0.01631276
  0.01894715  0.01602346  0.03966189 -0.00583271  0.02247224  0.06365099
 -0.03846334 -0.02177987  0.01238374 -0.02813801  0.04271252 -0.08077398
  0.01760498 -0.02488545 -0.06213597  0.0725214  -0.07235195 -0.0714383
  0.04690092  0.05601949  0.02284295  0.04306334 -0.07311288  0.07079374
  0.01912812  0.06213477  0.00813616 -0.07361951 -0.05724131  0.02727223
  0.01821483 -0.06727218 -0.01536047  0.06552864  0.03989298  0.02960743
 -0.01817992 -0.00535144  0.07348198 -0.06239889]
[-0.02356927  0.06855091  0.0254218  -0.08280679 -0.05437977  0.05255302
 -0.03424156  0.05502474  0.00966778  0.02120869  0.06983303  0.06211283
 -0.01254875 -0.04950183 -0.01230565 -0.05957756  0.00416     0.04378075
  0.07015898  0.06752182  0.07039765  0.08180002 -0.05918485  0.05253076
  0.07917366  0.04511795  0.02318112 -0.01044928  0.05561898  0.0749317
  0.06623774 -0.00689308  0.01214556  0.0321161  -0.07480393 -0.06707177
  0.07039075 -0.01799499  0.01205647 -0.04424926 -0.04210478  0.07372955
 -0.0333041  -0.04260491  0.07848883  0.05065752 -0.04580677 -0.04602753
 -0.00629321 -0.02143873  0.06889284  0.01385567 -0.01060304  0.00458807
 -0.02232375 -0.07579572 -0.07937339 -0.00137333 -0.04200627 -0.04649036
 -0.03811665 -0.01997476 -0.07762622  0.03216058]
[-0.05193393 -0.045325    0.0711947   0.05828833 -0.0773124  -0.02293821
  0.06902068  0.07611226 -0.04608461 -0.07041548  0.06619734 -0.06025788
  0.06693191 -0.06707689  0.06657397  0.02699956  0.04766408 -0.03537568
  0.07199048 -0.03745985 -0.07616058 -0.0587487  -0.03962254  0.01702508
 -0.03314116 -0.03996129  0.03127933 -0.0808721  -0.04971848 -0.04239742
 -0.00895925 -0.06607218  0.00732681  0.05817684 -0.02301749  0.00152266
  0.04385952  0.01030038  0.02481191  0.03415629 -0.03298808  0.05041569
 -0.05301169  0.08321895  0.0245516   0.0788542   0.03770781  0.00995327
 -0.0402064   0.06887526  0.01570897 -0.03160839  0.07714912 -0.01099096
 -0.01448607  0.05236258  0.03132935 -0.04594585 -0.0044512  -0.07523257
 -0.0161809  -0.04056259  0.04097951 -0.00675754]
[ 0.03010134  0.00489192 -0.0552469  -0.06793164  0.02724524  0.06679159
 -0.00014508  0.01292039 -0.03354654 -0.04365576  0.02493316 -0.08359426
 -0.02641531  0.01850053  0.03654744 -0.04441379  0.05826696  0.00748035
  0.00204759 -0.07098305 -0.01099923  0.03838155 -0.05496675 -0.08102284
  0.04030695 -0.06851686  0.06404904  0.07856222  0.02789457  0.08296288
  0.01026871 -0.05658501 -0.02553775  0.00459418  0.01859998  0.02195579
 -0.04924039 -0.02704415 -0.07506792 -0.08232018  0.02248088 -0.07977728
 -0.0137352   0.04381534  0.02757792  0.06076711 -0.08136605 -0.02814566
 -0.04712164 -0.06912292  0.01156854 -0.03688976 -0.00564059 -0.05761318
  0.01299676 -0.02468737 -0.05530329 -0.04902019 -0.07340928  0.05591332
  0.08400976 -0.08157633  0.00014676  0.07562933]
[ 0.01027787  0.07293994 -0.00091508 -0.06796914 -0.0071605  -0.01391517
 -0.03008664 -0.04669391  0.08036891 -0.05514329 -0.07108837  0.06975574
 -0.07659526 -0.06083291 -0.05566217 -0.08265077 -0.01352665 -0.05028637
 -0.03871903 -0.04799381  0.00474671  0.03928006  0.00193112 -0.02676661
 -0.06019916  0.01874516  0.01188801  0.05515819  0.04607148  0.04617163
  0.0128051  -0.00103671 -0.05888094 -0.01042644 -0.00806426 -0.08262106
  0.08287626 -0.03954172  0.04037876  0.01269086 -0.05386013  0.05091745
 -0.04931361 -0.07476238  0.00169078  0.0150618   0.03173359  0.05257273
  0.07542893  0.02650812  0.02637363  0.08097074  0.07648679  0.01626829
  0.03553077  0.0767098  -0.07782079  0.01905615 -0.04985517  0.01526455
 -0.00263342  0.08024947 -0.02968596  0.02857212]
[ 8.0636807e-02 -8.2271732e-03  2.7901946e-02  3.5879020e-02
 -1.5623601e-02  6.2463214e-03  3.4796875e-02  9.6310556e-02
 -4.0893957e-02  7.6377794e-02  4.7559012e-02 -5.6745205e-02
 -2.2931047e-02  8.9630485e-02 -1.4290236e-01  3.9188053e-02
  1.8538794e-02 -2.1863392e-02  3.7204050e-02  4.3576773e-02
  5.5122338e-02  1.5465478e-02  5.0512709e-02 -1.5548281e-02
  1.0094014e-02  5.2355506e-02  5.6028381e-02 -1.4351812e-01
 -6.4111590e-02 -3.2550536e-04  2.1940403e-02  5.0029948e-02
  4.7192030e-02  1.1695878e-01 -3.7072673e-03 -1.0279449e-01
 -5.5221908e-02 -5.2485067e-02 -4.3042995e-02 -5.1463280e-02
  4.5042403e-02  6.1276846e-02  8.5215848e-03 -7.8351361e-05
  3.6308974e-02  5.9266701e-02 -9.1442436e-02 -6.5196134e-02
  1.2710642e-02  3.1632762e-02 -2.2480771e-02  4.7041699e-03
  3.9632145e-02  9.7043008e-02  6.0716908e-02 -1.2156423e-02
  6.3330592e-03  2.1570586e-02  8.8601857e-02  1.7197844e-02
 -1.7885895e-02 -5.5162236e-03  3.4948576e-02  4.4923164e-02]
[ 0.07786014  0.04508854  0.01847145 -0.03373765 -0.06885408 -0.00166164
  0.00333916 -0.00920458 -0.0872467   0.11350416  0.04441492 -0.0061219
 -0.09579542  0.03383702 -0.12048613  0.02314956 -0.06994703  0.02973199
  0.08899659 -0.02592955  0.01347833  0.03064102  0.06755383  0.03759905
  0.07182349  0.03452685  0.06412479  0.00384073 -0.02481556  0.09724761
 -0.07158296 -0.03707543  0.01083738  0.06705579 -0.05293819 -0.02013756
  0.07747615  0.00847315  0.08399794 -0.07156468  0.01543777 -0.05642046
 -0.07970089 -0.07941442 -0.02598618  0.03787231  0.01630826 -0.03699442
 -0.02031838 -0.00974492  0.08014958  0.03677212  0.03353417  0.0160764
  0.04722826  0.03736812  0.00788291  0.03890168  0.10107284 -0.06688762
  0.04825201  0.01832312  0.11831088  0.04631304]
[ 0.00707787 -0.03208229 -0.05372481 -0.07532536 -0.01669044  0.1062255
 -0.00880008  0.06459714  0.04323585  0.08644666  0.04269623 -0.0581047
 -0.01258106  0.02046123 -0.00298628  0.01999929  0.0358193   0.02500071
  0.04998548 -0.0372319   0.02136375  0.03235701 -0.11431456  0.07666859
  0.00468584  0.02064842 -0.02567383  0.10220055 -0.03913327 -0.08962097
  0.060373   -0.01536424 -0.06541426  0.0192616   0.03668783  0.0252938
  0.04823514  0.02614679 -0.0009444  -0.03934404  0.07280599  0.03266983
 -0.0580878   0.00636737  0.01913719 -0.0541588   0.01806027 -0.01820868
  0.04364901  0.08644773 -0.03778127 -0.0616921   0.00410748  0.02233849
 -0.00378039 -0.08420178  0.07072244  0.05036269  0.02557421  0.06360415
  0.05082778 -0.07760602  0.10696934  0.06384323]
[-2.8819777e-02 -5.5113450e-02 -6.4527795e-02 -6.2584519e-02
  1.4617677e-02 -2.3629818e-02  2.3485728e-02  2.4977718e-02
  7.4559078e-02 -4.6958879e-02  2.0117154e-03 -6.6258051e-02
 -2.5213385e-02  5.4856814e-02 -2.8894093e-02  2.2933219e-02
  2.9675069e-03  4.8658676e-02 -3.0783029e-02  3.2671176e-02
  6.8554379e-02  3.9586462e-02  7.8875506e-03 -2.0108921e-02
  6.9693066e-02 -4.9365755e-02 -1.1238702e-02  3.9507013e-02
 -7.3361874e-02 -2.4502004e-02 -6.4893886e-02 -6.5084225e-03
  7.5225763e-02  2.0163858e-02  4.6136834e-02  7.7336825e-02
  5.4197676e-02  2.8956391e-02 -4.1761857e-02  8.5834637e-03
  6.3476928e-02  6.4432123e-03 -6.3934252e-03  9.4013929e-02
 -6.7851521e-02 -1.0086630e-01 -1.4498104e-02 -4.9341325e-02
  2.7615663e-02 -3.5010844e-02 -7.4802823e-02 -5.9598241e-02
 -3.1008497e-03  2.0678241e-02  5.2830089e-02  5.3690799e-02
 -3.3087015e-02  7.7920766e-03 -3.5492841e-02  5.7585075e-02
 -3.4228217e-02 -6.5676868e-05 -2.6223619e-02 -7.1525440e-02]
[ 0.06169526 -0.03061384 -0.07150003 -0.07738288  0.06069791 -0.02631437
 -0.00898779 -0.04762438  0.06529979 -0.01967626  0.07176935 -0.00588213
 -0.05265004  0.08217033 -0.04309982  0.08204692 -0.0165548  -0.07426947
  0.02928603 -0.05249255 -0.06623527 -0.07043153 -0.08055315 -0.01871186
  0.04477266  0.03279188  0.00620836 -0.06494966 -0.05953344 -0.0585673
  0.05191246  0.02234613  0.00918914  0.02801369 -0.00938915  0.00232964
  0.02580867  0.07526339 -0.07897007 -0.04570253  0.05846324  0.01936828
  0.06006309  0.04168566 -0.08217717 -0.03097963 -0.02786956  0.02647162
 -0.0353316  -0.06924503  0.07876486 -0.01351479  0.07541486  0.07827146
  0.0796996  -0.00471325 -0.06080361  0.02841459 -0.01546022 -0.0390141
 -0.07252529 -0.0328485   0.00551733  0.06217869]
[-0.01309282  0.05522121 -0.05281078 -0.06351239  0.06278772 -0.02134949
  0.05736538 -0.02962568 -0.04323762 -0.04712844 -0.05156223 -0.06594409
  0.00102769 -0.03196779  0.03448587 -0.00485671  0.01544615  0.0370581
  0.0091744  -0.04595923  0.0693133   0.00111659  0.02522367 -0.07968069
  0.02239721 -0.02952318  0.05560062 -0.05009113  0.01258479  0.04164962
  0.01823222  0.01715275 -0.03904003 -0.07799262 -0.06958061 -0.01564754
  0.00248393  0.0205753   0.06405462  0.01121616 -0.02654869  0.02853429
  0.00745446 -0.04521528 -0.06664814 -0.04859844  0.08049161  0.016661
 -0.05187898  0.01642426 -0.0127257   0.01527715  0.06130937 -0.07676347
 -0.00516346  0.03060168 -0.04303765 -0.08266739 -0.04884485 -0.01684862
 -0.08035921  0.04936788 -0.0243038   0.06758749]
[-0.04689446 -0.05314341 -0.02922647 -0.06657536 -0.0752981   0.07135967
  0.08189557  0.00553861 -0.08097523  0.03322226  0.04465552  0.0004835
 -0.04759774  0.02399337  0.05637012 -0.00318935  0.07845867  0.03394581
 -0.03965371  0.06687527  0.05675349  0.02353378 -0.08150347 -0.03236131
  0.05607062 -0.04479248  0.02869806  0.07254852  0.07623584 -0.01769952
 -0.06816183  0.01295777  0.0575171   0.05026444  0.03430764 -0.05069458
 -0.01087961 -0.05114423  0.05539032 -0.05191722  0.04376698  0.06668629
  0.08225184  0.02633411 -0.06449176 -0.01185466 -0.01349534  0.04697456
  0.07696118  0.04332442 -0.07441507 -0.01254294 -0.00147944  0.02468631
 -0.06614336 -0.06813648  0.01824407  0.06131148 -0.01049268  0.07452806
  0.05641133 -0.01393367  0.04764963 -0.01285786]
[ 0.04892086 -0.04998839  0.04154555  0.0775004  -0.06895363 -0.0480883
  0.05566069  0.04117832 -0.00021164  0.02366313  0.0799441  -0.04945678
 -0.07046496  0.05669837 -0.07562242  0.04728011 -0.0402221  -0.01464829
 -0.06075003  0.02863076 -0.05264539 -0.00962061 -0.06026286  0.00212029
  0.04832462 -0.00364199 -0.08192825  0.02203622  0.0690889   0.02098612
  0.0368074  -0.02575011 -0.04095965  0.07407469 -0.01542724  0.03828737
 -0.02379431  0.01867577  0.00318681 -0.01535093 -0.00240685 -0.07314462
  0.0138633  -0.01532997 -0.00421008  0.07222005  0.02935658 -0.01402675
  0.08040359  0.05324615 -0.07229057  0.04008364  0.02903316 -0.04793157
  0.03129907 -0.01237401 -0.03960231 -0.00804796 -0.02547392 -0.07923483
  0.04782438 -0.0197199   0.06147743 -0.0812491 ]
[-0.03350311  0.01066605 -0.07860485  0.07064816  0.0573428   0.0433732
 -0.00061871 -0.07711669  0.01299454  0.02182369  0.01910007 -0.00220386
 -0.01295717 -0.0230286  -0.04259949  0.07987157 -0.00053835  0.07629728
 -0.04706453 -0.06709572 -0.06133741 -0.06713645  0.00075725 -0.0810663
  0.0567212  -0.05642329 -0.0300659   0.00977374 -0.03848514  0.0481218
 -0.08109706  0.01742274 -0.07359116  0.00966197  0.02623331 -0.07507882
 -0.00945485  0.03499013 -0.00792603  0.04708555 -0.04574302 -0.04336384
  0.02003603  0.04788607 -0.03923224 -0.0382253   0.00083257  0.08031575
 -0.01312836 -0.01888952 -0.05706638 -0.02872301  0.01528667 -0.03895468
  0.07938286 -0.06040857  0.06082996 -0.00678122  0.05773056 -0.03443551
  0.05765831  0.05634934  0.05013181 -0.01713063]
[ 0.0154162   0.05601338 -0.00012833 -0.04161661  0.06675912 -0.06730198
 -0.04898134  0.07701295  0.02995544  0.05971953 -0.01926201 -0.07593552
 -0.0254684   0.03984026 -0.03935992  0.00542381  0.08206216 -0.05834672
  0.0834941   0.01935808 -0.0109477  -0.01696253  0.06203222 -0.01802936
 -0.07915654  0.05025806  0.05967765 -0.04588816 -0.04784025 -0.04236943
 -0.07265037 -0.01184229  0.04820313  0.05145533  0.07830467  0.00500623
 -0.06090535 -0.06655845  0.01915044 -0.04636053  0.00135057 -0.02153999
 -0.0705087   0.05306857  0.049139    0.00290935  0.03679462 -0.02612764
  0.07430436  0.05022208  0.08217967  0.04701949  0.05990522 -0.04424834
  0.0545044   0.05825808  0.02346337  0.05552483 -0.0345552  -0.03001977
  0.08310676  0.02589095 -0.00707416 -0.00196742]
[ 1.4664009e-02  7.7617392e-03 -5.4904159e-02 -8.3984688e-02
  6.5008692e-02  2.7225338e-02  6.9075726e-02 -1.1055216e-02
  7.3142350e-05  3.6640689e-03 -1.7798774e-02  7.3087804e-02
 -1.6872764e-02 -5.8879577e-02 -5.9713274e-02 -1.7604463e-02
 -4.2523786e-02  5.3745739e-02 -8.0248781e-02  1.0362640e-02
  1.5710518e-03 -2.1969974e-03 -3.1724069e-02 -1.1317834e-02
  6.0365342e-02 -4.9562108e-02 -5.0063558e-02  1.0865174e-02
  6.3366689e-02 -2.9506572e-02  3.4062698e-02  6.4947613e-02
 -3.8284026e-02  5.8479704e-02 -4.7968116e-02  1.1160895e-03
 -8.3825536e-02  7.7842049e-02  9.7016394e-03 -4.6571862e-02
 -5.1892214e-02 -5.4273359e-02 -7.9058334e-02 -6.9054216e-03
 -1.1497848e-02  3.3971168e-02 -8.3427005e-02  4.5002140e-02
  6.5068699e-02 -3.0540004e-03  8.3207287e-02 -1.2397721e-02
  3.5261653e-02 -4.9343333e-02  4.8120208e-02 -4.8724521e-02
 -4.1682929e-02  7.9973169e-02 -6.3003644e-02 -3.1584207e-02
  6.5257959e-02 -3.4029063e-02 -2.0565912e-02  1.1238515e-02]
[-0.05651698  0.05785472  0.07287651  0.02213319 -0.05588139  0.00608063
 -0.00352807 -0.02026024 -0.07210115 -0.03940146 -0.03774493 -0.05872193
 -0.01923136 -0.04233716  0.06816775  0.00832421  0.01931185 -0.06663051
 -0.00388248 -0.02816629  0.03627033 -0.04468771 -0.03733457  0.07070439
  0.040025    0.06926709  0.04557008 -0.04551419 -0.04035352  0.04235729
 -0.02557979  0.04819993  0.01372701  0.07526084 -0.04946801  0.00352637
 -0.0072505  -0.02952769  0.01960085 -0.01083217  0.04240581 -0.02234944
 -0.04033783  0.05995075 -0.02044727 -0.06758592  0.0433815   0.04626486
 -0.05079945  0.03745993  0.0318908   0.08151943  0.04399111  0.01877701
 -0.0550357   0.0284758  -0.07455663  0.00676191 -0.02061037  0.01998901
  0.03540602 -0.06767255 -0.06809549  0.08282065]
[ 0.07296161 -0.02166608  0.01714094 -0.08321118  0.06261189  0.01733216
  0.02024566  0.02174211  0.00736183 -0.08281206  0.01157734 -0.07018604
 -0.02566303 -0.06073125 -0.01609328  0.0683554  -0.02983734 -0.02542137
 -0.02762912 -0.00731215 -0.08113627 -0.0041523  -0.00940595  0.02217802
  0.03374896 -0.08138119  0.07634491 -0.06228686 -0.05809088 -0.02328821
 -0.02605741  0.00750431 -0.02231962 -0.07801053 -0.04830155 -0.00126654
 -0.00514341 -0.07614888 -0.02010988 -0.05654996 -0.0431205  -0.06658663
  0.03605658 -0.03456531  0.03413006  0.03318923 -0.04831176 -0.00819188
  0.05744245  0.06099249 -0.01942588  0.04932147 -0.06754272 -0.00806214
  0.07777982  0.03242049 -0.00120122  0.03845236  0.00067759  0.07706483
  0.0720024   0.05139203  0.01997802 -0.04409648]
[-7.7071607e-02  5.9307218e-03  7.6638423e-02  3.3783212e-02
 -6.5856151e-02  6.8054460e-02 -3.1409450e-02 -6.7110561e-02
  8.4081866e-02 -3.4135055e-02 -3.9669309e-02 -4.1452199e-02
  6.7061730e-02 -5.1613614e-02 -4.4780608e-02 -4.7037996e-02
  4.0028691e-02 -7.5441450e-03  6.9685809e-02 -2.7952909e-02
 -1.0191694e-02  8.2420595e-02 -2.8458908e-03 -4.6005875e-02
 -5.0253998e-02  3.1858012e-02  3.1469934e-02  4.0310182e-02
  4.9506254e-02 -8.2032315e-02 -8.2143322e-03 -7.0934884e-02
  2.0720050e-02  5.0516881e-02  3.0455284e-02 -1.6605131e-02
 -4.2175133e-02 -5.1697962e-02  4.0230341e-02  6.1976090e-03
 -5.9660748e-03 -1.0912105e-02  6.5577365e-02 -5.0118528e-02
 -8.5189939e-05 -2.4136987e-02 -4.7272034e-02 -3.9996281e-02
 -3.8774144e-02  2.1527998e-02 -5.5015866e-02  7.0248865e-02
 -1.0748841e-02  8.1805460e-02 -6.0143270e-02  3.3656389e-02
  6.3687526e-02  2.7589113e-02 -4.0513054e-03  3.8842313e-02
 -4.1894265e-02 -5.1831689e-02  4.6336196e-02 -3.5402033e-02]
[-0.07479629  0.00910833 -0.0680249  -0.0359523   0.02211091 -0.05916492
 -0.02648161  0.04083842  0.0039984  -0.05511123  0.07432146 -0.05447529
  0.01213159 -0.05100682  0.01196147  0.08276153 -0.07571901  0.07194195
 -0.05254971  0.00934308 -0.05961242  0.02744657  0.02321667  0.0003226
  0.04110158 -0.07242776  0.04283377  0.0059481   0.04034565  0.00068612
  0.0701034  -0.06447627  0.03882745  0.05711875 -0.01705735  0.07225286
  0.02590396 -0.07886777 -0.06827861 -0.05930785  0.05393247 -0.07083509
 -0.03977117 -0.07115044  0.01689097  0.06739887 -0.01227798 -0.0658251
 -0.01655592 -0.00991845 -0.0408891   0.04429276 -0.0632819   0.04334361
 -0.07432875 -0.05368806 -0.0382756   0.00330284  0.02769577  0.01666213
  0.0102951   0.08258236 -0.04878017 -0.02708777]
[ 0.0133108  -0.05503564 -0.03954316  0.01042166 -0.02902983 -0.04522819
 -0.03759873  0.05063454 -0.00996552 -0.07447351 -0.05734344  0.07602457
  0.08013905 -0.08240299 -0.06665897 -0.01014978 -0.07957747 -0.01488574
 -0.03435676  0.0082064   0.07360127  0.07702351 -0.07493515 -0.06325746
  0.06644783 -0.04328601  0.02939133  0.06078581 -0.04564786  0.04924912
 -0.05688315  0.05643504  0.0465335   0.06501406  0.02929337  0.08180628
  0.03671225  0.06088538  0.02056762 -0.04313381  0.00639842  0.04532149
 -0.00778791  0.07381404  0.02836983 -0.06220468 -0.00733403 -0.00881586
 -0.00244355 -0.04018738 -0.06802806  0.0230669   0.06008349 -0.06296799
  0.01340752  0.07216308 -0.00903494 -0.00598098  0.06030168 -0.00408093
 -0.01569503  0.00351702  0.03277295 -0.00099644]
[-0.00126457  0.0098331   0.08197501  0.00573717 -0.02021252  0.03742969
 -0.03139072 -0.03916421 -0.02869225 -0.02288663 -0.01661795  0.03519515
  0.03238024  0.07744014 -0.02812141  0.01954202 -0.01109462 -0.01033685
  0.04141148 -0.07529357  0.00340281 -0.08029202 -0.03249441 -0.06434534
  0.05812366  0.00829872  0.02390662  0.02639261  0.06856722 -0.02498197
 -0.06590477 -0.06309104 -0.08138788  0.0585343  -0.03852564  0.03402425
  0.03269037  0.06914692  0.01513863  0.0003904   0.07747684  0.06594842
 -0.06727084  0.06114992 -0.03600674 -0.07187854 -0.03078334 -0.08182684
 -0.01556554 -0.0384858  -0.05020747 -0.04277072  0.01143279 -0.00880585
 -0.06313668  0.03652625 -0.01706667 -0.03532127  0.01330434  0.00816538
  0.01752064 -0.00503971 -0.01732518  0.07105916]
[-0.03319922 -0.00329775  0.01143702  0.01784644 -0.04173932  0.03608797
  0.06452594 -0.01478278 -0.0741192   0.04301881  0.00185579  0.0595476
 -0.00434294 -0.08264521 -0.03252899 -0.0208845  -0.06539126 -0.06231472
  0.02847923  0.00686784 -0.00405838 -0.06371526 -0.06849526  0.06755806
  0.00048679  0.04120981 -0.08244506 -0.060537   -0.07077789 -0.05030095
 -0.01663602  0.01909243 -0.02888351  0.00850926 -0.06425686 -0.00981934
 -0.07585416 -0.04178296 -0.05381601  0.04997543 -0.0682418  -0.00724792
 -0.00807121 -0.01322524 -0.06803795 -0.01991519 -0.02099681 -0.05602149
 -0.00457045  0.00053009  0.00248344 -0.00615507 -0.04185466 -0.03348386
 -0.01314247 -0.02029962  0.0363265  -0.01762311  0.05042434  0.01656713
 -0.00199194 -0.05953721  0.04917734  0.07979967]
[-0.00933151 -0.05903228  0.02488318 -0.0477582  -0.00773399 -0.02838144
  0.06532104  0.03521711  0.07137512 -0.07113409 -0.04266625  0.07633881
  0.01202469  0.05678912  0.06945153 -0.04735985 -0.03573797  0.06020542
 -0.03899414  0.07618532  0.06890263 -0.07140082 -0.01730687 -0.05733941
 -0.06654835  0.0406161   0.00622713 -0.01352233  0.06681923 -0.05410648
  0.05757777 -0.0234963  -0.05547442  0.03746154 -0.06232118 -0.00054192
  0.04199528  0.00667489 -0.07769224  0.0609799   0.0665609  -0.0094158
  0.07746098  0.05362172  0.06633104  0.04896963 -0.02868629  0.08342145
 -0.0494185  -0.08231878  0.07347891 -0.03594919 -0.06084723 -0.00400086
  0.00141829 -0.05113855 -0.04505604 -0.03741014  0.00716118  0.03118838
 -0.0644701  -0.0637722   0.01091054 -0.03966664]
[-0.01638102 -0.03534576 -0.01695751  0.03650509 -0.00827055  0.0004481
  0.02206868 -0.06664909 -0.0356404  -0.01912325  0.00598132  0.08154812
  0.03601781 -0.06314012 -0.05211304  0.01166993 -0.05370896  0.02722293
  0.02352273  0.07503264 -0.05232485  0.07062679  0.06487822  0.01645244
  0.0532942  -0.02774366  0.01052421 -0.01505741 -0.08147686  0.03914493
  0.0125134  -0.04607825 -0.0399509  -0.06206311  0.06121688 -0.02269898
  0.0725363   0.07562464 -0.00754142 -0.02596365 -0.05967369  0.07231095
  0.04008729 -0.0580401  -0.04927278  0.08353684  0.00444528  0.0785824
 -0.00778402  0.00173299 -0.05128875  0.01618464 -0.04957681  0.01202489
 -0.08279867 -0.02308876 -0.05429341 -0.02130228  0.06097052 -0.02365549
 -0.04548953  0.05952608 -0.0521432  -0.03611456]
[ 0.04188129 -0.01310193  0.01236133 -0.01594666  0.02320116  0.04372097
 -0.02640885 -0.00909351  0.00298129 -0.04756363  0.07805412 -0.07423781
 -0.05750262  0.01064548  0.03874806 -0.00204096 -0.07533573  0.05013897
  0.02128585 -0.02105248 -0.05626303  0.01240353  0.06474936  0.06255154
  0.06347758  0.015741   -0.0118334  -0.06613379 -0.00416768 -0.04724726
  0.00378396 -0.06196619 -0.06158627 -0.00969948  0.00489443 -0.0729766
 -0.00653865 -0.07185408  0.0522392   0.05851987  0.002777   -0.03411993
 -0.0148811  -0.03531861  0.05608147  0.06976206  0.00125966  0.00451721
  0.01842459 -0.05517569  0.00895064 -0.03283288  0.05896058 -0.08305617
 -0.00813818  0.04368554  0.06610798 -0.07633504  0.03392028 -0.07879039
 -0.05113184 -0.05858168 -0.00599773 -0.02334991]
[-0.02794436  0.05266402  0.0910003   0.00713384  0.04498379  0.01953172
 -0.05137294  0.05991483  0.08216304 -0.01233096  0.07459927  0.00703885
  0.03278301  0.0998719  -0.0471078  -0.08937013  0.00483149 -0.06176199
  0.0302308  -0.03293233 -0.07002783 -0.03973313 -0.07960154  0.01774779
 -0.01520363  0.07758041  0.0556741  -0.00101222 -0.05387086 -0.03396315
  0.05034953 -0.05228258 -0.02020699  0.02608832 -0.05319144  0.03953179
 -0.00489625  0.07131829 -0.04514304  0.04256272  0.00625056 -0.0633279
 -0.00804519 -0.01470566 -0.00360722  0.0331373  -0.02838279 -0.00960266
 -0.00019287 -0.10456786  0.00121741  0.05973111  0.0254871   0.01293123
  0.00989339 -0.03671981  0.02304234 -0.05139961 -0.02093455  0.07407714
 -0.04471678  0.02099541 -0.01549784  0.03719956]
[-0.00067349  0.0169715   0.03732355 -0.03247294 -0.09288368  0.04870441
 -0.06978165  0.05619965  0.07640138  0.03065157  0.00589279  0.02008433
 -0.09735736  0.0726878  -0.15655132  0.07695281  0.03274233 -0.10997763
  0.08289526 -0.06108258  0.02971134  0.06507814  0.02172546  0.10708327
  0.02079381  0.1459261  -0.10411325 -0.16760258 -0.07866506  0.13903141
  0.0419573  -0.0458622  -0.07623059  0.09758382  0.03387883 -0.06197345
 -0.03545751  0.06413715  0.03098788  0.06107341  0.07898442 -0.12575142
 -0.0629539   0.03737882 -0.12492859 -0.03922009 -0.10657997 -0.09689001
 -0.03663399 -0.11680555 -0.01757831  0.03328853 -0.04170751 -0.0495442
  0.1183933  -0.12316357 -0.03172     0.11827019  0.08255636 -0.00901075
  0.0697054  -0.0581978   0.08395731 -0.05038686]
[ 0.0011147  -0.06748688  0.06173701 -0.01101644  0.00897447 -0.0338636
 -0.04993589  0.08758046  0.06415533  0.06232107  0.16001286 -0.08446686
 -0.1478602   0.15361573 -0.06429891  0.02781667  0.05596117 -0.11862018
  0.10962063  0.06732933 -0.04468804  0.1740134   0.00089648  0.02961995
 -0.01522492  0.12999925 -0.05608591 -0.18405852  0.05311885  0.06916361
  0.02220288 -0.05942602 -0.02275274  0.11666016  0.05788037 -0.00155409
  0.07011201 -0.0463936  -0.00031147 -0.0612812   0.01780067 -0.03087807
 -0.10618544  0.07219494 -0.01598195 -0.01287591 -0.14796205 -0.13031808
 -0.11067808 -0.05595461 -0.04515485  0.01017332 -0.08566435 -0.02015662
 -0.01968112 -0.06000448  0.02846068  0.13978723  0.13854736  0.07473353
 -0.02223222  0.03357386  0.10524593 -0.05862707]
[ 0.05927064 -0.03068156  0.10930936 -0.06188069 -0.11963724  0.0156638
 -0.06093271  0.1402387  -0.08820076  0.07583284  0.09307571 -0.03169993
 -0.11633402  0.13640277 -0.09383897  0.15308222  0.06883073 -0.05122282
  0.11436237 -0.07188358 -0.0595054   0.15219434  0.03011901  0.05428628
 -0.04090744  0.05067447  0.09350872 -0.08152737 -0.02493577  0.16439751
 -0.04602585 -0.01357955 -0.03058879  0.18090323  0.00266501 -0.03351384
 -0.01688438 -0.08219914  0.07755994 -0.07831067 -0.02253251 -0.02204236
 -0.01481327  0.05516366 -0.09398299  0.1397835  -0.02441003 -0.15018603
  0.01322124 -0.03454063  0.00672847  0.03452018 -0.03013169 -0.07520799
  0.13161618 -0.05467348 -0.05169202  0.13459271  0.01512296 -0.07455464
  0.06815167  0.03495531  0.06218603 -0.07597395]
[ 0.01309716 -0.03964002  0.07965969 -0.13084337 -0.06671605 -0.0621465
 -0.10387149  0.01383266 -0.06395857  0.06144033  0.11920874 -0.08588853
 -0.05432315  0.19191045 -0.06945184  0.17100438  0.13671045 -0.15616728
  0.02169395  0.01476131 -0.08314274  0.18106455  0.12365685  0.09350278
  0.0532954   0.06452463  0.02917402 -0.17858158  0.05635026  0.1838264
 -0.07941948 -0.05523168  0.06237789  0.1510888   0.0130604  -0.0822079
 -0.0250798  -0.15163907  0.00230495 -0.11567392 -0.08283926  0.02265698
 -0.13478963  0.06012205 -0.04180253  0.17547558 -0.01267919 -0.06446758
 -0.07165375 -0.1417954  -0.04905815 -0.00434617 -0.02138691 -0.01888605
  0.10279836 -0.03505896  0.05869645  0.02619941  0.01935445 -0.04021545
 -0.04221206  0.01040819  0.22481585 -0.07895131]
[-0.03433815 -0.06563235  0.00031677  0.00551054 -0.07278087 -0.08051631
 -0.08125316  0.00173717 -0.09494335  0.00630559  0.12384925  0.05332688
  0.02059935  0.07204656 -0.08053643  0.06320952  0.06472939 -0.22531217
  0.04760021 -0.05610972  0.02368605  0.01183091  0.02536546  0.08818724
 -0.0067032   0.09553973 -0.036431   -0.09863238  0.04925398  0.10446364
 -0.01567694 -0.01840899  0.0067015   0.09361655 -0.06968413  0.01569595
 -0.10319517 -0.20773865  0.00678069 -0.07582679 -0.07079918 -0.05590507
  0.03437672  0.051896   -0.03792498  0.17642319 -0.04585142 -0.17567924
  0.01069493 -0.02263753 -0.12052845 -0.051543    0.01399672 -0.09071472
  0.15353504 -0.10963079 -0.06069478  0.14409937  0.01808313 -0.07311844
  0.03790469  0.04074813  0.1410694  -0.05891965]
[ 0.04295263  0.03975287  0.12756954 -0.00457815 -0.11803517 -0.02187431
 -0.10310621  0.10212933 -0.00877261  0.05485624  0.14132483  0.01766692
 -0.04263726  0.20786797 -0.1533873   0.13781953  0.03602973 -0.09627284
  0.15440623  0.064738    0.0358576   0.14148444  0.26807803  0.10216033
  0.10227796  0.16981453  0.01776054 -0.10883816  0.04239937  0.16526069
  0.0464495  -0.07222746 -0.01916558  0.13363338 -0.05301098  0.00659307
 -0.08118398 -0.07525072 -0.07134759  0.02847738 -0.04586587 -0.07205354
 -0.06381189 -0.02312689 -0.17036623  0.11488888  0.04798171 -0.20044273
 -0.11049782  0.01877181 -0.1016399  -0.15307376 -0.10099758  0.00980804
 -0.04446972 -0.13249058 -0.0676903   0.06751633  0.05994487  0.09950195
 -0.0069926  -0.06704333  0.10250681 -0.10476642]
[-0.00031232 -0.05603753  0.23761131 -0.11360867 -0.19794825 -0.13316566
 -0.02371863  0.07432172  0.06711613  0.18280363  0.10212607 -0.10661043
 -0.00394728  0.23333536 -0.19283427 -0.01222088  0.03260357 -0.19463496
  0.20635732 -0.05774141 -0.04638327  0.16098094  0.21496776  0.15185277
  0.04210832  0.20990537  0.13996395 -0.17468563 -0.01161831  0.24945863
  0.00387165 -0.04415642  0.01016492  0.19688804 -0.03160607 -0.04009562
 -0.09590156 -0.16214828 -0.04008565 -0.0181336   0.10330622 -0.04434035
 -0.1307913  -0.05983901 -0.08692581  0.0737045   0.10079784 -0.07873726
  0.0338097  -0.00136753 -0.16940701 -0.12157255 -0.15012684 -0.07749085
  0.09204554 -0.04257945 -0.05500402  0.02709462  0.09436087 -0.02235987
  0.04788914  0.01258912  0.21893251 -0.02073569]
[-0.00908005  0.07356292  0.12401289 -0.06087809 -0.146464   -0.1463155
 -0.02332835 -0.01156962 -0.03945996  0.07761347  0.01169107 -0.13876024
 -0.04644681  0.16660658 -0.20853002  0.01986834 -0.04484508 -0.0933056
  0.08170193  0.04722228 -0.09368289  0.19028175  0.15920907 -0.00556011
  0.09973355  0.18479249  0.09782032 -0.27522025  0.0912566   0.24053599
 -0.03223656 -0.09294303  0.00817328  0.18149793 -0.02600294 -0.00425332
  0.05493865 -0.08484467 -0.06198468 -0.11154383  0.06796505  0.00788056
 -0.11726787  0.00277006 -0.12069876  0.10456248 -0.05103674 -0.26639113
  0.02119289 -0.06560425  0.03425786 -0.17047346 -0.07217736 -0.00291327
  0.01593087 -0.05299165 -0.00638517  0.10983712  0.12657365  0.02088424
  0.04046193 -0.10463664  0.27704084 -0.03608735]
[-0.06311332 -0.1252026   0.15343817 -0.09130933 -0.18587802 -0.17115963
 -0.13601486  0.06645831  0.02671974  0.20640351  0.2891334   0.08724794
 -0.2828325   0.09470527 -0.02512171  0.09666761 -0.03224387  0.06969444
 -0.043509    0.06452983 -0.03675618  0.19370563  0.04283236  0.17276606
  0.08224819 -0.00867718 -0.00800009 -0.1994558  -0.03708836  0.1622924
  0.04872789 -0.19132298  0.16199571  0.07772841  0.13656926  0.11614346
  0.03849521  0.10192893 -0.09876718  0.14057437  0.20676906 -0.06018896
 -0.07066635  0.16126844 -0.01935005  0.01672069 -0.00998239 -0.17753738
  0.01196151 -0.074904   -0.16646512  0.10763813 -0.12890811 -0.12430748
 -0.01676318  0.02465927 -0.11731406 -0.17734405 -0.11079289  0.05484761
  0.09092973 -0.00753029 -0.05793886  0.04768832]
[-0.05446094 -0.08810152  0.28272924 -0.0652105  -0.1488197  -0.07101525
 -0.15815976  0.16427983  0.10600055  0.21540795  0.09182431  0.03387682
 -0.06357546  0.05036636 -0.02765867 -0.09003069  0.10303017  0.05769537
  0.01532563  0.1338584  -0.02085228  0.2531036   0.00585576  0.1820686
  0.1146095   0.0305093   0.05176769 -0.1629804   0.07301956  0.15521492
 -0.08334621 -0.14748704  0.13044836  0.11230626  0.11923348  0.03463998
 -0.0533101   0.13916956 -0.06267886  0.15128456  0.21474788 -0.04189361
 -0.11006665  0.11067072  0.08470733 -0.06780692  0.04482428 -0.04108428
 -0.03716062 -0.02615812 -0.13118336  0.06913345  0.02505022 -0.00936249
 -0.03602035 -0.16217119 -0.06091227 -0.02019631 -0.16098775  0.01604658
  0.09450087 -0.01895184  0.01882238 -0.06629706]
[ 0.11869217 -0.087432    0.15143912 -0.06062314 -0.0682077   0.15733893
 -0.20653526  0.03966082  0.13878846  0.13973138 -0.07109012 -0.00369156
 -0.14848514  0.20483653 -0.1208984  -0.02641421 -0.12179615 -0.00900889
  0.06196309  0.05506608 -0.0712024   0.17875992 -0.1193021   0.1171222
  0.14840977  0.12278759 -0.01479528 -0.1025204  -0.08152004  0.06090813
 -0.07226245 -0.05713512  0.07911285  0.0669319   0.06643225  0.09417376
  0.0137564  -0.03688059  0.15255938 -0.00157391 -0.1491328  -0.14689532
 -0.09625389  0.0651077  -0.09545231 -0.24641146  0.09584062 -0.12090369
 -0.01179992  0.08702454 -0.1310664  -0.01971818 -0.05792217  0.08351124
 -0.13451011 -0.16640423  0.14529568  0.01650432 -0.12004302 -0.10040474
  0.11833528 -0.05524756  0.18987216 -0.12694855]
[ 0.00364017 -0.05325766  0.23996034  0.01847652 -0.09557431  0.01589443
 -0.16530092  0.06485496  0.07773237  0.12197724 -0.0033091  -0.03468848
 -0.1581066   0.09947878 -0.21176322 -0.01497568 -0.16519408 -0.13897264
  0.13845184  0.01305803 -0.0374405   0.19714685  0.01477172  0.01710585
  0.11829972  0.16732073  0.06809425 -0.12439296  0.03386098  0.21534869
  0.01049707 -0.01972158  0.0180443   0.21482532 -0.14508379  0.00795334
 -0.02510082  0.02194586  0.07226269 -0.03699031 -0.14276847 -0.02205354
 -0.11801072  0.08489445 -0.05128541 -0.07959872  0.01761695 -0.04467729
  0.02287036 -0.12942225 -0.1492204  -0.0285243  -0.09002345  0.09051629
  0.07323664 -0.04434516  0.00417872  0.17191817  0.018463   -0.04799905
  0.02722409  0.07542359  0.17993027 -0.13247828]
[ 0.15030286  0.01288769  0.230085   -0.19077258 -0.05319062 -0.09645632
 -0.20067403  0.17337705  0.03304023  0.16897352  0.12231628 -0.1463367
 -0.17752632  0.21118681 -0.3034449   0.2198621  -0.19439892 -0.03215685
  0.11454047 -0.10412127 -0.03807564  0.1231668   0.04402926  0.10110406
  0.05435346  0.3237009  -0.07412901 -0.15292796 -0.00899635  0.27749616
 -0.09892508 -0.13430902  0.11111756  0.10663392 -0.09494652 -0.1294139
  0.09054692 -0.11825431  0.0403452   0.1595488   0.14052401  0.00411833
 -0.03897506  0.11181454 -0.10785994 -0.04754867  0.04833237 -0.12878124
 -0.06582173 -0.08695661 -0.12561743  0.06469489 -0.09459113 -0.12341186
  0.17236444 -0.09275672  0.07413784  0.2019057   0.19971472 -0.17050461
  0.0720375  -0.0560086   0.08467573 -0.01309798]
[ 0.09786555 -0.09335239  0.10779463 -0.14862503  0.05848118 -0.02972659
 -0.08653885  0.16681527  0.13133325  0.13195117  0.20428395  0.05028429
 -0.13674444  0.08501223 -0.19103536  0.09382409 -0.00850743 -0.07071874
  0.18646084 -0.02005923 -0.01865018  0.16938628  0.0101253   0.07226826
  0.1504011   0.1455025   0.12209778 -0.12426312 -0.00511229  0.2264653
  0.0533656  -0.1028984  -0.06022361  0.10102428 -0.09201727 -0.11102817
  0.07652129 -0.11790918 -0.1017559  -0.04288078 -0.02357206  0.12699586
 -0.10656948  0.14293109 -0.07728844  0.05726427 -0.0649907  -0.12322532
 -0.06324558 -0.16958094 -0.18244688  0.01220943 -0.06189858 -0.07350256
  0.11387902 -0.11611647 -0.056028    0.06084113  0.16213173 -0.15142524
 -0.12137321 -0.07229462  0.1918995  -0.10638262]
[ 0.28253362  0.02482315  0.26019138 -0.1404499  -0.03664782 -0.02678243
 -0.0268059   0.1583482   0.02406183  0.14426804  0.20409483  0.00762683
 -0.12534626  0.09787691 -0.15354112  0.14586112  0.11275538 -0.16456464
  0.10577548 -0.05630673  0.05201902  0.1309568   0.1542131   0.02603435
  0.05749539  0.20013902  0.02004132 -0.09324299  0.03569162  0.2304925
  0.07722453 -0.05857383 -0.0580861   0.10578004  0.00446325  0.0189868
  0.06583249 -0.05021437 -0.04319604  0.09024157 -0.00921678  0.0669504
 -0.02851649  0.04744967 -0.20791446  0.04481974 -0.13953511 -0.16072565
 -0.0661187  -0.20649564 -0.0247346  -0.01872743  0.01105435 -0.03216016
  0.14730117 -0.15096773 -0.15357004  0.10185737  0.2184307  -0.049495
 -0.08618865 -0.04904824  0.09511141 -0.05226162]
[ 0.19827864  0.1234042   0.12718378  0.02785625 -0.10319838 -0.15143022
  0.03253403  0.09270321 -0.13362697  0.03428062  0.08130061  0.03894718
 -0.00203724  0.05193729 -0.11717372  0.10166312  0.04562697 -0.1508993
 -0.04961782  0.06427047 -0.02025741 -0.00625037  0.07992981  0.03727301
  0.16971998  0.09603498  0.04432109 -0.06221975  0.0724353   0.13908073
  0.06317677 -0.06552977 -0.11978588 -0.00934255 -0.03648126 -0.02909473
 -0.00145039 -0.16795798  0.04841514  0.06775905  0.08256818  0.12224396
  0.01472757 -0.14945404 -0.10135734  0.01561383 -0.00711436 -0.09563275
  0.0015021  -0.10858078 -0.05794461 -0.07724378  0.03475051 -0.07347119
  0.05396718 -0.00672254  0.01078346 -0.04243446  0.02983308 -0.13672513
 -0.03319544  0.05515274  0.1169852  -0.02234259]
[ 0.02833734 -0.03367073  0.05473419  0.00042264 -0.01524201 -0.03422548
 -0.05063734  0.04193323 -0.04100071  0.08506917  0.03233455  0.04723985
 -0.02372885 -0.01842573 -0.13387425 -0.03864722  0.07404957 -0.0253636
 -0.02796337  0.04020832 -0.01872583  0.05709998  0.03286156  0.02986156
 -0.0747732  -0.02831334 -0.07941227 -0.12747863  0.04371412  0.06717337
  0.05890515 -0.0624069  -0.01048414  0.03097682  0.03715367  0.03668689
  0.06076034 -0.04530495 -0.09092218 -0.04487956  0.01670619 -0.08714553
 -0.0013484  -0.04160573  0.0411591   0.01044861  0.0092728  -0.02020907
 -0.05742108 -0.08534312  0.01866923 -0.05163238 -0.00464552  0.05515201
 -0.03243177 -0.07583696 -0.01799349  0.07264179  0.03467683 -0.07422667
 -0.00297742  0.00334612 -0.01679433  0.07277989]
[ 0.07511704  0.02074305  0.01969857 -0.0779943  -0.04319394  0.08326862
 -0.09466578  0.04084766 -0.01404612  0.0748081   0.07289456 -0.05846098
 -0.00413126  0.02330059 -0.01939677  0.08349478 -0.04077952 -0.01648494
  0.0589392   0.0711057   0.01485103  0.08424503 -0.0038798   0.01658778
  0.00229938  0.08051439  0.0092547  -0.0689007   0.03978885  0.1280765
  0.05456915  0.01231898 -0.08142207 -0.02583614  0.02838298 -0.0104996
 -0.03173562 -0.03389607  0.00161076  0.0452463  -0.01208511 -0.06065112
 -0.08476902 -0.01129181 -0.05896036 -0.02697706 -0.0187745  -0.03017291
  0.01070486 -0.11289435 -0.11663853 -0.01592584 -0.11793831 -0.02478812
  0.00852235 -0.1021484  -0.02009825 -0.01526563  0.05062872  0.01879698
  0.05267578 -0.0158582   0.0715759  -0.02353522]
[ 0.06199481 -0.0742658  -0.0320011  -0.07284177 -0.07443129 -0.04162718
 -0.03859914 -0.00996702  0.0711889   0.07602967  0.0549001  -0.04470222
  0.05051401  0.04002969 -0.05296388  0.02203386  0.03820816 -0.00702306
  0.00404391  0.00113528 -0.06517965 -0.07599336 -0.05967553 -0.02028741
 -0.06252085 -0.04893199 -0.07560342 -0.04200332 -0.04509473 -0.01485844
  0.00864038 -0.00808232 -0.07160277  0.02000255  0.05774496  0.0588452
  0.01554313 -0.02378948 -0.05345109  0.04279228 -0.02639704 -0.0813392
 -0.07018319 -0.02718465  0.02930243  0.07159825 -0.066804   -0.0062483
  0.00344202  0.04823866  0.02788324 -0.01194956 -0.06049802 -0.05664253
  0.02657136 -0.04377741 -0.03653822  0.07193666  0.03972702  0.03788931
  0.04102787  0.06236576  0.01383031 -0.02037443]
[ 0.05423287  0.03076703  0.05104237  0.00857717 -0.04551802  0.04987622
 -0.07398191  0.00084541  0.00159404  0.07463539  0.05377293 -0.01696746
  0.0637423  -0.01229416 -0.00411066  0.08383847 -0.01225363  0.02295756
  0.08137778  0.05217513 -0.00137287 -0.05525143 -0.0545002  -0.06245107
 -0.07069158  0.06094512  0.05594685  0.02371643 -0.02809283  0.03147641
 -0.08351795  0.03563168 -0.05843336 -0.0659752  -0.05680531  0.03127167
 -0.01984264  0.02496039  0.06009652 -0.08037719 -0.04439072 -0.06470501
 -0.001926    0.04054665 -0.02339271  0.07574032  0.0319922   0.03497493
  0.05866178  0.06084373 -0.02530861 -0.06486461 -0.00383913 -0.02476057
 -0.05786119 -0.04737535  0.02902903  0.06511108 -0.01619554  0.05439746
  0.06422106  0.08307155  0.04070867 -0.08052   ]
[ 0.02720075 -0.00734011  0.02794448 -0.00337895 -0.02207515  0.06763669
 -0.01840964  0.03138655  0.02104097 -0.04395614  0.06177891  0.00702065
 -0.05344999  0.01448659  0.01329096 -0.05725803 -0.04338518  0.04866564
 -0.03520191  0.05659293  0.0427802   0.02901116 -0.00442703  0.07031866
 -0.01397407  0.0559475  -0.08126951 -0.08334432 -0.06783189  0.05844524
  0.08340142 -0.04669532  0.05992157  0.05995048  0.04744791 -0.02401331
  0.07193916  0.07052989 -0.01928413  0.03279174  0.06297035 -0.03366495
  0.01441096 -0.00931069  0.02039996 -0.0040796  -0.0471149  -0.03277403
 -0.04889854  0.02912796 -0.07880452 -0.00293552  0.06976282 -0.00934859
  0.04069629  0.08211388  0.07439605  0.08154625  0.00995852  0.00859658
 -0.02272459 -0.07335201 -0.06684945  0.0629491 ]
[-0.0210305  -0.04337228 -0.07803062  0.02365677  0.0643787   0.05229575
  0.08346794 -0.05947015  0.01618208  0.04924402  0.03783426 -0.04815108
 -0.03421002 -0.05275318  0.07226368  0.06016538  0.01151966 -0.03874151
  0.06180876 -0.01887016 -0.01044659  0.01726472 -0.05272745  0.07715417
 -0.07601783  0.06542549 -0.02330373 -0.06045951  0.03751241 -0.00637419
  0.06917167  0.06824327  0.01866723  0.02910357 -0.03124177  0.07782238
  0.05388432 -0.05116053  0.0317489  -0.00361331 -0.06827155 -0.01149472
 -0.03241698  0.02229774 -0.03632513 -0.08363668  0.03567221 -0.06177431
  0.01135159  0.00901288 -0.08050107  0.04211812  0.05071881 -0.03605644
  0.05181143  0.0280522  -0.01894937 -0.05282634  0.05324764 -0.00914538
 -0.05007449  0.00435559  0.02984698  0.08025757]
[-0.02038813  0.0783942  -0.05760793  0.03191625  0.07880305  0.06659604
  0.07634277 -0.00375523  0.02203514  0.06325945  0.06641846  0.02016439
 -0.06292234 -0.01236235 -0.03869477  0.04975479  0.06804989 -0.08329035
  0.00036433 -0.05283515  0.04919865 -0.04240897  0.03703375  0.05709232
  0.00385441  0.00600566 -0.05050228 -0.07593416  0.07854459 -0.04085501
  0.08017344 -0.05182242  0.00360414 -0.07443585 -0.00774104  0.04440083
 -0.03978156 -0.02479973  0.02232899  0.01382715 -0.02043702 -0.03390041
 -0.03315987 -0.07493521  0.07439329  0.03133224 -0.01942602 -0.03320188
 -0.06397235 -0.00062829 -0.02088827 -0.07792088  0.05157468 -0.0669454
 -0.03822954 -0.02742841 -0.00522838  0.03930477 -0.01935034 -0.07134148
  0.03019978 -0.05489565 -0.02317241 -0.06854943]
[-0.06087968  0.06135117  0.01169585  0.00345827  0.05798038  0.03320943
  0.04914846  0.01028217  0.02517035 -0.01605451  0.03271116 -0.04247032
  0.05230718 -0.07150035  0.03096038 -0.02062387  0.02164869 -0.07929959
 -0.00167113  0.05631708  0.0408938  -0.01736483  0.0446324  -0.08058059
  0.08000588  0.07787862  0.02712286 -0.08063572  0.02415642 -0.07232884
  0.02282745 -0.02350488 -0.08397372  0.01926123 -0.02785955 -0.00151873
  0.02488158  0.02432048 -0.02526689  0.00602241  0.07182647  0.07648749
  0.057048   -0.00644398  0.04067229 -0.06231526 -0.06256823 -0.01260006
  0.07477383 -0.02803421  0.01432449 -0.06388858 -0.0700599  -0.05510535
 -0.06378768 -0.01592749 -0.01010055  0.05182833 -0.01159076 -0.02659827
 -0.03212015 -0.04045247  0.00747939 -0.05099899]
[ 0.13099006  0.0721572  -0.02463622 -0.03163083 -0.05322251  0.02991522
  0.05004993  0.00992402  0.02605216  0.00925332  0.02506939 -0.08226719
  0.00433613  0.00116853 -0.05726265  0.00440192 -0.04587539  0.05087095
  0.10031273 -0.08437325 -0.03177806  0.0792265   0.00322957  0.00083081
 -0.06197501  0.1077448   0.07634287 -0.07809804  0.0742572   0.08430198
 -0.06173851  0.06439009  0.0301815  -0.01119685  0.00055058  0.06100067
  0.02308934  0.03462026  0.04596101  0.00159656  0.06842602  0.06972745
 -0.06325327 -0.00039116 -0.00732922  0.03699902  0.04353239 -0.0420447
  0.04067094  0.03837847  0.06073029  0.04375029  0.06193899 -0.06174761
 -0.09502814  0.05031207  0.02768576 -0.019153    0.11937097  0.02469625
  0.0536072   0.05814726  0.00733895 -0.03819564]
[-0.0021808  -0.01255842  0.02324244 -0.07051051 -0.0317004   0.1241704
 -0.11307871  0.11310156  0.08124133  0.08574466 -0.12573676  0.06169187
 -0.20084494  0.20288791 -0.15005812 -0.05379619  0.06707212  0.05736423
  0.09976685  0.01630415  0.02159735  0.15311372  0.10730149 -0.00722056
 -0.00487106  0.17029005  0.09428498 -0.04410129 -0.03805363  0.20849031
  0.07113319 -0.00421438 -0.04809173  0.20475361  0.10123753 -0.1096303
  0.05751161  0.02350803  0.04341625 -0.08115969 -0.03708796 -0.08873048
 -0.05797654  0.10932208 -0.06431253 -0.03555341  0.02922983 -0.04566659
 -0.05926754  0.00740924 -0.15802082 -0.03960246  0.06825224  0.16272277
  0.02558666 -0.12028634 -0.01864862  0.0263748  -0.038816    0.15929711
 -0.02015088 -0.08195649 -0.04439588 -0.04012736]
[-0.00749942 -0.05591651  0.0523298  -0.11982965 -0.0899946   0.06229644
 -0.13088469  0.2171272   0.05779729  0.12923616 -0.04413129 -0.05178781
 -0.07710807  0.21044612 -0.09162608  0.0075436  -0.02327284  0.0231724
  0.23700258  0.06848149  0.03854664  0.17899773  0.22086912 -0.02462467
  0.15359478  0.16975841  0.19482653 -0.18313633  0.09585285  0.2097189
  0.05913351 -0.05214981  0.01102183  0.18921573  0.13245639 -0.05385356
  0.01208583 -0.1024129   0.07289841 -0.19987816  0.08579227 -0.10916055
 -0.19009124  0.05318644 -0.00254312  0.04040151 -0.02339154 -0.00225609
 -0.20745575  0.07860197 -0.07869435 -0.15261272 -0.06755967  0.07910908
 -0.03657743 -0.19602697 -0.13037078  0.13948584  0.14431006  0.13163911
 -0.00170226 -0.03913178  0.14138596 -0.05972655]
[ 0.05788263 -0.12471477  0.03422441 -0.05920067 -0.01555183  0.06060758
 -0.05235993  0.08507583  0.0489356   0.07415026  0.07399981  0.01860379
 -0.08754691 -0.00998549  0.00917239 -0.03748313  0.05252554 -0.04281619
  0.0286172  -0.02044564 -0.03231166  0.09711258  0.0033643   0.02514911
 -0.0344937   0.10431561 -0.00404878 -0.04558305 -0.02138485 -0.0168679
 -0.0076318  -0.06959783  0.02418594  0.04990849 -0.07450718 -0.02286016
 -0.04634297  0.00723745  0.05160085 -0.06939368  0.07544053 -0.06493578
  0.00556413 -0.06220474 -0.00582885 -0.10300822 -0.10329397 -0.14461653
  0.00722608  0.03344156  0.05069989 -0.01448356 -0.0595615  -0.03285449
 -0.07574412 -0.05526836 -0.08638917  0.11365746  0.09826212 -0.07204008
 -0.01010123 -0.07174151  0.11861207  0.05812738]
[ 1.38404459e-01 -6.12166077e-02  1.23248078e-01 -1.21562041e-01
  7.89755583e-02 -6.90397620e-02 -1.22085132e-01  8.21007416e-02
  2.49540787e-02  3.05924169e-03  7.54895583e-02 -1.52554795e-01
 -7.22671971e-02  1.41686946e-01 -1.48912132e-01  7.26862028e-02
 -1.19909376e-01 -1.38966411e-01  9.90362465e-02 -4.36221845e-02
  4.39490303e-02  3.63638289e-02 -4.70403358e-02  1.02949768e-01
  8.98743887e-03  6.25078306e-02  1.81172770e-02 -1.47601897e-02
  9.83925685e-02  9.01710540e-02 -1.44428760e-03 -4.96068783e-02
  4.19952162e-02  1.33836448e-01 -1.92127731e-02  6.45838231e-02
 -4.40399311e-02 -1.09134391e-01  3.66725121e-03 -1.39685556e-01
  8.06756839e-02  4.58076745e-02 -1.49843842e-01  1.25615448e-01
 -1.11322209e-01  8.17153826e-02 -8.16028193e-02 -6.58006296e-02
 -7.15645701e-02 -6.51766022e-05 -3.03142425e-02 -2.76428438e-03
 -2.10981220e-02  5.74648427e-03  1.52306184e-01  1.42592108e-02
 -7.06419274e-02  1.34566143e-01  1.41845405e-01 -8.11357647e-02
 -9.20728892e-02 -1.91014893e-02  1.82375163e-01 -2.12818454e-03]
[ 0.03208647 -0.01566828  0.1266924  -0.12299913 -0.04747599 -0.13570534
 -0.19373977  0.1789059  -0.02740779  0.13882555  0.15299125 -0.09492106
 -0.1749466   0.09199359 -0.16112186  0.09145261 -0.039657   -0.11113524
  0.13686681  0.03891295 -0.08321214  0.06292202  0.1268732   0.13305034
  0.01790206  0.15847431  0.07857047 -0.06474265 -0.0935945   0.17195693
 -0.07484221 -0.05370078  0.09946845  0.0882071  -0.06612135 -0.14430702
 -0.0578756  -0.10907184  0.01307798 -0.0455223   0.1489724  -0.03894526
 -0.1278105   0.10271388 -0.13343222  0.00707764 -0.19017448 -0.20883694
 -0.05404521 -0.1134271  -0.12405352 -0.02385117 -0.17852795 -0.04114187
  0.15465455 -0.18484947 -0.03105301  0.09466453  0.23578557  0.01211728
  0.00849489  0.04984531  0.17177343 -0.01819928]
[ 0.11405922 -0.06043797  0.12691799 -0.08838008  0.126331    0.07463058
 -0.10749028  0.12197722  0.09562046  0.27010003  0.04004    -0.07527832
 -0.31268     0.25279373 -0.17269877  0.14417522 -0.15174198 -0.0589515
  0.1329595  -0.03263091 -0.10804112  0.08069171  0.06796769  0.09695689
  0.02320418  0.30878276 -0.10544576  0.04742396  0.07507339  0.15436862
  0.00839569 -0.10500205  0.0567892   0.09900419  0.01307162 -0.06421097
  0.04549537 -0.11317444  0.05873995 -0.20017381  0.05143335 -0.10697276
 -0.1557629   0.0932304  -0.02504832  0.1401453  -0.0026156   0.02670657
 -0.08918514 -0.04854276 -0.0865573   0.13813414 -0.21889125  0.01958116
  0.07523388 -0.13986589 -0.02434018  0.145182    0.10103196 -0.09168973
 -0.02642865  0.06515531  0.33319783 -0.00294586]
[-0.03870758 -0.10059232  0.15896556  0.07710493  0.33387506 -0.04177984
  0.03185426  0.10727937  0.12488377  0.16324344 -0.02330667 -0.16208379
 -0.17547709  0.142132   -0.18231513  0.06076446 -0.0742756  -0.01679317
  0.16453227 -0.15644975 -0.02094999  0.04941687 -0.09519688  0.23681022
  0.00762599  0.11123177 -0.0727216   0.09793777  0.01315009  0.02061625
 -0.02114083 -0.04728871  0.13510704 -0.09404646 -0.1047735  -0.09404609
  0.02022744 -0.0178981   0.0843339  -0.07011542 -0.0128221   0.05590307
 -0.02054958  0.07103361  0.08148432  0.19756608 -0.05136525  0.07819818
  0.02980452  0.09633379 -0.27335036  0.0121069  -0.20288648 -0.12692903
  0.05730567 -0.05864165  0.06898396 -0.08528849  0.07968254 -0.12509252
 -0.08087414  0.02423097  0.4366395  -0.02161379]
[ 5.9079006e-02 -1.0813709e-01  1.8715574e-01  7.6818258e-02
  1.9094333e-01  8.0197528e-02 -1.4940725e-02  3.6394678e-03
  8.6975656e-02  4.6380993e-02  1.0578966e-01  3.9108396e-02
 -1.9729571e-01  2.3752997e-02 -1.8530469e-01  1.7368521e-01
 -1.9058287e-01 -1.7796712e-01  1.7035507e-01 -1.5543278e-01
 -8.8585965e-02  6.3703202e-02 -1.2199627e-01  1.8129613e-01
  1.1473399e-01  1.3789421e-01 -2.8305566e-03  3.2095041e-02
 -3.0652732e-03  1.5034601e-01 -8.5611679e-03 -4.7733616e-02
  1.2802809e-01 -4.0666293e-02 -9.5200308e-02 -1.0755606e-01
  7.6856092e-02  1.4560126e-01  5.1830690e-02 -1.5124507e-01
 -2.1088567e-01 -1.4451406e-02 -1.9234869e-01  2.0200525e-01
  8.2555540e-02 -1.5093494e-04 -2.5443625e-02 -2.3676386e-02
  6.8020985e-02  7.1669966e-02 -3.4467116e-01 -6.9251664e-02
 -2.5901982e-01 -8.3085582e-02  1.0670658e-01 -1.4328495e-01
  1.5166710e-01 -9.7040430e-02  3.1240916e-01 -5.6927241e-02
  5.0960220e-02  4.6647511e-02  3.4176826e-01 -1.8788861e-01]
[ 0.01607932 -0.03956429  0.19683488 -0.01303996  0.22852655  0.02280797
  0.00493232  0.08109213  0.10078692  0.16966434  0.01368964 -0.10460173
 -0.27851906  0.21168458 -0.0565442   0.24133925 -0.04392029 -0.16568013
  0.22354743 -0.15638365 -0.13196443  0.17046615  0.07876834  0.13737081
  0.26493198  0.20191188 -0.15830667 -0.04207827 -0.10952705  0.09452397
 -0.05367118 -0.08088883  0.07863513 -0.11263642 -0.03931912 -0.21870805
  0.16840038 -0.00562949 -0.01605531 -0.09583088 -0.03193504  0.00760096
 -0.16616955  0.11370494 -0.11235206  0.05274931 -0.04588357 -0.01143205
  0.04709483 -0.09181561 -0.2222443  -0.24429299 -0.25716317 -0.10672594
  0.19141486 -0.11919612  0.04903415  0.06858249  0.42151543 -0.03612299
 -0.14709756 -0.07786682  0.5112355  -0.15542111]
[-0.22033209 -0.09965426  0.1990243   0.08731367  0.18651652  0.02592422
  0.03203636  0.11131863 -0.00170255  0.18476681 -0.04241256 -0.2195248
 -0.15212755  0.05885351  0.02590048  0.13846992 -0.02816987 -0.17244832
  0.13405082 -0.0965428  -0.17201887  0.09605868  0.16789407  0.01707603
  0.08730402  0.19787343 -0.15862961 -0.03528963  0.02386269  0.09747697
 -0.00700589 -0.12699139  0.09848541 -0.0188242  -0.06910563 -0.24264039
  0.12322413  0.04568222  0.07595795 -0.03014713 -0.1477361  -0.04672291
 -0.15914929 -0.05811473 -0.11400414 -0.05120963 -0.004858   -0.20998694
  0.08708403 -0.02532379 -0.2962149  -0.25195488 -0.3198103  -0.03591679
  0.01870039 -0.20219041 -0.00564723  0.16951688  0.36327642  0.09476565
 -0.08820792 -0.11220401  0.31448898 -0.10731919]
[-0.17362736 -0.13336083  0.03808635 -0.03321444  0.07864489  0.02251975
 -0.03404956  0.14243224  0.05645027  0.10955776  0.06856684 -0.24742782
 -0.23961808 -0.10001922  0.05079796  0.1881691   0.02380615 -0.0587111
 -0.13327317 -0.23522575 -0.21441013  0.24449034  0.05627263  0.17373903
  0.17780669  0.087933   -0.24957708  0.07645728 -0.04715399  0.16432135
  0.10763144 -0.09269642  0.12821366 -0.08663568  0.01355349 -0.16291936
  0.1732679   0.09394146 -0.06751987  0.17710856 -0.05548791  0.00934649
 -0.19631097 -0.1218863   0.08569841 -0.09806839  0.12545478 -0.15046428
 -0.03395847  0.08698608 -0.23529664 -0.04083172 -0.42754328 -0.06104162
 -0.03420973 -0.16175191 -0.01413867 -0.01831662  0.11438178  0.07795925
 -0.20468852  0.01864054  0.08281031 -0.09132287]
[-0.1228067  -0.2719924   0.09413056 -0.02772981  0.07112831 -0.06108505
  0.01333121  0.06051175  0.11006695  0.06906539  0.12963782 -0.12532377
 -0.19657055  0.0898551  -0.00564744  0.09565001 -0.22999652 -0.1495669
 -0.0625924  -0.29804865 -0.06518264  0.2860484  -0.06590295  0.2721392
  0.17061172  0.09616315 -0.20743437  0.03587675  0.00060185  0.10527851
  0.00322167 -0.08760174  0.22916709 -0.04616509 -0.04122141 -0.25454348
 -0.00813059  0.06514441  0.00689449  0.14871052  0.12019702 -0.00522353
 -0.11154094 -0.0994076   0.02668814 -0.254504   -0.00159767 -0.13710046
  0.00156524  0.09244821 -0.318825    0.05145746 -0.37424666 -0.11997926
  0.06367726 -0.11535285 -0.05991938  0.00903514  0.28122598  0.07261387
 -0.01029957 -0.05371417  0.20501761 -0.12503886]
[ 0.09967022 -0.25785142  0.23815262 -0.14125682 -0.06922737  0.00750774
 -0.2510018   0.07624376 -0.1123763   0.0632218   0.21804117 -0.06012887
 -0.27453318 -0.02738275 -0.02917218 -0.01032407 -0.03154831 -0.08987069
 -0.08210085 -0.00630487  0.07097098  0.14878319 -0.06689157  0.3101936
  0.12752421  0.11022469 -0.3637082  -0.07759885 -0.13388267  0.11953527
  0.04491962 -0.24616554  0.175173   -0.0056576   0.12101001 -0.09434558
 -0.1016856   0.12843953 -0.21678165  0.33194792  0.35381788 -0.02657701
  0.03185846  0.10821674  0.06315235 -0.23869981 -0.1524969  -0.15310298
  0.03099208  0.08342131 -0.15985493 -0.00972208 -0.3043453  -0.22226475
 -0.03225283 -0.02568742 -0.14942753 -0.10105707  0.11533865  0.06532623
  0.0076465  -0.04418999  0.11440595  0.00309029]
[ 0.13589942 -0.15509224  0.17848472 -0.14396684 -0.13521567  0.14306992
 -0.14948556  0.13837734 -0.09896664  0.06977644  0.20192711 -0.00764397
 -0.27415112  0.04696596  0.02164248  0.09241189  0.00161361  0.05474818
 -0.16106525  0.03434916  0.0059183   0.10908971 -0.11878899  0.31354946
 -0.0859596   0.11037187 -0.1882788  -0.02956657 -0.11745054  0.19857547
 -0.09870705 -0.25185597  0.2609227   0.00670987  0.08451183 -0.25502044
  0.0256861   0.24722938 -0.10124145  0.06829034  0.15179984  0.01527272
 -0.07259688  0.00495119 -0.06794823 -0.1946415  -0.14889482  0.00622706
 -0.0047146   0.07589743  0.08134554 -0.10304403 -0.15203866 -0.09847745
  0.03662063 -0.13478668 -0.18046641 -0.0940607   0.16906174 -0.02675913
  0.04143937 -0.12038261 -0.05641691 -0.1268126 ]
[ 0.19216521 -0.05455722  0.1005108  -0.12283707  0.01986386  0.25432763
 -0.00513454  0.12030318 -0.10938128  0.1640123   0.0620176  -0.17969015
 -0.21778792 -0.05957397 -0.14820425  0.08404188  0.16120288  0.05975093
 -0.19369818 -0.01238363  0.06762082  0.20121042 -0.18386976  0.27475324
 -0.17022026  0.24257657 -0.24654399 -0.02666912 -0.03760854  0.00090849
 -0.13490258 -0.23022857  0.08207119 -0.0232293  -0.11554191 -0.22171558
  0.05883205  0.03244986 -0.10121786 -0.00042829  0.21045682 -0.0293735
  0.06597499 -0.01944089 -0.2015521  -0.2977147  -0.14418015 -0.25457835
  0.06598844 -0.06342807  0.03770974 -0.15561698 -0.10752834 -0.1313948
  0.05577444 -0.13048685 -0.09436458  0.01710713  0.06097835  0.04599887
 -0.01309298 -0.02052988 -0.04560313 -0.07559973]
[ 0.20031871  0.05913234  0.15546352 -0.01541662 -0.00827408  0.16306758
 -0.13404456  0.08030565 -0.16999908  0.2725113   0.10264398 -0.16893873
 -0.20997694  0.02368611 -0.22896896  0.11488941  0.20213847  0.1389796
 -0.15985556 -0.00491151  0.17312832  0.17757915 -0.11521062  0.29832175
  0.14431816  0.28950262 -0.14591673 -0.11098799 -0.11996318  0.04710894
 -0.1690229  -0.22785777 -0.04265707  0.02483376  0.01541489 -0.13834731
  0.03858903 -0.03485875 -0.10652049  0.04479346  0.1999032   0.04748774
 -0.15217897 -0.05156149 -0.1900452  -0.16812906 -0.20661245 -0.16947354
  0.00398431 -0.10023697 -0.13177939 -0.19239831  0.10999265 -0.10358746
  0.07843614 -0.12419962  0.01391781  0.03196315  0.11615774 -0.04892605
 -0.03519838 -0.05555929 -0.04960489 -0.0844443 ]
[ 0.17160167  0.10217217  0.13810883 -0.13710916 -0.1924878   0.08030408
 -0.07659593  0.22348246 -0.07457959  0.06090262  0.15652323 -0.11809011
 -0.08091751 -0.02382036 -0.34117407  0.13569334  0.03425981  0.1331542
  0.05836333  0.08226674  0.04000533  0.05108342  0.01790579  0.1150584
  0.09405861  0.24891818  0.0694829  -0.16177833 -0.17215957  0.11411418
 -0.08664744 -0.17205903 -0.02395646  0.01164492 -0.1279693  -0.1462713
  0.06879558  0.01364518 -0.2238941   0.01311749  0.19616869  0.04742771
  0.00748344 -0.11535213 -0.1500325  -0.02703785 -0.1492061  -0.17645498
 -0.05644422 -0.2724258   0.05558944 -0.03897806 -0.07570491 -0.26268324
  0.15425906 -0.09168601 -0.08599618  0.01910739  0.11955903 -0.12140808
  0.00555933  0.03213781 -0.02377666 -0.04962865]
[ 0.18212293 -0.01715028  0.17681374 -0.11672627 -0.06942287  0.03066929
 -0.13072944  0.19688764 -0.1261674   0.0115339   0.07168639  0.0573781
 -0.11129408  0.06070175 -0.2939887   0.06474771  0.03936727 -0.01021005
 -0.01223374  0.00549081  0.05385444  0.00128878 -0.05286889  0.02098003
  0.10759494  0.13046403 -0.05982188 -0.16015443 -0.14143048  0.07865296
 -0.01189808 -0.05051254 -0.08090976  0.01983572 -0.03191064 -0.25522324
  0.0195612   0.06468035 -0.16791523 -0.03284389  0.09026488 -0.01816083
  0.0171664   0.07344642  0.00889765  0.01491919 -0.08440515 -0.13717301
 -0.12910351 -0.0933941   0.03720076 -0.18749586 -0.01359326 -0.11161299
  0.09907555  0.06609963 -0.04690211 -0.0586485   0.11992934 -0.05953354
  0.07163678 -0.03028494 -0.11271928  0.03745078]
[ 0.31069398  0.06843524  0.13787206  0.04001996 -0.05311363 -0.01753095
  0.06764697  0.10255569  0.13679415  0.12282858  0.02256449 -0.07632317
  0.03585334 -0.04574749 -0.33616224 -0.00058368  0.0218797  -0.0032567
  0.09208602  0.07153204  0.01654857 -0.07571502  0.01155409  0.13309641
  0.06389472  0.22326119 -0.05059011 -0.11463097 -0.054555    0.10372407
 -0.10780481 -0.07822622 -0.10427164  0.08524138  0.09195317 -0.16833551
 -0.03706121 -0.05913319 -0.00953238 -0.06186831  0.07374538  0.04261576
 -0.03920281  0.02318608 -0.01175571  0.12703808 -0.21382569 -0.01945718
 -0.10921494 -0.11455174 -0.03766469 -0.29099798 -0.0645005   0.00168333
 -0.02537957  0.09379761 -0.01397711 -0.02647152  0.05341738  0.00776218
 -0.06305467  0.04913826  0.17704171 -0.1029991 ]
[ 0.18057622 -0.02279409  0.11226126 -0.04232397 -0.07849321 -0.0855379
  0.05138959  0.01024764  0.00044606  0.03624718  0.19934154 -0.02630441
  0.12128723  0.03172985 -0.06431206  0.11809108 -0.00102296 -0.03129738
  0.06871744 -0.01111399  0.00701452  0.07366546  0.01710954  0.12723792
  0.04670277 -0.0067911  -0.02367286 -0.1115583   0.06058359  0.0548706
  0.00840223 -0.06929228 -0.11978108  0.11907387  0.04340681 -0.07972294
 -0.04620887 -0.13604    -0.04343595 -0.1251417  -0.03953302  0.08735171
  0.03398057  0.08924644 -0.12258942  0.05962136 -0.13693394 -0.08268829
  0.0370795  -0.12142136 -0.04862219 -0.20987843  0.00222366 -0.10556389
  0.00707441  0.00747596 -0.04319318 -0.01553157  0.04603808 -0.1531255
 -0.0811856  -0.03472964  0.03829928  0.0585573 ]
[ 0.21769543  0.04733721  0.1601482   0.01467845  0.0802324   0.04359956
 -0.08368216  0.09950919  0.03387967  0.12481605 -0.03186878 -0.07917726
 -0.0405689   0.18185253 -0.15220545 -0.01146626 -0.05729309  0.06613998
  0.0488251  -0.00222778 -0.02617318  0.11093117 -0.05559894  0.0379209
 -0.07750137  0.05497929 -0.00061188 -0.00121807  0.07339077  0.1890296
 -0.06110132 -0.02925411 -0.04476411  0.07983989 -0.09647691 -0.11957686
  0.05137878 -0.06836243 -0.0202551  -0.06725032 -0.05787449  0.00994252
 -0.09131323 -0.02016591  0.01569802  0.03364281 -0.14376943 -0.01906155
 -0.0850204  -0.07667959 -0.10743949  0.0451597  -0.00751116 -0.09362166
  0.02972835 -0.15200874 -0.06137206  0.06192799 -0.00128885 -0.11220704
  0.0109142   0.0253288   0.06891956 -0.07293218]
[ 0.06218049 -0.09749128  0.12792476  0.03527132  0.198813    0.06629215
 -0.1336249  -0.00545932  0.0600955   0.13595808  0.04881663 -0.14989798
 -0.01653053  0.10060881 -0.1643687  -0.05107043  0.01149019  0.00444775
  0.16904    -0.04117795  0.06463207 -0.00957921 -0.11286163  0.07990763
 -0.05754688  0.06961143  0.01000094 -0.03037072  0.11053827  0.12062923
 -0.08183101 -0.04584722  0.07242598  0.02535466 -0.02225902 -0.13426912
  0.10632635 -0.00590301 -0.00987579 -0.1824808  -0.0374506   0.15638852
  0.02093157  0.07179552  0.01314098  0.08194304 -0.03942762  0.03258399
  0.01796271 -0.02054702 -0.21671392  0.10574471 -0.01699689 -0.03634504
  0.07781712 -0.12212704 -0.04435759  0.11209054  0.00473945 -0.05303711
 -0.07436109  0.07449874  0.07970261  0.01766278]
[ 0.07551878 -0.01074159  0.06577568 -0.12527207  0.03535673  0.08306912
 -0.10699946 -0.02599496 -0.05920379  0.02338848  0.03898081 -0.05084312
 -0.03052713 -0.03359443 -0.06196944 -0.06582818  0.01382636  0.11704783
  0.04112679 -0.0753345  -0.00914489 -0.01655664  0.02008224  0.04696807
 -0.06784585 -0.03505964 -0.10757095  0.06297545 -0.02157949  0.02929876
  0.00775246  0.08067841  0.04548652  0.12538746  0.02070585 -0.03354687
  0.0790314   0.06853855  0.03249411  0.01376437 -0.0051705  -0.02901433
 -0.1053675  -0.00890512  0.00327288  0.05436832  0.06789163  0.04265138
  0.04455834 -0.13243715 -0.01834593 -0.02572775  0.0389835   0.03230824
  0.0604343   0.00390361  0.05391704 -0.00476475  0.07202714 -0.01759211
  0.100174   -0.02583035 -0.0148614  -0.06741884]
[-0.01629405  0.02408314 -0.05006161  0.0379449   0.0436106  -0.0321031
 -0.0095724   0.01932057 -0.0745145  -0.05386665 -0.00176881  0.07289267
 -0.01638245  0.06591409 -0.07215885 -0.06740386  0.03960279  0.00892277
  0.07264332 -0.0546775  -0.0742484   0.00732294 -0.00924058 -0.00972837
  0.07073379 -0.01534876 -0.05526097 -0.04815158 -0.08156678  0.04005896
  0.07592512  0.05781379 -0.00174008 -0.03090916  0.05407169 -0.02655818
 -0.0450702  -0.04687491 -0.00318917  0.02276941 -0.0311958  -0.04774661
 -0.03944454 -0.01226562 -0.03794293 -0.04759542 -0.05199658  0.08300357
  0.04756921 -0.0090439  -0.01750357  0.01268724 -0.02730173  0.01116069
 -0.01605884  0.01801924  0.01475773  0.07191286  0.02943678  0.07167803
 -0.00660522 -0.02407694 -0.05400767 -0.05980511]
[-8.0642276e-02  9.0693682e-03 -5.6738190e-02 -4.3140069e-02
  4.8889048e-02 -3.1101186e-02  7.6316215e-02  2.9585324e-02
  3.2699794e-02  5.6813806e-03 -2.7036887e-02  1.6957536e-02
  4.5288362e-02  7.4369825e-02 -1.8871523e-02 -8.2465716e-02
 -2.1573424e-02 -4.4634432e-02  5.7647474e-02  2.6562892e-02
 -8.7037534e-03 -7.6079175e-02 -4.4713445e-02 -9.3001425e-03
  6.9085740e-02 -3.0236766e-02 -7.6156847e-02  4.6991847e-02
  3.0045062e-03 -7.2568029e-02 -7.4602664e-05  3.8687609e-02
  1.7635129e-02  5.8947705e-02  7.9345323e-02  6.4532615e-02
  3.9564446e-02  2.3203634e-02  1.6372241e-02  4.4189177e-02
 -3.3471763e-02 -4.3983370e-02  8.2389466e-02 -3.7400812e-02
 -1.2984425e-02  6.2697671e-02  6.1592422e-02 -6.9784962e-02
  1.4866814e-03 -7.3139608e-02 -6.6038631e-02 -6.9492646e-02
 -8.0317333e-02  5.1907010e-02 -3.5043653e-02 -8.1529692e-03
  2.3816928e-02  2.2061877e-02 -2.0647556e-02 -3.6445707e-03
 -4.9275968e-02 -3.1670380e-02 -5.7221450e-02  4.2528592e-02]
[ 7.4443743e-03 -6.0135007e-02  5.3068347e-02 -7.2052017e-02
  5.6743838e-02 -3.0815225e-02 -9.1925710e-03 -5.1549878e-02
  7.7375770e-03  6.4712539e-03  2.7268156e-02  3.7945703e-02
  1.4330141e-02  3.2694422e-02 -3.8666427e-03 -8.6778253e-03
  5.5553280e-02 -4.0026043e-02 -5.1490217e-03 -4.7746822e-03
 -6.0425360e-02 -4.3394484e-02 -3.9944399e-02  2.8777704e-02
 -4.3439087e-02 -6.3743182e-02  2.5216453e-02 -6.8161853e-02
 -4.9294017e-02 -7.2723851e-02 -9.8932832e-03  7.8331530e-03
  3.0448407e-02 -2.3556359e-02  3.2292463e-02 -7.4435249e-02
 -3.6365487e-02  6.7850702e-02 -5.3917266e-02  2.0116568e-07
 -5.7111979e-03 -8.2696810e-02  1.5767224e-02  1.6463004e-02
 -5.3179629e-02 -3.7658457e-02  4.6209939e-02  2.0708859e-02
  3.3171423e-02  9.6354559e-03 -7.6624282e-02  7.5197153e-02
 -3.1519748e-02 -7.7242374e-02  5.6078874e-02  6.4413153e-02
  8.1649728e-02 -1.8122941e-02  7.0797302e-02 -2.8866582e-02
  6.8762936e-02  6.0353719e-02 -1.2508929e-03  5.8963872e-02]
[-0.00449304 -0.07502722 -0.04751295 -0.06806286 -0.03801616  0.04567122
 -0.038759   -0.03337628  0.00308962  0.0605944  -0.00589631  0.04891071
 -0.02117578 -0.00051524 -0.08126304  0.02195787  0.06649166  0.07894274
 -0.07439267  0.05543195  0.00261498 -0.08396593 -0.04134326 -0.04231967
  0.06317788  0.03142874  0.01307969 -0.03304147  0.04269824 -0.04859302
  0.00951605 -0.0634253   0.03753089  0.06076396 -0.0180797  -0.00032186
 -0.03526733  0.04527313 -0.01987113  0.01382288  0.03624528 -0.01146838
 -0.03928855  0.03400708 -0.0176341  -0.00801076 -0.01692738 -0.07334563
 -0.03222476  0.04611946 -0.07311097  0.03329047 -0.00647876 -0.06917875
  0.07964193 -0.02879475 -0.04338899 -0.07287039  0.05027693  0.01061774
 -0.05415337  0.05743527 -0.01162535  0.01459312]
[ 0.06984439 -0.08750745  0.06777424  0.00843391  0.01519174  0.05856941
  0.01276368  0.08475401 -0.07194716  0.03621508 -0.02404344  0.02531011
 -0.05828886  0.10002382 -0.08552675 -0.0358545  -0.06281915  0.061888
  0.01101472 -0.06595162 -0.05056451  0.07984264  0.05477656  0.03249944
 -0.03243512 -0.01857495  0.09857276  0.00039143  0.00523012  0.02435265
 -0.05244175 -0.04448628 -0.0737124   0.02816074  0.02965488  0.01309674
 -0.01360738  0.02307176 -0.03990028  0.03490328 -0.03907368  0.02700754
 -0.06426078 -0.02362224 -0.03946996 -0.02792     0.04654741 -0.0759857
  0.02815685  0.07161154  0.02126111 -0.05976586 -0.07523979 -0.07518945
  0.0566444  -0.05941502  0.03180941  0.00771676  0.11463874  0.02917329
  0.06615338 -0.04323527  0.0466045  -0.08400103]
[-0.05004246  0.07225991  0.12996998 -0.06453177 -0.15582938  0.0717151
 -0.12252989  0.11342923  0.10668389  0.03141234  0.01971285  0.02274975
 -0.10300706  0.17027129 -0.05356983 -0.08023014 -0.00412423  0.01794835
  0.17754231  0.04654454  0.05722464  0.20111065  0.15322183 -0.04947803
 -0.01195341  0.0990753   0.15849897 -0.22412431 -0.04322993  0.1497568
  0.00589003  0.07104376 -0.01505882  0.20995487  0.06102192  0.01581863
  0.07013542 -0.01724765  0.03448676 -0.08081542  0.04764878 -0.14952783
 -0.07586656  0.1795227   0.05341044  0.01740634 -0.07137707  0.06797674
 -0.09911568  0.04213188 -0.13080454 -0.15498725  0.05728809  0.09522205
 -0.02575042 -0.14645092 -0.0097669   0.17126253 -0.00312386  0.09412804
  0.02184378 -0.06354083  0.06168862  0.07560424]
[ 0.07303569  0.02025722  0.06505489 -0.23405103 -0.01146207  0.13424103
 -0.10247513  0.22719775  0.13822772  0.08844419  0.03732238  0.0060619
 -0.22033036  0.22299995 -0.13119239  0.0568211   0.01907636 -0.04468114
  0.1086171   0.07366966  0.07613128  0.19532323  0.12838511  0.08416442
  0.06503594  0.12694725  0.18854153 -0.20178637 -0.0534202   0.22379287
 -0.00668252  0.00421366  0.08692345  0.07688405  0.19910185 -0.06604078
 -0.04271166  0.0364252   0.04540432 -0.21047676  0.09752264 -0.07400669
 -0.09691218  0.12104382  0.06182875  0.09470665  0.01593733 -0.04721791
 -0.01337417  0.02597898 -0.06010485 -0.15771392  0.06447577  0.13211882
 -0.00307176 -0.12911266 -0.13090654  0.11556782  0.12357606  0.12334583
 -0.0828361  -0.00690951  0.02847767 -0.02865886]
[-0.08271487  0.0766717  -0.00548242  0.07002565  0.19177815 -0.04198558
  0.00837453  0.05795336 -0.03879982  0.03775078  0.05192141  0.14422026
 -0.11773579  0.09551776 -0.11579394  0.16272452  0.09646721 -0.13311711
 -0.01431394 -0.12197259  0.10942063  0.04172962 -0.03640718 -0.12428625
  0.1499154   0.06449048 -0.0586832  -0.07510319 -0.1241951   0.09280465
 -0.040861    0.06177843  0.06991888  0.00430515  0.11443019  0.03527447
 -0.03823243  0.00882101  0.00449756  0.02411162 -0.01516641  0.06453317
 -0.12172436  0.07588517  0.0373552   0.09997851  0.02228308  0.06016858
 -0.10625566 -0.0834151  -0.03887702  0.0470855  -0.0049431   0.0310999
  0.1031559   0.03406506  0.09433677  0.04427827  0.07818218 -0.00577951
 -0.04801076  0.00119495  0.08006598 -0.00213134]
[ 0.04002308 -0.05460313  0.16227613  0.03232249  0.22663446 -0.03329526
 -0.00417714  0.11082944  0.00200937  0.01763965 -0.01228454  0.02569296
 -0.11815719  0.1512356  -0.19811346  0.126833    0.01706556 -0.05168221
  0.12925993 -0.04053475  0.175669    0.09952484 -0.09700303  0.13717316
  0.06148005  0.18963541 -0.08632772 -0.12585282 -0.19465369  0.24858917
  0.01025855  0.00323882  0.04990358  0.00400063 -0.09441101  0.04005661
 -0.05016532 -0.04841053  0.00142363  0.03081871 -0.04126044 -0.11680347
 -0.24097854  0.12724988 -0.19362545 -0.05047618 -0.00648627 -0.19957294
 -0.08587631  0.00924516 -0.02186064  0.03949721 -0.1133384  -0.04122729
  0.00502162 -0.18282232  0.06408998  0.14908019  0.17477928 -0.07257023
 -0.10973305 -0.09425171  0.20305888 -0.0766513 ]
[ 0.08087645 -0.00061864  0.12250285  0.05669573  0.1982637   0.13318853
 -0.01307297  0.09641356 -0.04753465  0.03727809  0.02681062 -0.02249135
 -0.18077192  0.0974614  -0.16631833  0.05737137 -0.07490224 -0.02596347
  0.08048663 -0.10692061 -0.04380352  0.06281549 -0.14212383  0.05912019
  0.04245024  0.18410487 -0.13312605  0.03785185 -0.10076565  0.24248654
  0.0056333  -0.01062097  0.07315669  0.00367238 -0.10552452 -0.04817478
  0.10854784  0.00290969  0.05148214 -0.03386886  0.02834611 -0.09238204
 -0.20299086  0.09646861 -0.14245915  0.0419985  -0.07379549 -0.13394547
 -0.02185656 -0.04383141 -0.09044213 -0.08603069 -0.28811958 -0.09817993
  0.11323807 -0.14088894  0.0475984   0.22493395  0.3142415  -0.08384334
 -0.08476253  0.02746025  0.2124175   0.00395573]
[-0.14517918 -0.17839877  0.11103743 -0.08495782  0.15944944 -0.04662192
 -0.14017902  0.18759508 -0.04631183  0.0623019   0.11172309 -0.1442567
 -0.30547065  0.13726689 -0.17111321  0.13673446  0.15146063  0.09823163
 -0.02004557 -0.15467793 -0.13818677 -0.04035782 -0.10200024  0.02171938
  0.06559477  0.26214287 -0.25789714 -0.08402058 -0.07061446  0.14541282
 -0.09996314  0.0371868   0.03298615  0.10735337 -0.15965904 -0.07255968
  0.07267465  0.30072752 -0.03332724 -0.29563993 -0.07871427 -0.16082208
 -0.22107436  0.22253427 -0.05200307  0.18705212  0.05309987  0.00760198
 -0.0345141  -0.04808449 -0.15877153  0.07945283 -0.23849279 -0.15743047
  0.2579047  -0.14058134  0.08860634  0.18921804  0.18906412 -0.1895614
  0.01663025 -0.05233912  0.07108926 -0.09514177]
[-0.13618994 -0.17090961  0.04046596  0.04286169  0.22593959  0.06496877
  0.00616982  0.03119659  0.10402645  0.12362903  0.00464599 -0.16187641
 -0.1696128   0.21127217 -0.16830531  0.22379296  0.1445365   0.1066115
  0.03648108 -0.14255428 -0.16592741 -0.00938898  0.03387002  0.31454688
  0.08815251  0.20139755 -0.04124823  0.13351405  0.06578828  0.05149509
 -0.121955    0.0142514   0.10815465 -0.00478854 -0.0387336  -0.13191742
  0.04597467  0.08119311  0.0806051  -0.19915627 -0.09585845 -0.0251069
 -0.29000393  0.1485447  -0.17905785 -0.07502885 -0.02115745 -0.15956196
 -0.0567257   0.11919987 -0.25378585  0.06552389 -0.2940553  -0.0702566
  0.05394635 -0.07681151  0.26997998  0.11855707  0.3152791  -0.16347063
  0.02372815  0.0247345   0.24700314 -0.06394688]
[-0.00065771 -0.17766379  0.08266305  0.00358284  0.13878962  0.18616533
  0.02884125  0.1162766   0.1793927   0.23652935 -0.04752378 -0.05404172
 -0.19913702  0.1470391  -0.154862    0.15210055  0.00127304  0.0720112
  0.06519571 -0.08343214 -0.183791   -0.15084831  0.01481774  0.21899945
  0.1507977   0.23967992 -0.09458464  0.12414794 -0.04692755 -0.05130024
 -0.17277223 -0.03339205  0.04799514 -0.08083694 -0.16370383 -0.23278385
 -0.03893997 -0.03952325 -0.01859954 -0.2735156  -0.13824387 -0.04980283
 -0.26434788  0.09856429 -0.23137648  0.02078997 -0.06105983 -0.14825727
 -0.02676614  0.02463192 -0.20089069  0.03735163 -0.30395296  0.04100278
  0.02860511 -0.13382095  0.17372131  0.13445531  0.11062542 -0.16173987
  0.11926665 -0.03180905  0.08974427 -0.06681169]
[-0.10054433  0.03903309  0.09475394  0.00041909  0.12474561  0.21930191
  0.07039435  0.07596908  0.01793709  0.23651542 -0.01924117 -0.00340385
  0.04449684  0.1388729  -0.1080087   0.11904606 -0.07607361 -0.12931256
  0.19463722 -0.15465635 -0.15827318 -0.03171174  0.09462582  0.16758431
  0.08945881  0.1611544  -0.01712932  0.09894424  0.01316636  0.15558589
 -0.15014525 -0.05074182  0.14594106 -0.05799077 -0.12949726 -0.23998703
  0.13911498 -0.05717919  0.02951503 -0.1879538  -0.19958103  0.01089086
 -0.0625756  -0.11669958 -0.21042027  0.09846629  0.17691705  0.03828884
  0.05788893  0.14184266 -0.10272472 -0.14786063 -0.27441168 -0.05551758
  0.02759314 -0.06691068  0.2716333   0.0974972   0.21362543 -0.02141515
  0.05978857 -0.07167055  0.08809405 -0.11505321]
[-0.3318737  -0.11639485  0.1404929   0.01736256  0.06508575  0.05501324
 -0.14715533  0.1554258   0.02255887  0.22654046  0.02575387 -0.10695684
 -0.03550195  0.2278525  -0.06140853  0.00867507  0.19661975 -0.25432888
  0.04936688 -0.13364384 -0.07505796  0.20245185 -0.05491074  0.01736131
  0.20274486  0.20059009 -0.3175853   0.13710555  0.11165748  0.14414996
 -0.11926103  0.01418802  0.19529201  0.02678596  0.05810261 -0.1991694
  0.1826462   0.08003396 -0.04629263 -0.09218907 -0.08863298  0.03354217
 -0.32259652 -0.12108197  0.11896612  0.05104657  0.12582122 -0.11852527
 -0.03448039  0.01084757 -0.41701943 -0.0255726  -0.43994474 -0.04037112
 -0.00107968 -0.27363083  0.1369251   0.09146415  0.06504817 -0.0447455
  0.01215086 -0.07554717  0.0111003  -0.14355628]
[-0.20210521 -0.12748078  0.02994856  0.0317843   0.03350791  0.04913526
 -0.10556977  0.20236877  0.0618897   0.16740657  0.19043624 -0.03426225
 -0.16124214  0.22595397 -0.16895865  0.09481401  0.05265216 -0.16765338
  0.20794423 -0.12953587  0.00608636  0.25582948 -0.10278759  0.05903787
  0.07943828  0.14435609 -0.18774943 -0.04983241  0.05431997  0.22990893
 -0.20090374  0.08095215  0.21578805 -0.10396267 -0.04519423 -0.21615015
  0.22559041  0.06216676 -0.00372873 -0.01043131 -0.13236898 -0.02924934
 -0.39412108  0.06120825  0.07669758 -0.01473206  0.21741647 -0.07031889
 -0.09619063  0.13291056 -0.416416    0.07725744 -0.34892207 -0.11036975
 -0.10280166 -0.2458204   0.12862158  0.09307673 -0.00146089  0.23095466
  0.1116659  -0.06275251  0.02799183 -0.1215627 ]
[ 0.03264254 -0.00640186  0.08270381 -0.12343987  0.03173887  0.11821944
  0.03708304  0.1898691  -0.06107042  0.08720735  0.1480561  -0.220901
 -0.11940528  0.21933118 -0.0831072   0.08875019 -0.05085548 -0.15117702
  0.16046207 -0.10975851  0.10511898  0.2276136  -0.03585409  0.06953371
 -0.00683947  0.15040316 -0.14340074 -0.0288007   0.07558501  0.04704897
 -0.21669349  0.044718    0.19794334  0.00477971 -0.18167804 -0.21511693
  0.18671457 -0.06545655 -0.04937747  0.14792252 -0.03089533 -0.05517793
 -0.3201426  -0.04376712 -0.00231074 -0.18603687  0.01145907 -0.15794486
  0.01327129  0.05744452 -0.09851771 -0.0082324  -0.35687622 -0.09490849
 -0.21260752 -0.08190074  0.2399085   0.0787589   0.10371573  0.14735326
 -0.00994535  0.00486098  0.0413156  -0.24318343]
[-0.14994049 -0.0667859   0.01374561 -0.00767585 -0.13045396  0.11628899
  0.04645429  0.20797545 -0.09036862  0.10264043  0.14825208 -0.06580915
 -0.00041249  0.03365373 -0.08294781  0.01352051 -0.00869469 -0.11141764
  0.01367166 -0.04397354  0.10257625  0.16724236 -0.16528513  0.0393753
  0.13487874  0.21072376 -0.01342827  0.02643628 -0.12194607  0.08774368
 -0.15215991  0.01686224  0.22635147  0.01447476 -0.175804    0.01092861
  0.20490345  0.01775188  0.01147528  0.14734864 -0.00194566 -0.17240052
 -0.17449546  0.09567758 -0.16633329 -0.14098318 -0.03817857 -0.24633096
 -0.15081297  0.08699583  0.01975403 -0.00288564 -0.14961089 -0.13290673
 -0.17345716 -0.10348814  0.19234416  0.07310683 -0.00922518  0.03075689
  0.08597611 -0.08572545  0.06574563 -0.33902878]
[-2.59706588e-03 -1.35492548e-01 -3.48333605e-02 -2.13077758e-02
  8.97723529e-03  5.32683451e-03  7.42117539e-02  9.51010287e-02
 -2.20150113e-01  1.95114743e-02  2.73449928e-01 -6.99506998e-02
 -1.50584774e-02  9.36995968e-02 -9.50171724e-02  1.04887895e-01
  5.01243770e-03 -7.69669488e-02  1.60830822e-02 -2.99083106e-02
  1.04642935e-01  1.35415584e-01 -1.65520646e-02  4.51891534e-02
  5.13579771e-02  1.40962780e-01  1.18078433e-01  1.05597243e-01
 -1.30857468e-01 -8.07530060e-03 -4.45112437e-02  3.37108672e-02
  1.25133827e-01  7.47220451e-03 -7.36521184e-02  5.34112789e-02
  2.82636136e-01 -1.78214144e-02 -1.26866058e-01 -1.96477808e-02
  9.36346129e-02 -1.43955067e-01 -6.74354434e-02  5.64994887e-02
 -3.10870260e-01 -1.15276631e-02 -2.49240510e-02 -1.42877936e-01
  5.38966095e-04  8.02710131e-02  7.13051334e-02 -1.01434581e-01
 -7.64783770e-02 -9.26525518e-02  5.44493785e-03 -4.93151285e-02
  1.86816469e-01  5.47984540e-02  3.87859473e-06  1.45016626e-01
 -4.36942801e-02 -1.63769647e-01 -1.43499717e-01 -2.05894426e-01]
[-2.28460282e-02 -5.39928954e-03  7.13450536e-02  3.59404646e-02
 -1.37022674e-01  1.17269501e-01  8.87510777e-02  2.01067582e-01
 -2.15570524e-01  1.44392446e-01  1.23086154e-01  7.87712485e-02
 -6.66682497e-02 -1.11685231e-01 -1.85653463e-01  1.56141389e-02
  2.10031657e-03 -1.26455888e-01 -7.33858868e-02 -1.76453479e-02
 -5.03994431e-03  1.45036913e-02 -5.98615222e-02 -1.23447075e-01
  9.15126409e-03  1.60151675e-01  8.67368132e-02 -1.37647223e-02
  2.65987236e-02 -7.02212378e-03 -5.80988079e-02  1.09902345e-01
  6.37137815e-02  1.11133359e-01 -9.08428878e-02 -9.23557207e-03
  1.63217813e-01 -1.06936060e-01  3.08654886e-02 -1.34011135e-01
  1.14596523e-01 -3.53791788e-02  1.05179816e-01 -1.60432560e-03
 -3.79388809e-01  5.22148311e-02 -1.22894876e-01 -3.32595617e-01
 -3.74810584e-02  8.76561776e-02  1.95144974e-02 -1.90657064e-01
  7.20980987e-02 -1.40635580e-01 -1.87349171e-04  9.36866179e-02
  2.06473455e-01 -6.97810575e-03  1.33070266e-02  1.69968426e-01
  3.52568142e-02 -8.40761736e-02 -8.18521678e-02 -1.56014681e-01]
[ 0.02980552  0.01151442  0.14238635  0.08838686 -0.23448674 -0.03782668
  0.02720491  0.17101024 -0.29931194  0.16013573  0.18242587  0.19089095
 -0.05258951 -0.09314851 -0.21993081  0.08161499  0.19380829  0.03385418
 -0.11375782  0.06390564  0.01926102  0.02762836 -0.11102038 -0.00487385
  0.07599006  0.16520692 -0.01962078 -0.0029809   0.03500851  0.02842865
  0.03021638  0.02546482 -0.12581252  0.04652404 -0.01962239 -0.06277934
 -0.01101448 -0.01858249 -0.07084045 -0.07747959  0.12827243 -0.05494
  0.10144006  0.08905782 -0.27002767  0.05243226 -0.16862953 -0.18727095
  0.00810332 -0.16252711  0.07961111 -0.0649745   0.143043   -0.21310985
  0.02620827  0.07242154  0.04901559  0.02354199  0.06987178  0.11211055
 -0.06016516 -0.13799378 -0.1948504  -0.04137863]
[ 0.11555701 -0.06625981  0.17661518  0.07286111 -0.14711893 -0.10486026
  0.09738062  0.10405839 -0.12408409  0.19737469  0.08234959 -0.16991222
  0.05013027 -0.02474468 -0.22552809 -0.01894441  0.02127738 -0.05914621
 -0.13187565 -0.05998541 -0.01401723 -0.03719405  0.0781852   0.04581608
  0.08569094  0.21238688 -0.06705448 -0.06256396 -0.05435081  0.01519766
 -0.11002458 -0.09757576 -0.16616277  0.01005188  0.01969636 -0.08596479
 -0.01556421 -0.05275249 -0.21960366 -0.03940359  0.26790565  0.1591499
  0.01630248 -0.2027742  -0.2685187   0.04282885 -0.17174692 -0.2881175
  0.00514155 -0.0472741   0.24316417  0.1342755   0.06572334 -0.21752048
  0.15076032 -0.09969855  0.02602813  0.05825081 -0.09596496 -0.02965766
 -0.01447085 -0.09334024  0.03108707 -0.06082038]
[ 1.63317204e-01 -3.11465794e-03  1.95244089e-01  3.03871240e-02
 -4.65896465e-02  2.42167339e-02  6.23662733e-02 -2.00907909e-03
 -7.53294826e-02  8.38197470e-02  1.49065018e-01  4.17287275e-03
  8.49192664e-02 -2.93633882e-02 -1.23415589e-01  6.04325794e-02
  1.82991866e-02  2.59175766e-02 -1.48303807e-01  5.19824438e-02
 -1.16018672e-03  8.15526173e-02  2.52509722e-04  9.01969224e-02
  6.37867721e-03  8.79504159e-02  4.41680327e-02 -2.76831716e-01
 -2.01536775e-01  9.46044400e-02 -1.21116512e-01 -5.73125333e-02
 -4.97916192e-02  1.83240309e-01  2.50226222e-02 -1.46602541e-01
 -1.49023697e-01 -9.87657681e-02 -1.15356632e-01 -1.62539572e-01
  1.25898212e-01  4.76302356e-02 -7.20491484e-02 -8.33651200e-02
 -2.56561637e-01  1.56719103e-01 -2.16240436e-01 -1.61396503e-01
 -4.96273413e-02 -1.09613545e-01  1.67218179e-01 -8.04685708e-03
 -4.15512696e-02 -1.25266448e-01  1.01811029e-01  1.65091082e-02
 -6.95433170e-02 -4.24987115e-02  1.39732305e-02  2.62188893e-02
  4.07787226e-02 -1.20762875e-02 -3.52558424e-03 -3.19254659e-02]
[ 0.13627025  0.03379595  0.24087897  0.08165624 -0.10203079  0.03068874
  0.21770994 -0.1186517  -0.10017806  0.0355959   0.1033865   0.01476785
 -0.04398864 -0.11016977 -0.31877276  0.14843847 -0.04775726  0.06782386
  0.0064263   0.01025828 -0.02429583 -0.08226339  0.09745631  0.02644929
 -0.06629909  0.04060578  0.04044997 -0.1367725  -0.03473575  0.02530361
 -0.11055805 -0.04548762 -0.20506155 -0.0291915   0.0682146  -0.17425457
  0.03555875 -0.14236292 -0.0179399  -0.07566059  0.10577156  0.16013724
 -0.0882832   0.09694766 -0.09754658  0.14949532 -0.20368129 -0.04734492
  0.09603167 -0.12805335 -0.00827225  0.00101472 -0.12215912 -0.12163949
  0.1019746   0.27067277 -0.0486735  -0.04075408  0.18877131 -0.12153194
  0.01183826 -0.06312449  0.0255424  -0.24897431]
[ 6.60587177e-02 -6.36362955e-02  1.93211779e-01  8.29468518e-02
  3.07005066e-02  1.06722549e-01  1.55038074e-01 -3.15916725e-02
  8.76542851e-02  1.01736166e-01  6.90044910e-02 -1.66346617e-02
 -9.55811441e-02  7.48068169e-02 -2.48923168e-01  5.50225452e-02
 -1.93018392e-01  9.03671458e-02 -1.61398202e-02 -1.40361290e-03
 -1.26870468e-01 -7.47662336e-02  7.19929393e-03  8.10007844e-03
 -2.66527943e-02  5.79903349e-02  2.56236047e-02  2.21451744e-02
  4.74002585e-02 -1.41486555e-01 -3.37524340e-02  6.04083762e-02
 -2.41532117e-01 -9.65315625e-02  2.66102776e-02 -1.20035723e-01
 -1.49147913e-01 -2.10403338e-01  2.25356426e-02 -2.35373583e-02
 -3.66411135e-02 -1.55001236e-02 -9.44689661e-02  8.46780241e-02
 -1.45570943e-02  7.04584047e-02 -9.60932299e-02 -1.68650582e-01
  3.56454775e-02 -1.85114413e-01  4.47298028e-02  4.32522222e-02
 -1.80641323e-01 -1.20020723e-02  9.83542949e-02  2.09029522e-02
  1.90856904e-02  8.06542262e-02  1.23732440e-01 -1.45093530e-01
 -1.56898648e-01 -9.30892202e-05  1.31091207e-01 -1.88700318e-01]
[ 0.00406542 -0.06832122  0.17329249  0.0363018  -0.02216186 -0.00138854
  0.02608716 -0.00631958  0.01975097  0.09396795  0.02345343  0.16639231
 -0.12464783  0.0618247  -0.1963876   0.02368926 -0.09186625 -0.02398795
  0.07071342  0.00194493 -0.05314695 -0.03687994  0.1280944  -0.05240013
 -0.05897824 -0.01254347 -0.00815701 -0.24709469 -0.02277047  0.00472482
  0.00079384 -0.11728048 -0.3319196  -0.05156356 -0.1490456  -0.10464508
 -0.1028595  -0.175165    0.01087768 -0.03467332 -0.00940519  0.02983757
 -0.18432279  0.08501687  0.12379836  0.1931741   0.01041657  0.01465862
  0.03334298 -0.1301541  -0.15115617  0.10459383  0.03240043 -0.08431751
 -0.03658446 -0.03904008 -0.04397581 -0.04105866  0.0934957  -0.1906016
 -0.10970423  0.04192632 -0.05862319 -0.05558934]
[ 0.12078123  0.05115134  0.08459896 -0.1449926   0.09524881  0.08582405
 -0.26329595  0.1328645  -0.00197163  0.21169147  0.11503171 -0.06964298
 -0.26024753 -0.10815953 -0.20403372  0.06877082  0.00532849  0.19248842
  0.10749277  0.16135508  0.10819559  0.05172982 -0.04414124  0.06304348
 -0.11977935  0.15294917 -0.28041494 -0.21181308 -0.02064978 -0.01477716
 -0.08481576 -0.04551178 -0.19810736  0.05829578 -0.03835053 -0.15217899
 -0.10135522 -0.16070937 -0.04838765  0.02501126 -0.15995434  0.02320777
 -0.03136206  0.02592444  0.12059569  0.09599717  0.01646082  0.0828735
 -0.07973928 -0.20416434 -0.13386637  0.16535789 -0.09703309  0.06437799
  0.14325295 -0.21248586 -0.02103417  0.07179902 -0.01232758 -0.02568312
 -0.02068596  0.00137551  0.00158774 -0.12059253]
[-0.01805286  0.02441809 -0.11112625  0.01044011 -0.06948061  0.04130194
 -0.09751825  0.08909132 -0.01057907 -0.1189646   0.00117377  0.0525195
  0.1693161  -0.00339143 -0.18597376  0.039666   -0.3026096   0.19646618
 -0.11011656 -0.00122302 -0.04185243 -0.004135   -0.04738647 -0.01714949
  0.01577443  0.11362842 -0.12367672  0.02510988  0.03231767 -0.05842614
  0.0225518  -0.03178011  0.06085668  0.08992982  0.14775187 -0.10267211
 -0.0855496  -0.02038487 -0.03864454  0.10624152 -0.0373813  -0.06056843
 -0.02687742  0.06418393  0.17843533  0.06191257 -0.01620975 -0.02233279
  0.01115096  0.00377923 -0.0007483  -0.11637248 -0.07845807  0.19114941
 -0.21644941 -0.12841584 -0.033209    0.17306946 -0.05217687 -0.0148973
  0.13683717  0.08183429 -0.09921493 -0.16292274]
[-3.67490016e-02  5.43010831e-02  1.18977698e-02  4.86187860e-02
  4.78330739e-02 -2.83715799e-02 -1.21111147e-01  2.36624718e-01
 -4.40868363e-02 -1.04662031e-01  3.02148312e-02 -4.56188247e-02
 -3.55323479e-02  2.39252276e-03 -1.26209229e-01  7.50579536e-02
  1.00230351e-02  1.28453985e-01 -1.81017280e-01  2.13015117e-02
 -4.08492126e-02  1.43033471e-02 -1.00760110e-01 -1.44708818e-02
  6.56457245e-03  1.34472638e-01 -2.06855595e-01  3.77410017e-02
  1.13969721e-01 -6.13179058e-02 -4.86763492e-02 -3.64021063e-02
  1.07686833e-01  4.17644940e-02  1.35371655e-01 -1.42725691e-01
 -3.44507769e-02 -9.17302519e-02 -7.32326806e-02  1.10225774e-01
 -1.08034648e-01  3.45222875e-02 -2.65250280e-02  2.72569787e-02
  5.61031327e-02 -5.94927706e-02 -1.94432083e-04  4.95155379e-02
 -7.18601467e-03 -8.22064560e-03 -2.97053196e-02 -7.62590766e-03
  3.34399939e-02  7.04312474e-02  4.06022146e-02 -9.11146104e-02
  1.88734710e-01  1.72988385e-01  7.82504305e-02 -2.84904838e-02
  9.96547043e-02 -1.62607133e-02  3.67409214e-02 -4.99189198e-02]
[ 1.86364204e-02 -5.94164059e-02  9.84501094e-03  7.15527162e-02
 -2.79374458e-02  7.72755668e-02 -2.80469656e-04  5.38360402e-02
 -8.38669464e-02  5.84075600e-03 -6.42202646e-02  4.00646850e-02
  1.34740025e-02 -5.09438813e-02  2.77025253e-02 -1.11311674e-05
  4.63296548e-02  3.27736139e-02  7.20605776e-02 -4.49752808e-02
 -5.10123484e-02 -1.25823915e-03  5.64974770e-02 -1.33814663e-02
 -3.92397754e-02  2.50573009e-02 -2.22000480e-03 -2.90407799e-02
 -6.63512051e-02  8.40859637e-02 -7.43903592e-02  5.64596429e-02
  2.34001726e-02  7.42618516e-02  3.54837775e-02  2.19207108e-02
  5.41025028e-02  6.43577799e-02  1.18678138e-02 -4.20005769e-02
 -1.17985830e-02  7.13574961e-02 -1.01320446e-03  8.01405236e-02
  7.29008093e-02 -3.96649353e-02 -5.58186322e-03 -1.56370327e-02
 -6.33024573e-02  3.95363569e-03  7.29371682e-02 -7.40563497e-02
 -8.00601244e-02 -5.94913214e-03 -3.65163758e-02  4.37350199e-02
  8.31653252e-02 -3.96432728e-03  7.10117742e-02 -5.33486307e-02
  1.27264783e-02  8.09820071e-02 -3.22949067e-02  3.53667960e-02]
[-0.02229163 -0.0534666  -0.07204865 -0.04093308 -0.03080345 -0.04770712
  0.03152358  0.05536347 -0.01660527  0.00972261 -0.02188255 -0.00457955
  0.0299722   0.07339523 -0.0684148  -0.0128652   0.04508793 -0.0108375
 -0.02603874  0.00373676  0.03156417  0.02196431 -0.00086895 -0.0766983
 -0.04579815 -0.00038862 -0.07103213 -0.05021622 -0.0769014  -0.01062029
 -0.04001728 -0.07164557 -0.05608693  0.03299335 -0.06972861 -0.00891659
 -0.00701635  0.06359085 -0.03204454  0.02092702 -0.00430503  0.05687901
  0.06962409  0.04976562 -0.00161017 -0.05034625  0.04654165 -0.07864131
  0.00903883  0.00317082  0.06909852 -0.06530693 -0.05304033 -0.02883235
  0.00188494 -0.04462466  0.06703567 -0.00854049  0.01687659  0.00173292
 -0.06193591  0.05694824 -0.04239293  0.04209878]
[ 0.02478385 -0.01365399 -0.08054142 -0.07125384 -0.05661139 -0.05036278
  0.00486193 -0.03519621 -0.02730007  0.0780486   0.0622004  -0.0402123
 -0.05041398 -0.04184634  0.02278557  0.0835471   0.08212462  0.02513543
 -0.06592694  0.01054827 -0.07813992 -0.01537195  0.00375296 -0.04068699
 -0.08196431  0.00474825 -0.07081766 -0.08818942  0.0050837  -0.06041346
  0.0079177   0.06795069  0.00494244 -0.06812713  0.06563512  0.06901078
  0.05129059 -0.04346045 -0.03803728  0.02671351  0.01173361 -0.05839723
 -0.02116498 -0.06325504 -0.04081135  0.04160349  0.03813404  0.06353658
 -0.04469256  0.03902086  0.06678521  0.03283452 -0.07022767 -0.02727777
  0.05248883  0.02784436 -0.01806629 -0.04310088 -0.03822438  0.06803592
  0.01333154 -0.0483005   0.02793229  0.04939184]
[ 0.00672499 -0.18653177 -0.05535854 -0.125276    0.03325142  0.01799055
  0.0154707   0.05396643  0.03420678 -0.11434145  0.08675904  0.1116371
 -0.04488949  0.07660482 -0.08130958  0.02046391 -0.00306089 -0.07814343
  0.01270652 -0.14037085  0.04073465 -0.08176419 -0.09002496  0.06123547
 -0.06300051  0.14352424  0.03274283  0.03402742  0.01819471  0.10003081
 -0.0198944   0.10821886  0.05694902  0.18104489  0.0515528   0.10782082
 -0.17310137  0.1662968   0.09752525 -0.07180715  0.05946936  0.09347583
 -0.02578394  0.06166903  0.05295227  0.17046562 -0.0010287   0.06758276
  0.05731001  0.01224337  0.16574764 -0.0525299   0.0081427   0.17816204
 -0.05718119  0.14779513  0.01566982 -0.01858832  0.14921011 -0.06305676
  0.09494385  0.02324106 -0.11205672  0.04440344]
[ 0.06195522 -0.05328537 -0.11718358 -0.0204682  -0.13314965  0.00618448
 -0.10930365  0.12836632 -0.05701554 -0.12862405 -0.0738897   0.11702267
  0.02007567  0.03057577 -0.02017401  0.0439214   0.11271923 -0.11042347
  0.00183582  0.04918282  0.11427929  0.08348789 -0.01670191 -0.03500389
  0.04921017  0.07133023 -0.14268242 -0.09852315 -0.10818464  0.10848349
  0.03657251  0.1421437  -0.07294173  0.08339102  0.07000013  0.12900665
 -0.0848078   0.01056056 -0.13881099 -0.06432387  0.0254804  -0.11842595
 -0.01733905  0.10352276 -0.11693791  0.14600807  0.0401526  -0.07400084
 -0.03803397  0.00791578 -0.09427952 -0.02725858  0.2103343  -0.09287753
  0.08281143 -0.13696033  0.05311155 -0.01038061  0.05446948  0.03858247
  0.08032653  0.05397757 -0.11190818  0.04429095]
[ 0.03025103 -0.12409557 -0.10749374 -0.02836253  0.16713008  0.15300874
 -0.12161528  0.21146426 -0.13116986  0.02179662 -0.01239532  0.209987
 -0.1255801   0.23047855 -0.15563752  0.18894419  0.02670004 -0.1733217
  0.11130483  0.00984976  0.19105212  0.13855638  0.05900259 -0.10758962
  0.00847489  0.17850938 -0.05225301 -0.07135193 -0.2657587   0.23218977
  0.14258388  0.0791784   0.16483407  0.16670944  0.15502128  0.07335004
 -0.16666     0.0424713  -0.11130706 -0.04524562 -0.1059598  -0.04728696
 -0.0217238   0.1313962  -0.04682416  0.09256422  0.19247034 -0.05170708
 -0.07160773 -0.03159649 -0.09768202 -0.10421143  0.08245306 -0.07984111
  0.15490374 -0.10401685 -0.04508832  0.01690455  0.17869356 -0.04913505
  0.15224873 -0.01593839 -0.06991958 -0.07577351]
[-5.75786792e-02 -1.00405097e-01  7.65473768e-02  4.95054983e-02
  2.26278558e-01 -1.91642329e-01  5.14074741e-03  1.83565065e-01
 -7.27009103e-02 -8.27583596e-02  1.32509395e-01  3.27818525e-05
  3.38593521e-03  5.59293628e-02 -3.35100368e-02  7.38597885e-02
 -1.23619474e-01 -2.28225321e-01  6.47328198e-02 -1.19776994e-01
 -3.29754092e-02  6.55126423e-02 -1.30667850e-01  7.96552971e-02
 -2.50661761e-01  1.78033978e-01 -1.07928194e-01 -2.30714045e-02
 -9.98411998e-02  1.25571907e-01  1.10084951e-01  9.62577481e-03
  1.54042125e-01  5.02053425e-02 -7.50287697e-02 -3.68185118e-02
 -6.24234900e-02  1.07202433e-01 -5.82246929e-02 -9.05910730e-02
 -5.37062436e-02  1.78939357e-01 -2.83611417e-02  1.18047006e-01
  2.03736909e-02  1.52203813e-01  5.33509962e-02  6.82922825e-02
 -4.61016372e-02 -7.98744708e-03  1.08157312e-02 -4.86315787e-02
 -6.21623695e-02 -2.25547984e-01 -5.02639599e-02  5.88391200e-02
  1.48197383e-01 -6.82382435e-02  1.97003737e-01 -1.84629261e-01
 -1.90663692e-02 -6.41508251e-02  2.01475665e-01 -3.75367366e-02]
[-6.65336556e-04 -1.26837850e-01  9.40644443e-02 -2.46916519e-04
  2.32778057e-01  8.04547071e-02 -5.31094074e-02  9.48882755e-03
 -8.11132789e-02  1.17423303e-01  5.47580747e-03 -2.20737699e-02
 -1.59773473e-02  4.83985879e-02 -1.06945239e-01  6.76194504e-02
 -1.98192969e-01 -7.22030699e-02  6.67073876e-02  1.51029266e-02
 -5.57910576e-02  2.56776754e-02 -1.07501656e-01  5.09627610e-02
 -1.96359336e-01  2.09368825e-01 -4.86379266e-02  2.90065003e-03
 -1.36140779e-01  6.42902628e-02 -2.56982557e-02  1.68084711e-01
 -1.46182189e-02 -4.66802716e-02 -7.15363473e-02 -1.77372053e-01
  2.65081450e-02  5.45878075e-02 -4.52428423e-02 -1.26031205e-01
 -1.24389634e-01 -6.41794428e-02 -1.75038233e-01 -1.64497104e-02
 -7.58327916e-03 -2.54904274e-02  1.79205760e-02 -1.78458169e-02
  1.10980138e-01 -3.12658190e-03 -2.80593298e-02  1.59871932e-02
 -1.53317079e-01 -7.48490393e-02 -9.03940797e-02 -8.61167759e-02
  1.06538884e-01 -7.40014911e-02  2.50581682e-01 -2.16473132e-01
 -4.29817475e-02 -1.09339617e-01  1.61551759e-01  2.43173707e-02]
[-0.09105738 -0.16224386  0.01336795  0.03690652  0.08872095 -0.00229716
 -0.06809184  0.13996847 -0.00276127  0.06822763 -0.12129506  0.00327254
 -0.02614595  0.08062857 -0.13747405  0.16866636 -0.2498474   0.10041695
  0.03551904  0.06058651 -0.03404493 -0.0787515   0.11576329  0.00252589
 -0.01713945  0.15613416 -0.11418608  0.01814092 -0.08252897  0.03756012
 -0.10720817  0.13328755 -0.00814782  0.00237728 -0.10184807 -0.15066996
 -0.0984182   0.09141268  0.10358723 -0.2681353  -0.02741119 -0.04863306
 -0.19555031  0.116515   -0.06460103  0.07032859  0.13566831  0.04889309
  0.12964931  0.05073103 -0.02764848  0.01080239 -0.11185307 -0.06719759
 -0.00723866 -0.07724655  0.11909707  0.08969513  0.05712214 -0.2269092
  0.03166837  0.04694547  0.07784422 -0.06899503]
[-0.07475589 -0.37326226 -0.14807035 -0.17114371  0.1009141  -0.14430864
 -0.17326806  0.04431824  0.04326745  0.06370784 -0.01481489  0.0059887
 -0.13561605  0.16927047 -0.11159791 -0.00482405 -0.009169   -0.01203812
 -0.01007844 -0.04973262  0.08825011 -0.08385655 -0.12047651 -0.03125593
 -0.20647232  0.27153608 -0.13453268 -0.00983628 -0.14030603 -0.00903543
 -0.10987275  0.02595096  0.0901802   0.10000032 -0.22179352 -0.0969346
 -0.06555819  0.02029998  0.03698594 -0.30518767 -0.142142   -0.22432168
 -0.21433905  0.12901413  0.13508955  0.02864942  0.06754    -0.02322065
 -0.03744067 -0.00688316 -0.07877082  0.08585993 -0.17147073 -0.15785398
 -0.1789271  -0.17010401  0.15230885  0.03451758  0.17636721 -0.21506399
  0.02889186  0.07807153  0.07583716 -0.14120856]
[-0.07748336 -0.3096864  -0.14911075 -0.1535716   0.08200114 -0.15566589
 -0.05143063 -0.04822206  0.15960874  0.12095604 -0.0563013  -0.0624001
 -0.04272317  0.17550044 -0.05186155  0.03807063 -0.0581538   0.01788258
 -0.01728883 -0.15853788  0.01244261  0.06454384  0.03275859  0.24165952
 -0.07039338  0.19055104 -0.01223375  0.1486996   0.09882847 -0.11418036
 -0.19474019 -0.00261779  0.11354963  0.06414604  0.01719163 -0.18863434
 -0.08655881 -0.02083362  0.10148671 -0.19782062 -0.17326352 -0.19779056
 -0.26344097  0.15950315  0.07329435  0.00463318 -0.0147443  -0.17464323
  0.02878502  0.13378079 -0.13136405  0.09505869 -0.22169894 -0.01357858
 -0.17213553 -0.2655849   0.25561485  0.08151694  0.10001963 -0.13776378
  0.17074484 -0.01987681  0.1162252  -0.28245088]
[-0.02311952 -0.15854271 -0.01333754 -0.18814981  0.23117682 -0.04287641
  0.12038037  0.05256264  0.03821789  0.10434213 -0.03965065  0.0386587
 -0.06509797  0.18079916  0.01343061  0.00426182  0.08663363  0.06099203
  0.04711368 -0.1861564   0.02288385 -0.00523221  0.02014064  0.12650648
 -0.08203945  0.19831653 -0.03712765  0.10420533  0.02366103  0.03743111
 -0.18719472  0.0794028   0.18776459 -0.05517095 -0.09358462 -0.02100202
 -0.12933569  0.03356656  0.05127314 -0.29162398 -0.10838781 -0.07595099
 -0.37881467  0.08209931  0.01881147  0.00196487  0.04101736 -0.01723597
  0.00540729  0.2474946  -0.11704112  0.12354451 -0.07166926  0.02045236
