layers 7
layer 0 Flatten
layer 1 Dense
784 64
[ 0.02233464 -0.0076446   0.06854594 -0.03888208  0.01313791 -0.03845475
  0.00761586 -0.0746503  -0.06191996 -0.01639963 -0.05626907  0.06444412
  0.06227136  0.07696087  0.01255471 -0.04042    -0.04759897  0.05135382
 -0.07894874  0.0595108   0.00397626  0.08103367  0.0617558  -0.0647239
 -0.08365198  0.04439714 -0.00367419  0.03721378  0.0335324  -0.04241298
 -0.0739582   0.06032496 -0.0797427   0.02541213 -0.04730907  0.04404473
  0.02509418  0.03607042 -0.02824639 -0.02262121 -0.05503771  0.06571131
  0.05275082  0.07119242 -0.07545521 -0.05785039  0.02169149  0.04614723
 -0.06768519  0.07200833  0.02271841  0.03529294  0.00760138  0.03720661
  0.03490973  0.05014687 -0.03183138  0.07928092 -0.07114929  0.05767576
 -0.00332975 -0.07563288 -0.03433243 -0.06089015]
[-0.08008682  0.04645916  0.05700923 -0.02240796  0.03004926  0.00774903
  0.06416834 -0.03794123  0.01102622  0.0514191  -0.06645077 -0.00946285
  0.00587874  0.02017628 -0.0055288  -0.06345221 -0.05530353  0.03499863
  0.02349353 -0.05567695 -0.05505501 -0.07996832 -0.01671235 -0.07777055
 -0.0216837  -0.04115792 -0.06857993 -0.07739972  0.00808586 -0.0599129
  0.02203641 -0.03235224  0.01681432 -0.03244704  0.03151502 -0.00591373
 -0.02061412 -0.08087355  0.04730957  0.07268084  0.03897285  0.04692654
  0.06883518 -0.00942667  0.0285142  -0.0305282   0.06048196 -0.07691203
 -0.08130455  0.00933205  0.0579265  -0.06770211  0.02627587 -0.04005055
 -0.08224    -0.04977876  0.0483787   0.07092553  0.04590661  0.04729255
 -0.0209499  -0.02192922  0.05343739 -0.00349886]
[-0.04606349 -0.04824371  0.06164997  0.01158534  0.0446618   0.01460489
  0.04385283 -0.08175837 -0.01161623  0.05391105  0.00200778 -0.07938462
 -0.07959297 -0.07121928 -0.08074036 -0.07059179  0.08156797 -0.04958674
 -0.01548497  0.03395949 -0.058968   -0.04883707 -0.02638743  0.03329714
 -0.07241021 -0.05502822 -0.07724488  0.02029906  0.01711906  0.03378682
  0.05433998  0.03995914 -0.06351371  0.00811619 -0.03764087  0.06833037
 -0.04415907 -0.02520582 -0.08174299 -0.05286625 -0.08000337 -0.05543112
  0.07398681 -0.04529387 -0.00424654  0.08361546 -0.02758673 -0.05512424
  0.04681366  0.05480828 -0.02332364  0.08076971 -0.01994926 -0.05371357
  0.05844196 -0.00044823 -0.06433766  0.01937284 -0.06226286 -0.01667468
  0.01722822 -0.02035341  0.05060662  0.00482012]
[-0.04298282 -0.04510925 -0.03820918 -0.080154   -0.08054196  0.05721381
 -0.02033214  0.03178377  0.06692012  0.06615756  0.05936498 -0.07795448
 -0.06283149 -0.01836899  0.0347528   0.04789806  0.05764759 -0.04502025
  0.02551062  0.06159877 -0.04243223  0.07563844  0.07209764 -0.0477712
  0.02289561 -0.04243292 -0.00866052  0.02588823 -0.06587581  0.03230596
  0.02857226 -0.0665536  -0.00675206  0.06426998  0.0595899  -0.03576667
 -0.0435689  -0.03249652 -0.04251536  0.04269817 -0.0530651  -0.07259756
 -0.07251783  0.02895432 -0.05259928  0.07279699  0.05578282 -0.03790052
 -0.02650911  0.08018703 -0.01390797 -0.04190112  0.07809179  0.03198199
  0.07192435 -0.01077401 -0.05206288  0.04136438 -0.00052199 -0.05271887
  0.07636378  0.01525903  0.06613562  0.00167   ]
[-0.01872986 -0.07328469 -0.07167482  0.06100851  0.01616245 -0.0340724
 -0.04257767 -0.0642385  -0.03960947  0.07380673  0.0460053   0.02240591
 -0.04124922  0.00333297  0.03877701 -0.06491851 -0.06680478  0.04640774
 -0.03698191 -0.07478163 -0.05509061 -0.03279192  0.02595244 -0.04831328
 -0.06905788  0.04552022  0.04848974  0.01615152  0.05898992 -0.03691855
  0.03320604 -0.07362495  0.01659406 -0.06404348 -0.04363033 -0.07445065
  0.04450633 -0.04014439 -0.07986153 -0.02642666  0.05094268  0.00755852
 -0.05140476  0.08013218 -0.07110972  0.07525257 -0.00991356 -0.00349431
 -0.07880117  0.0647921  -0.07090928 -0.01410964  0.06191108  0.07242582
  0.05857823 -0.04002183 -0.03359444  0.04484483 -0.03997175 -0.06595681
  0.01460692  0.02250066  0.03336029  0.0322703 ]
[ 0.06762309 -0.00753833  0.02788334  0.08107022 -0.06367733 -0.06592067
 -0.06808294 -0.00943375 -0.01956046  0.06182726 -0.02146499 -0.00709823
 -0.0184944   0.04517049 -0.00772845 -0.05657488  0.03873012  0.00315895
 -0.054692    0.00195397  0.07222594  0.01422814  0.08030108 -0.03710188
 -0.05150676  0.00760559 -0.05358355 -0.02959561 -0.01982551 -0.07706304
  0.08040636 -0.00288616  0.05564428  0.03453176 -0.05645837  0.03461394
 -0.01514549  0.03640433  0.07896427  0.07462513 -0.07781764 -0.0246531
 -0.02538206 -0.02306841  0.06907905 -0.07329153 -0.03433769  0.0722134
  0.02907339 -0.05433039 -0.01126629  0.07745893  0.07257139  0.06734519
 -0.07750216  0.06483241  0.03163328  0.00801977 -0.04186555 -0.00466729
  0.06573119  0.05797451  0.03705132 -0.02699493]
[ 0.02749772  0.052513   -0.04170046 -0.0133734  -0.02673317 -0.04641253
  0.01501096 -0.07937935 -0.06746188 -0.03022172 -0.05491328 -0.00810219
  0.08030016 -0.0241887   0.01285485  0.05430252  0.02669892  0.06834475
  0.02470987 -0.0407409   0.02823514  0.07258772 -0.00072165 -0.03482999
  0.01163442  0.0197268  -0.06575526 -0.04852518  0.07074776 -0.02351665
 -0.07467817 -0.02497094  0.02552409 -0.02737174 -0.0039565   0.01697657
  0.05890176  0.03647703  0.05606965 -0.00594059  0.01013382  0.02846897
 -0.03390874  0.03656384  0.03639107 -0.0737078  -0.01431841 -0.03040424
 -0.06987535 -0.00610127 -0.04020327  0.06375357 -0.03135452  0.00404792
  0.04534075  0.04447032 -0.07213015  0.02870007 -0.00138743  0.02005538
  0.06022374 -0.03660596  0.0599537   0.04992098]
[ 0.02723432 -0.0588506  -0.06946992 -0.06175874  0.00963394  0.07920579
  0.01220074  0.00959771 -0.08382114 -0.06664741 -0.03497439 -0.00964458
  0.00844571  0.03367122 -0.0099651   0.07643441  0.08052822 -0.02506989
 -0.05180652  0.02334288 -0.01819845 -0.08346493 -0.05632608  0.05373973
  0.06776417 -0.01876335  0.06654566 -0.00013854  0.05188527  0.02006334
 -0.04672827 -0.02158299 -0.06007711 -0.05887174 -0.02968091  0.01329593
  0.00469986 -0.0031941   0.05078184  0.05733743  0.03578953  0.01238122
 -0.05884875  0.08376519  0.05612823  0.05150308  0.06011014  0.01866985
  0.03799873 -0.01737425  0.01151946 -0.07148402  0.07385943  0.01052459
 -0.08307835  0.04241394  0.0645102  -0.07267028 -0.03370867  0.03081457
 -0.06972259  0.04718783 -0.03909253  0.0435423 ]
[-0.00993129 -0.03471177  0.00327996  0.04525133 -0.00754693 -0.06039592
 -0.00909504  0.02627362  0.01191454 -0.03102652 -0.02517731 -0.00068325
  0.01809695  0.08103292 -0.05030749  0.05764792  0.07437705 -0.06506804
 -0.04278183  0.06246429 -0.08027977  0.06038395  0.0248154  -0.01515804
  0.0464159  -0.04494702  0.0748238  -0.0198666   0.07624616 -0.01038145
 -0.03234294  0.02256954  0.06928795 -0.03456234  0.05504028 -0.03311936
 -0.00768311 -0.0318978   0.03925991  0.05888762  0.00822175 -0.04807455
  0.02659177  0.06274901 -0.02697492  0.08098895  0.01128129 -0.02337386
  0.0489146  -0.00034043  0.07488395  0.00920045  0.07275637 -0.04964929
  0.00747987 -0.07557504 -0.06534851  0.00444205  0.03176352  0.0597598
  0.02737128 -0.05211442  0.06907142 -0.04238468]
[ 0.06312677 -0.06447875  0.00771207  0.03439079  0.01466056 -0.06893841
  0.04811398 -0.00766377 -0.08366389 -0.02608667  0.00914299 -0.07332487
 -0.04568953 -0.06542305 -0.01951759 -0.06809486  0.05428674  0.03986909
 -0.08188184  0.07447015 -0.06708398 -0.0318676  -0.05483268  0.06814343
  0.07614448 -0.04876491 -0.01530647  0.06908924 -0.05904475 -0.02172548
 -0.02747005 -0.03431591  0.08055837  0.00058749 -0.06098555 -0.01399504
 -0.0339483  -0.08011854  0.0147618   0.03879347  0.07612223 -0.06143855
 -0.05346042 -0.01924422 -0.0575844  -0.0591364  -0.04152985 -0.0010849
  0.01357496  0.07196502  0.01401821 -0.07017358 -0.03163208 -0.08050969
  0.01969539  0.03472372  0.01443411 -0.02200897 -0.03747195 -0.05912228
  0.05197502  0.03755989 -0.03630097  0.03789025]
[-0.04873713 -0.04951735  0.05158856 -0.07368165 -0.07283904  0.01664931
 -0.01856701  0.07043263  0.02307799 -0.04684898 -0.00204872  0.00812183
  0.04283591  0.07243215  0.02342883  0.07399558  0.03523648 -0.03084894
  0.02591919  0.07762691 -0.06801655  0.04831641 -0.0153757   0.06852742
 -0.0785901  -0.00126377  0.06201734  0.07039241  0.05980184  0.07887832
 -0.01481906 -0.04908238 -0.06852167 -0.0484897   0.06439907  0.00330479
 -0.07355028  0.07093591  0.08354969  0.03250875  0.0834386  -0.01099019
 -0.07023907 -0.05531039 -0.04229965  0.06171138  0.04199781 -0.06460524
 -0.00349025  0.04218896 -0.0096247   0.00578037  0.00711672 -0.03390181
  0.0698205  -0.01506094 -0.07659926  0.06652305 -0.0654024   0.04070386
  0.03733028  0.00523217 -0.05809145 -0.05571945]
[-0.05868888  0.02553468 -0.04602669 -0.03453256 -0.02992465  0.03222863
 -0.06872531  0.06604163  0.07823548  0.07937173  0.02619505 -0.07441948
 -0.03271485  0.05315203 -0.04990027 -0.06690871  0.01328497 -0.03820724
  0.01809027 -0.02134673  0.05323268  0.00056424  0.06112329  0.03018095
 -0.04460264  0.01530454  0.05765205 -0.02732917  0.05516242  0.02017532
 -0.05197634  0.07513054 -0.06779122  0.00538062  0.07236522  0.04655672
  0.01825283  0.06175794  0.07617971  0.04105776  0.05922384  0.01460886
  0.02230502  0.04164653  0.0191988   0.05971793 -0.01979177 -0.06355844
  0.06094     0.00324374 -0.00406402 -0.0765138   0.05194724 -0.06031999
  0.01934171  0.00964003  0.04001736 -0.05024052 -0.03822723 -0.05605946
  0.03766836  0.04659585  0.02586663  0.00540376]
[ 0.09531932  0.14273061  0.04514983 -0.02306124  0.00984621 -0.07910609
 -0.08786067  0.06707695 -0.01228799  0.01920063  0.0246759   0.1190897
  0.05956155 -0.00136177  0.07719955  0.04791643 -0.06984332  0.02273765
 -0.04202466 -0.03474804 -0.01205278  0.00774808 -0.01978721 -0.00121858
 -0.06274103  0.0697209  -0.01584557  0.06872999  0.00132808 -0.01701453
  0.04512159  0.10232615 -0.03691871 -0.12750517 -0.09150098  0.06161582
 -0.05146452 -0.03824985  0.10603959  0.02214362 -0.00172597  0.10530253
 -0.12933089 -0.05229548 -0.01293951  0.12675157 -0.00585431 -0.02978696
 -0.04090007  0.03751933  0.00084529  0.00088251 -0.00831545 -0.11841955
 -0.00889987  0.00405452 -0.0139129  -0.01205202  0.0740658  -0.01396635
  0.08689061 -0.07911949  0.01674636 -0.04160495]
[ 0.04833093  0.02516758  0.03953184 -0.05193042  0.06650125 -0.07247663
 -0.14154491  0.11729127  0.11243019 -0.0252032  -0.04664059  0.02820281
  0.00798998 -0.09799697 -0.04370837  0.07253932  0.03448001 -0.02593455
  0.04415114  0.08090331  0.02784514  0.04276041  0.01555314  0.0622399
 -0.08117143 -0.0363063   0.16131556  0.09722776  0.10958311  0.00358648
  0.04160867 -0.02623416  0.06153838 -0.1441767  -0.10171767  0.00515829
 -0.05854968 -0.12796985  0.12805238 -0.01578634 -0.0644367   0.12908143
 -0.01352691 -0.04448498 -0.06231187 -0.04215707 -0.00582734 -0.02119677
  0.02215598 -0.0933568  -0.07396919 -0.02973984 -0.0247798  -0.07010439
  0.01895301 -0.00769421  0.0098189  -0.022462    0.05436034  0.03242911
  0.06618243 -0.14674239  0.06442546 -0.06805021]
[ 0.03955265  0.09088392  0.02666066  0.13266076 -0.07680349  0.00800922
 -0.11220653  0.07823208  0.00381211 -0.00616679  0.08176176  0.14848112
  0.00649026 -0.0235039   0.10417897  0.01518361  0.07248364  0.10313638
  0.0457415  -0.00017657  0.07928676 -0.02934    -0.07701612  0.12634483
 -0.08991566  0.00177494  0.15815938 -0.12503295  0.01555704  0.0422304
  0.02697347  0.10457871 -0.07286239  0.04723345 -0.01152216  0.01697795
 -0.05504388  0.06644409  0.05206735 -0.03425417 -0.07629563  0.00878904
  0.04217925  0.07985248  0.09709393 -0.00602847 -0.04398728 -0.03022694
 -0.04582462  0.0860409  -0.02076586  0.01178265  0.05355937 -0.08159018
  0.08391473  0.03295633  0.08381239 -0.02501051 -0.02747444 -0.01734885
  0.08637855 -0.01132341 -0.05668832 -0.06233941]
[ 0.0070374   0.03790363 -0.00184361  0.00476693 -0.00814076 -0.07654332
  0.04823892  0.02887077 -0.05936678  0.04231162 -0.07222511  0.04392394
 -0.07909884  0.07174046  0.01590663 -0.07082908 -0.05651017  0.01380145
 -0.01633937 -0.06238812 -0.0145133  -0.06090705  0.02645315  0.0002241
 -0.01924309  0.02422655  0.03504228  0.03477039 -0.01883802 -0.05736618
  0.00439398  0.06970406 -0.02948277 -0.04153109 -0.02162887  0.00577018
 -0.0396274  -0.06549057 -0.02626082 -0.01692598 -0.02636744  0.08811069
 -0.05932485 -0.03697726 -0.00722838 -0.07233668  0.06706008  0.00984601
 -0.06861639 -0.06127606  0.02652802  0.05474053  0.01347174  0.02935789
  0.0510703   0.03904448  0.01355027 -0.03776335  0.06337038  0.06436792
 -0.07327525 -0.00027798 -0.03836194 -0.07530221]
[ 0.08010595  0.07274117  0.05983462 -0.01404374  0.06677032  0.04570257
  0.02498195 -0.02576393  0.04698197  0.01304238  0.00453743  0.01017457
  0.05575731  0.05570277  0.01859132  0.03026941  0.01786391 -0.00366288
 -0.00479127  0.04901431  0.06413605 -0.00538789 -0.02219133 -0.03808304
 -0.0568314  -0.02157705 -0.00773884 -0.07776823 -0.08174952 -0.02542416
 -0.08201842  0.01040733  0.08157272 -0.05063099 -0.02833044 -0.04173587
  0.07670119  0.05757686  0.04420399 -0.02142756 -0.05864229 -0.013232
 -0.05761027 -0.01688067  0.06516578  0.0682084  -0.04860993 -0.04106923
  0.04834843  0.03261031 -0.00151069 -0.01726881  0.03942648 -0.05360549
 -0.02514305 -0.02077135 -0.02210337  0.02202725 -0.05259722 -0.06691976
 -0.01057029 -0.04404614  0.00928031 -0.00240362]
[-0.08196238  0.0813591  -0.00508294  0.08305725  0.06592766  0.06957146
 -0.04010618 -0.03231239 -0.06652957 -0.01249389 -0.01355211  0.00951786
 -0.05007262 -0.03729771  0.05246194 -0.06166553 -0.05447463 -0.04313979
  0.03589863  0.00681375 -0.05840847 -0.08376986 -0.06917763  0.00218737
  0.02770575 -0.05888353  0.07684638  0.07159304 -0.02959558 -0.04422698
  0.08328483  0.05058043  0.02666489  0.00919168 -0.07867525  0.00757892
  0.0289994   0.04856125 -0.04204359 -0.05898577  0.01990066 -0.04733499
 -0.0218563   0.05704766 -0.06276783  0.01289103 -0.04704345  0.06058548
 -0.07651773 -0.00991889 -0.05427917  0.07919312 -0.04424952 -0.01135956
  0.08262154  0.04506437 -0.03951142 -0.0686851  -0.07729379  0.06150223
 -0.05787295  0.02799749 -0.01948867 -0.02580895]
[-0.06605191  0.00876258 -0.04862924 -0.0169437  -0.08363909  0.00073765
  0.06678353 -0.07872414  0.07974782 -0.05985913  0.05632863 -0.06496959
  0.01076613  0.05361729  0.08125905  0.00152823 -0.02614619 -0.06077474
 -0.05869474 -0.01992554 -0.07703021 -0.06965926 -0.05759032 -0.07851677
 -0.05092451  0.05014058 -0.02660902  0.04759096 -0.00443923  0.02709799
 -0.0631806   0.03676824 -0.05226291 -0.06507727 -0.02230881  0.03230421
  0.07585678  0.049904    0.00298477  0.02061837 -0.08086392  0.05472966
  0.03766542 -0.02827134 -0.0056828  -0.04188717  0.02780362 -0.05162276
  0.06944556 -0.05776768 -0.08338182  0.01783118 -0.00018318 -0.08136252
 -0.0401481  -0.03969658  0.03964085  0.01607633 -0.05498464 -0.00759376
  0.06081941  0.04026072  0.03993261 -0.01416022]
[ 0.01247255 -0.04460407 -0.0632273  -0.07017541 -0.00512071  0.00124396
  0.07367661 -0.03125521 -0.06664174 -0.04473542 -0.02146184 -0.04149265
 -0.01034937 -0.00404533  0.02411836 -0.0583548   0.06564236  0.06575767
  0.03660588  0.01529103  0.05245287  0.02223969  0.0712573  -0.06483242
  0.06316171  0.07306167  0.0120304  -0.06901664  0.00188358  0.03887602
 -0.02077725  0.07296219  0.002504   -0.01331944 -0.04343345 -0.07337557
 -0.0785585  -0.06330276 -0.02721164 -0.02274992  0.04076043  0.01864396
  0.00499503 -0.07334998 -0.036751    0.01317695 -0.03077867 -0.06406845
  0.00275128  0.05067881  0.053886    0.01036082 -0.04243482  0.0462978
  0.06596408  0.06295034 -0.07705679 -0.01874673 -0.03746416 -0.05615732
 -0.08123538 -0.04259231 -0.02892939 -0.04438136]
[ 0.06249263  0.06913564 -0.06870314  0.07574534  0.07440346 -0.05153941
  0.02575312 -0.06814637  0.07635487 -0.01682275 -0.02712968  0.04717722
  0.01438396  0.02334041  0.07701122 -0.06145024  0.02134368 -0.00014894
 -0.04814338  0.03188561 -0.04175523  0.03309654  0.06517469 -0.01994646
  0.06697141  0.03617106 -0.07968053 -0.01755501  0.00912511  0.05128365
 -0.02510858 -0.07178208  0.04463273 -0.03561973 -0.08104319 -0.00812712
 -0.049502    0.02251185  0.02799989 -0.06126315 -0.0116265  -0.00898617
 -0.01859144  0.03263899  0.00010096 -0.05972119  0.00176927  0.02224781
 -0.07746526  0.01634803 -0.02545735 -0.03712257 -0.04993244  0.05043221
  0.02931663 -0.01360524  0.0245245   0.00419955  0.07995062 -0.03326959
  0.07643055  0.08224378 -0.01940871 -0.00179344]
[ 0.04961786  0.08149711 -0.03583471 -0.02156352  0.05406023 -0.07868385
  0.0381348  -0.07491584  0.06317625  0.03262559 -0.07534818  0.01095565
 -0.07265226  0.0550897  -0.03036778 -0.05915441 -0.00430395 -0.00706778
 -0.0819178  -0.02748355 -0.07866289 -0.04770943  0.07195001 -0.03319988
 -0.01160544  0.06866398 -0.03493524 -0.01975827 -0.02874838  0.01588595
 -0.08292788  0.03503554 -0.05139554  0.05941454  0.05195745 -0.08115506
 -0.05597579  0.00853862  0.06576712  0.0494049   0.05566207 -0.00121476
 -0.05769135 -0.0569916  -0.02640422 -0.04827263  0.05003031 -0.00647948
 -0.03728016 -0.04026245 -0.0156838   0.05887192  0.04896789 -0.00924547
  0.00184135 -0.00128042 -0.05275846 -0.07231183  0.00134341  0.05214337
  0.00077568  0.06435389  0.02722289 -0.00970228]
[ 0.00273737  0.04022892  0.07681546 -0.06854091 -0.03326257 -0.05668693
  0.01318435 -0.05434529 -0.03936037 -0.00011998 -0.05319633  0.02382223
  0.01949076 -0.07497939 -0.07574958 -0.05418508 -0.05893437  0.06315672
 -0.02855543 -0.02579114 -0.0130855  -0.00541683  0.03257694 -0.0479197
  0.06908976 -0.07502967  0.04726338  0.06538116 -0.050613    0.0023656
 -0.06562612 -0.03781575  0.0814608  -0.07072172 -0.05067021  0.02726958
 -0.0074461   0.04515142  0.05474678 -0.04917788  0.00399689  0.069497
 -0.04699684 -0.07761756  0.00520347 -0.03452843 -0.05819114 -0.00308737
  0.07928964 -0.07759132 -0.02645447  0.04601762  0.0504464   0.01693606
 -0.02650397 -0.02261018  0.07433615  0.03964476 -0.05553256  0.07903818
 -0.02604811 -0.02619812 -0.0826566  -0.01446314]
[-0.05130571 -0.07957352  0.02040599 -0.08071578 -0.07900819  0.02132962
 -0.06065316 -0.08097635  0.05361053 -0.02891072 -0.08245926 -0.08106612
 -0.05627185 -0.01587049 -0.02563654 -0.04853462  0.08244512  0.06978432
  0.04043604 -0.02809433 -0.02078908 -0.05922931  0.02024313 -0.06584968
 -0.0669798   0.0168317  -0.00687193 -0.06570462 -0.04322735  0.03302843
 -0.02454299 -0.04111405  0.00685855 -0.02661303  0.0566467   0.07983359
  0.05623121  0.02578089  0.06354839  0.08375382  0.07899544  0.05378554
 -0.0761531  -0.01131503  0.01340251  0.01555169 -0.04602904  0.05881412
  0.04185856  0.00347289  0.02509947  0.01475133 -0.05285871  0.05729742
  0.07091206 -0.0492      0.00593531 -0.0181815   0.04388847 -0.01847681
  0.03590038  0.028055   -0.03007121 -0.06650561]
[-7.59264976e-02 -7.78566301e-03  2.90987790e-02 -5.56888431e-02
 -5.53064793e-03  6.35772422e-02 -4.73610759e-02  6.92187622e-02
 -2.21335143e-02 -3.47716101e-02  3.83904576e-02 -2.74187885e-02
 -3.06886435e-03 -3.59623656e-02  3.75585854e-02  3.74638438e-02
  7.31049851e-02  2.63078138e-02 -7.12639838e-02 -1.45860016e-04
 -2.73731053e-02  8.25098976e-02 -7.71880150e-05 -3.53582725e-02
  3.75437662e-02 -2.03125179e-02 -1.26241222e-02 -3.99674028e-02
  4.50809076e-02 -2.41927579e-02  1.17815584e-02 -2.40612999e-02
  7.97227770e-03  6.98354170e-02  4.78063524e-03  5.87194636e-02
 -1.74172744e-02 -1.18056461e-02 -1.73387378e-02  5.25920466e-02
 -8.21947753e-02 -7.50561804e-02  6.45381585e-02  5.39729521e-02
 -2.25928873e-02 -3.42319161e-02 -6.70128167e-02 -4.66986075e-02
 -1.43347755e-02 -1.29221305e-02  6.24974594e-02  4.46517989e-02
  5.05229309e-02  7.33073428e-02  2.23240927e-02 -2.47406326e-02
 -2.96962708e-02 -5.26644811e-02 -4.05035876e-02 -7.56455511e-02
 -4.15306725e-02 -8.32968503e-02 -3.89850214e-02  2.23743320e-02]
[-0.03016605  0.01301513 -0.06892684  0.04410034  0.08102759 -0.04306017
  0.05109736 -0.07906736 -0.03345732 -0.00491528  0.07867312  0.06944977
  0.0200431   0.03037807 -0.06812437 -0.00324234 -0.07826369 -0.05705796
  0.04786443 -0.04456799  0.0509151   0.04819899  0.04994064  0.0760056
  0.04468685 -0.04208952 -0.04086997 -0.01029827  0.08362017  0.00440082
  0.07160091 -0.05222342 -0.03246281 -0.00545055 -0.05974829  0.04738133
 -0.06456228  0.00995003  0.07838901 -0.01730052 -0.00235891 -0.0766384
 -0.01248043  0.05819928  0.07687645  0.00324442  0.01559877  0.0557792
 -0.06787288 -0.06626979 -0.03267605  0.07463314  0.07960331 -0.07439542
  0.0829692  -0.02605163 -0.04708059 -0.01855709  0.01261012 -0.05256329
 -0.05989754  0.02796574 -0.06372846  0.04983572]
[ 0.06230042 -0.05148113  0.06055688 -0.05691208 -0.03552314  0.01193456
  0.061677   -0.08228077  0.05366213 -0.05583189  0.07996342 -0.06693985
  0.05267849 -0.00207292  0.05151286  0.06535029  0.0754356   0.05687732
 -0.01964129  0.03014381 -0.06268922 -0.03297107  0.08052862 -0.06166033
 -0.07663532  0.06398041 -0.0568595  -0.04273793 -0.05642202  0.03542668
 -0.0598174   0.07245023 -0.00325836  0.03973056 -0.0341822   0.04303481
  0.0416789   0.04516555  0.04254284 -0.07928716  0.01541663 -0.00078751
  0.07355524  0.03268832 -0.02070952 -0.03300984  0.01542322 -0.02230416
  0.00169764 -0.00631978 -0.01068651  0.05983362  0.06572882  0.00656421
  0.04303978 -0.05493268 -0.00304391 -0.01605327  0.03487857  0.01300881
  0.03695634 -0.04260234  0.00667802 -0.05393698]
[ 0.0298903  -0.04855384 -0.00274127 -0.07688461  0.08358202  0.03549031
 -0.05399331  0.07495636  0.07728549  0.07548491  0.03040919  0.0330042
 -0.00455482  0.00332785  0.01633146  0.01531114  0.05829004 -0.04273093
  0.03373173 -0.07406972 -0.03497453 -0.08265892 -0.08178053  0.0725457
 -0.01395283  0.04108552  0.06013381 -0.01588722 -0.07836002 -0.08025171
 -0.04724448  0.07665198  0.05098326 -0.03291061  0.00662698 -0.00279222
  0.053954    0.02315388 -0.08233669  0.07990932  0.04338925 -0.0504797
 -0.04125676  0.0366272  -0.01650841 -0.04915357 -0.01921953 -0.03311312
  0.07023811 -0.04220018 -0.040038   -0.02284215 -0.05958011 -0.06792203
 -0.04020828 -0.08369111 -0.04217535 -0.00770172 -0.07074916 -0.08306181
 -0.04509186 -0.02255866  0.02507748 -0.0481825 ]
[-0.02610069  0.07238615  0.06959204 -0.07630607 -0.01477055 -0.08028811
  0.00129075  0.00564207  0.03110354 -0.07859017 -0.07672496 -0.0143514
  0.04695698  0.04636007 -0.02414182  0.02123111 -0.00705162  0.03378115
  0.08300399  0.03125226  0.08368636  0.00594303 -0.04650303 -0.04413344
 -0.00060054  0.03703297  0.04562118 -0.0420825  -0.00881346  0.05769717
  0.08095063 -0.05210159  0.05158366  0.05428382  0.01614175 -0.08283143
 -0.07534066  0.01546225  0.06960445  0.00036281 -0.0118752  -0.0190458
  0.05213623  0.08029684 -0.06516294  0.0273188   0.05297605 -0.02164049
  0.05220378 -0.0178528   0.03487692  0.01568042  0.00795204 -0.04981145
 -0.0300358   0.01321425  0.01100229 -0.06489936 -0.05338008  0.00519092
  0.02743399 -0.06766175  0.03817862 -0.07262988]
[ 0.03959084 -0.03185248 -0.03853991 -0.00614177 -0.06119328 -0.03404627
  0.06318258  0.03843869 -0.02785566 -0.03719146 -0.01487499 -0.06210762
 -0.05730969  0.02371246  0.03509397 -0.07344306  0.00293167  0.05678574
  0.07336668 -0.01656573 -0.01282754 -0.02762541 -0.07556772 -0.05855932
 -0.06209622 -0.03121229 -0.06819059 -0.07613106 -0.00069556  0.0561673
  0.00138691  0.04144765 -0.04560121  0.07346653  0.03554513  0.00077925
 -0.01930109  0.00026146 -0.0172232   0.06458885  0.07536637  0.05409067
  0.08055588 -0.07755464 -0.01362415 -0.07268208  0.08301867  0.01589682
 -0.0704259   0.04213542  0.04390458 -0.02948796  0.05936436  0.03659064
  0.07553438  0.0164468   0.0533727  -0.04394186  0.0466115  -0.01454528
  0.03727367 -0.04536029 -0.06492824 -0.02341602]
[ 0.04422993 -0.01810662 -0.00921555  0.03482442 -0.07599932 -0.05440977
 -0.05786952  0.00754797 -0.02730801  0.01938214  0.0795094  -0.08272067
 -0.03294051 -0.07537699 -0.03722217 -0.00157436  0.02801766 -0.03760497
 -0.06400594 -0.02117427 -0.05306096 -0.03118913 -0.01167166  0.01721763
 -0.06496051  0.00494958  0.02086499  0.01359888  0.07996712 -0.02888808
 -0.07868688 -0.05731264  0.02946135 -0.05683792 -0.05595439  0.04526732
 -0.07910195 -0.00141034  0.07249113 -0.01255409 -0.08317135  0.03654525
  0.0616769   0.03594939  0.00607166 -0.00682667  0.0087138  -0.07192924
 -0.04105357  0.00821824  0.08360224  0.0103319  -0.07527371 -0.01467127
  0.01126308  0.05333618 -0.06135041  0.00094839  0.04927646 -0.03442695
  0.02798321  0.03320245 -0.06745362  0.01684666]
[-0.07022938  0.01553328  0.01910721  0.01582741  0.0781598  -0.01991383
 -0.0194548  -0.07940141 -0.03897949 -0.02287331 -0.0489088   0.04739345
  0.06188836  0.04600439  0.00710887 -0.07597485 -0.01756273  0.04812685
  0.03949241 -0.03651389 -0.05532996 -0.02564874 -0.06118265  0.04767879
  0.07412564 -0.02367895 -0.04699576  0.00207583 -0.05492963 -0.0463437
 -0.01321072  0.0372221  -0.06339323  0.01442995  0.04123113 -0.00743806
 -0.00705844  0.07577091 -0.07739579  0.03225379 -0.05973523 -0.0307535
 -0.01101048  0.02904715 -0.05158564  0.00748781 -0.03390294  0.0796546
  0.03458972 -0.04682405  0.04078243 -0.04196673  0.08072891  0.07725414
  0.03139018 -0.07065153 -0.00737835  0.04724651 -0.03434505 -0.01248797
  0.05425595  0.0125948   0.02002612  0.07291808]
[ 0.07562734  0.05518842  0.03144445 -0.00985555  0.06784976  0.04799251
 -0.04145909 -0.05034495  0.07693768  0.04158606  0.03676317 -0.07209847
  0.0839518   0.01387392 -0.07505761 -0.07597581 -0.02151667 -0.00313214
  0.03798607 -0.08197546  0.05679544  0.04769713  0.08222342  0.05633739
 -0.05046688  0.02912478 -0.05541679 -0.00077181  0.06539936 -0.08306413
  0.05782206  0.06774243 -0.00789756  0.07536978 -0.04345942 -0.08272345
 -0.00528232  0.04274175  0.06915843  0.02614509 -0.05433786 -0.0206135
  0.01995325 -0.0131501  -0.02730766 -0.01775931  0.02232678  0.00590834
  0.02159583 -0.05374089 -0.01548415 -0.05149565  0.05101222 -0.05495349
 -0.03953983  0.02611871  0.03340925  0.01234961  0.01314056  0.05874405
 -0.07109124 -0.04762527 -0.04730062 -0.03062908]
[ 0.05765165  0.0653365   0.04037403  0.02301216  0.01244242 -0.07620389
 -0.08225346 -0.07380087 -0.05109254  0.05885871 -0.05596136  0.02625745
 -0.02523426  0.0439606   0.01528554  0.09222624  0.01307804 -0.06519299
 -0.09014802 -0.07281683  0.0006752   0.03223272 -0.02369303  0.02501494
  0.02733971 -0.05865987 -0.02932155  0.07199281  0.04731966 -0.00436418
  0.06176168 -0.01751371  0.01279906 -0.04575807  0.04685945  0.08202989
  0.03004224 -0.04671497 -0.06501396 -0.04564158  0.05747371 -0.0659952
 -0.02473834  0.06448966  0.05041039  0.00874658  0.07004716  0.03517776
  0.08327968  0.06372961  0.01125512  0.00328738  0.00662693 -0.01348992
  0.04699752 -0.01261007  0.08204698 -0.04388055  0.04857614 -0.03524084
  0.02155624  0.0741607  -0.01317147  0.05705043]
[ 0.12194954  0.2510992   0.23857062 -0.01281118  0.06611394  0.03007265
 -0.15866958  0.00572283  0.08707445 -0.14945084 -0.01412984  0.14702143
  0.181897   -0.23008083  0.09332149  0.143491   -0.07915616 -0.10793035
  0.01902983  0.03387091  0.07486394 -0.06060803 -0.07261981  0.0148362
 -0.20171782 -0.01509898  0.04272308  0.07782346  0.17786996  0.04640237
 -0.04338989  0.03959544 -0.03584859 -0.06699616 -0.16237779 -0.06817082
 -0.03122525 -0.05757387  0.21780024 -0.1896037   0.15743259  0.19052345
  0.0107035   0.0252032  -0.05451581  0.2008302  -0.10579043  0.03172924
  0.04306073 -0.06380413  0.02393623 -0.11990959 -0.02123606 -0.05276883
 -0.15745315 -0.07072968 -0.09302389 -0.12319383  0.1387329   0.08855176
  0.11340583 -0.07399245  0.1644802   0.04194246]
[ 0.2196231   0.12417159  0.16855551  0.08889705  0.06494988 -0.0686754
 -0.20929275 -0.06701793  0.17905357 -0.03480244 -0.0688919   0.0049948
  0.18137346 -0.19710664 -0.02955355  0.18180856 -0.07808607 -0.07853206
  0.03783009  0.0118844   0.05144635 -0.07120399  0.04295497  0.08394724
 -0.07780902  0.06433015  0.04087712  0.08834089  0.21491694 -0.00482165
  0.02995217  0.02585755 -0.07906826 -0.11174889 -0.12247455  0.09755344
 -0.03763651 -0.1191792   0.08220476 -0.15935414  0.18978849  0.03647409
 -0.01124609  0.01398582 -0.15954018  0.17414066 -0.09091826 -0.05602414
  0.08087233 -0.10430776 -0.08216119 -0.02663199  0.05182492 -0.13768503
 -0.20487581 -0.03211467  0.05057577 -0.04466845  0.10576543  0.1685219
  0.16115734 -0.07250769  0.14593923  0.04175412]
[ 0.03762848  0.03888672  0.15389656 -0.01093032  0.05264009 -0.03895212
 -0.10447233  0.04751349  0.13027166  0.02542342 -0.16467337  0.07519073
  0.16727917 -0.08715416 -0.07578687  0.02729391  0.05306955 -0.0690501
 -0.04531857  0.06918339  0.081732    0.03729214  0.01146577  0.00763087
 -0.09500185  0.07247385 -0.02509504  0.00177845  0.07461282 -0.04193459
 -0.00425701  0.07020842 -0.07200757 -0.10326327 -0.02013744 -0.04165401
  0.06930652 -0.00631099  0.1696237  -0.14743182  0.09695864  0.12754214
 -0.07588555  0.07349641  0.00580727  0.05946641  0.01816052 -0.03235163
 -0.088664   -0.08182263  0.04916885 -0.01543153 -0.00995818 -0.16246076
 -0.01628684 -0.09321794  0.02371971 -0.11595692  0.19748722  0.13448727
  0.05083347 -0.01289515  0.0777785  -0.00174791]
[-0.04624327  0.19005479  0.04634231  0.06352502  0.00943073 -0.05238115
 -0.05819308  0.02290163  0.02930572 -0.09304739 -0.10540295  0.05966324
  0.14754955 -0.02590693 -0.0968457  -0.0014483   0.01412128 -0.06894505
 -0.10049652 -0.08653644  0.04560401 -0.04260238 -0.01092098  0.01561246
 -0.04029638 -0.05640537  0.05632944  0.06612489  0.03039933  0.02638108
 -0.07068174  0.0948679   0.03590352 -0.13015941 -0.03264638 -0.0170374
 -0.03034803  0.01008701  0.07302106 -0.01025349 -0.01988498  0.10382382
 -0.09064993 -0.05124511 -0.07411858  0.00737479 -0.08865903  0.04196544
 -0.11126044 -0.01710213 -0.08231298 -0.05648962  0.04996556 -0.02494741
 -0.06921959 -0.07793983 -0.00463313  0.04252644  0.15940097  0.00811703
  0.06511833 -0.12248665  0.09938431  0.00863469]
[ 0.01712132  0.24037693  0.22167663  0.12967815 -0.06722284 -0.07737178
 -0.11032698 -0.05794238  0.00556722 -0.13124429 -0.13453788  0.14277449
  0.0733116  -0.07318553  0.07169046  0.04873208 -0.02600392 -0.11218205
  0.06356715 -0.09560519 -0.05888324 -0.02631864 -0.01922633  0.00811939
 -0.14375755 -0.04487607  0.15885189  0.02952152  0.12006751 -0.0318456
 -0.07619553  0.07302479  0.05803764 -0.05248863 -0.19630213 -0.04442887
  0.09737495 -0.01452949  0.04863248 -0.04777108  0.1549998   0.05095887
 -0.02061776 -0.03609635 -0.07572894  0.08566568 -0.00156739  0.03463053
 -0.08095847  0.00242103  0.00957264 -0.06084858 -0.09981707 -0.06059757
 -0.04152846 -0.06782309 -0.07439128 -0.10209341  0.18940581  0.16017854
  0.24969499 -0.17439845  0.05258923  0.08433466]
[ 4.59996648e-02  9.22161415e-02  1.82944193e-01  1.28884643e-01
  4.29460406e-02 -2.19491675e-01  4.34137583e-02  5.45248538e-02
  1.20417409e-01 -1.28704518e-01 -2.99342033e-02  1.01922601e-01
  9.57861245e-02 -1.12514526e-01  1.61931798e-01  1.52042642e-01
 -3.23822834e-02  4.81513813e-02  7.97440261e-02 -1.25124395e-01
  7.95430094e-02  6.67882860e-02 -3.16824950e-02 -1.89203724e-01
  3.33460271e-02 -1.00088552e-01  1.10185452e-01 -4.65087146e-02
  2.37768292e-01  2.71088611e-02 -6.51581883e-02  1.99260697e-01
  1.04057984e-02 -4.85583916e-02 -2.59477019e-01 -2.42038819e-04
  7.39707351e-02 -3.25186700e-02  1.36013642e-01 -1.41485870e-01
  1.22041345e-01  9.83701125e-02  1.89072080e-02  2.23057549e-02
 -5.06836288e-02  2.32632011e-02 -1.37668177e-01 -1.56877991e-02
 -4.33275439e-02  2.36574654e-03  1.17193326e-01  1.14379667e-01
  4.90559340e-02 -1.09670507e-02 -1.58877283e-01 -5.75548746e-02
 -1.76994503e-02  6.99504688e-02  1.21430323e-01  7.76519403e-02
  1.31458268e-01 -1.02176122e-01  4.47294042e-02 -1.00119309e-02]
[ 0.09863915  0.1027188   0.24664137  0.04880924 -0.12032771 -0.10597019
  0.03977233 -0.01010088  0.1521429  -0.05850551 -0.13451019  0.276091
  0.15256199 -0.1470581   0.13115452  0.14300735 -0.0230408  -0.17250273
 -0.02671478  0.0669343   0.06197091  0.00314292 -0.07899598 -0.03333895
 -0.09720552 -0.05898388  0.10485905 -0.00201206  0.28299615  0.12615418
 -0.02193234  0.08268288 -0.12207995 -0.0656065  -0.19182336 -0.00943314
  0.18268022 -0.04835062  0.07048232 -0.17833155  0.07856868  0.21075165
  0.03931799 -0.03841198  0.00844155  0.05773183 -0.09892036 -0.00773055
 -0.0886838  -0.07738037  0.01535087 -0.02343056  0.01256335  0.00970277
 -0.09353852  0.00893296  0.0094932   0.04890367  0.17554034  0.15545431
  0.12602372 -0.1773558   0.17262703  0.0788796 ]
[ 0.11385959  0.19480678  0.14622243  0.02411829 -0.1882952  -0.08543148
 -0.02045369  0.05922274  0.11724614 -0.02239274 -0.17014578  0.08926862
  0.20181143 -0.16497225  0.02752239  0.1162195  -0.02691582 -0.10980935
 -0.11003161  0.01459106 -0.01325127  0.02896583  0.03654284 -0.06830776
  0.05558859 -0.04479028  0.00083072  0.09595985  0.15971321  0.10962763
  0.04972912  0.01459697 -0.12708454 -0.20863159 -0.27087137  0.07760575
  0.20377068 -0.0263929   0.09297431 -0.1174389  -0.0351024   0.05992963
 -0.17296815 -0.0210021  -0.07186794  0.06948307 -0.1154291  -0.12358328
 -0.0478324  -0.01380687 -0.02819286 -0.15519743 -0.11624427 -0.04408559
 -0.2392243  -0.13512033 -0.00988863  0.07441606  0.31499994  0.26403257
  0.1444416  -0.09125348  0.2262076   0.15017712]
[ 0.09951096 -0.01992271 -0.02592734 -0.02419789  0.15634122 -0.04134077
 -0.14357331 -0.03530156 -0.01757674  0.04218544 -0.13091108 -0.03285398
  0.03978798 -0.0317394   0.13127227 -0.0982947  -0.03433126  0.15447778
 -0.04587748  0.07298844 -0.02957085  0.22533898  0.01107239 -0.04536473
  0.04037423 -0.01232083 -0.10028476 -0.14512284 -0.00326533  0.08354285
  0.04251207 -0.08160722  0.12681955 -0.03099933  0.02436648 -0.11812884
  0.10521015  0.06770845  0.06817305 -0.10606149  0.04520222 -0.07285083
  0.09771381  0.10814649 -0.05655198  0.07376643  0.01758148  0.02602583
 -0.08024669 -0.05526009 -0.00571095 -0.03690641  0.02132601  0.04499119
 -0.05398993  0.08204259 -0.05120785 -0.07449241  0.21925068  0.21521762
 -0.02724954  0.02379362 -0.01067154 -0.06345449]
[ 0.10846204  0.05822557  0.05430911  0.03486003  0.1261891  -0.21098943
 -0.02568939  0.02875313  0.01970457 -0.11176778 -0.26034027  0.12817267
 -0.00953796 -0.21518914  0.18316127 -0.17573808 -0.04161798 -0.053579
  0.09522915  0.1417047  -0.06555631  0.08893541  0.08780069 -0.01469586
 -0.09641889 -0.04634286  0.0284974  -0.06850442  0.19786349  0.02092868
 -0.05610566 -0.02757922  0.06894553  0.0084421  -0.21881883  0.03232919
 -0.03524073 -0.1985432   0.2015837  -0.26084557  0.21168175 -0.06458428
 -0.0105107   0.02174592 -0.08644622 -0.04442732 -0.06969532 -0.11170878
 -0.02794835 -0.07359528 -0.00914832 -0.03736683  0.01418279 -0.01298345
  0.01913989  0.05706424 -0.1408218  -0.08610272  0.19170302  0.22210509
  0.04823    -0.2647272   0.17286941 -0.00502233]
[-0.04875642  0.10971269  0.21300246  0.14987467 -0.00103575 -0.22635868
  0.02254886 -0.01966961  0.07945467 -0.07186752 -0.15558895  0.15546706
  0.09984007 -0.16467139  0.10743646 -0.1618046   0.07952638 -0.00686316
  0.04771094  0.10670555  0.05680399  0.03370205 -0.02789472 -0.07061589
 -0.08601891 -0.02188018  0.14606152  0.0684666   0.18880913 -0.05078763
 -0.02026421  0.21362051  0.0794846  -0.01527859 -0.09868193  0.14247616
  0.08655125 -0.01823618  0.08422708 -0.17439571 -0.01369959  0.16625234
 -0.11094346 -0.03640421  0.01023471 -0.01313252 -0.10266359 -0.01439353
  0.00339216 -0.02991319 -0.07785586  0.03461873 -0.01232633 -0.06857024
  0.08700293 -0.01555805 -0.12828799  0.06054934  0.10430091  0.09993683
  0.20733511 -0.24502762  0.1552625   0.06670517]
[ 0.11152098  0.11785331  0.19215444  0.1499748   0.04122961 -0.05173975
  0.01201807 -0.05175515  0.17992006 -0.1051675  -0.07581696  0.05150268
  0.20154968 -0.1312618  -0.06975599 -0.14951642 -0.07052745 -0.09642263
 -0.01378889 -0.01360066 -0.02416075  0.01427241  0.06311239 -0.07275553
 -0.07270161  0.08563316  0.06991147  0.1223433   0.16679928 -0.03351714
 -0.01884902  0.23649381  0.19081259 -0.12682617 -0.10540801  0.06280746
  0.09757809 -0.0218379   0.09360707 -0.15027858  0.07417866  0.08740894
 -0.04990841  0.06906857 -0.12179565  0.11993727 -0.10052589 -0.02458852
 -0.10452241 -0.05448008 -0.11367273  0.10802858 -0.02599873 -0.09194808
 -0.1307316  -0.10348409 -0.10335036 -0.07072642  0.08219824  0.08406699
  0.14283131 -0.10472231  0.16547705  0.05766548]
[ 0.03568232  0.1838915   0.27729127 -0.0125526  -0.00817462  0.13397203
 -0.08448853 -0.06738257  0.17048268 -0.12909684 -0.08596641 -0.01337951
  0.25605097 -0.08132292 -0.03433029  0.01309329 -0.06232643 -0.06224664
 -0.13207202 -0.17122227  0.02211636 -0.04023859  0.06100645 -0.01836094
 -0.01418644  0.08581976  0.04134417  0.18463233  0.22139512  0.01254975
 -0.0691445   0.08662268  0.0940683  -0.05838896 -0.02589333  0.04945475
  0.09855691 -0.08065316  0.07582142 -0.07962568  0.15422338  0.10297488
 -0.10913184  0.02363336 -0.08198829  0.10449859 -0.02438279  0.03100041
 -0.06164923  0.00869534 -0.01786818 -0.07699718 -0.0189741  -0.09207966
 -0.1365798  -0.00144503 -0.06682749 -0.08625996  0.22544439  0.09460197
  0.2531297  -0.16762125  0.09443438  0.14313221]
[-0.00468531  0.15812951  0.21912403  0.11016016  0.04960158  0.04615665
 -0.11714473 -0.11197907  0.1610797  -0.21509406 -0.15119119 -0.00126952
  0.16364089 -0.21833242 -0.04108816  0.13911118  0.01860928 -0.10615838
 -0.08551707  0.00388543  0.07555389 -0.07681578 -0.0690392  -0.04669992
 -0.1867014   0.13358492  0.05276084  0.13113526  0.17822865  0.01379618
  0.08033267  0.04924408  0.07218371 -0.09504816 -0.05844329  0.12516455
  0.00697536 -0.17827168  0.13690612 -0.18076026  0.02084972  0.02978625
 -0.12970048  0.09180643 -0.12769467  0.10437521 -0.10263831 -0.0833615
 -0.08206765 -0.04552415 -0.0243772  -0.00619802 -0.08590589 -0.040178
 -0.10840632 -0.0718208  -0.11936583 -0.15837827  0.13374697  0.1108948
  0.22848472 -0.18252124  0.1171766   0.12159311]
[ 0.03628501  0.17592311  0.15866926  0.05053694 -0.07941238  0.23729542
 -0.22614262 -0.19563717  0.24602488 -0.1169056  -0.19185579  0.14647399
  0.15507843 -0.25909248 -0.06292404  0.1520248   0.01849823 -0.22975393
 -0.1426178  -0.14890866 -0.04535484 -0.01231572 -0.03136852 -0.15097359
 -0.13109778  0.1969916   0.13690479  0.15515998  0.20647681  0.07847495
  0.05481159  0.08044612  0.06490121 -0.13511266 -0.19308275  0.23452747
 -0.02916352 -0.20888768  0.20165746 -0.11113115  0.12486461  0.15835658
 -0.20691827 -0.01592521 -0.14844994  0.13739419 -0.07697171 -0.11430846
 -0.16336861 -0.02074554  0.04253398 -0.01973464 -0.06071308 -0.04507165
 -0.1882076  -0.09998376 -0.10998177 -0.1441361   0.3067      0.11664801
  0.2973163  -0.24371244  0.17460763  0.09270677]
[ 4.06381264e-02  1.99512154e-01  1.01965718e-01  6.34347200e-02
 -4.81301993e-02  1.71195194e-01 -4.61023413e-02 -6.39556348e-02
  1.95610359e-01 -1.09545544e-01 -9.25396904e-02  1.11565843e-01
  1.75171360e-01 -6.89283833e-02 -3.77319604e-02  1.65801585e-01
 -2.13830024e-02 -1.26205370e-01 -7.36532509e-02 -1.76542476e-01
  5.23403287e-05 -7.22552016e-02 -4.33970392e-02 -7.38047734e-02
 -7.42966682e-02  7.84784406e-02  2.05896478e-02  1.21513426e-01
  1.66949719e-01  2.17527300e-02  6.51679263e-02  1.37040451e-01
  2.35892206e-01 -2.13013381e-01 -1.07565500e-01  1.75755888e-01
 -4.06212322e-02 -1.15954533e-01  1.19433098e-01 -1.09644137e-01
  2.79920921e-02 -2.27792189e-02 -5.44670448e-02  1.36859855e-02
 -1.04048900e-01  1.44449919e-01 -1.14703454e-01  2.59386506e-02
 -1.18402719e-01 -3.14089917e-02  1.46106824e-01 -7.70371705e-02
  3.82400081e-02  1.27085168e-02 -3.72219570e-02  1.86521839e-02
 -1.49873435e-01  2.61798501e-02  1.34201914e-01  1.23416334e-01
  1.99145168e-01 -1.72908194e-02  1.79815918e-01  1.33092031e-01]
[-4.9737573e-02  1.4390380e-02  8.0307331e-03 -3.1296875e-02
  1.7879471e-02  1.9691896e-02 -1.4691950e-01 -8.8369651e-03
  3.8668867e-02  3.0263729e-02  7.2229551e-03  1.0339188e-01
  1.2156532e-01 -1.5104227e-01 -6.3101687e-02 -9.3224430e-03
  3.1425804e-03 -1.0754290e-01  2.4066818e-05  1.9627098e-02
 -3.5923544e-02 -2.6245825e-02 -2.5732584e-02  4.8577156e-02
 -4.4743545e-02 -1.9155951e-03 -1.4180758e-02  3.9863713e-02
  6.8633005e-02  3.7545651e-02  4.3400861e-02 -2.7019754e-02
  1.8928103e-01 -1.4724246e-01 -1.9461291e-02  4.4163477e-02
  6.1475448e-03  1.2722020e-02  4.8914477e-02 -1.2363942e-01
  2.4675228e-02  4.7778215e-02  1.4500413e-02  3.5231881e-02
 -5.1587190e-02  1.4893503e-01 -3.4162458e-02  4.4402920e-02
 -3.3022761e-03 -2.3530586e-02  1.3794918e-02  4.6684347e-02
 -5.4369913e-03 -3.0856229e-02 -7.1555033e-02 -1.2317449e-01
 -1.0140667e-01  3.3856663e-03  8.9133382e-02  1.6166547e-02
  4.9083233e-02 -1.0938706e-02  5.1823538e-02  6.5593801e-02]
[ 0.01534227  0.07866736 -0.00842297  0.10755701 -0.00366222 -0.01816781
 -0.01411545  0.07694008  0.06175048 -0.05347617  0.02359211 -0.02192781
  0.11059897 -0.11732443  0.09302449  0.01792499  0.08037116  0.01890546
  0.01070707  0.01466233  0.07608155  0.04219597 -0.06118128  0.09608113
 -0.01875927  0.03041569  0.03393804  0.11966402 -0.01242954 -0.0128497
 -0.01951589  0.05033423  0.10208819 -0.0646104  -0.03347465  0.04316223
  0.0150388  -0.02443687  0.09015644 -0.06951319  0.09463716  0.05975495
  0.06183419 -0.00232957 -0.01080241  0.037712   -0.00853504 -0.01298855
  0.04657163 -0.09025529  0.01004904 -0.04840104 -0.0565933   0.038067
 -0.1382514  -0.0169536  -0.03711186 -0.00314146  0.02621167  0.04717531
 -0.00187488 -0.03951178  0.13130987  0.03402674]
[ 0.08018986  0.05298585  0.03595877 -0.00950354 -0.06692164 -0.04948829
  0.00865792 -0.07414391 -0.07600798  0.04977525  0.0458864   0.04209775
  0.00800019 -0.05881602  0.02514061  0.0018905   0.00280442 -0.03083177
 -0.08089252  0.00706943 -0.08111148  0.0567882  -0.06468642  0.00745731
  0.00634866 -0.06174394  0.02003655  0.01013061  0.01988967 -0.02800192
 -0.04836035  0.08283465 -0.01089333  0.01893391  0.0793364  -0.0778241
 -0.06219802 -0.03479841  0.02558809 -0.07246926 -0.03086669  0.01088158
 -0.05657195  0.01621645 -0.00401793 -0.00140957  0.07822802  0.07609337
  0.04559041  0.06683403  0.00877665 -0.03259461 -0.00292732 -0.02269445
  0.03886804  0.03021044 -0.06604296  0.07374959 -0.06794497 -0.0058014
  0.08126575 -0.01383689  0.03702876 -0.04340608]
[ 0.01815844  0.01766812  0.01122338  0.03308679 -0.06313805 -0.0036302
  0.07375932  0.0359087   0.00443584 -0.0141023  -0.05369423 -0.07151641
 -0.06867096  0.02930793  0.05825002 -0.05066019 -0.0480199   0.03442436
  0.01144294  0.01877833 -0.00516525 -0.03100552 -0.01098374  0.0428602
 -0.03564139  0.04873531 -0.06675495  0.07943913  0.0793611   0.07618084
  0.02377465 -0.07615111  0.04127903  0.01977788 -0.01952334 -0.06266869
 -0.07931507 -0.04992121 -0.02299527  0.06761869 -0.0005201   0.0472961
  0.0260084  -0.06789649  0.06792469  0.00994392  0.02620874 -0.0757962
  0.06115491  0.00500359 -0.03655773 -0.04594641 -0.04179022 -0.04643218
  0.08391055 -0.06030708 -0.07096292 -0.02697548 -0.05409555 -0.04970622
 -0.07722412  0.03524446  0.05551661  0.01241475]
[ 0.03801031 -0.03025087  0.06392089  0.03212944  0.07768624 -0.0365827
 -0.0444488  -0.02629288  0.06407892 -0.03528572 -0.05808996 -0.01307403
  0.00970595  0.03657648 -0.0053888   0.05246941  0.01290429  0.00793329
 -0.0319986  -0.03802965  0.01843242 -0.01972726 -0.04640888 -0.075774
 -0.04815093 -0.04048833  0.07749424 -0.02012591  0.05232241  0.07287385
  0.06210888  0.01902797  0.00779451  0.05532113 -0.04639694 -0.03033036
  0.06142651  0.01321929  0.0535476  -0.0120757  -0.03631262  0.07162527
  0.08283675  0.02529884  0.0449559  -0.08190663  0.06520031  0.00048123
 -0.03326973 -0.01202464  0.05766118 -0.02311834 -0.00303094 -0.08301843
  0.00222815  0.00626409  0.03217189  0.02109066 -0.07894789 -0.01398371
 -0.03863715  0.00764041  0.06627915 -0.07222024]
[-0.07853194  0.02356366  0.03037855  0.04046267 -0.07886667 -0.05853764
 -0.05617629 -0.0803007  -0.00474662 -0.08069749  0.08352714  0.03886555
 -0.05596309  0.03011844  0.04261009  0.05722219 -0.02286972  0.04066601
  0.0086106   0.03026901 -0.06081264  0.03979108  0.00199196  0.04079695
  0.06503756  0.05159787  0.00766218 -0.05962427  0.05070896  0.0040801
 -0.05932614 -0.02465288  0.06637006 -0.04555324 -0.0828024  -0.0351788
  0.04633015 -0.06174579 -0.07797278  0.03535404 -0.03530878 -0.06405042
 -0.01087069  0.05649274  0.04765851 -0.05285402 -0.03574487 -0.06603998
 -0.08054329 -0.03263839  0.07103708 -0.05885638  0.00481531  0.02740186
  0.03261879  0.0028066   0.08322456  0.06307065 -0.0169502   0.01792774
 -0.00634782  0.02451843  0.02633704 -0.02202937]
[ 0.07700299  0.04569148 -0.01115996 -0.03616223  0.04647016 -0.06561056
  0.0526576   0.08367611  0.05699357  0.06338552 -0.02801913 -0.07884342
 -0.06842637 -0.0024911   0.08333599  0.06094205 -0.0835814  -0.03960187
 -0.04870994 -0.08178077 -0.0765197   0.02265267  0.05030952  0.0192427
  0.04391346 -0.01224402 -0.0319784   0.07001489 -0.03970771  0.05715372
  0.01667202  0.07972268  0.00242168  0.04729307 -0.00332999 -0.04065927
 -0.08407599 -0.08284171  0.02504957  0.03392356 -0.0546176   0.05830441
 -0.00561859 -0.03904785  0.04372164 -0.01162613 -0.05046213  0.02764599
 -0.02731579 -0.01832806  0.02320727 -0.03260126  0.05311365  0.06060524
 -0.02639908  0.05290642 -0.03147011 -0.05573862 -0.03106162  0.01022419
  0.06187462 -0.06302494  0.01000998  0.00516475]
[ 0.05623887 -0.00235312  0.04004908 -0.01322176  0.03052678 -0.00248691
 -0.08250226  0.07173782  0.0689617   0.05938321 -0.0365037   0.06039309
  0.04422817 -0.04323832  0.02686039 -0.08205325  0.03782728 -0.02793452
  0.0222016   0.00279813 -0.0226191   0.02476693  0.02153468  0.00972223
 -0.01337878  0.05053595 -0.0682506  -0.06655635  0.02395242 -0.03723765
  0.06737938 -0.04093783  0.05817064 -0.00390685 -0.07854249 -0.00638244
  0.04767389 -0.00392418 -0.01278941 -0.0702398  -0.07870775  0.01591703
  0.02815881 -0.07933994 -0.05112556  0.01388055 -0.0235768   0.03476518
 -0.05361285 -0.01133089  0.05593454  0.0424163  -0.06199509 -0.00300044
 -0.08031819  0.01875851  0.05807681  0.02007431  0.05161209 -0.05790006
  0.08136424  0.0745138   0.07821264  0.02917803]
[ 0.0714801  -0.02508382  0.06188927 -0.02665593 -0.04590433 -0.0061373
 -0.003844    0.02524539  0.02907911 -0.05809496 -0.02599289 -0.0242556
 -0.07401814 -0.08020221  0.0754739  -0.06959332  0.0089549   0.01933584
  0.02986106  0.06786119 -0.01938003  0.05860361 -0.05183656  0.06550168
 -0.00096216  0.09504158 -0.03098529  0.00509056  0.07899912  0.05235247
 -0.00184722  0.03708952 -0.02731533  0.03870791 -0.01585744 -0.00153443
 -0.07699843 -0.03622976  0.07034874 -0.0006214  -0.03107211 -0.04016371
 -0.0208508   0.05103746  0.05287464  0.05712891  0.05477502  0.05513776
  0.06500358 -0.02527959  0.06548973 -0.06678441  0.00544927 -0.01574508
  0.01731229 -0.00391936  0.05277476  0.05243481  0.05435903 -0.02420335
  0.02436953 -0.02560216  0.01822857  0.06899218]
[ 0.02213215 -0.00369829  0.0262441   0.01464548 -0.03563425  0.10764854
  0.12258556  0.02843144  0.05107331  0.0499179   0.01245142  0.06171504
 -0.00633483 -0.12619127 -0.04236678  0.07014304 -0.04281101 -0.10270303
  0.0025701  -0.0266052  -0.07828117 -0.07671338 -0.08240536  0.02765341
  0.13958669 -0.11122596  0.15292092  0.04595194  0.12381595 -0.03554548
  0.02299416 -0.05447385 -0.16396122  0.00101049 -0.14892551  0.14274085
  0.04292858 -0.12685002  0.01192547 -0.09387647 -0.06064293  0.11864709
 -0.05845498 -0.0344881  -0.08797459 -0.13103285 -0.11485725 -0.02926529
 -0.02776607  0.05745096  0.0408312  -0.05587591  0.04190397 -0.1016807
 -0.01181524  0.05315978 -0.01271192  0.07529962  0.05776463 -0.13033971
  0.0033419  -0.09238299 -0.00829942 -0.04286905]
[-0.01728207  0.03774467  0.11620624  0.0066934  -0.11301528  0.01077291
  0.02684712 -0.06145367  0.04303385 -0.09889753 -0.07323136  0.01820509
  0.08568357 -0.09143838 -0.04726564  0.06636589 -0.06778467 -0.0651008
  0.01185457  0.0663039  -0.05949615 -0.09126272 -0.03076713  0.00590793
  0.01037143  0.00470143  0.05362246 -0.03858013  0.11172608 -0.05735344
 -0.05339738  0.07506805 -0.00653479 -0.0404333  -0.08424192  0.03827149
  0.06818541 -0.02215825  0.08098355 -0.02266573  0.02948537  0.03302972
 -0.11635979 -0.06856304  0.0041491   0.06094088 -0.15288353  0.01731449
 -0.02564169  0.05086213 -0.04354544 -0.07935463  0.06589641 -0.07651778
 -0.07032046 -0.06437019  0.03305735  0.0104376   0.05221523  0.01551029
 -0.02877995 -0.03906874 -0.02864527  0.08023908]
[ 0.09743746  0.06451213  0.11697362  0.01364967  0.04427411  0.08338337
 -0.06286874 -0.11503457  0.10943092 -0.08018363 -0.08634041  0.09246808
  0.11082382 -0.01757398 -0.08147004  0.0018741  -0.05559173 -0.00685999
  0.03710007  0.04274327 -0.00354373 -0.09188502  0.03713436  0.06442
 -0.1083268  -0.05887822  0.03946869 -0.03967424  0.05311986  0.01935124
  0.01757042  0.03685553  0.0146453  -0.05158203 -0.02752433  0.03440079
 -0.01384336 -0.03946051  0.07860222 -0.10389202 -0.02051899 -0.00905149
 -0.01867825  0.04547971 -0.03331269  0.103705    0.06470545  0.01724869
  0.00903767  0.05262519 -0.00575887  0.00227255 -0.08884531 -0.00869179
 -0.06693476  0.03076056 -0.06827837 -0.05654377  0.00641945  0.03647295
  0.09371838  0.04089699  0.05561099  0.09811488]
[ 0.06229011  0.17513488  0.23579721  0.11388548  0.0831944  -0.04999944
 -0.07611951 -0.0051339   0.1969227  -0.09180968 -0.06735501  0.07896583
  0.15446156 -0.26344827  0.00538536  0.14684916 -0.11231884 -0.15742837
 -0.00546049 -0.00716684  0.05089924 -0.08242689  0.07600631  0.08508566
 -0.02962151  0.04389126  0.12478825  0.03816825  0.15252537  0.00353612
  0.08156264  0.13958868 -0.10153444 -0.10427494 -0.12145519  0.12073952
  0.04469521  0.04062365  0.129847   -0.21543078  0.06943343  0.16114569
  0.02649505  0.03871317 -0.08971491  0.05791961 -0.02987648 -0.0657948
 -0.11805707 -0.01218574 -0.07978698 -0.06443664 -0.06008261 -0.13825977
 -0.20791826 -0.05540559  0.04168964 -0.07777768  0.1437704   0.21240261
  0.1628213  -0.12854189  0.19501147  0.23568963]
[ 0.11705528  0.2561825   0.31542334  0.13189508 -0.09230534 -0.02391074
 -0.16081303 -0.03438967  0.12322824 -0.1091741  -0.04592225  0.08612831
  0.18674555 -0.17854814 -0.09783319  0.08775866 -0.02137287 -0.12350094
 -0.04723783 -0.06284933  0.07747623  0.0171799   0.00554466  0.09945431
 -0.213455   -0.04399933  0.20314626  0.04250423  0.1220725  -0.07343884
  0.06967596  0.1558655  -0.09514149 -0.10062476 -0.06545001  0.0495238
  0.05455753  0.03995408  0.17347199 -0.14922173  0.16220292  0.06828768
 -0.03766018 -0.00355999 -0.00633558  0.11546326 -0.02135249  0.01989215
 -0.17735818 -0.05664532  0.0622335  -0.01676208 -0.06171097 -0.16845918
 -0.09869519  0.04119745  0.03843926 -0.11211379  0.20551598  0.28937528
  0.31107914 -0.04861261  0.22631231  0.03096681]
[-0.02147828  0.17156473  0.24454671  0.12390877 -0.04962347 -0.01352361
 -0.10949653 -0.04247994  0.15353626 -0.24912429 -0.06800882  0.15397473
  0.15878585 -0.18949845  0.04119536  0.25730565 -0.09889911 -0.05922239
  0.05214565 -0.01978829  0.07058178 -0.1084674   0.00688438  0.01723297
 -0.15428787  0.06448564  0.1921166   0.07366794  0.03867963 -0.09711726
  0.01169926  0.14444432 -0.03108795 -0.17056298 -0.13565166 -0.00841199
  0.20733795  0.11445547  0.07475842 -0.11487239  0.04896391  0.20184112
 -0.02220407 -0.13003346  0.07841037 -0.02999279 -0.05099954  0.04223742
  0.03341258 -0.16881673  0.02932119  0.06291049 -0.00677104 -0.22840838
 -0.10197435 -0.09118196  0.03301945 -0.07945955  0.01448446  0.1174778
  0.19346048  0.01324583  0.19027373  0.11700094]
[ 0.03149328  0.12952499  0.1730812   0.31921875 -0.05310188 -0.12916388
 -0.01850841 -0.14084028  0.1275205  -0.31007826 -0.13811846  0.25849938
  0.03130537 -0.09078644  0.10558233  0.20715396 -0.11988766 -0.17495115
  0.00339147  0.06995761  0.0369633  -0.14985196  0.04040511  0.09252599
 -0.2631427  -0.1111027   0.248201   -0.07398254 -0.05450214 -0.11290865
 -0.0076452   0.06827107 -0.21713287 -0.13313244 -0.11257052  0.13931443
  0.23447485  0.29267555  0.03962925 -0.0321718   0.02424541  0.2867572
  0.15703641 -0.16430102 -0.02826006 -0.08943264 -0.02892194 -0.19139504
  0.05843161  0.0960711  -0.04472627  0.23934102  0.01661284 -0.13845602
 -0.10644577  0.02509427 -0.08227772 -0.2836416  -0.22891252 -0.04666293
  0.07690299 -0.09132085  0.08321133  0.20920388]
[ 0.06073198  0.17388631  0.04854487  0.32047775  0.06192696 -0.19917436
 -0.02318038 -0.00177084  0.02852731 -0.19611338 -0.09865891  0.32088906
 -0.0505854  -0.13798024  0.12574874  0.2982064  -0.1976354  -0.21749029
  0.07856036  0.07033321  0.10675617  0.0168072  -0.06828065  0.06259216
 -0.23403752 -0.21405357  0.20707095 -0.02295345  0.01864094  0.01291581
 -0.05418384  0.11267956 -0.15373261 -0.23143512 -0.2695503  -0.13594285
  0.12913755  0.28314823  0.10555723 -0.17058176  0.2905623   0.2471205
  0.2514938   0.03120729  0.00154853 -0.07266509 -0.03124397 -0.20315911
  0.1295241   0.05512387  0.02654201  0.19424962 -0.07662129 -0.08425131
 -0.06749504 -0.14530812 -0.15804861 -0.20140384 -0.08935001  0.08744647
  0.13890825 -0.25366446 -0.07057046  0.12604846]
[ 0.16100667  0.25341177  0.33042493  0.14242533  0.00919098 -0.26945078
 -0.10446884 -0.02040305  0.22813465 -0.119826    0.00262436  0.16725843
  0.14168365 -0.29638875  0.06950681  0.31089857 -0.14735973 -0.14247644
  0.09504091 -0.09851289  0.02499826  0.0211173   0.04101303  0.07971648
 -0.2232382  -0.1913795   0.15099639  0.07474098  0.202532    0.03685101
  0.01180551  0.27021298  0.00414601 -0.13613118 -0.26683915 -0.00344284
  0.2175884   0.13891637  0.2040657  -0.15809616  0.25061718  0.29844266
  0.0843781  -0.01712535 -0.05507958  0.05689447 -0.12012068 -0.2164477
  0.05201139 -0.08858436  0.06473744  0.03404426  0.01295635 -0.25103104
 -0.16155472 -0.0045821  -0.04648691 -0.1915557   0.03260725  0.1315391
  0.26451612 -0.26710773  0.04281087  0.01461469]
[ 0.12920907  0.14891249  0.119706    0.18556918  0.04139266 -0.3452242
 -0.00459767  0.03047608  0.15677041 -0.30972245  0.10345763  0.22673623
  0.14231104 -0.43939257  0.08269623  0.17225842 -0.21771853 -0.26830298
  0.16759345  0.01027069  0.11514711  0.00251896  0.19260879  0.23426536
 -0.30079603 -0.12713562 -0.0991581  -0.00297103  0.00440907  0.06744239
 -0.02856313  0.3101948   0.01192128 -0.18505625 -0.1296117  -0.07905694
  0.11685232  0.09840409  0.06817035 -0.13682704  0.06089439  0.12276684
  0.0169131  -0.17927763 -0.16823804  0.23126395 -0.22118646 -0.17635159
  0.04914634 -0.16899559  0.00851568  0.04801408 -0.0229357  -0.2222357
 -0.3528421  -0.15923277 -0.1667372  -0.15367733 -0.01022357  0.1711196
  0.21662802 -0.03227501 -0.01656532  0.01159825]
[ 0.12720874  0.09202776 -0.1080641   0.14943652  0.07953112 -0.29301724
 -0.08335669  0.07345504 -0.10306431 -0.09906051 -0.02974673  0.29145998
  0.00273135 -0.2833417   0.10268373  0.21961294 -0.09210892 -0.30768412
  0.06388454 -0.14025684  0.11829411 -0.15087627  0.19750871  0.07902889
 -0.17438179 -0.20611902 -0.09543665 -0.01336965  0.00052772  0.09420665
  0.19730963  0.11543962  0.05142338 -0.26763234 -0.23699102 -0.14050958
 -0.06517047  0.08979983 -0.15076512 -0.30799425  0.14056253  0.05374554
  0.19518366 -0.12143112 -0.1292893   0.12796916 -0.09552155 -0.31860185
  0.025583   -0.20436957 -0.18439445 -0.02988723 -0.01739309 -0.08931381
 -0.3109594  -0.0012775  -0.29105717 -0.24558152  0.03524492 -0.01777756
  0.16606666  0.03852355  0.01481415  0.10879754]
[ 0.08421573  0.12499851  0.22740477  0.14402232 -0.00445494 -0.19275114
 -0.2988658   0.0101588   0.0683803  -0.01975019 -0.06058503  0.13572368
  0.10202263 -0.05635826  0.12481142  0.0685024  -0.09267963 -0.17405137
  0.08136634  0.0355317   0.23503214  0.02297952  0.24800074  0.22661619
  0.03543095 -0.19355716 -0.04810971  0.11734318  0.04789848 -0.01305695
  0.19679861  0.17706463  0.18047804 -0.30569604 -0.07005402 -0.21354714
  0.18268217  0.21303415 -0.10121184 -0.12606832  0.25358564  0.06835689
  0.04886473 -0.22023237 -0.22704063  0.11895688 -0.21008396 -0.20339195
  0.08785181 -0.09233162 -0.1595238  -0.00953794 -0.12791422  0.06986204
 -0.3356418  -0.02581977 -0.26977414 -0.14017937 -0.01218688  0.14054716
  0.22642115 -0.02565654  0.19859254  0.20660518]
[ 0.00331646  0.18260807  0.14742997  0.0421124   0.07575224 -0.07715715
 -0.288138    0.12127247 -0.05390034 -0.1292236  -0.10449679  0.19368912
 -0.06959468 -0.07620792  0.2104352  -0.01743629 -0.09534348 -0.02942637
  0.16072635  0.0453323   0.02799566  0.1853591   0.11206243  0.13854662
 -0.15765892 -0.01872673  0.16109133  0.08762651  0.11047127  0.02969355
 -0.05384892  0.13051298  0.2566526  -0.28268787 -0.11382106 -0.21710241
  0.02830331  0.04533396  0.01501222 -0.02922185  0.3086932   0.0796545
  0.19593143 -0.0740635  -0.22027606  0.14565943 -0.12602748 -0.20717756
 -0.06198273 -0.03458615 -0.22831531 -0.02120531 -0.1360183   0.2357396
 -0.13907169 -0.05199371 -0.12799317 -0.2858849   0.19622217  0.18586452
 -0.0100861  -0.19273658 -0.06180833  0.20852722]
[-0.04217368  0.28575066  0.0341541   0.11294959  0.03435674  0.15526912
  0.05777163  0.06625472  0.10589688 -0.1571716  -0.18761663  0.20017976
 -0.02541924 -0.04267925  0.3185713  -0.20161533  0.05344483 -0.13306314
  0.15097506  0.07306928 -0.09397314  0.13894176 -0.00499463  0.04048084
 -0.17210604  0.05687245  0.24248226  0.02865229  0.13481869  0.08180171
 -0.06174814 -0.15456639  0.22044675 -0.26616898 -0.04381119 -0.1621284
 -0.16026033  0.16241322  0.10871776 -0.19714868  0.17443037 -0.06387037
 -0.0140969   0.07112646 -0.17211632  0.09658578 -0.14100398 -0.22289662
 -0.16861103 -0.02922158 -0.23548451 -0.18023042 -0.0326411   0.13522136
 -0.01632998 -0.12115584 -0.16831028 -0.14235483  0.2101753   0.14724952
  0.11190209 -0.34197414  0.02894819  0.3091604 ]
[ 0.03778779  0.22172701  0.16735676  0.13342974 -0.10920799  0.08974048
  0.03995408  0.12961045  0.16801333 -0.15165555 -0.0611933   0.2210123
  0.08799473 -0.01833022  0.21566838 -0.2842013   0.00072549 -0.10198808
  0.15199748 -0.06900474  0.00872037  0.05712071 -0.01259934 -0.08578378
 -0.14792779  0.20116928  0.11242211  0.0378059   0.08901002  0.18207759
 -0.01109177 -0.04424726  0.29460397 -0.14285156  0.03448064 -0.03605758
  0.03764876  0.17421399  0.2469454  -0.0586088   0.05266512 -0.02676054
  0.00428059  0.21079296 -0.079738    0.07630228 -0.04692743  0.01430341
 -0.15544844 -0.19297332 -0.24761012 -0.11050151 -0.07666069  0.11789584
  0.15824267 -0.12332297  0.02646649 -0.22439508  0.26653838  0.28526312
  0.01271761 -0.22918272 -0.09076936  0.11381628]
[ 0.13832647  0.29774424  0.31388164 -0.08872258 -0.08619323 -0.01790457
 -0.03633877 -0.02458389  0.02550849 -0.12452845 -0.22700156  0.15901007
  0.16318265  0.00616936  0.18706521 -0.25483757 -0.01906357 -0.1705029
  0.13820687 -0.12493214  0.03895827  0.20224139  0.06790762 -0.05905163
 -0.05731929  0.2058878   0.01183103  0.06862293  0.01639899  0.02407647
  0.15121429  0.01924924  0.1153115  -0.207815   -0.11919376  0.0713971
 -0.05849864 -0.06459979  0.2121052  -0.08342759  0.07686874  0.03476148
 -0.21488228  0.24185733 -0.2175256  -0.01793795 -0.01508382  0.15286276
 -0.03789749 -0.17023408 -0.22504501 -0.18816957 -0.06915743 -0.02240533
 -0.02059078 -0.1047199  -0.0453269  -0.19970942  0.17607333  0.14880349
  0.07066756 -0.17153464  0.09538627  0.19515325]
[ 0.10632935  0.1817942   0.23211811 -0.06449368 -0.09192905  0.22494106
 -0.15819539 -0.16583781  0.12931752 -0.21395274 -0.13688454  0.06869447
  0.21475782 -0.03804731  0.12193693 -0.02294148 -0.02191953 -0.26036686
 -0.02534023 -0.02368673  0.11081176  0.06713034  0.07849305 -0.15618278
 -0.09205209  0.22907817  0.02206191  0.01713106  0.2786732   0.00646497
  0.15419137 -0.047617    0.17100018 -0.3478036  -0.02301314  0.21919529
 -0.08982416 -0.06430094  0.21180753 -0.26246613  0.16990982 -0.14409636
 -0.11681067  0.13489522 -0.1515498   0.05831947 -0.04941773  0.02669574
 -0.05491721 -0.22782616  0.1526305  -0.20384447 -0.07690407  0.03480417
 -0.13013436 -0.23394814  0.05230813 -0.21053289  0.32141194  0.0311359
 -0.02846569 -0.30198509  0.18512829 -0.08523881]
[ 0.03933907  0.19247358  0.25414488  0.04491761 -0.15112804  0.33322677
 -0.08657367 -0.04658921  0.15987197 -0.0927727  -0.02902266  0.13098422
  0.20159036 -0.05762883  0.00735023  0.20785436 -0.1023614  -0.05502497
  0.04244123 -0.03371331 -0.02329412 -0.0154652   0.0701258  -0.1020408
 -0.0874209   0.16333781  0.21621245  0.01698748  0.29149586 -0.11220141
  0.06951743  0.08844594  0.03512179 -0.30456135 -0.04209151 -0.0077199
 -0.08778288 -0.00184277  0.1890705  -0.21267009  0.15562013 -0.00328377
 -0.1279863   0.09045865 -0.21438293  0.04161659 -0.18287677  0.16381843
 -0.12409627 -0.11910265 -0.06079034 -0.16932467 -0.09475581 -0.06302562
 -0.0815251  -0.1580596  -0.00644476 -0.29859713  0.21110325  0.03254615
  0.1486824  -0.22909325  0.22727063 -0.03105634]
[ 0.02692624  0.326907    0.14085175  0.10741405 -0.12684482  0.53677523
 -0.08207337 -0.06021579  0.21927497 -0.11679126 -0.03626633  0.0533099
  0.21412452 -0.03686916 -0.01146713  0.32972443  0.04109837 -0.20478779
 -0.01358158  0.00961463 -0.05114104 -0.13209623 -0.09120809 -0.09018324
 -0.08627646  0.26812217  0.29367608  0.15218815  0.3579545  -0.12239795
 -0.0715813   0.21488981  0.06793515 -0.24009006 -0.00507542  0.13415858
 -0.04556755  0.0705952   0.11480479 -0.18545517  0.10694806  0.12337705
 -0.12362163  0.08676261 -0.08847958  0.09023223 -0.0514589  -0.05639189
 -0.14044946 -0.07207821  0.05635125 -0.10075143 -0.05608904 -0.07430549
 -0.09502728 -0.20623563 -0.06242483 -0.2729316   0.20587198  0.14503525
  0.19597499 -0.25877059  0.24527179  0.01792357]
[ 0.06669311  0.1917847   0.17103277  0.13624829 -0.20730153  0.29813516
 -0.09989337 -0.19639136  0.22126535 -0.17436439 -0.00165912  0.03218041
  0.19030714 -0.1001963   0.02443813  0.28617808  0.05273754 -0.20531684
 -0.20097564 -0.12371786  0.10300204  0.04717395 -0.10730707 -0.20157589
 -0.06007727  0.21901384  0.14373626  0.23387861  0.32159173 -0.00603212
 -0.10221582  0.10802767  0.11625441 -0.15488896  0.025239    0.02513059
 -0.12334209 -0.15364766  0.20729387 -0.13161033  0.2065047   0.07925043
 -0.03784627  0.01391511 -0.04278196  0.12056126 -0.14815286 -0.09674782
 -0.08509715 -0.11053808  0.09366781 -0.15182866  0.01068659  0.07572493
 -0.19103849 -0.22568655 -0.0863324  -0.12370825  0.25456446  0.1160782
  0.14283285 -0.16910625  0.2706023   0.11059144]
[ 0.08204252  0.12869552  0.12234127  0.11396071 -0.02084824  0.22442482
 -0.09635939 -0.07308837  0.15653221 -0.131932    0.05545504  0.14463152
  0.26423553 -0.24074374 -0.03219125  0.24713576 -0.06386117 -0.21004876
 -0.09997145 -0.10430808  0.1498301   0.05121668  0.00284658  0.03222694
 -0.09086574  0.10258604  0.12804765  0.19529565  0.22815336 -0.13187645
  0.0381146   0.06735002  0.08038642  0.04658838 -0.08479834  0.10462467
  0.08096117 -0.045262    0.21538655 -0.03607758 -0.01213745  0.24977723
  0.05306188 -0.07692989 -0.06214907 -0.03672465 -0.09306816  0.05136194
 -0.086139   -0.11381605 -0.02083256 -0.01426013 -0.00032196  0.04532094
 -0.14671335 -0.23928402 -0.14977068 -0.2483233   0.19016151 -0.0051113
  0.12620449 -0.1583734   0.21023518  0.21958473]
[-0.02576975  0.08564559  0.04017648  0.09331121  0.07473806  0.17861697
 -0.12364385  0.00914745  0.01139834 -0.07899395 -0.05973018  0.07656864
  0.01570544 -0.17759636  0.02507578  0.07848649  0.08468364 -0.13216747
  0.02275077  0.07209001  0.0935932  -0.05036189 -0.08922663 -0.11978822
 -0.10611376  0.00541383  0.02693439 -0.04333549  0.06855337  0.02396298
 -0.00587356  0.10575317  0.14848787  0.03623328 -0.12070763  0.11251453
 -0.00564029  0.09751509  0.05198286 -0.11223042 -0.02741774  0.08026555
  0.07475632 -0.06132649 -0.05894107 -0.02768171 -0.01404302 -0.09019178
 -0.03757582 -0.07136694 -0.10181313  0.10561093 -0.04297217 -0.02069315
  0.0681729  -0.07980958 -0.05928171 -0.06505539  0.01532336  0.0211085
 -0.00494347 -0.19689527  0.07542296  0.03181643]
[ 0.04450028 -0.0054443   0.04455307 -0.03392829 -0.02437101  0.05910009
 -0.11014304 -0.11984727  0.05688103 -0.10963514 -0.02709921  0.06901898
  0.07118358 -0.0625697  -0.0313301   0.23785912  0.01791096 -0.09957101
  0.09853251  0.04753531 -0.0098938  -0.00757583  0.02360028 -0.09300233
 -0.1414513  -0.08760281  0.05527534  0.06938851 -0.01096329  0.03501163
  0.08185055  0.07415956  0.03390905  0.06638219 -0.09956904  0.07238306
  0.0036307   0.0863924   0.04996737 -0.15914415 -0.03254471  0.14825402
  0.04386348 -0.05879283  0.05273037 -0.05073347 -0.1102621  -0.06478308
 -0.02867643 -0.0496265  -0.07261829  0.04003314  0.05985159 -0.09107765
 -0.04686163 -0.08222354  0.03387858 -0.15978837  0.03382754  0.06380859
 -0.04397333 -0.07348963  0.07429161  0.10755662]
[ 0.06173974  0.0687095   0.05034173 -0.04525834  0.06039553 -0.02889454
 -0.03409432 -0.06822105 -0.04971228  0.07329018 -0.05778557  0.02183123
  0.05575194 -0.04337601 -0.02034447 -0.08349128 -0.06288072  0.06961945
 -0.06791574  0.01352669  0.01831923  0.01361492  0.0105216  -0.03263562
 -0.02365391 -0.05617172 -0.02165236  0.03874169 -0.03932527 -0.06703385
 -0.0201364  -0.01588123 -0.0225747   0.0541354   0.04777867 -0.05228787
 -0.07147113 -0.00931671  0.00784408  0.03814874  0.0420653   0.06203908
 -0.06014784  0.02148715  0.07575522 -0.06615449 -0.05134401 -0.02564561
 -0.02249951 -0.04997008  0.03204791 -0.06908611 -0.08398803  0.06062943
 -0.01190686  0.06864191 -0.04409305 -0.08134791 -0.02361191 -0.03371593
 -0.07090616  0.0614411   0.03134814 -0.01539126]
[-0.03983741 -0.05648346 -0.03099915 -0.06578361 -0.06525253  0.06757157
 -0.0806009  -0.0724078  -0.02392356  0.08009992  0.05045938 -0.02881987
  0.03744391 -0.01526008  0.06347934 -0.05147038 -0.02157166 -0.05129227
  0.04174181 -0.02204397 -0.06115004  0.02016331 -0.03908953  0.01048722
 -0.04545411  0.06292105 -0.07788852  0.02719596  0.03055347  0.03066882
  0.0600379  -0.06508352 -0.01024356 -0.07480551 -0.05473632  0.08212041
  0.04545569  0.04533076  0.02448945  0.05248357 -0.03688188 -0.02502014
  0.05010471  0.06335682  0.03757541  0.03767085 -0.04219557 -0.04876559
  0.00450767  0.03847465 -0.00981952 -0.02926772 -0.00949399  0.01428708
  0.04662088  0.02423102  0.02404156  0.06441929 -0.04199476  0.05597196
  0.08046185  0.07853278  0.04453931  0.07639963]
[-0.0687816  -0.06968184 -0.01631067  0.01526231  0.04459109 -0.02395968
  0.03826018  0.0473517   0.04749858  0.05388664  0.0013565  -0.03773858
  0.03191002  0.02047761  0.0301405  -0.08014733 -0.0281625  -0.06688218
  0.01096299  0.06296343  0.06178916 -0.06412673  0.03668476 -0.04713185
  0.08197305 -0.000416   -0.0470413   0.08257853  0.07976858 -0.06382096
 -0.06063862  0.05583554 -0.07809597  0.03518002 -0.07140802 -0.03586438
 -0.04137364 -0.01641531 -0.05422382  0.03199062 -0.04601019 -0.02104907
  0.00378632 -0.06608146 -0.08173125  0.04324736 -0.00309967  0.08047666
 -0.02165491  0.08057299 -0.03912586 -0.01124622  0.00394953 -0.00590904
  0.07186498  0.06578266 -0.04749994  0.06274744 -0.0588228  -0.02152904
  0.00631876 -0.04487647  0.00809814 -0.04131147]
[-0.05644302 -0.00953266  0.04214088 -0.05725953 -0.01946019 -0.05474226
  0.03822595  0.06619781  0.00791255  0.0614214  -0.04327973 -0.04922039
 -0.0033027   0.02462681 -0.06547162  0.03140055  0.03299422 -0.02515539
 -0.04388199 -0.06420054  0.08316358 -0.05939785 -0.06289834  0.07164574
 -0.00086951 -0.05013846 -0.06394451 -0.02917793 -0.07680189 -0.03615521
 -0.05054574 -0.07727903  0.06022627  0.0345704  -0.025651   -0.07069495
  0.00193378  0.02959289  0.00748947 -0.01060358 -0.04684003  0.03761058
 -0.06118488 -0.017595    0.00666007 -0.02447908 -0.0261265  -0.05494186
 -0.03578901 -0.05082682  0.00014096  0.02541997  0.05205654  0.04246456
  0.05476668 -0.04830832  0.00176641  0.0096731   0.04021404 -0.05793085
  0.04358795 -0.05882974 -0.01495936  0.0823408 ]
[ 0.03560133 -0.08884422 -0.110925   -0.06784273  0.1939577   0.03708597
 -0.00365316  0.04920462 -0.08093512 -0.06968492  0.01895582  0.18944636
 -0.10451014 -0.05631611  0.20409696  0.00875565  0.02765929 -0.02790473
  0.07817073  0.07025771 -0.02517564  0.05355753  0.07537486  0.08320742
 -0.01144713 -0.08134373 -0.00873298 -0.06326706 -0.05144196  0.09775194
  0.04188285 -0.01454867  0.15668657 -0.05120717 -0.20912951 -0.13285744
 -0.01296403 -0.14373128 -0.08499844 -0.06517024 -0.0246265  -0.14184569
  0.12997705 -0.15237182 -0.00201251 -0.03897162  0.0211312   0.04173836
  0.0675751   0.13087751  0.09089074  0.14387952  0.03685868  0.0036938
  0.08214978  0.02164858 -0.01362281 -0.0041209  -0.09750788 -0.16513526
 -0.0690235   0.06472686 -0.15099631 -0.00673804]
[ 0.08854247 -0.02184482  0.14723097  0.00075541  0.11396355 -0.14646259
 -0.05694231  0.05571076 -0.09723658 -0.00064871 -0.105302    0.14713636
 -0.1120211  -0.08540985  0.23042628 -0.10612704 -0.05601248 -0.15422748
  0.06734141 -0.03389776  0.05909327  0.09836289 -0.06725007  0.17155169
  0.0134395   0.03227259  0.05535519 -0.03673635  0.03426772 -0.04932814
 -0.03662854 -0.00738663  0.04532439 -0.02355579 -0.09793     0.12466634
 -0.05053647 -0.18545163  0.08393216 -0.18802823 -0.01506787  0.05054779
  0.12900701 -0.01878705 -0.03104376 -0.0921666  -0.06401997  0.05762428
  0.10913516  0.01503621  0.15159166  0.09104994  0.0960542  -0.01580454
 -0.16788918 -0.06998852  0.05535186 -0.08700652  0.09605192 -0.12224651
 -0.06405061 -0.15154046 -0.01184154 -0.08253235]
[ 0.03668272  0.04992595  0.1500001  -0.09446932 -0.04288163 -0.07110831
 -0.08186001 -0.12813422 -0.05786511 -0.07450681 -0.0730593   0.02839916
 -0.01850442 -0.11993494  0.05173315 -0.1264319   0.00372217 -0.00993097
 -0.12601008  0.13100101 -0.12830773  0.1407567  -0.0580704   0.15082493
 -0.08282743  0.10406362  0.04772078  0.02812002 -0.12356688  0.02530936
  0.03517444 -0.06888537 -0.13274302  0.07205041  0.13051778  0.19070014
 -0.00923965 -0.07437913 -0.01148263 -0.05239119 -0.12693481  0.13267767
 -0.04548092  0.18643649 -0.12268687 -0.0085637  -0.016225   -0.01847079
  0.06760317 -0.06498738  0.08146734 -0.04257337  0.00117337 -0.19369188
 -0.04802329  0.01128275  0.05051615 -0.05988148  0.08077178  0.08727325
 -0.0146225   0.04136361  0.10560521 -0.01597893]
[ 0.04893392  0.09418362  0.3386087   0.05883683 -0.0987959   0.22951557
 -0.18479256 -0.1153556   0.07487919  0.02195274  0.04748582  0.02435727
  0.14894988 -0.16790761 -0.04467541  0.11976621 -0.12978153 -0.02291474
 -0.05739259  0.02133096  0.06410146 -0.06385114 -0.1125781  -0.00162892
 -0.07390919  0.12127413  0.00490946  0.15393752  0.02245563 -0.03092638
  0.02471862  0.10457794 -0.08645768 -0.13772109 -0.03655639  0.07181807
 -0.02783676  0.14648674  0.04278863 -0.12902336  0.26036942  0.12497293
  0.07100767  0.11847151  0.01982686  0.0214127   0.00539207  0.0786049
  0.10368693  0.03330156 -0.04070924  0.04619234  0.02622719  0.00644368
 -0.0420249  -0.10853877 -0.00948712 -0.06519105  0.03436742  0.09060156
  0.01387783  0.0236729   0.2051288   0.01685569]
[ 0.0572236   0.12564835  0.18212721  0.02813747  0.08122283  0.15161689
 -0.25054076 -0.00175018  0.06465166 -0.03033585  0.03122612  0.03501174
  0.03195113 -0.07311311  0.06542702  0.18660206 -0.11437482 -0.1478383
  0.04736049  0.06338122  0.13533264 -0.13469169 -0.08845262  0.03987766
 -0.23723452 -0.01886914 -0.00637451  0.08195107 -0.01310731  0.05990219
 -0.16328521  0.2463861  -0.06189039 -0.03416434 -0.15627956 -0.02576019
  0.0390522   0.10110487  0.20661929 -0.1052119   0.3315751   0.02104231
  0.12666595  0.08814041  0.0442911   0.02213973 -0.09325477  0.00401915
  0.00107005 -0.07260171 -0.04199521  0.1263075   0.01885192 -0.02434118
 -0.08272509 -0.04344563 -0.07176534 -0.17069809  0.05391209  0.17790855
  0.06555267 -0.06153806  0.22484846 -0.04894703]
[ 0.09189126  0.22310604  0.2619274   0.02747259 -0.11448747  0.1361198
 -0.25035906  0.07831364 -0.02662298  0.03638105 -0.03373535  0.03505804
  0.091181   -0.08323361  0.05412068  0.13606974 -0.12619856 -0.18571204
  0.05938186 -0.00047983  0.112661   -0.11814889 -0.01226215  0.13299431
 -0.18960977  0.03419605 -0.08881149  0.14798449  0.03683774 -0.07940958
  0.02564609  0.23419508  0.00696545 -0.11310456 -0.22795172  0.07708322
  0.10324066  0.20168084 -0.03253878 -0.0335474   0.10942102  0.00492881
  0.10402016 -0.09192718 -0.07399771  0.04058155 -0.16359611  0.05180893
  0.02387058 -0.04480107  0.12259196  0.12828995  0.08712894 -0.0207661
 -0.01488921 -0.03020938 -0.01719655 -0.10090546  0.02435927  0.10899856
  0.04610107 -0.16040805  0.18412805 -0.04791172]
[ 0.08950983  0.12051098  0.13192543  0.07373941 -0.19137892  0.03755034
 -0.30946335 -0.01609059  0.07521011  0.10077889 -0.08500948  0.24246077
  0.12477617 -0.08304819  0.05901177  0.29122272 -0.12766407 -0.2812861
  0.13435367  0.18160412 -0.06404039  0.00781398 -0.13616273  0.11779788
 -0.18788733 -0.11176806 -0.10083637  0.13690606 -0.09972045 -0.07949813
 -0.0053533   0.2202582  -0.25447178  0.0144108  -0.2177846   0.00446038
  0.18178912  0.26159418  0.09428291 -0.02485463  0.02915196  0.02580381
 -0.01629244 -0.12632371  0.04889859 -0.05579531 -0.15597674 -0.02786394
  0.16019331 -0.05699081 -0.08899873  0.11254498 -0.07291738 -0.02261629
 -0.15587    -0.05300868  0.00090582 -0.24441613 -0.02766973  0.06383831
  0.00411924 -0.12233562  0.20233928 -0.14384545]
[ 0.02512063  0.18688032  0.13016786  0.22080033  0.01477381 -0.0253641
 -0.25718996 -0.10412806  0.11137498 -0.10643827 -0.0409842   0.11608181
  0.0253046  -0.24597351  0.07010552  0.35386088 -0.19842191 -0.1347619
  0.25706786  0.13355704 -0.02997047 -0.06033966 -0.06216859 -0.00540162
 -0.26866594 -0.01295605  0.08867127 -0.01607118 -0.06103218 -0.06767502
  0.09782352 -0.00047506 -0.0876269  -0.2932161  -0.28874454 -0.00441747
  0.11578511  0.23326132  0.02654034 -0.13418579  0.05793086  0.2898224
  0.00551585 -0.18380713 -0.20435064 -0.07124249 -0.12993279 -0.09990032
  0.04838912 -0.10168348 -0.01905533  0.04163804 -0.05830595 -0.1106139
 -0.09363545 -0.12341664 -0.07190341 -0.16344187  0.04849432  0.11063004
  0.24678525 -0.09636095 -0.0126997   0.20430158]
[ 0.01454884  0.02539394  0.03696072  0.10506433 -0.1643957   0.0602551
 -0.11026804  0.1014635  -0.019645    0.01353352 -0.02479799  0.1012757
  0.24887297 -0.03200082  0.07928198  0.22672096 -0.12302817 -0.01008225
  0.15678121  0.25885582 -0.00742271 -0.15364166 -0.100394    0.19564657
 -0.1714528  -0.18906079 -0.00945819  0.01878937 -0.12128785 -0.02676125
  0.02630826 -0.05638692 -0.20448007 -0.38126346 -0.05974119 -0.14014049
  0.31350046  0.19490303  0.04449625 -0.14460602 -0.1158557   0.20099632
  0.06110713 -0.13805628  0.15357628  0.01223572 -0.28980958 -0.12728694
  0.2968021   0.03940921  0.0355498   0.03744884 -0.08763969 -0.06427739
 -0.01424821 -0.21571152 -0.13148522 -0.23182021 -0.05049184  0.10580222
  0.01203672  0.05955013 -0.05433144  0.08420371]
[ 0.13508862  0.1076766   0.21379149  0.2335721  -0.28377533  0.19357978
 -0.24790809  0.10774965  0.16812797  0.11573131  0.00045964  0.15998803
  0.19742137 -0.15341908  0.04956104  0.29815233  0.00293988  0.05341627
  0.00151072  0.03474578 -0.01243243 -0.04360372 -0.05383648  0.04510914
 -0.18627766 -0.3630441   0.03664583  0.05045774 -0.00356401  0.13186148
 -0.07538939  0.15347186 -0.33192056 -0.35866576 -0.08598261 -0.09357643
  0.19125661  0.30905554  0.01525997  0.02518787 -0.06275596  0.11279422
  0.00666537 -0.22223346  0.14888936  0.06363562 -0.17228837 -0.06657835
  0.25931257  0.05228433 -0.128014    0.0387831  -0.04283213 -0.21831362
 -0.03095549 -0.13179404  0.05707086 -0.11158799 -0.13305584  0.17211103
  0.09841896 -0.04094429  0.12841251 -0.07504001]
[ 0.16959718  0.06214141  0.1103745   0.17494668 -0.06107521  0.0689811
 -0.21789202  0.01661261  0.04558327  0.02795981  0.05517055  0.15099514
  0.15507016 -0.22803721  0.13386913  0.08429383 -0.11600234 -0.09032892
  0.12626643  0.21679525 -0.17706677  0.05537979 -0.01989057  0.11322521
 -0.24928927 -0.34676936  0.04168754 -0.04511083 -0.08162573  0.22799185
  0.04303254  0.19232231 -0.18607095 -0.3909519  -0.19627367 -0.05220199
  0.2247405   0.05283209 -0.10744801 -0.02923323 -0.06599382  0.04259606
  0.11951195 -0.22420502 -0.02032715  0.14783306 -0.24932171 -0.15900373
  0.20957263  0.02783729 -0.2296079   0.03235244 -0.10404237 -0.23869458
 -0.22662966 -0.1858387  -0.11550508 -0.14370173 -0.18438432  0.02195121
  0.03362118  0.0238677   0.09400443  0.08967794]
[ 0.1759512  -0.00321594  0.14979824 -0.03044882 -0.06521637 -0.06654726
 -0.1498014   0.09661143  0.04237425  0.02427099 -0.1815339   0.17481151
  0.29050028 -0.32881063  0.2498324  -0.14769074  0.18783657 -0.04592462
  0.10257829  0.13023943 -0.1749873   0.08353154  0.00253413  0.16839519
 -0.16193353 -0.06998829 -0.07552157  0.05737376  0.10777202  0.06601929
  0.07411099  0.29621178  0.08060177 -0.4058771  -0.16797781 -0.18142629
  0.18468903  0.03908155  0.00198269 -0.10289767  0.23514505  0.06700373
  0.04304038 -0.09217826  0.10062625  0.1052898  -0.15608016 -0.0305455
  0.2600329  -0.10259566 -0.34522986  0.03527804 -0.09865567 -0.3046262
 -0.1970778  -0.2592172  -0.37812698 -0.00875707 -0.0885654   0.1848447
  0.08795261 -0.12995666  0.12129224 -0.03351494]
[ 0.10487868  0.07782866  0.07711674  0.01877465 -0.08565234  0.01251247
 -0.16822276  0.25188923  0.03192593  0.06068837 -0.2675052  -0.02821384
  0.18934299 -0.07775421 -0.10223801 -0.2322207   0.1711179  -0.09508554
  0.16654389  0.09335293 -0.15211947  0.07785689  0.08596032  0.1109633
 -0.04490091  0.00335996 -0.11863042  0.17006333  0.12525897 -0.11149395
  0.1137596   0.12484185  0.09351388 -0.36035678  0.09374794 -0.19828388
 -0.01879449 -0.0020614   0.04683845 -0.04359454  0.05844935  0.02223891
 -0.1220296   0.02133351 -0.11366142  0.17516862 -0.23456758 -0.13048628
  0.16234577  0.00117379 -0.43896008 -0.14900474 -0.1447148  -0.1475181
 -0.24781342 -0.30302203 -0.31331676  0.12088214  0.04019761  0.19740069
  0.02464437  0.03623737  0.08481523 -0.09066702]
[ 0.02921658  0.24080555  0.00949948 -0.04041079 -0.12161157  0.0428288
 -0.23417662  0.17735307  0.06175288  0.12406075 -0.27064076 -0.10183004
  0.09654943  0.00835694  0.05198098 -0.34185344  0.14588127 -0.01688815
  0.19068865 -0.0023856  -0.04417125  0.07568568  0.02455075  0.12439375
 -0.04628484  0.0036055  -0.06028237  0.06317509 -0.02606694 -0.116698
  0.01559236  0.18734774  0.07683206 -0.30573758  0.20397763 -0.13489535
 -0.02183348 -0.0144237   0.07484549 -0.13341759 -0.08439952  0.01095696
 -0.04382215  0.0096768  -0.15699431  0.14821725 -0.3432729  -0.1519489
  0.18504389  0.14712693 -0.39541316  0.04360288 -0.3508562  -0.17662036
 -0.18976298 -0.30961034 -0.34382164  0.10714464  0.10217499  0.1096657
  0.00316675  0.07706839 -0.0200335  -0.02762221]
[-0.10359877  0.30959675  0.02343326  0.10309064 -0.05925614  0.01613003
 -0.13255765  0.19728406  0.22409917  0.07504109 -0.21671307  0.01144973
  0.03889559  0.13351795  0.09887147 -0.25450954  0.16710705 -0.0116953
  0.20632613  0.04234454 -0.02603939  0.02632279  0.03626242  0.1534193
 -0.13501322 -0.01486639  0.04471058  0.06682307 -0.08187249 -0.04335349
 -0.0519273   0.15808778  0.06679603 -0.37111259  0.11307286 -0.00323342
 -0.23319666  0.01444178  0.07295468 -0.03462089 -0.2072417   0.07038967
  0.01511359  0.17634168 -0.12422676 -0.01377946 -0.1767174  -0.03915507
  0.02241848  0.00250656 -0.41181213  0.01515642 -0.15864944  0.00609335
 -0.02973391 -0.18506995 -0.24376969 -0.07722498  0.0175185   0.17834324
  0.00250682  0.05168649 -0.03649554 -0.06382953]
[-0.05734137  0.07784465 -0.08546302 -0.05153775 -0.06585564  0.03378345
 -0.15746216  0.23239362  0.06021997  0.10226301 -0.15177889 -0.01852608
  0.0571779   0.04752192  0.00154176 -0.36349872  0.24018934  0.03757653
  0.2839301   0.0359368  -0.16196555  0.03607139  0.02707714  0.19510594
  0.02035019  0.086084   -0.10899749  0.05730388  0.0704698   0.01346157
 -0.0991555  -0.02372076  0.19067161 -0.3123925   0.09087098  0.15669592
 -0.13109717 -0.02066514  0.03674336 -0.0979638  -0.16229     0.00799483
 -0.13860744  0.13109714 -0.05348116 -0.01811133 -0.03978644 -0.01109131
 -0.09355463  0.11494594 -0.30979225 -0.18758357 -0.06875324  0.07107027
  0.02373086 -0.08248843 -0.08789685  0.0155573   0.00503998 -0.10548151
  0.08237609 -0.01724518 -0.03430868 -0.07477427]
[ 0.04451391  0.09683606 -0.12920243 -0.07453781  0.01220721 -0.0117125
 -0.24474268  0.01558133 -0.02190235 -0.02132676 -0.07717112  0.04378693
  0.07278416  0.10711674  0.07227548 -0.24049036  0.16285188  0.13893431
  0.23947012  0.00329434 -0.19625673  0.16768692 -0.17825945  0.10718462
 -0.18543075  0.04856147 -0.10503188 -0.00143839  0.00252815 -0.05656878
  0.08784617  0.00654779  0.0969935  -0.14697768  0.22406676  0.11497802
 -0.06270302  0.0004185   0.07610784 -0.06509237 -0.18491356 -0.06543349
 -0.13530734  0.25396615  0.00249285 -0.13464145  0.05749624 -0.01612983
 -0.16135834  0.06973886 -0.26488417 -0.22166851  0.03461779 -0.01062787
  0.10320808  0.03753767  0.03717136 -0.03055801  0.21896143 -0.0363946
 -0.04173429 -0.03220075 -0.1711028  -0.0694335 ]
[ 0.09819119  0.23920661  0.08024271 -0.11819713 -0.03267207  0.07575616
 -0.2922802  -0.08613449  0.01676767 -0.09468732 -0.2156859  -0.07726163
  0.10984974  0.07977405  0.04355273  0.03595581  0.12337918 -0.13139687
  0.14746083  0.00540347  0.00990407 -0.02208497 -0.12015379  0.18261667
 -0.06558172  0.02986083 -0.20271191 -0.02873199  0.14438577  0.01010178
  0.13124065 -0.03138199  0.19321261 -0.24126554  0.26005214  0.1219842
 -0.09447765  0.10152248  0.06194492 -0.20537056  0.01399703 -0.05283692
  0.06064133  0.11768348 -0.13009459 -0.1479046   0.0193444  -0.07544959
 -0.1705576   0.01929953  0.00816749 -0.1502087  -0.02437064  0.06786655
  0.01776309  0.13051541  0.06583983 -0.25973484  0.20407085 -0.09663219
  0.07412454 -0.0213194   0.00436468 -0.16389263]
[ 0.12465281  0.17526016  0.03155732 -0.306644   -0.28587544  0.0652847
 -0.21011043 -0.11360184 -0.08304223  0.1285934  -0.16130863 -0.03695928
  0.24733521  0.03142761 -0.11144655  0.08485388 -0.02448257 -0.15052149
  0.05354977  0.10011236 -0.08886348  0.09267262 -0.07253291  0.16531684
 -0.08971284  0.00955686 -0.12279171  0.17990503  0.14128655  0.03787896
 -0.09919228  0.01765918  0.02190675 -0.23986657  0.39833185  0.11242331
 -0.13005745  0.01496989  0.21298048 -0.22819814 -0.12613279 -0.00811746
  0.06995644  0.16969548 -0.11888262 -0.25096115 -0.02750552 -0.08566879
  0.04925064  0.1286037   0.02526299 -0.2458735  -0.08184581  0.13879098
 -0.1012286  -0.07879523 -0.17884944  0.12046706  0.19975474 -0.16252197
 -0.01201025  0.12050324  0.01524715 -0.2907449 ]
[ 0.2750891   0.14933893 -0.0486567  -0.08819421 -0.21894112  0.00567717
 -0.14496844 -0.02669662  0.05969469  0.01217627  0.17346293 -0.05992867
  0.24751905  0.24716009 -0.20983739  0.06962272  0.03412917  0.06741124
 -0.14520434  0.06114279 -0.0656984   0.03239202 -0.13638791 -0.01814397
 -0.05667301  0.15901709  0.06674881  0.07744178  0.04246879 -0.09149156
 -0.00664572 -0.04490145 -0.08878195 -0.31416246  0.2231232   0.17795011
 -0.29037878 -0.07342547  0.1822203   0.24255313 -0.05382085  0.03795032
 -0.15208586  0.1174733   0.0212774  -0.04102452  0.06103016 -0.01153652
 -0.26510695  0.00167351 -0.15279017 -0.33963308 -0.12207247  0.13175844
  0.05428912 -0.05287065 -0.10014696  0.10897234  0.32500434  0.1277427
  0.05756433  0.11072195  0.00235945 -0.01317532]
[ 0.23158959  0.15813142 -0.1265096   0.01187682 -0.1487976   0.11332618
 -0.02712899 -0.01912292  0.00708543 -0.18659715  0.13214244 -0.03088856
  0.2678081   0.10057148 -0.00051443  0.1415572  -0.00249082  0.10612997
  0.00235333 -0.07271951 -0.01625019 -0.06494668 -0.20826636 -0.1717449
 -0.15799998  0.04439958 -0.04428874  0.09374153 -0.04380649 -0.05218188
 -0.0766905   0.10745369 -0.12580945 -0.22706217 -0.0313664  -0.02203056
 -0.12790151 -0.22413892  0.08337938  0.28911445  0.11241227  0.0826827
 -0.01921945  0.0869578   0.06512916 -0.06267401  0.05517766 -0.07659983
 -0.11609434  0.0969285  -0.09020822 -0.19872661 -0.05635892  0.04750042
  0.10795718  0.03200303 -0.10940924  0.06377324  0.16934374  0.12106837
  0.02811961 -0.0635735  -0.04313802  0.16137604]
[ 0.1142251   0.06189668 -0.07779611 -0.03918204 -0.04994331  0.11374678
 -0.13911496 -0.15608297  0.11565099 -0.19218692  0.0364831  -0.05734567
  0.1826982  -0.15902296  0.01817036  0.15888786 -0.05169689  0.01115583
 -0.0332575  -0.13041967  0.04926105 -0.10383507 -0.09302831 -0.2847837
 -0.13199815  0.21670033 -0.0801852   0.06457599  0.01420099 -0.11254214
 -0.20563637  0.10997643  0.07311809 -0.25167698 -0.05193587  0.02508936
 -0.27520669 -0.21043226  0.14823985  0.09274033  0.0262928   0.03232222
  0.15834597  0.1701098   0.13684836  0.07828912  0.04753477 -0.05486799
 -0.18729864  0.10996567 -0.09710374 -0.05417145  0.03644312  0.06932033
 -0.01758274  0.05920679 -0.07151176 -0.0401325   0.03138011  0.20916095
 -0.07241299 -0.19355126  0.08886131  0.23952298]
[ 0.02795453  0.10114891 -0.06551057 -0.08664363  0.032333    0.03876123
 -0.04591261 -0.1398808   0.0072212  -0.02013991 -0.0260103   0.0220301
 -0.02228213 -0.14179228  0.06254426  0.16607367 -0.26248345 -0.12317624
 -0.04440936  0.01011928 -0.07238524  0.06410527  0.09782831 -0.19067778
 -0.10604422 -0.02511485 -0.11651464 -0.01999403 -0.08860292 -0.10943814
 -0.09395706  0.05078296 -0.09328215 -0.06060896  0.11958075  0.03489088
  0.03965859  0.0228445   0.10738851 -0.05595512 -0.01920614  0.15430605
  0.05621773 -0.12658285  0.05693119  0.0054403  -0.11649653  0.09098565
  0.02860462  0.00837154  0.02181833 -0.06413732 -0.02110513  0.06654308
  0.00093632 -0.00200644  0.01656708 -0.00140976  0.06689597  0.07698987
  0.01263939 -0.11754768  0.03065521  0.13780905]
[-0.08887544 -0.06990797 -0.05199097 -0.01630274 -0.01136602  0.00640054
 -0.04069078  0.07290235 -0.1119074   0.15004733 -0.181922    0.17567092
 -0.02087982 -0.2510996   0.02235044  0.16863273 -0.05384318  0.17149264
  0.17329596  0.03113256  0.01717347 -0.15007395  0.16493216  0.07301729
  0.14181764 -0.07227686 -0.06057839 -0.03513683 -0.05290497 -0.09958289
 -0.05851937  0.13444951  0.10542922  0.04729567 -0.06379484  0.07428399
  0.15089507  0.13794881 -0.02699636 -0.03607416 -0.13740315  0.12054759
 -0.07074909 -0.15917768  0.18632014 -0.12939742 -0.11422947 -0.06845164
  0.04051974  0.00225046 -0.10485985 -0.01345244  0.00944801 -0.03630478
 -0.00987616 -0.0022887   0.02817287  0.1379243   0.08383648  0.04932777
 -0.01439249 -0.00054592  0.00680178 -0.03392433]
[-0.03977341  0.16728196  0.05048639  0.02369033 -0.11269943  0.03823672
 -0.02008783 -0.0554448  -0.00224802  0.06230637 -0.23179793 -0.03176756
 -0.01873475  0.06751107 -0.11893076  0.10414097 -0.11203756  0.02915493
  0.1416133   0.12612373  0.08169653  0.06348521 -0.05289523 -0.06867871
  0.04679667 -0.06151435 -0.12117408  0.07921997 -0.06030229  0.03720262
  0.06217616  0.11705697 -0.004564   -0.05644876  0.10308855  0.10945813
  0.10328085  0.17190005  0.0863649  -0.03196628 -0.02691517  0.12112992
 -0.20363712 -0.0945776   0.13566315 -0.03178485  0.01974443 -0.00342914
  0.15300399 -0.09024774 -0.14862397 -0.06278478 -0.02796336  0.00639369
  0.06841075 -0.06400975  0.0073471   0.07778722  0.18093441  0.04130632
  0.11676575  0.04239855 -0.08997302 -0.03554728]
[-0.04437795 -0.05223004 -0.00292429 -0.07155983  0.06860071 -0.06601812
 -0.06817677  0.00085628  0.03300525 -0.03811376  0.02629308  0.00383265
 -0.04485455 -0.02525504  0.02624685  0.07430402 -0.04044266  0.01941884
 -0.05037796 -0.02360201 -0.00820826  0.014711    0.04391434 -0.05080448
 -0.08013993  0.01573785  0.00328429  0.01558134  0.03609533 -0.03287489
 -0.04226967 -0.06405957 -0.02229658  0.00636555  0.075412   -0.07001307
  0.03743485  0.06218753 -0.02515613 -0.02811393  0.03919764 -0.08383647
 -0.06321187 -0.05222522 -0.02384431  0.08096161 -0.0407207  -0.0155753
  0.08387709  0.00321712 -0.03233742 -0.04247479 -0.06135829 -0.07465085
 -0.05069777  0.03828246 -0.03845409  0.04210586  0.0671038   0.01773267
 -0.03710613  0.05067164  0.07692382  0.03624093]
[-0.04800092 -0.04288583 -0.03927607 -0.05935434 -0.03864876 -0.01489539
  0.05512882 -0.06167387 -0.01574683  0.05734926 -0.02943365  0.03876065
  0.05815566  0.04257602 -0.05976345  0.08081646 -0.00547139  0.06893686
  0.02294315 -0.04104866 -0.04907538  0.04715355  0.01695539  0.07199968
  0.02119906 -0.02639991  0.05823662 -0.02792387 -0.00873335  0.06295989
  0.04398257 -0.06930798 -0.0341535  -0.04998765 -0.03390216  0.03243509
  0.06591917  0.06534069  0.01726194 -0.05270846  0.04416148  0.03878385
  0.07240827  0.0294928   0.03408596  0.04438645  0.069608    0.00357214
 -0.02109359  0.02402221  0.05212108  0.02207486 -0.03149021  0.05948211
  0.01067504  0.05638284 -0.0404863  -0.02790223  0.07508188  0.04669879
  0.04924982 -0.0313862  -0.08139484 -0.08024263]
[ 0.06478739 -0.0185389   0.06453629 -0.04134222 -0.02827771  0.07577477
 -0.07398135  0.05109168  0.02630949 -0.01794595  0.00262823 -0.0827378
 -0.01848771  0.07692859 -0.03844558 -0.03003719  0.03222138  0.07913597
  0.08425251  0.05434924  0.02685746 -0.00610537 -0.07961778 -0.04452924
 -0.04166067 -0.02989971 -0.01763895  0.04767022 -0.0784173  -0.05972972
  0.05427079 -0.00347158 -0.0560107  -0.03083055 -0.03447065  0.07238559
  0.06674964  0.08464355  0.0313698  -0.07473151  0.0621272   0.07150833
 -0.05745958  0.00965344  0.01869671 -0.07319719  0.06545339  0.00416744
 -0.08140942  0.05662694 -0.03603823 -0.02516267 -0.02716473 -0.06282292
  0.07534254  0.04748724  0.03646277 -0.07099315  0.0120156   0.01760147
 -0.06191038 -0.04078029 -0.06356847  0.06477835]
[ 0.05978454 -0.11520584 -0.1449697  -0.04113805  0.08399564 -0.10862656
  0.04462255  0.01082419 -0.10981406  0.05095878 -0.0227385   0.05595928
 -0.04308227 -0.10933568  0.10814369  0.05195471  0.12560163 -0.04735518
  0.23348998 -0.01896306  0.0312617   0.18936594  0.09038442  0.10105866
 -0.02618383 -0.21778063 -0.02507461 -0.09055842 -0.00789866  0.06611338
 -0.00055202 -0.00152567  0.06319803  0.04391275 -0.13610062 -0.10190839
 -0.03825636 -0.03956646 -0.11294419 -0.12354992  0.04158805 -0.10112829
  0.07582547 -0.10387326  0.01095995 -0.0659598  -0.00139756  0.04091436
  0.1227845   0.19282885  0.21708654  0.14893292 -0.01590584 -0.09652722
  0.03078943 -0.04998036 -0.08169104 -0.01763356 -0.12850772 -0.10674871
 -0.11678699 -0.11615698 -0.07882097  0.01286702]
[ 0.27545485 -0.00237977 -0.06527667 -0.173245   -0.05151024  0.08665878
  0.02758276 -0.05470579 -0.1829326   0.31334546 -0.04377243  0.09769987
  0.16407941 -0.10191441  0.01379404 -0.01300485  0.0811621   0.15440916
  0.15242541  0.07242588 -0.12332169  0.3133452  -0.1233502   0.20182264
  0.08459722 -0.05567431 -0.10675996 -0.14294572 -0.01807208 -0.03475884
  0.16910431  0.01356045  0.19701599 -0.05920547  0.1014073  -0.1259582
 -0.06788905  0.0852726  -0.03678032 -0.12609062 -0.1094342  -0.14778426
  0.23312967  0.02237413 -0.00991898  0.03831689  0.04715528  0.2682375
  0.14594427  0.22945836  0.16094749  0.22969268  0.06057539  0.03166702
  0.01149801  0.05444779 -0.08181338  0.03458909 -0.07234331 -0.16367108
 -0.17067301  0.09791053 -0.04088477 -0.1424711 ]
[ 0.1396018   0.11774023  0.154783    0.06402713 -0.13158876  0.11217979
 -0.03526378 -0.05443323  0.07313711  0.18084599 -0.126727   -0.04414248
  0.12689865 -0.10086861 -0.03499151  0.11399384 -0.18246804 -0.10344724
  0.04019215  0.04975297 -0.03550737  0.05622422  0.03052757 -0.02127729
  0.08972853 -0.01635286 -0.12308612  0.15250973  0.04983105 -0.00523809
  0.14343533  0.00153266  0.04804382 -0.14216104  0.13041137  0.01027944
  0.02858351 -0.07545227 -0.02095225 -0.07655358  0.09930216 -0.08178765
  0.09515181 -0.00137626  0.04109865  0.00339988 -0.03686126  0.19169566
 -0.02139734  0.0641943   0.03687746  0.0778819   0.17086643 -0.12573303
 -0.06935909 -0.10243141  0.03403044 -0.01755235 -0.01666297  0.08231661
  0.01859004 -0.04287002  0.183959   -0.01836065]
[-0.00761131  0.12818609  0.26460552  0.02147838 -0.04511502  0.25845835
 -0.15619132 -0.08849532  0.12412086 -0.04944823 -0.12109243  0.10925272
  0.04774982  0.05897921  0.0589757   0.17795664 -0.0895606  -0.16952603
  0.06863823  0.13172668  0.14168741  0.05960905  0.0237839   0.15805954
 -0.1139778   0.05198616 -0.19073036  0.07382999 -0.17782183 -0.02772569
  0.04588096  0.22846985 -0.13995036  0.02808565 -0.02428874  0.13992731
  0.07924551  0.09657764  0.0975068  -0.09817264  0.14070067  0.05068892
  0.18492414 -0.01356018 -0.07260711 -0.10604829 -0.05169913 -0.05150545
  0.06174248 -0.04718654 -0.01263809  0.08107163 -0.01464865  0.05581317
 -0.07950535 -0.04015417  0.07843029 -0.12083243 -0.02745335  0.07960512
  0.05967295 -0.11012023  0.17226285 -0.09635667]
[-0.03824252  0.05121654  0.20979664  0.1388418  -0.16572584 -0.05354089
 -0.04970121 -0.01097811 -0.02297815 -0.04380929 -0.2592366   0.23753126
  0.01376816  0.09673735  0.1544824   0.18937957  0.14183329  0.0374594
  0.0159805   0.09571353  0.05001144 -0.01651975  0.09836509  0.18580773
 -0.03362213 -0.14331478 -0.07793238  0.07589515 -0.20475687  0.00419855
 -0.05635991  0.07977118 -0.04384839 -0.02083351 -0.2098753   0.00035207
  0.09304027  0.27662438 -0.01849109 -0.04541419  0.32507166  0.05155311
  0.26100317 -0.21470264  0.01724534 -0.22997022 -0.15143585  0.01497044
  0.11841372  0.224443    0.00952287  0.24103259  0.01960003  0.00410157
 -0.00342985 -0.05909748  0.03201744 -0.19688019  0.0265933  -0.0012171
  0.10521598 -0.16279006  0.15400063 -0.07431183]
[-0.05634793 -0.01103337  0.09095555  0.24969837 -0.16760814 -0.15534744
 -0.06614845 -0.03394648  0.04206084 -0.03205353 -0.18079762  0.04274328
  0.09194805  0.21176551  0.15865338  0.14449199  0.166771   -0.16888106
  0.12430752  0.20630181  0.10072388  0.05837974  0.10905913  0.01859937
 -0.07875134 -0.21419561 -0.12986691 -0.00605225 -0.07110139 -0.15978163
 -0.12480371  0.07556075  0.03661975 -0.10785816 -0.31481722 -0.07993764
  0.01871474  0.16011767 -0.06047884 -0.0099138   0.07619377 -0.02851286
  0.10782712 -0.19504535 -0.03905767 -0.2841442  -0.06995058 -0.03676374
  0.09767982  0.16429457 -0.06693646 -0.05376266  0.06422362 -0.1139601
 -0.07238043 -0.21926022  0.08572651 -0.14841889 -0.02202164  0.06486667
  0.1028827  -0.19299272  0.15214826 -0.19970573]
[-0.07733025  0.19537705  0.19918136  0.1412147  -0.09892965  0.08060477
 -0.05707377 -0.0567281   0.17383279  0.02170815 -0.24779503  0.09184375
  0.1752514   0.04684341  0.3104064   0.08518256 -0.00132318 -0.10230761
  0.14658043  0.20524846  0.00766102  0.1733061   0.01873557  0.03057845
 -0.16521755 -0.25592452 -0.21870351  0.14179297 -0.12488956 -0.18167108
  0.00797736 -0.00603984 -0.16402696 -0.27586445 -0.23894247 -0.0825483
 -0.0065482   0.14882396 -0.14061595 -0.16542815 -0.02558913  0.02228579
  0.14885408 -0.03658714  0.07377312 -0.2570623  -0.27628824 -0.12385371
  0.06901775  0.16340289  0.00891829  0.00109709 -0.00585773 -0.04431887
 -0.18880114 -0.04961077  0.06500199 -0.18619485 -0.1998185   0.13119884
  0.14534658 -0.33296618  0.14671011 -0.00687506]
[ 0.03519009  0.09934747  0.19760044  0.26718813 -0.11522172  0.02195085
 -0.14981587  0.01876445  0.0562285   0.04487564  0.00856549  0.18908134
  0.12044133  0.00106338  0.29925302  0.2215849   0.04164994 -0.14383392
  0.14499563  0.17102955 -0.12415892  0.00966112 -0.11432881  0.00566615
 -0.06255209 -0.10040746 -0.11492929  0.13455272 -0.04326464 -0.18188745
  0.12229046 -0.00382596 -0.02875793 -0.42944223 -0.18578693 -0.1088455
  0.02625659  0.12729616 -0.02538722 -0.15243195 -0.00919919  0.1731009
 -0.06332893  0.04216453  0.13198212 -0.05973973 -0.32107866  0.00842172
  0.08934399  0.06385656 -0.05448207  0.00264499 -0.18183218 -0.01713116
 -0.21281426 -0.22166339  0.02855671 -0.18407385 -0.08568504  0.20879106
  0.13284415 -0.1957097   0.16651449  0.12640871]
[-0.0242056   0.1990897   0.07673557  0.24693196 -0.14980994 -0.06610496
 -0.11419667  0.01673834 -0.01715318  0.10993125 -0.01385975  0.21333122
  0.16354322 -0.01571466  0.31164488  0.06513384  0.03316519  0.04224412
  0.15715502  0.16744418 -0.08303705  0.08098859 -0.25382024  0.0128935
 -0.08538426 -0.1531566  -0.19886662 -0.00690888 -0.22981308 -0.07713594
  0.17384733 -0.07406266 -0.11737774 -0.37608126 -0.29893136 -0.33101138
  0.02095094  0.18395464  0.02715748  0.06112519  0.0124874   0.14323683
  0.1139892  -0.06671776  0.17853214  0.12447256 -0.40252456 -0.03704303
  0.28714722  0.31562924 -0.15446162  0.04637504 -0.16871268 -0.19053373
 -0.05444039 -0.2131038  -0.01434476 -0.23354466 -0.01884693  0.11628112
  0.04570226 -0.16834414  0.03795205  0.13075362]
[ 0.01941719  0.13858439 -0.00263581  0.08625061 -0.05086519 -0.07578088
 -0.10727433  0.06310056  0.02584874  0.07048264 -0.00233767  0.2258954
  0.05261267 -0.07411797  0.20567182  0.19882412  0.09883055  0.01116461
  0.14269936  0.12206821 -0.24744594  0.04059741 -0.03711167 -0.08017307
  0.04028688 -0.14773303 -0.14600667 -0.04559074 -0.10217161  0.07676791
  0.14015207 -0.03425669 -0.08082256 -0.43645668 -0.12944885 -0.28930372
  0.11118182  0.25296953 -0.02290108  0.09540898  0.0085935   0.19883898
  0.06970032 -0.08319082  0.22007678  0.15246543 -0.28023502  0.06641913
  0.22991633  0.26364115 -0.27802122  0.02371528 -0.11962645  0.04973093
 -0.06771376 -0.16001695 -0.10711393  0.01887205 -0.07341245 -0.01870622
  0.05491249  0.01749486  0.05246043 -0.01889058]
[ 0.12471573  0.06362364 -0.03899653  0.07524505 -0.03162735 -0.12322462
  0.09952884  0.05326038 -0.01612809  0.1531267   0.08838566  0.04942633
  0.11801805 -0.10651168  0.09653752  0.19125018 -0.01648453  0.00521319
 -0.01752793  0.01671982 -0.14907818  0.03674309 -0.1064646   0.07308929
 -0.01246371 -0.15348601 -0.1174798   0.0025084   0.00322599  0.05851927
 -0.01479801  0.10695156 -0.14595672 -0.5945718  -0.16547005 -0.25388342
  0.02842378  0.11536151 -0.0378235   0.0565432   0.02974002  0.03462612
  0.08133045 -0.12101713  0.12288496  0.18602425 -0.18764134 -0.01431591
  0.23422529  0.19150797 -0.2611716  -0.02992229 -0.07718027  0.08934608
 -0.03958013 -0.01275786 -0.0106611  -0.03686347 -0.1589091   0.04803221
  0.05092586  0.05535647  0.04657069  0.14066334]
[-0.0383499   0.09271392 -0.18212248  0.06351796  0.00854732 -0.01983809
 -0.02861869  0.15209202  0.07540419  0.05392825 -0.04849853  0.01088422
  0.0402272  -0.11338554  0.08629455 -0.06475957  0.19275044  0.10696898
  0.01768211  0.0963797  -0.01374308  0.05783603  0.01509098  0.07442133
 -0.1080351  -0.2028395  -0.02280669 -0.01628217 -0.0746127   0.01370526
 -0.08339666  0.05984162  0.08495641 -0.71348214 -0.15380785 -0.18560849
  0.07920765 -0.02996454 -0.09913984 -0.00898784  0.19254407 -0.0466542
  0.02310732 -0.08904548 -0.01248799  0.22174941 -0.23043612 -0.02174324
  0.23733413  0.14455843 -0.36303824 -0.13203517 -0.21500997 -0.05801697
 -0.1299495  -0.11982589 -0.25938815  0.05653056 -0.09382831 -0.00763937
  0.04290479  0.1392013   0.18357255 -0.04077064]
[ 6.35671318e-02  1.84978202e-01 -9.40255374e-02  9.01519135e-02
  6.92030415e-02  3.01833674e-02 -1.13703996e-01  8.48945379e-02
  1.31673828e-01 -3.47826071e-02 -1.84943706e-01  4.39354405e-02
  1.97023124e-01 -6.80416673e-02 -1.18991928e-02 -2.68535107e-01
  1.84006095e-01  9.49323326e-02  1.39116183e-01 -9.26884636e-02
 -4.82638478e-02  1.40366834e-02 -2.82008294e-03  7.00637922e-02
 -3.98807190e-02 -9.88242999e-02  3.18223871e-02  6.65295124e-02
 -3.25362384e-02  8.76989141e-02  6.75827488e-02  1.26912203e-02
  5.86216524e-02 -5.70365310e-01 -9.44126844e-02 -2.27923334e-01
 -8.74125883e-02 -5.45248464e-02 -4.81000170e-02  4.20536622e-02
  1.94056526e-01 -3.22293155e-02  2.60930862e-02  2.04946231e-02
 -5.41994236e-02  1.35869294e-01 -2.82157838e-01 -2.17618495e-02
