layers 7
layer 0 Flatten
layer 1 Dense
784 64
[ 0.04810975 -0.02006705 -0.01461428  0.03740458 -0.00865252  0.01586465
 -0.05703502  0.05373362  0.07496773 -0.07232957  0.00261173 -0.00991689
 -0.06731103  0.00483748 -0.03222744 -0.04978839  0.0161458  -0.07799515
  0.04211297  0.06507339 -0.03880724  0.01545906  0.07906894  0.03622342
  0.04619912 -0.04362595 -0.00233115 -0.05836467  0.00279427 -0.07912236
 -0.03816997  0.00685153 -0.07436832 -0.04423847 -0.03116312 -0.00113161
  0.06208795 -0.06147429  0.01544514 -0.00182141  0.08271313 -0.00156297
 -0.02064489 -0.07284655  0.06098821  0.08315667 -0.05121537  0.00077626
 -0.03911828 -0.04679124 -0.00106675 -0.07620417 -0.01203052 -0.0714144
  0.07991449  0.04192292 -0.05944045 -0.0695215  -0.0064954  -0.05775713
  0.01095629 -0.05598016 -0.07200745 -0.02156003]
[-0.04398594 -0.01616997  0.07193679 -0.04393512 -0.00560294  0.0648542
  0.0145268   0.0528475   0.04552066  0.03621762  0.02568435 -0.01810172
 -0.03407928 -0.01896831 -0.03588954 -0.06156666 -0.02207882 -0.07651376
  0.04544634 -0.08297443  0.00017295  0.07913143 -0.04636239 -0.07351569
  0.08056394  0.0260984  -0.0393574  -0.0102734  -0.02668944  0.05547734
 -0.021213    0.07564089  0.01371436 -0.07141238  0.04968197 -0.07504365
 -0.02544658  0.03260128 -0.05115412  0.02276562  0.02130023  0.0631199
  0.07990617  0.02283603 -0.07495609  0.0731012   0.04678252  0.06690875
 -0.03934468  0.02160457  0.05494275  0.01221217  0.0796415  -0.00078723
 -0.02074394  0.05431052 -0.07400862  0.02045894  0.00430777  0.02027347
 -0.01843251  0.05825976  0.03045043 -0.00255199]
[-0.07396424  0.03184149 -0.03034656 -0.03728985 -0.03503912  0.00852077
  0.00067845  0.03070095 -0.033338    0.08402767 -0.06651762  0.05482919
 -0.02116395 -0.03640866  0.03559225 -0.01327119 -0.01809865 -0.03160677
  0.03495253  0.07257729 -0.04389928 -0.00666241 -0.0285225   0.04487159
 -0.0643781   0.00716572 -0.01239209  0.02949709  0.08337695  0.00238606
  0.001233   -0.05097507 -0.07443745  0.05824556  0.04760794 -0.0055308
 -0.0784267   0.01290409 -0.05427181  0.06984084  0.07737076  0.03594219
  0.01365878 -0.03325579 -0.0541218  -0.06157235  0.04491321  0.03392566
  0.03059506 -0.00651784  0.03638949  0.06781984  0.06342513  0.07521034
  0.00728758 -0.01453075  0.01443502 -0.02866138 -0.07400417  0.08128593
  0.00404571 -0.03038942 -0.0600651  -0.0135014 ]
[ 0.02318322  0.02531663  0.00362925 -0.04271784 -0.07776111  0.00846548
  0.06564318  0.04655447 -0.02185752  0.06418886 -0.02353424  0.04307104
 -0.03110452  0.03712608  0.01081377 -0.03734185 -0.07872588 -0.08040894
  0.06353929  0.01202182  0.00191206 -0.0011196   0.01290609 -0.00268234
  0.05535182  0.01551548  0.00769616  0.07665581 -0.0610838   0.07573877
 -0.00903203  0.03346873 -0.06947201  0.00300027 -0.05925306  0.06642505
  0.07451139 -0.03884598  0.02227022  0.02989694 -0.05154946  0.07182347
 -0.05998345 -0.07029767  0.00722481  0.07475787  0.02658383  0.04800931
  0.03051835 -0.04014754 -0.06448799 -0.01526094 -0.04144412 -0.0312959
 -0.07233118 -0.05775751  0.01353174  0.00672439  0.04311321  0.06246572
 -0.06885667  0.05958898  0.06433109 -0.06709668]
[-4.91163880e-03 -4.79867868e-02  2.04262137e-02 -7.12851807e-02
  6.68508336e-02 -5.26110753e-02  7.12666139e-02 -8.20154920e-02
  5.42191640e-02 -4.60991897e-02  5.84582612e-02  1.47405192e-02
  1.10785365e-02 -1.33897886e-02  1.75146013e-02  2.99157500e-02
  4.90534976e-02 -8.50839913e-03  3.46617699e-02 -1.33601129e-02
  1.83898881e-02 -7.48075247e-02 -1.26914456e-02 -2.26595253e-03
 -4.77682911e-02  7.23353699e-02 -5.38984314e-02 -2.72608548e-03
  2.82985717e-02  5.82270324e-03  2.51208916e-02 -7.64830783e-02
 -2.64829397e-03  5.98953590e-02  8.63576680e-03  6.63236156e-02
 -1.53480396e-02 -4.74383682e-03 -2.31484063e-02 -2.44212225e-02
 -6.24102205e-02  1.58944950e-02  3.17207798e-02 -6.06626272e-05
 -1.03967637e-03  1.08691901e-02  4.56666276e-02 -7.25230575e-03
 -5.58118597e-02 -1.71541348e-02 -2.70540938e-02  4.18984964e-02
 -4.08431962e-02  2.19786316e-02  3.70569527e-04 -2.17951834e-04
 -4.14301977e-02  6.99885264e-02  1.30253583e-02 -8.49071145e-03
 -2.31021382e-02 -4.45733033e-02  8.14634189e-02  7.43517950e-02]
[-0.06604475  0.07975573 -0.04522474 -0.06408147 -0.04241174 -0.05149862
  0.08336822  0.07498748  0.08368301 -0.00985558  0.02333235  0.08339258
  0.00123978  0.00761975 -0.01246055  0.0156561  -0.06578515 -0.02406146
  0.06760538  0.01879553 -0.0189288  -0.02261078  0.0046654  -0.04589411
  0.05758253 -0.08348203  0.02610743 -0.04998476  0.03018151  0.07601862
  0.06183477  0.06392776 -0.03314579 -0.03757062 -0.07671124 -0.06372529
 -0.05651833 -0.00488237  0.068952   -0.01237885  0.06191549 -0.04170698
  0.0409924  -0.07595724 -0.06727633  0.06000907 -0.03959609 -0.06925911
  0.08031341  0.06992605 -0.06073859  0.05262048  0.05950514 -0.07753521
 -0.05554593  0.03524145 -0.02648075 -0.03364512 -0.05739869  0.0436051
  0.08289468  0.07696044  0.0645969  -0.04784905]
[ 0.08400715  0.06662831 -0.07813583 -0.00280979 -0.05464549  0.07059597
 -0.08011664  0.00738467  0.06059166  0.04272067 -0.00760633 -0.03471299
  0.00564704 -0.01322041 -0.07037925 -0.02506267  0.04974972  0.06297534
 -0.04493685 -0.00618134 -0.01551947 -0.01280636  0.00799648 -0.05757748
 -0.04594222 -0.08363874 -0.08134993  0.05548429  0.04346345 -0.0271133
 -0.07348043  0.05455916  0.07050974  0.01151014 -0.07252623  0.01509834
  0.02377251  0.07024106 -0.0580228   0.07994399 -0.03323782  0.05105045
  0.00521978  0.05487851  0.02591971  0.0071766   0.0728154  -0.07413382
  0.07923687  0.04569017 -0.03100996  0.0625732   0.05038231  0.05096402
  0.04690903 -0.02235923  0.00418186  0.06436514 -0.01481025  0.03193446
  0.06744797 -0.03080971  0.00198929 -0.06002086]
[ 0.06472658 -0.04163165  0.01179183  0.0782531   0.08367536 -0.03315957
  0.04874293 -0.04580196  0.06605578  0.06747653 -0.04431074 -0.01753125
 -0.01623908  0.05844641  0.073236   -0.03668508  0.06855134  0.01771005
 -0.05033428 -0.05853704  0.01618707 -0.04036332 -0.07773046  0.03037242
 -0.06399946 -0.0510467   0.02882862  0.0121988   0.05906896 -0.06794269
 -0.03867092 -0.02418207  0.05175846 -0.05237421  0.07831841  0.06414288
  0.0193762  -0.08362998  0.01840682  0.05963043  0.02362932 -0.03851113
 -0.04431779  0.02041404  0.01353864  0.01671173 -0.01581584 -0.08190352
 -0.02346828  0.06627164  0.02612475 -0.04068954 -0.02264968 -0.0679509
  0.0743653   0.04784622 -0.00486382 -0.01024842  0.03824199  0.04747555
 -0.00797241  0.00743867 -0.01029584 -0.03247205]
[-0.0541146   0.02086118 -0.0440599  -0.03031773  0.01111157 -0.00981956
 -0.00131901 -0.04899871  0.00462633 -0.00130105 -0.0811016   0.00060112
 -0.01409066  0.02211095 -0.03668544  0.04184613  0.03130253  0.07020804
 -0.05901375 -0.03835386 -0.02323456 -0.00508599 -0.00583062  0.02347961
 -0.00669013  0.05318294  0.06666177  0.00440302  0.07389549  0.01840398
 -0.03693995 -0.05621113 -0.06006905 -0.01886506  0.05186027 -0.04283443
 -0.02730255 -0.08373388  0.0321742   0.06688894  0.02811096  0.01917419
  0.04918287 -0.02815707  0.07064984 -0.04950419 -0.07009152  0.06429256
  0.07775929 -0.07634889 -0.07837912 -0.00294101  0.06147654 -0.01573181
  0.00412358 -0.00517151  0.02385991  0.00506714 -0.04390752 -0.04092051
 -0.07314652  0.03319561 -0.03532514 -0.08049251]
[-0.01876915 -0.03675623 -0.05177584 -0.00842856 -0.04611365  0.06525423
 -0.01590861 -0.04711872 -0.00800462 -0.00386126  0.04965063  0.03307424
 -0.07695683 -0.02357593  0.00414957 -0.0096207  -0.02321028 -0.00242917
 -0.08077173 -0.0083687  -0.03689204 -0.0301341   0.05006755  0.02531378
 -0.07404394 -0.06932116 -0.00319546 -0.00142531 -0.0210236   0.00675993
  0.04067501  0.05300041 -0.08147878  0.05140855  0.06270776 -0.01098803
  0.05811664  0.0625251  -0.04539667 -0.07943809  0.05666681 -0.05036504
 -0.07114439 -0.01695409  0.04329092  0.04380032  0.058061    0.04341311
  0.07655654 -0.03860017 -0.00969051  0.06964705 -0.03401591  0.07300548
 -0.00480956 -0.08126371  0.05092125  0.0686126  -0.05902656  0.04655374
  0.00756793 -0.00226755  0.00614298  0.03960855]
[ 0.00522479 -0.01527315 -0.04707437 -0.0381711   0.04254932 -0.05274157
  0.01303572 -0.03957766  0.05897257  0.02785021  0.05826498 -0.05321928
 -0.01765685 -0.04604508 -0.05881915 -0.02057447  0.01227015 -0.02425443
 -0.01188346  0.02484388  0.00551108 -0.06989015 -0.02419035  0.04795805
 -0.01777752 -0.00035729  0.07736146 -0.07326238 -0.05901077  0.00561494
  0.07128524  0.01738284  0.02222899 -0.07480626 -0.00644086  0.03477606
  0.03148339  0.05262338 -0.04861971  0.05670486  0.04591633 -0.00299186
 -0.00767083 -0.06440465  0.08086813 -0.06216431 -0.00102352 -0.04147227
  0.07238049 -0.01876341  0.05286748  0.05322269 -0.03367765  0.06778791
  0.01588006 -0.03166571 -0.04431397  0.0260109  -0.07962075 -0.0169655
 -0.03297021  0.0128441   0.02830625 -0.07336067]
[-0.0777723  -0.02227947  0.0840183  -0.04848908  0.02184115 -0.06110271
  0.05456457 -0.05727126  0.07594986  0.0663375  -0.06890915 -0.07729051
  0.00242917 -0.02213181  0.06356352 -0.01998729 -0.02232002  0.02302758
  0.06800454  0.02627238  0.02673537 -0.02301053  0.03138626  0.00920187
 -0.01846623 -0.05962064  0.01493327  0.01399548  0.04635017 -0.08210722
  0.00801216  0.07496388 -0.01189922 -0.05992269  0.07059728  0.04747172
  0.00323008 -0.07206339  0.0529555   0.07766693  0.01527338  0.04886719
  0.04355472 -0.08405107 -0.04011595 -0.03262599 -0.0530433  -0.07598498
  0.01893348 -0.01092584 -0.03664403  0.02617479 -0.01588415  0.06875884
  0.06290173 -0.04160287  0.06903904 -0.01484329 -0.05866146  0.05903081
 -0.06468594  0.0081009  -0.04061966 -0.03247195]
[ 0.04872524  0.01416222 -0.08273123  0.0837803   0.00633031  0.06822502
 -0.07549983  0.05533776 -0.01846467 -0.01863267  0.03518211  0.0320083
 -0.02191353 -0.06098986  0.07067409  0.01745282  0.02849768  0.0118302
 -0.08580463  0.07965977  0.04725291 -0.00156734  0.06823489  0.07810166
  0.03080353  0.03312093  0.03755173 -0.11484293  0.01104055  0.04265046
  0.01568841 -0.0531752  -0.03934655  0.06619602 -0.07816819  0.02667631
  0.06220212  0.04116919 -0.05821645 -0.06213225  0.0616743  -0.06880261
 -0.05267891 -0.0694914  -0.05974403  0.00129481  0.03633662 -0.09192888
  0.06861548 -0.03216949 -0.0041708   0.07004466 -0.03695666  0.00624442
  0.01060675 -0.00704035  0.02249685  0.03316078 -0.03356447  0.08012108
 -0.04233016  0.00437031  0.03925437 -0.01447151]
[-0.02697786  0.01975688  0.04961599 -0.03660185 -0.01514918 -0.05935817
  0.05620732  0.00188467 -0.04751732 -0.07598462  0.03565286  0.11821653
  0.05272889  0.0007327  -0.02980474 -0.04491815 -0.07534641 -0.03628101
 -0.04872668  0.02462296 -0.02023017 -0.02225709 -0.04589882 -0.0369441
 -0.02507982 -0.03166354 -0.02268419 -0.07888854 -0.07246099  0.01983773
  0.00436296 -0.05134433 -0.09913961  0.04593648 -0.05771774  0.01449532
 -0.00040491  0.0285285  -0.09525626  0.06431428  0.03642711  0.0033578
  0.05999197 -0.04913439 -0.06486246  0.01559679  0.03456517 -0.03578247
  0.08085497 -0.05929237  0.0227468  -0.07056243 -0.0067067   0.03552112
  0.04356229 -0.04695842  0.05453878  0.04315329 -0.07455081  0.10065162
  0.0546473   0.0880901  -0.03764185  0.14261526]
[-0.0731363  -0.04078794  0.03664369  0.07251699  0.08370175  0.02051208
 -0.05689354  0.01262147  0.07311057  0.01422492 -0.06556121 -0.06771954
 -0.07925582  0.13291487  0.00054257 -0.06004278 -0.02497991 -0.04408196
 -0.05095689 -0.02059387  0.04166805  0.09221236  0.04405137  0.07803965
  0.01014445 -0.0205889   0.04184592 -0.10798647  0.03178958  0.05315869
 -0.00907905  0.01835938 -0.05966047 -0.0028029  -0.06655329 -0.09732378
  0.00583552 -0.01928686  0.00919054  0.02162642 -0.06108653 -0.04689946
  0.07730631 -0.05537172 -0.05994425 -0.04266509  0.10862332 -0.09717151
  0.01548378 -0.0639344   0.13791686 -0.0301472  -0.0714224  -0.04488371
  0.0610189  -0.05780056 -0.06504995  0.06422023 -0.04910777 -0.08846386
 -0.0633155   0.06317525 -0.01847879  0.0346187 ]
[-0.04178932  0.05437914  0.03051301  0.03166773 -0.00754098 -0.02899974
 -0.06385683  0.01236823  0.05824769  0.00961349 -0.01523242  0.05410695
  0.01568077  0.02819077 -0.0017067  -0.05690891  0.03210031 -0.0696752
 -0.06139515  0.07862001  0.06520431  0.05231223  0.03008519 -0.07047972
  0.04544847 -0.06910914 -0.01721435  0.05811223 -0.03407028 -0.01512931
  0.07153625 -0.00134027  0.02270644 -0.03099354 -0.0268342   0.07140259
  0.02831134 -0.04202348  0.04809432 -0.05386078 -0.03994244 -0.04897785
 -0.05210205  0.04414824  0.0584789  -0.06231887  0.01337712 -0.00470797
  0.02145361  0.06876279  0.0744216   0.00630985  0.0753979   0.06981549
 -0.02453314 -0.06373358  0.06679381  0.03714515 -0.06092449  0.01346817
  0.02175249  0.05036661 -0.07709285 -0.05571347]
[ 0.00401551 -0.0213518  -0.04770409  0.05843046 -0.03704793  0.01542088
 -0.00210731  0.02698842  0.03604912  0.02027114  0.00267792 -0.05051222
 -0.05826668 -0.0547147   0.06703574  0.03378237 -0.00593503  0.07451849
  0.00407036  0.04696357 -0.02607245 -0.01950798 -0.07831612 -0.00596744
 -0.04017846  0.05009057  0.00761048 -0.00684608 -0.00174455  0.00880942
  0.07838806 -0.01013781  0.04534841  0.04183396 -0.0152675  -0.04538813
 -0.04544129 -0.02463485 -0.05420066  0.0248959  -0.05990307  0.07671557
  0.06815077  0.03905473 -0.03521422 -0.01249256 -0.01170102 -0.07246917
  0.06946623  0.03299297  0.04789149  0.06603631  0.08252943 -0.00922277
  0.0403753  -0.08372419  0.04475672 -0.08160391 -0.02109092  0.0706569
  0.08323907 -0.02631022  0.04809388  0.01639364]
[-0.00142724 -0.0604113  -0.08035373 -0.06633344 -0.08040471 -0.08379395
 -0.06918593 -0.08342879  0.05269393 -0.05635077 -0.03196374 -0.0103744
  0.0782882   0.04188464  0.02833002  0.00154131  0.06569139  0.06174476
 -0.04983367  0.0633532   0.02370942 -0.06083524  0.01639801  0.01894344
  0.028887   -0.07301863 -0.01092851  0.00215414  0.0292007   0.06973951
  0.03982472  0.00592528  0.03590585  0.0369424  -0.00609926 -0.05299376
  0.02294607 -0.01162507  0.04339715  0.0591158   0.06916466  0.02203805
  0.05043199 -0.01538165 -0.01218857 -0.06817599 -0.02303142 -0.07682925
 -0.02812712  0.01287228 -0.03969596 -0.02337314  0.06405196  0.05365037
 -0.04020258  0.0577024  -0.00778316 -0.08398367  0.04724099 -0.08219386
 -0.02292969  0.05210114 -0.06990421  0.05613045]
[-0.03197521  0.06752481 -0.05865125 -0.05411182  0.0474736   0.04854537
  0.02549049  0.03888898 -0.07986856  0.08177496  0.08390544 -0.0298772
 -0.06524511 -0.0184183   0.07674357 -0.00329743 -0.00600482  0.03559163
  0.04834605 -0.06334243 -0.0180226  -0.06463794 -0.02789724  0.02566145
  0.03302446  0.06386086 -0.0601618  -0.05483583 -0.0774647   0.0650981
  0.00779192 -0.08025014  0.03820403 -0.01552673 -0.08335609 -0.06315275
  0.07361188 -0.0308997   0.03341424  0.07726183 -0.06704388 -0.07561123
  0.03565759  0.03999145 -0.04526435 -0.00203522  0.01691951  0.05613071
 -0.00947686  0.0462049   0.05628308 -0.02096692 -0.00695016 -0.066745
 -0.02751168 -0.03282662 -0.08192123  0.07402012  0.02066867 -0.02954774
 -0.00841109  0.07004576 -0.0385524  -0.03393055]
[-0.000294   -0.02051625 -0.08026667 -0.05335112  0.05173051  0.0028391
 -0.01579438  0.00280669 -0.02546431 -0.01747523 -0.00491913 -0.06870899
 -0.05030891  0.07178154  0.01959733 -0.06298666  0.03859439 -0.02098558
 -0.02854021  0.00481661  0.04250961  0.02325428  0.02535678 -0.05549834
 -0.00576938 -0.07062921  0.05962215  0.07147432  0.01322508 -0.0074349
  0.01005579  0.08000829 -0.02841922  0.03689599 -0.00335286 -0.02298139
 -0.01842735 -0.00284832 -0.01020371  0.00672413  0.07340202 -0.01922455
 -0.08162948 -0.02033205  0.0634735  -0.02058537  0.0503299  -0.08160112
 -0.03987977 -0.01748722 -0.03882274 -0.04859274 -0.02509137 -0.06053688
  0.01897228 -0.03787928  0.01858763  0.01611516 -0.05342235  0.01872575
 -0.05121823  0.03564825  0.03599615  0.00407866]
[ 0.03294963 -0.018673   -0.06925664 -0.07819852  0.04200668  0.05299541
 -0.01039666 -0.06722668  0.03538304  0.06109152  0.06060002  0.05259646
 -0.0138486  -0.02104119  0.06187432  0.03610832 -0.04155406 -0.05934437
  0.0067294  -0.02673384 -0.05382858 -0.03087463 -0.01697007  0.04874412
  0.01590528  0.00502049  0.0330042  -0.07077399 -0.03260443 -0.05739414
 -0.00831692 -0.04066858 -0.00438917 -0.03059835 -0.05712765  0.00228191
 -0.02496571  0.06739584  0.0274299   0.06203965 -0.00481315  0.05325893
 -0.0037694   0.05773284 -0.06795186  0.0827603   0.02561049 -0.02529002
  0.03411631  0.01028822  0.01006892 -0.02031759 -0.06494276  0.05885742
 -0.06462553 -0.04965919  0.05717324 -0.02061404  0.04945866  0.02637441
  0.04783601 -0.03018065  0.05912087 -0.01272323]
[-0.04307702 -0.06948832 -0.02220475  0.06566489 -0.01491777 -0.04634133
 -0.07548235  0.01102728 -0.07700709  0.01912325 -0.03075899  0.03929023
 -0.06447851  0.01700661 -0.07621419  0.00388485 -0.04026758  0.00188645
  0.04027047 -0.05328079 -0.04627258 -0.03099969 -0.05051128 -0.06858587
  0.01938424 -0.08375598 -0.04918987 -0.06595093  0.07570188 -0.04789859
  0.00149801  0.06871458 -0.06521502  0.03849446 -0.02404198  0.06309808
 -0.05683991 -0.03484096 -0.05710671 -0.07056901 -0.00330968 -0.0128712
 -0.01278943 -0.04837178 -0.07319784 -0.05755518 -0.08343854  0.07556149
 -0.00753735  0.01518273  0.02424827 -0.05705251  0.07616173  0.07701985
 -0.05997389 -0.03187472 -0.07102501  0.01909909  0.04746897 -0.03072484
  0.06911001  0.05994768  0.0311733  -0.03007158]
[ 0.00221371  0.03427778  0.07977333 -0.0799409   0.07357153  0.06162811
 -0.03904149 -0.02341692 -0.06839575 -0.03361842 -0.01360442  0.01528545
  0.0336978  -0.02141581 -0.03171789  0.0368892  -0.04547499 -0.08310109
  0.05843367  0.02486856  0.04736278  0.08326825 -0.06239739  0.0258184
  0.02918147 -0.07007834 -0.01900894 -0.01972692  0.0197492  -0.0138588
 -0.07007124  0.05936625  0.07318415  0.04582974  0.01724077  0.02860689
  0.02542376  0.00706975  0.07906746  0.02444356  0.02305382 -0.03882344
 -0.02447523 -0.02560145 -0.08158321 -0.05447952 -0.06306192 -0.01346823
 -0.08029746 -0.0501949  -0.05152445  0.04070193  0.0765923   0.05419586
  0.01649764 -0.08274973 -0.03103651  0.01159609 -0.02266442  0.01906858
  0.06801534  0.06964516  0.03899408  0.06715367]
[-0.06643914 -0.0220793  -0.04926642 -0.07057896  0.04315113  0.05846665
 -0.05004124  0.01663688  0.01446104  0.00861521 -0.06228424 -0.03194928
 -0.00258741  0.01295009 -0.07614627  0.02919789 -0.03936125  0.03674368
 -0.04269407 -0.04200667 -0.05805055  0.07278148  0.00810173 -0.06008481
  0.03674378 -0.01769104 -0.04021364 -0.04275736 -0.06214042  0.00112177
 -0.01637172  0.05473826  0.05881258 -0.05054187  0.03317407  0.00859132
 -0.06871536  0.00015831 -0.04600804  0.02010884 -0.01159549  0.06194439
  0.06608959  0.02158991 -0.05742256  0.04665003  0.07671008  0.02158674
 -0.00225139  0.02688707 -0.01842755 -0.01173236  0.00554709  0.0283525
 -0.06742612  0.03070921 -0.03920149 -0.02861947 -0.05822627 -0.07465244
 -0.02362436 -0.00819815 -0.04299435 -0.04202187]
[-0.00860524 -0.02718038 -0.07551022  0.05197466 -0.068904   -0.06584911
  0.01548564  0.05217946  0.04024556 -0.05233288  0.0257917   0.03299963
 -0.02667907  0.06335066 -0.08030879 -0.05203751 -0.07528806 -0.08039907
 -0.07906739  0.01805259  0.07823972  0.04991063  0.03569177 -0.01229059
 -0.03122826  0.05872846 -0.01116969 -0.00059224  0.05253232  0.06901471
 -0.07424322  0.0557641   0.08282057 -0.01759321  0.05328985 -0.0238499
  0.03473401 -0.01907504  0.0821159  -0.03777191 -0.03045332 -0.04587713
  0.01233238  0.00457636  0.00385186 -0.00106186 -0.0435702  -0.0324254
  0.04919533 -0.0542385   0.00683543 -0.03173532  0.02439626  0.00019407
 -0.03694928  0.07514951 -0.05005477  0.05269627  0.05083873  0.01824718
  0.0091619   0.00682406 -0.01582332 -0.0167323 ]
[-0.03957846 -0.03687151  0.05845847 -0.02458262  0.06627885 -0.00733145
 -0.01533429  0.07956215 -0.05201848 -0.00077381  0.05500127  0.08403476
 -0.07245989 -0.01239995  0.02608144  0.00112708 -0.04887872  0.03843737
 -0.06653363  0.00106092  0.06822404  0.03157949 -0.06476453  0.06659786
  0.00169996  0.05515576 -0.01806656 -0.0569675   0.01709766 -0.0818732
  0.03774479  0.08031242 -0.05674352  0.08162224  0.0417108  -0.0155596
  0.02871764 -0.06038719  0.0295995  -0.02769344  0.0611889   0.01905013
 -0.01210075 -0.05169459  0.0624978   0.0466147  -0.06317335  0.05189293
 -0.01298179  0.00061572  0.00115553 -0.04823673  0.05416875  0.07977954
 -0.05068897  0.07227778 -0.03325565 -0.02191798 -0.01124837  0.01685227
  0.04641215  0.01771922 -0.05059353  0.04124092]
[-0.00067175  0.06053212  0.07300442 -0.01098534 -0.00572082  0.0783558
  0.04140005  0.07378183 -0.04716767  0.0719421   0.04625664  0.00546565
  0.08306127 -0.06800274  0.06099636 -0.00868849 -0.00688031  0.05452307
 -0.06696104 -0.00824244  0.00053304  0.00288679  0.01178597  0.08111278
  0.04094537  0.00293167  0.07081974  0.0754594  -0.03705585 -0.0148708
  0.03215669 -0.0538562   0.01419092  0.00638973 -0.07783929 -0.04412315
  0.00102556 -0.00343037  0.03994238 -0.06037942  0.06924445 -0.01538593
  0.00156853  0.01894603 -0.04171829 -0.02426411 -0.00933993  0.00232182
  0.00095178  0.0146529   0.01882786 -0.02369929 -0.05795562  0.01688113
  0.01744141 -0.0035062   0.00652769 -0.00417797  0.02135007 -0.00039398
 -0.02303514  0.06914326  0.02569159  0.01349628]
[ 0.05519929  0.00036775  0.01383775 -0.08227566 -0.04813096  0.02836096
 -0.06797857  0.06442813 -0.05758127  0.06520193 -0.0522171   0.05281129
  0.02498572  0.07668941  0.00378915 -0.02798592  0.06818324 -0.05133292
 -0.04434261 -0.02985111  0.05954068 -0.01732712 -0.02831114  0.0510237
 -0.08138119  0.01829449 -0.07294052 -0.05543653 -0.04315735  0.03034805
 -0.08234565  0.06428907  0.01954653  0.04814463  0.04113325  0.07341809
  0.02822545  0.06613233 -0.06217265  0.03652664 -0.03209458  0.00658563
 -0.04212369 -0.02971111 -0.07698338  0.0172519   0.02738482  0.05949705
  0.06741174  0.0601702   0.04016604  0.04303014  0.03271038 -0.07444744
 -0.04843615  0.01165437  0.0208056   0.00613963  0.070092    0.0726779
  0.01998254 -0.02676809  0.03854191 -0.04571372]
[ 0.06855337 -0.00738712 -0.05583777  0.03678677 -0.0689698  -0.06260651
 -0.08307941 -0.03391521 -0.06373093  0.06933143 -0.03231145 -0.03237007
 -0.05860358 -0.07167467 -0.04922541  0.01672234  0.02045663 -0.06464902
  0.05463663  0.03229697 -0.08015906 -0.02497253 -0.0167772  -0.06152855
 -0.06625962  0.00341838 -0.03672198  0.05331423  0.06536896 -0.05964545
  0.05048224 -0.05320751  0.08010057  0.06102289 -0.04145294 -0.02800463
 -0.06195087  0.08405805  0.07598784  0.07424162  0.0811559  -0.06138708
 -0.02166916  0.04660594 -0.07502038  0.06878764  0.05881555 -0.00811242
  0.03195095  0.01791367 -0.070048    0.05723446  0.05703004 -0.00685733
  0.02313844 -0.05914494 -0.05073373 -0.01293954 -0.0170163   0.07993444
 -0.01349328  0.0260101  -0.01433563  0.0549889 ]
[-0.03312249  0.05073979 -0.06091191 -0.02868324 -0.06398556 -0.06557986
 -0.07833453  0.0011289  -0.02159468  0.02866586  0.0081116   0.07563195
  0.07464748 -0.02531374  0.07338705 -0.0172748   0.06605899 -0.07818138
 -0.03188619  0.03685723  0.08338777  0.04145326 -0.05139746  0.00592545
  0.02106688 -0.08364651  0.07142193  0.04926736 -0.00283939  0.04926487
 -0.07412785  0.01430383  0.0199931   0.06726121 -0.08284335 -0.00038186
  0.07000523 -0.04340927 -0.05970896 -0.00786069 -0.08109752 -0.02134867
 -0.06143696 -0.00960367  0.0523903  -0.04494323  0.04212201  0.01649168
 -0.02486946  0.0747691  -0.00044993  0.03398897  0.04820823 -0.04749627
 -0.0240117  -0.06828926  0.02731518  0.04651838  0.02421177  0.00157071
 -0.0786796   0.07605078 -0.00258183  0.00994246]
[ 0.07790677 -0.00843185 -0.01845831 -0.08179191 -0.01400463  0.04297558
  0.07554612 -0.04923014 -0.0267491   0.04634421 -0.04847759 -0.00158826
  0.05246878 -0.05006199  0.01501736 -0.06479485 -0.06702831 -0.01914056
  0.01833833  0.01433293  0.08183783 -0.02763803  0.05954257 -0.04850614
 -0.04022039 -0.04207905  0.0838707   0.06258468  0.01956081  0.06109146
 -0.06964639 -0.0625509  -0.05279344  0.0252855   0.03020865 -0.06967348
  0.01721743 -0.02345747  0.03756354  0.00100003 -0.04870274  0.05598418
  0.0289317  -0.05123875  0.0557253   0.00096484  0.06279808  0.03512325
  0.07241764  0.02749624 -0.07688089  0.05827668  0.03416048 -0.07352293
 -0.02183742 -0.06176327 -0.03251649 -0.05299286  0.03582645  0.06088162
  0.05752363 -0.04737    -0.02083083 -0.04676296]
[-0.03035579  0.07159264  0.07576784  0.00067911  0.08366703 -0.02478895
 -0.01449246 -0.06404553  0.05583797  0.0329881   0.00613908  0.05502605
  0.01825995  0.07243828 -0.03635012  0.04336943  0.04181951  0.02215385
  0.0356602  -0.06751586  0.04074343  0.03169968 -0.05498468  0.07835134
  0.07909385 -0.00398653  0.05068532  0.06683057 -0.06063218  0.04721595
  0.06538443  0.08178597  0.01370977 -0.01347446  0.06575269 -0.04030214
  0.00729068 -0.037294    0.03625428 -0.06377836 -0.06386064 -0.01813884
 -0.00448327 -0.07883001  0.03785824  0.07507894 -0.01529089  0.06488106
  0.01192383  0.05101312  0.01998802 -0.03627109 -0.01724881 -0.08279064
  0.03317752  0.05782688 -0.00803483 -0.05851791  0.07656392 -0.03492531
  0.06768853 -0.00012472 -0.0290701  -0.06150433]
[ 0.06014967  0.07183912 -0.06215731 -0.00848877 -0.00797704 -0.07523075
  0.07223064  0.01844917  0.03003553 -0.09646131  0.03382502 -0.00799111
 -0.06918827 -0.05568724 -0.07058369  0.07966056 -0.03600909  0.03670264
 -0.07007852  0.00616529  0.09172932 -0.01871997 -0.05068668 -0.06691205
 -0.01144005  0.01978559 -0.05163956 -0.02970038  0.05367909 -0.00567842
 -0.07468408  0.02809777  0.01285383 -0.06954382 -0.05227181  0.06891409
  0.03509217 -0.04546762 -0.08083501 -0.02011536  0.03671491 -0.03578949
 -0.02871657 -0.05417307 -0.06325102  0.07574802  0.0741747   0.07841128
  0.04403144 -0.06854962 -0.09364957  0.00258683 -0.02620317 -0.06985182
  0.07323851  0.01217992 -0.00086741 -0.0059931   0.07129491  0.01485427
 -0.06497003 -0.03170488 -0.0592061   0.03498779]
[ 0.03959101 -0.05069426  0.03899967  0.07768866  0.08904399  0.00609945
  0.04128807  0.01746241 -0.04727454 -0.02241863 -0.0181251  -0.03651027
 -0.01707125 -0.00484788  0.06092579 -0.05192815 -0.01578138 -0.0551391
 -0.09552311 -0.04734426 -0.00964651  0.1052639   0.01450239  0.04390426
 -0.0544721   0.0183066  -0.00364482 -0.10352618  0.01249268 -0.08807416
  0.08191708  0.0681985  -0.05970914 -0.02645436 -0.03425592 -0.02693537
 -0.00818276  0.00046587 -0.04682275  0.05558766  0.03077318 -0.01250516
  0.03816527 -0.04274525 -0.04447205  0.02484114  0.01204376  0.04810265
 -0.09024909 -0.05300549 -0.00568835 -0.01158892 -0.08204035  0.02782061
  0.09321413 -0.05096155  0.05082207  0.07834005 -0.01741587 -0.0249233
 -0.07948577  0.02641283 -0.02275923  0.0816763 ]
[ 0.02360001  0.01456388 -0.16096881  0.05561035  0.15872012  0.08836932
  0.04811262 -0.01379129  0.04394669 -0.1188205  -0.06838083  0.05647326
 -0.098861   -0.09026275  0.07498417  0.09933428 -0.03089627  0.01339453
 -0.01126436  0.08257011  0.15149428  0.08740839 -0.07519335  0.05983318
  0.07197671 -0.08309668  0.05387845 -0.07987913 -0.10875746 -0.02340132
  0.05639573 -0.01950031 -0.1107591  -0.02810883 -0.08054844 -0.02828076
  0.07226074 -0.02014486  0.04948347 -0.1528473   0.0086379  -0.16471782
  0.04901924 -0.0451536  -0.06218144 -0.07489011  0.00652358  0.06420446
  0.01110415  0.06890636 -0.07898    -0.12280694  0.05059896 -0.00277558
  0.08244257 -0.03017146  0.04407618  0.08808333  0.08240745  0.08342964
 -0.02379161  0.08168925 -0.06231232  0.08544714]
[-0.02425837  0.02679294 -0.11723894  0.05303149  0.14734459 -0.01489929
  0.05797031  0.05430948  0.10620931 -0.0854165  -0.02284504  0.15144612
 -0.06566352  0.06844933 -0.0833536   0.07784832 -0.08337751  0.04743639
 -0.02893923  0.11486131  0.18221222  0.09669515 -0.07455099 -0.00089717
  0.01919099 -0.07465424 -0.0123018  -0.09480784 -0.03226983 -0.11443315
  0.00097953  0.01407333 -0.10571157 -0.08141794 -0.01807588 -0.05808293
  0.10382266 -0.08900972 -0.11461526 -0.14953485  0.08463827 -0.18549895
  0.12629445 -0.00225551 -0.0256309   0.05390288 -0.06963272  0.07705125
 -0.10914405 -0.07011869 -0.0753138  -0.11177232 -0.04025347 -0.03929167
  0.01485176 -0.02576579  0.02798922 -0.03857274  0.02965723  0.07874279
  0.03499471  0.14147305 -0.02477365  0.18365331]
[ 0.01546235 -0.03585559 -0.08981377  0.10159826  0.04747863  0.1191586
 -0.00062033  0.00360862  0.09270666 -0.09291796 -0.0608365   0.06354269
 -0.09812465  0.02935063 -0.03709773  0.01503207  0.02531752 -0.08681589
 -0.07701834  0.03626343  0.09570001  0.16981915 -0.07605027 -0.06188726
 -0.00615195 -0.15293725  0.01469614 -0.05381052 -0.02962475 -0.07250638
 -0.06259122  0.07464955 -0.02986734  0.06850488 -0.02363545  0.08160279
  0.06416088 -0.07287341 -0.07060967 -0.15188728  0.0764561  -0.11532374
  0.09111767 -0.02633421  0.02248724  0.07583515  0.01387035  0.06031428
  0.02180196 -0.00093522 -0.06583664 -0.10265487  0.14303927  0.06820342
  0.17257251 -0.13619024  0.03817681  0.08697137 -0.0066868   0.01271158
 -0.13614117  0.14204936 -0.14854378  0.17796646]
[ 0.1025894   0.03192808  0.01456211 -0.02712022  0.01223179  0.03899167
  0.03202321 -0.02300088  0.07707443 -0.02795996 -0.03307268 -0.0301106
 -0.09034728  0.0285963   0.0175783   0.10892744  0.00742705  0.00616393
 -0.08075484  0.04878146  0.04445516  0.11824995 -0.03162228  0.01097844
 -0.04045096  0.00648822 -0.03652524 -0.12614349 -0.11545302 -0.12963754
 -0.03230541  0.00810068 -0.07968704  0.0677902   0.01260206  0.01908769
  0.05095673 -0.03922572 -0.01708802 -0.09882083  0.04636939 -0.07386565
 -0.00634721  0.04417007 -0.00154295  0.03148375 -0.08241918  0.0702065
 -0.01281697 -0.07219411 -0.1907428  -0.03724692  0.06212381  0.06511755
  0.07190516 -0.102819    0.00766421 -0.02469768 -0.01687158  0.05498974
 -0.0240676   0.19140515 -0.08187594  0.13486797]
[-0.00814295  0.06439269 -0.0293864   0.10129509  0.04636047  0.27570394
 -0.03078801 -0.0504556  -0.03354766 -0.03402667  0.03420164  0.01597684
 -0.06695528 -0.0218306  -0.04292249  0.06296583 -0.14427528 -0.11043371
 -0.16529296 -0.05187002  0.03230675  0.13205722  0.03857111 -0.00686256
 -0.06918675 -0.06301787  0.00723007 -0.00687275 -0.08067861 -0.0045655
 -0.09974142 -0.07781194 -0.05716944 -0.03565567 -0.03867178  0.01254414
  0.11881804 -0.18618754 -0.1520654  -0.159757    0.14352171  0.01924144
  0.09517433  0.03284165  0.01219296  0.06670127 -0.00227724  0.07978228
  0.11092591 -0.03667574 -0.11572608 -0.0293397   0.01295779  0.2025732
  0.10836701 -0.08297312  0.04354583  0.04077116 -0.06554714 -0.01965071
  0.03251901  0.10124978 -0.04962208  0.28926358]
[ 9.61140469e-02 -4.94292006e-02  1.27848622e-03  8.82972553e-02
  6.76141903e-02  1.44332349e-01 -5.00072353e-02 -8.57232511e-02
  4.16181311e-02 -1.16295457e-01 -1.95886996e-02  2.93227620e-02
 -5.26372343e-02 -5.77430427e-02 -5.91333136e-02  6.32431731e-02
  7.75788873e-02 -1.74014866e-01 -7.89867714e-02 -6.14900887e-02
  1.20420359e-01  1.61598787e-01 -1.06880628e-01  4.59304750e-02
 -5.55097766e-04 -9.22542959e-02 -1.08375214e-01 -1.51253138e-02
  7.69540891e-02 -6.48093373e-02 -8.63723382e-02  3.51535976e-02
 -5.40008359e-02 -5.42718638e-03 -3.53729213e-03 -6.91702291e-02
 -4.64111865e-02 -1.75312921e-01 -6.05337834e-03 -6.89178482e-02
 -1.06534490e-03 -4.93011996e-02  1.48678452e-01  1.40141055e-01
  7.09662493e-03  1.63072534e-02 -4.87350990e-05  7.47642815e-02
  2.69863605e-02  1.21116705e-01 -1.58651143e-01  2.69725546e-02
  4.23729345e-02  1.33290201e-01  1.90094430e-02  3.50771733e-02
  3.43584269e-02 -2.43119355e-02 -2.60335878e-02  1.58480555e-02
  5.26824594e-02  7.81862885e-02 -3.02805547e-02  2.44547457e-01]
[ 0.08066351  0.01892981 -0.17013475  0.08493881  0.22477789  0.0378615
 -0.00455314 -0.03590211  0.03838655 -0.01608259 -0.02925981  0.1049211
 -0.07132282 -0.19905002 -0.04386549  0.10558838  0.09602833 -0.15819877
 -0.08815561  0.06902029  0.19548327  0.05668499  0.01966499 -0.03375275
  0.10455216 -0.05619836 -0.00663005 -0.12040369  0.01470715 -0.04479707
 -0.1912469  -0.12241137 -0.06033997 -0.01744002 -0.08015896 -0.04084777
  0.11569536 -0.15869622 -0.0389578  -0.12474585  0.1444512  -0.07277891
  0.01340328  0.14006895  0.07916563  0.05880915 -0.01069127  0.00909724
 -0.07113763  0.10079769 -0.22334251 -0.13790077  0.02467549  0.07164167
  0.14626944 -0.11890086 -0.0524699   0.17702812 -0.05906298  0.06368637
 -0.12892736  0.23666757 -0.10536031  0.24789691]
[ 0.15294607  0.04042799 -0.18800226 -0.04454258  0.13360895  0.07959651
  0.09481928 -0.06886981  0.03306047 -0.11777974 -0.19614573 -0.06864067
 -0.16555461 -0.02938356  0.15246092  0.12248913 -0.02872401 -0.18375684
 -0.05304023  0.13695082  0.0924704   0.27630746 -0.26373342  0.04006626
 -0.06901172 -0.06609432 -0.13867812 -0.12476396 -0.15350653 -0.06713922
 -0.08158386 -0.08584794 -0.11464116  0.02098667 -0.13620944  0.06527305
  0.13829891 -0.27015227 -0.2098113  -0.14289865  0.09870777 -0.09471457
  0.08121195  0.10625762 -0.01243281 -0.09158041 -0.06941889 -0.01941767
 -0.1195715   0.00454401 -0.14116484 -0.08608946 -0.05647435  0.07135662
  0.22879851 -0.04988055 -0.08074802  0.07257764 -0.06226234  0.14937545
 -0.18390407  0.14387509 -0.11529312  0.07067257]
[ 0.00420464  0.0262115   0.04413562 -0.00232149  0.06147072  0.14981183
  0.16446178  0.00737613 -0.08144421 -0.0671057  -0.06811023 -0.11275364
 -0.41607377 -0.00758566  0.01803738  0.05525355 -0.00911455  0.10416412
  0.08930138  0.00222224 -0.03024211  0.02653317  0.12794179 -0.09481138
  0.07273358 -0.11267741 -0.05668585  0.02844483  0.01778065 -0.04981729
  0.00838525 -0.04381491 -0.05597164  0.10168777 -0.01660692  0.08578437
 -0.0487664   0.02575465 -0.03501137 -0.26415387 -0.01821238 -0.15616667
  0.00400774  0.02756111  0.04672694  0.05369283  0.02782755 -0.06839037
  0.00925186  0.04671459  0.0156555  -0.1308209  -0.10217904  0.09810486
 -0.04482286 -0.06445971 -0.01706392 -0.08176176  0.00705501 -0.11846495
 -0.0228404   0.181561   -0.00110264  0.04151151]
[ 0.1537356  -0.04119008  0.04869332  0.07184677  0.13366775 -0.10926114
 -0.01372287  0.06902251  0.0373832  -0.27352062 -0.01429621  0.11873049
 -0.15372574 -0.03058026 -0.22627234  0.01802855  0.15020725  0.12098002
 -0.11666171  0.07840788  0.15818052  0.03949863  0.1083364  -0.08986276
  0.08103514 -0.01348393  0.00207644 -0.25697398  0.10516331 -0.1825573
  0.03028614  0.14399989 -0.1766475   0.04951618 -0.09191833 -0.01472917
 -0.10346129  0.03084518  0.00709485 -0.00496661 -0.04683163 -0.16958739
 -0.01822767  0.32901576  0.09083982  0.02501841 -0.06114114  0.04201614
 -0.1592278   0.03539241  0.03914002 -0.06914652 -0.08928897 -0.10817996
  0.01856736 -0.21280843 -0.20824246  0.11282241 -0.09921913  0.04177079
  0.01260719  0.11409346  0.12442189  0.10666394]
[ 0.22988284  0.03473122 -0.18374054  0.0145185   0.3322857  -0.06995675
  0.05414054  0.10250454  0.20216928 -0.20352127  0.10975614 -0.03074754
 -0.16951805  0.15442975 -0.10926495  0.27020085  0.09122036 -0.08146024
 -0.00686361  0.19287613  0.13298006  0.10330392  0.00450199  0.01548275
  0.12140778 -0.00645164  0.0396459  -0.17811684  0.04881722 -0.20362027
 -0.10390139  0.10176414 -0.08348662  0.25060582 -0.0920158   0.01619001
  0.1073108  -0.09451147 -0.0819697   0.08934395 -0.13476782 -0.17137222
  0.13115501  0.24443014  0.07634529  0.02964859 -0.01098622  0.01947717
 -0.08470599  0.03863573 -0.00403503 -0.11247616 -0.21549653 -0.03668334
  0.11391925 -0.27600425 -0.18574974  0.17169924 -0.08172324  0.13441564
 -0.0590702   0.13846463  0.00288441  0.22706176]
[ 0.10500803  0.0582404  -0.15774187  0.01187899  0.3135244  -0.02362348
 -0.0653155   0.02404512  0.22863892 -0.11501692 -0.03976448 -0.00880359
 -0.09928128  0.1183514  -0.13531443  0.31305933  0.15585035 -0.17313293
 -0.14320785  0.27729598  0.18661541  0.10130312 -0.17490923  0.03796404
  0.117801   -0.04406182  0.07388759 -0.1933188  -0.04905017 -0.21676864
 -0.23663554  0.04079319 -0.11321794  0.22092006 -0.05875927  0.03585449
  0.14096445 -0.3348821  -0.2775577  -0.00423261 -0.0227963  -0.01458881
  0.12508653  0.30126533  0.05127609 -0.00959816 -0.0524385   0.11793845
 -0.14156255  0.07551874 -0.11762309 -0.06913312 -0.1903433  -0.00661931
  0.16837169 -0.16394807 -0.09216218  0.25884065 -0.08076331  0.1628821
  0.02605299  0.16141923 -0.155524    0.29724276]
[ 0.09459448  0.05171531 -0.01806327 -0.05365822  0.04891598  0.05858177
  0.15393265 -0.06778267  0.13150206 -0.16168423 -0.0385458   0.11348844
 -0.02163809  0.01448387  0.01910123  0.13657969 -0.07016273 -0.09321151
 -0.09996913  0.11171354  0.18046999  0.19275473 -0.05838879 -0.05606999
 -0.03967739 -0.01764356 -0.02984469 -0.25247878 -0.22445072 -0.10729874
  0.06943572  0.07793155  0.02800843  0.07150964  0.01690413  0.04717631
  0.17026238 -0.15031971 -0.11206216 -0.16413952  0.09694435 -0.02672655
  0.0439241   0.15246229  0.07052698  0.07644156 -0.06172954  0.19560225
  0.00953474  0.19165036 -0.2484118  -0.03939752 -0.07548901  0.16808698
  0.14654867 -0.09448463 -0.03848611  0.03355474 -0.06207401  0.10005559
  0.02943937  0.11597575 -0.06364582  0.11734541]
[ 0.05920599 -0.03048212 -0.07551914 -0.00687162  0.02968483  0.03352172
  0.10585528 -0.15643013  0.13449292 -0.17111251 -0.05933497  0.13151994
 -0.00351841 -0.03792169  0.08618026  0.09881861 -0.01357036 -0.08798731
 -0.18555877  0.18308355  0.24869338  0.19565234 -0.04563338 -0.02614833
 -0.01062451 -0.15373833 -0.08659879 -0.13537186 -0.11436345 -0.03975585
  0.16461433  0.06740028 -0.04427686 -0.06771307 -0.02396123 -0.08340625
  0.12283865 -0.15528457 -0.11574138 -0.12574092  0.21731259 -0.13503602
  0.13250564  0.13918832  0.06673664  0.07919864 -0.12751712  0.106677
 -0.0756267   0.16907804 -0.3305842  -0.05320604  0.04988611  0.23082279
  0.21833514 -0.15394902  0.03147133  0.10314284 -0.01225922  0.20845233
  0.04936082  0.1376344  -0.11205039  0.1316597 ]
[ 0.06863821  0.08326925 -0.02914361 -0.03255662  0.00290035  0.05093702
  0.07110037 -0.08914685  0.19449967  0.01799787 -0.13856646  0.18016702
 -0.02839728 -0.10311609 -0.02084916  0.05741604  0.08015814 -0.06555901
 -0.13905072  0.15683958  0.16800214  0.09111607  0.01198258  0.00365956
 -0.0036045  -0.158604    0.00430079 -0.19333462 -0.16684142 -0.13571985
  0.09820756 -0.0508985  -0.11427499  0.01571812  0.03799399 -0.00828283
  0.0622245  -0.04789199 -0.1546466  -0.09506046  0.16416463 -0.04936051
  0.01029885  0.24955651 -0.03906346  0.00646533 -0.05637629  0.06662846
 -0.15519503  0.15962522 -0.15432155 -0.049071   -0.06630558  0.1554999
  0.12745434 -0.15478507 -0.04151857  0.08012106 -0.00547522  0.15809652
 -0.04749094  0.17232095 -0.00456479 -0.03844641]
[ 0.11297899  0.01368065 -0.01248551 -0.00057779  0.01636387 -0.05102946
  0.04618596 -0.12760139  0.18397449 -0.01531063 -0.01544426  0.04273855
 -0.06437103 -0.13709375  0.05563689  0.14965335  0.0447643   0.02968402
 -0.12408112  0.22905979  0.20952924  0.09565017  0.07841089 -0.09395366
  0.00308482 -0.03406987 -0.10781221 -0.07702178  0.00172722 -0.10748159
  0.07594748 -0.13922459 -0.1072364  -0.05914117 -0.07269279  0.10247488
  0.02237997 -0.04460663 -0.1473045  -0.09703829  0.21506236 -0.03860725
  0.02128883  0.09903231 -0.0515507   0.05798709 -0.02637812  0.1642408
 -0.04006629  0.14942433 -0.23028013 -0.06311353 -0.0068975   0.14921926
  0.16222511 -0.16312347 -0.09439998  0.14475141  0.02754217  0.12531391
 -0.0847507   0.07933641 -0.15455635  0.14570343]
[ 0.13272455 -0.0201352  -0.00426319  0.05496689  0.12578583  0.05958471
  0.03319811 -0.09488142  0.12270591 -0.06904256 -0.01393077  0.0514887
 -0.083791   -0.02915365 -0.06387383  0.00064875  0.03307996  0.02520734
 -0.13324292  0.09020406  0.07127478  0.01592564  0.06897554  0.10527664
  0.05252792 -0.12086545  0.03741217 -0.1275834  -0.1341236  -0.0952801
  0.12860835 -0.09976187 -0.08623576  0.02161349 -0.00497322 -0.05127447
  0.11749236  0.00740343 -0.11355085 -0.00268446  0.08967009 -0.12837912
 -0.01427876  0.02335594  0.06321907 -0.01322588  0.00215072 -0.05590371
 -0.04977101 -0.01678898 -0.11785211 -0.09892978 -0.05664588  0.04744286
  0.14902215 -0.14104052 -0.06269006 -0.00332946 -0.04294859  0.02694892
 -0.00329033  0.04278057  0.00372418  0.00683079]
[ 0.10569301 -0.04097448 -0.01176436  0.03484651  0.0666279   0.02026124
 -0.09093231 -0.14699383 -0.00090901 -0.00331807  0.02811697 -0.05811825
  0.01878862 -0.07166299 -0.06729835  0.08055961  0.05833093 -0.07333941
 -0.07418864  0.11215974  0.03225697 -0.02306571 -0.09542175  0.01899239
  0.04175968 -0.08780447  0.01331719 -0.06936899  0.00164597 -0.01939745
  0.05003272 -0.02623658 -0.08575401  0.04853306 -0.04494646 -0.03540663
  0.03455011 -0.05754489 -0.10511047 -0.03341765 -0.02005695  0.0100561
 -0.03544568  0.00267005  0.08852288 -0.08380468 -0.01994845 -0.09107347
  0.05744618  0.10548916 -0.08265025 -0.05950365  0.02850199  0.0038565
  0.08871599 -0.05024426  0.0448675   0.02294091 -0.00322121  0.11121554
 -0.06912847 -0.02670246  0.01468612  0.04468209]
[-0.03169337  0.07744247  0.02138234 -0.03908196 -0.04755296  0.02516774
  0.05102033 -0.06826679 -0.06609467 -0.01964433 -0.06511924  0.00817116
 -0.07843178  0.05833649 -0.01046901  0.05057006 -0.04665549  0.00796321
  0.0819741   0.04549564 -0.07620133  0.00315933  0.01599871  0.01584756
 -0.03090196  0.02772856  0.04333504  0.02464832 -0.07110661  0.04395757
 -0.03753612  0.02969729  0.02335858  0.08258329 -0.03949008 -0.02636196
 -0.07368526 -0.08071129  0.01609012  0.00302462 -0.00834399 -0.00959037
 -0.06405617  0.07040235 -0.05800479  0.01203533 -0.04842918  0.00813387
 -0.02604259  0.07105266 -0.06826148 -0.05275308 -0.03798038  0.01159142
  0.06739602 -0.02113314 -0.03563054 -0.01151507  0.07989728 -0.05847345
 -0.07549027 -0.01204111  0.02832222 -0.01543462]
[-0.02501962  0.04851385 -0.04266724  0.0473283   0.07628935 -0.03168197
 -0.05051473  0.05020737 -0.00498155  0.02785394 -0.03527499  0.08054791
 -0.0765844  -0.07241119  0.0785098  -0.05108553 -0.06254936  0.05086607
  0.03387713  0.00309511 -0.01152927 -0.03664469  0.0427677  -0.0369121
 -0.04235256 -0.01812127  0.06893923 -0.04893337  0.04228973  0.071339
 -0.08190936  0.04994331  0.01060559  0.00517977  0.05707038 -0.06316434
 -0.01783287  0.05750618 -0.03019591 -0.01125663 -0.04097032 -0.05021941
 -0.07493507  0.06694501 -0.037244    0.05097445 -0.07330947 -0.0279573
  0.04190806 -0.06079575 -0.01412412 -0.05050125 -0.01690457 -0.00626838
 -0.0506589   0.07984699 -0.06471819 -0.02349142 -0.02754505 -0.03912422
 -0.00967523  0.05757084  0.03862429 -0.02533225]
[ 0.02067184 -0.02916267 -0.0143444   0.05102783  0.04506745  0.03048356
 -0.04569232  0.08005144 -0.07595158  0.05103954 -0.06966064 -0.0292182
  0.0591372  -0.01303077 -0.05566935  0.03842581 -0.05520229 -0.00363192
  0.03101332 -0.00443856  0.03478144 -0.00069432  0.00346164  0.05608273
 -0.00311204 -0.03613724  0.04859593 -0.07885698  0.04942993  0.00317629
  0.01103006 -0.04970374  0.02043203  0.01510122 -0.05395366 -0.01713418
 -0.00650912  0.01868148  0.00093086  0.04002325 -0.01219976 -0.06816572
 -0.03832728 -0.05216339 -0.0287484  -0.04601235 -0.0301534   0.05500277
  0.00200716 -0.03651281 -0.01012259  0.04751501  0.06986291 -0.03041662
  0.00096819 -0.0609314   0.04549647 -0.00032314 -0.01502287 -0.04457723
 -0.0008079  -0.04135557 -0.00059044  0.02795596]
[ 0.03931264 -0.0050896   0.02098122  0.02832151 -0.0091473  -0.05942856
 -0.03161236  0.06472389  0.02303965 -0.06759921  0.06029973 -0.05057375
  0.01292244 -0.04788166  0.06539419 -0.05455093  0.01738632 -0.05174591
  0.01272903  0.02314289 -0.04850298  0.06273939  0.06221198 -0.0771888
 -0.0724178   0.05185495  0.06959023 -0.037557   -0.03381694  0.06089466
  0.02582646 -0.00286599  0.0520938   0.00723037  0.04486758  0.05576792
 -0.00278988  0.03438291 -0.01648272  0.05652457 -0.05347666  0.07964008
 -0.01522206 -0.04209267  0.06210112  0.01589331  0.01737604  0.01717164
  0.06347696 -0.07909832  0.03584646  0.07384939 -0.05939452  0.07952041
  0.06465473 -0.04757709 -0.05635592 -0.02170452 -0.05328075 -0.02417411
 -0.06139862 -0.07322741  0.07442259  0.05809353]
[-0.00653459 -0.06558234  0.04718357 -0.02240914 -0.07011278  0.06917436
 -0.05632123 -0.04258201 -0.02449149 -0.04997678 -0.00998152 -0.02134676
  0.01199382  0.05540922 -0.0675503  -0.00898969 -0.07683805  0.04815657
 -0.06171311  0.02623469 -0.04031989  0.05793851  0.04573504  0.01384249
 -0.05383785 -0.07550468 -0.05184408  0.06131772 -0.05834183 -0.03561096
  0.07352526  0.08007089  0.06086028  0.00337905  0.02348161  0.027597
 -0.05286653 -0.06561929 -0.02126233  0.06635626  0.00570885 -0.07703519
  0.02841355 -0.06305769  0.05686135 -0.06176759  0.03331266 -0.06814501
  0.01538277  0.03560793 -0.04346919  0.01612552 -0.01612085  0.07094532
 -0.06550965  0.0658061   0.03346135 -0.0068603   0.02172959 -0.03312866
  0.0189943   0.02118336  0.06562529  0.05869942]
[ 0.06530675 -0.03321384 -0.06536912 -0.05309265  0.0317442  -0.00622051
 -0.03971209  0.01668207 -0.08347778 -0.02012753  0.05789474  0.06443962
 -0.07480979 -0.04863682 -0.06482822 -0.06984934  0.04822481  0.06651875
 -0.04694602  0.06151975  0.05383018  0.01973354 -0.03290106  0.08304953
  0.0717962  -0.04756684 -0.01130877 -0.03852155  0.04786328 -0.01298361
 -0.04242798 -0.06987982 -0.06008678  0.05377869  0.07065336 -0.04510708
 -0.00882964 -0.03973294  0.08318666  0.03639098  0.03483001 -0.02031204
 -0.00095475 -0.04475999 -0.05166822 -0.08126113  0.00682384  0.00911099
  0.02834366  0.08155694 -0.01153015 -0.05567525  0.01719212 -0.05150415
 -0.01680619  0.02640972  0.00025163  0.03622773  0.01682064  0.01612121
  0.08243453 -0.04407651 -0.03022185  0.08348941]
[ 0.02901694 -0.07492635 -0.08601918 -0.05092397 -0.03239497 -0.03199718
 -0.00384282  0.04667959 -0.04586633 -0.03383581 -0.03032839  0.08426619
 -0.05377463  0.0253365  -0.07081648 -0.02073709  0.01120526  0.09091754
 -0.04118367  0.06894152  0.03038247 -0.02164493 -0.08442124 -0.05126385
  0.0165843  -0.07861892 -0.01782922 -0.07770755 -0.01800123  0.04680924
 -0.07970989 -0.07802435 -0.05576621 -0.00139433  0.05932669  0.07034599
 -0.03855302  0.04907204  0.0317933  -0.07088093 -0.06349565 -0.06571368
 -0.05647386  0.07243835  0.0143208   0.01014386  0.0653264  -0.06060164
 -0.04668853 -0.02930002  0.04810837  0.04532862  0.00944436  0.08863572
  0.01774194 -0.0711846  -0.0504231   0.01365658  0.0676055  -0.03298324
  0.03940505 -0.0489326   0.01755741 -0.03830177]
[ 0.07953485 -0.0300817  -0.1433733   0.05636589  0.05313348 -0.01044959
 -0.06481746 -0.0560716   0.10838611 -0.01005512  0.0692744  -0.02735153
 -0.14086147  0.02333079  0.1070497   0.02955705  0.04902567 -0.03904988
 -0.07464729  0.17039162 -0.08170754 -0.10933177  0.05038328 -0.00917205
  0.03325852  0.1843899  -0.00621752 -0.18172513  0.00188487 -0.07936942
  0.03296406  0.017896   -0.02610789 -0.01431592 -0.07622319 -0.05794483
  0.08571872 -0.04307119  0.02064974 -0.0391097  -0.15283081  0.03614035
  0.01332344  0.11452636 -0.00882269 -0.03310085  0.01202551 -0.02960806
 -0.08892744 -0.06101494  0.04738436 -0.05874835 -0.00429507 -0.01773697
  0.03925845 -0.12875971 -0.00282903  0.12453961 -0.07177273  0.18219613
  0.02011983  0.15572092  0.02226087  0.06352551]
[ 0.1038053   0.02367505 -0.07340454 -0.05443456  0.04790376 -0.03708141
 -0.02382345 -0.03261042  0.03840035 -0.13984841  0.02992006  0.0773987
 -0.02694225  0.06100283  0.16016729  0.03112452  0.1575705   0.0402416
 -0.14746006  0.19239543  0.07715191  0.05590857 -0.06247129 -0.07910331
  0.07531316  0.0519633  -0.11973694 -0.2398093   0.02509785 -0.02125156
 -0.01750293 -0.09852497 -0.09410083  0.01475041 -0.00958107  0.09043439
  0.1184437  -0.15611431 -0.13230833 -0.10822973  0.08689754 -0.04949703
 -0.00947573  0.02104596 -0.06985739  0.15344971  0.11381537  0.12393453
 -0.10235935  0.08128893 -0.11941012 -0.07154808  0.03550953 -0.10780013
  0.13440911 -0.14241643  0.03064281  0.13429298 -0.01907007  0.05515959
  0.04578286  0.05946223 -0.07864333  0.14339864]
[-0.04461478  0.03278324 -0.05531007 -0.02837724 -0.06612766  0.10973146
 -0.03914348 -0.03518521  0.04039782 -0.10975169 -0.04421588 -0.03189117
 -0.08477537  0.06026062 -0.15694396  0.0592192  -0.01982511  0.05729822
 -0.08324007  0.06142488  0.14546871  0.10610873 -0.09887647  0.05184371
  0.02029926 -0.01978221  0.00639305 -0.09328775  0.07951102 -0.10177296
  0.04350589  0.05942307 -0.00940052 -0.022243    0.03231021 -0.02053528
  0.02081273 -0.09474929 -0.07542042 -0.05359901 -0.05262475 -0.0528561
 -0.00550614  0.05056501 -0.08357643 -0.05114925  0.00786793  0.06516937
  0.06950133  0.020021    0.0170401   0.03956878  0.0848339   0.09732878
  0.02790038 -0.05621837  0.02397436 -0.01483618 -0.00878945 -0.01245364
 -0.05233341  0.09399238  0.03536003  0.17086458]
[ 0.05114132 -0.02806519 -0.00155505 -0.02978109  0.01965275  0.08697751
  0.06029224 -0.00099826  0.13217549 -0.06170867 -0.09441401  0.08466721
 -0.05428271 -0.05554534 -0.09918159  0.06610943 -0.08011192  0.00976228
 -0.05723013  0.04086621  0.07861239  0.14934243 -0.11969671 -0.04653039
 -0.06168603 -0.17745435 -0.03928222 -0.02256186  0.02127453 -0.13845083
 -0.01349593 -0.02141744  0.00036003 -0.07594824  0.03913854  0.02803634
  0.00172495 -0.02406417 -0.01243477 -0.12072807  0.0462184  -0.10968671
  0.03421889 -0.05150528  0.03300233  0.03631462 -0.05314989  0.01672011
  0.13721207 -0.05008218 -0.0970372   0.01066462 -0.05706327  0.08518252
  0.12183526 -0.0792618  -0.07271497  0.09756616 -0.00370893  0.0856021
 -0.06658173  0.21960588 -0.04752097  0.15688825]
[ 5.94441257e-02 -1.91998221e-02 -1.66331053e-01  2.59360839e-02
  1.19814306e-01  1.78764373e-01 -4.77601103e-02  4.85711284e-02
  1.90452203e-01 -2.80040950e-01 -2.90783923e-02  1.28082812e-01
 -3.96452248e-02 -1.83042511e-02 -3.12997699e-02  4.59936522e-02
 -1.29418626e-01 -5.48846424e-02 -6.03234880e-02  8.81403759e-02
  1.39001533e-01  2.29601160e-01 -1.60372481e-01 -1.40664042e-05
  2.08106637e-02 -1.99752942e-01 -1.00469619e-01 -2.53008604e-01
  6.00227481e-03 -9.02343094e-02  7.62046948e-02  8.24195966e-02
 -6.70508370e-02 -3.73074561e-02 -9.22065694e-03  6.87763318e-02
  1.70838177e-01 -2.59602126e-02 -1.13290779e-01 -4.42417078e-02
  7.42119253e-02 -1.65985480e-01  4.04874049e-02 -5.56693180e-03
 -2.97164917e-02  2.81287991e-02 -1.92577057e-02 -3.45635749e-02
  8.95921141e-02  5.77200251e-03 -1.60991222e-01 -1.87763527e-01
  9.77583230e-02  1.22064926e-01  2.17329711e-01 -4.56587896e-02
 -9.95522272e-03  1.39345631e-01  1.03469682e-03  6.31579682e-02
 -8.07568431e-02  1.50554478e-01 -6.17033169e-02  3.26018900e-01]
[-0.04178907 -0.03666339 -0.2512469   0.11741616  0.13433762  0.19026771
  0.02609702 -0.09565568  0.2762032  -0.22891055  0.04093265  0.21982682
 -0.19174303  0.07829979 -0.21209083  0.21570724 -0.22865494 -0.00092212
  0.05057167 -0.05053933  0.157705    0.2752298  -0.12370802  0.12632988
  0.09643875 -0.19262274  0.01511501 -0.23081745 -0.16722673 -0.04055303
 -0.01198134 -0.06451918 -0.03061577  0.01085491 -0.01562067 -0.14979957
  0.03242472  0.03279014 -0.11340652  0.06570731 -0.01125252 -0.19022813
  0.22580203 -0.13023458 -0.04278538 -0.05307598 -0.02822959 -0.02236133
 -0.01060262 -0.0863911  -0.14765722 -0.13389571  0.10327829  0.06222361
  0.12059232 -0.11349317  0.04318267  0.11423554 -0.06309019  0.11182453
  0.09021515  0.05330297 -0.26457372  0.3493994 ]
[ 0.01290006 -0.04424324 -0.19141243 -0.06481186  0.30895296  0.24369428
  0.16587579 -0.05874686  0.15950269 -0.18571673  0.06845949  0.10461809
 -0.07511612  0.10277764 -0.16684872  0.14922905 -0.19128427 -0.16603573
 -0.00331427 -0.01654414 -0.00145518  0.3400834  -0.06895872  0.18313819
 -0.02049757 -0.3087148   0.08193979 -0.16701886 -0.12304723 -0.15407869
 -0.13450837 -0.11888435 -0.12491427 -0.03062901 -0.07855757 -0.18900351
 -0.10716335  0.05449813  0.00593013  0.19033729 -0.08663446 -0.1984707
  0.26995227 -0.14817294 -0.16742098 -0.06803643 -0.17891715 -0.08824999
 -0.034187   -0.17166997 -0.00946813 -0.1570157   0.01115717  0.14931326
  0.11209106 -0.16619237 -0.15083693  0.10670084  0.04446242  0.07645055
  0.08491944 -0.02666755 -0.09383742  0.10781509]
[-0.06480844  0.08829411 -0.33240214  0.14846256  0.42576993  0.253363
  0.02405458 -0.11792995  0.14533903 -0.25496832  0.15742464  0.10506961
 -0.06307644  0.20265152 -0.15306708  0.19431634 -0.17452154 -0.2960221
  0.00415011 -0.01756568  0.04868461  0.29462543 -0.18849733  0.3239994
  0.03100529 -0.27919567  0.10556936 -0.16099441  0.05244717 -0.12073717
 -0.04024297  0.05906763 -0.22998624  0.01257409 -0.00783111 -0.21993135
 -0.03601869  0.23184845  0.05026242  0.10088943 -0.21389575 -0.253538
  0.2009375  -0.1653531  -0.0443032  -0.17550708 -0.09550769 -0.28019884
 -0.00085849 -0.17247133 -0.01637106 -0.12609391  0.10005477  0.00952389
  0.18853582 -0.24453996 -0.03521968  0.22115241 -0.11874349  0.21010765
  0.09438118 -0.06299973  0.01245388  0.17853285]
[ 0.15853132  0.01167567 -0.20570838  0.0123485   0.29888383  0.22258358
 -0.10006382 -0.03002871  0.26945007 -0.33145866 -0.0064866   0.03464139
 -0.19750051  0.04138413 -0.1803555   0.04572524 -0.17293648 -0.13530391
 -0.00242818 -0.0365475   0.11025239  0.19734623 -0.13890529  0.2638262
 -0.03504083 -0.3133496   0.08221014 -0.23902328  0.06898096 -0.11248093
 -0.23730394  0.06034169 -0.1510833   0.14988717 -0.00539034 -0.10328331
  0.0610083  -0.11360224  0.0264934  -0.02045762 -0.00848413 -0.31658277
  0.20389667  0.18932353  0.01451031  0.08831859 -0.17997949 -0.04164916
  0.26510483 -0.03490706  0.00867145 -0.24371807  0.14024714  0.13619854
  0.22135618 -0.27467617 -0.0255302   0.31678957 -0.08511511  0.18567906
  0.00671961  0.17346504 -0.06280394  0.2755188 ]
[ 0.2422838   0.06720158 -0.05377824 -0.08376476  0.2708822   0.18385388
 -0.09133624  0.06502765  0.23945782 -0.3871768  -0.06347215  0.07029375
 -0.08859946  0.06260061 -0.1776395   0.24908984 -0.12950148 -0.05526473
 -0.10513809 -0.01861009 -0.0147822   0.25323159 -0.11982558  0.17914039
 -0.01307373 -0.17149016 -0.0800654  -0.15864375  0.08720651 -0.34973034
 -0.26941139  0.14996693 -0.10646082  0.22196676 -0.08726276  0.0779088
 -0.03737114 -0.00423937 -0.04369552 -0.03429941  0.08915748 -0.26571387
  0.14825256  0.07658433  0.08465438  0.2053433  -0.13986443 -0.18713547
  0.13468868  0.01695683  0.0479944  -0.20958468  0.04993907  0.07742135
  0.07720885 -0.1709746  -0.0683801   0.15029941 -0.07894942  0.2040947
 -0.0514047  -0.00676939 -0.08902598  0.3177021 ]
[ 0.13444862  0.04574884 -0.02828986 -0.02614905  0.10121766  0.18219133
 -0.0699552   0.05688538  0.00570337 -0.23748288 -0.24279246 -0.05174353
 -0.08749817  0.03595168 -0.04793794  0.17997473 -0.1386071  -0.11948521
 -0.16055317 -0.1796976   0.09187365  0.37820122  0.06008589  0.15481953
  0.13210316 -0.07576147 -0.16912769 -0.15376985  0.20770523 -0.16676538
 -0.41644233  0.04694046 -0.13114162  0.2649375  -0.10195728  0.09809634
 -0.10890866  0.24547406 -0.03887251 -0.19223538  0.07469217 -0.11777082
  0.02575801  0.1439716  -0.04609286  0.09681499 -0.3275007  -0.14704412
  0.05230623 -0.02222318  0.07756151 -0.14014965 -0.12810723  0.06273632
 -0.01954999 -0.13370846 -0.21291013  0.05492502 -0.09384245  0.11269816
  0.00692357  0.05799625 -0.04048305  0.25220174]
[ 0.10411946 -0.03120303 -0.02467944 -0.00666223  0.05536456  0.17325163
 -0.05495066  0.04272455  0.07905348 -0.15053104 -0.37023667 -0.00261977
 -0.0647033   0.12419546 -0.10626146  0.28102577 -0.16827853 -0.01189969
 -0.25945827 -0.07341427  0.05370773  0.16686067  0.12349817 -0.11011484
  0.01211608 -0.27748966 -0.23174582  0.04882424  0.12703936 -0.17208265
 -0.30630422  0.09862299 -0.25486308  0.2940283  -0.15330279  0.00921236
 -0.1465386   0.07573357 -0.01635567 -0.11259893  0.10186568 -0.11621185
  0.0016062   0.05709168  0.0870159   0.07879949 -0.37003037 -0.1330747
  0.23808469 -0.03536104  0.11667282 -0.21483965 -0.02815249  0.12605548
  0.11218936 -0.10551113 -0.13923065  0.08631541 -0.11346339  0.14029291
 -0.05968725  0.01896935 -0.05847809  0.26998872]
[ 0.22830562 -0.03470575  0.21796937  0.02872625 -0.02787047  0.117655
  0.08706889  0.01000302  0.2566978  -0.18314324 -0.16282204  0.11747229
  0.00392047 -0.01029127 -0.13784076  0.07986721 -0.11579672  0.15502958
 -0.2935119  -0.09714314  0.07732638 -0.01224084  0.17125937 -0.16908401
  0.05086042 -0.37467295 -0.14549682 -0.0779511   0.24982786 -0.22613028
 -0.07148957  0.04201678 -0.16445313  0.22369163 -0.06546805 -0.14240281
 -0.08612064  0.03614845 -0.04067468 -0.10877563  0.1987215  -0.08608598
  0.05333592  0.20303291  0.19880915  0.1593763  -0.26034287 -0.07757612
  0.1504034   0.03946621  0.06149719 -0.24299549 -0.1762255   0.0588556
 -0.02084378 -0.15155564 -0.05377329  0.04072689 -0.05422034  0.01674107
 -0.01364739  0.10993388  0.04516611  0.119155  ]
[ 0.2657287  -0.0555316   0.15075995 -0.0012026  -0.15680014  0.11266415
 -0.04153743  0.01242615  0.19647227 -0.2432036  -0.20115378  0.2430587
 -0.02614514 -0.14586009 -0.30401024  0.00209278  0.03346918  0.18731546
 -0.3191494  -0.00170525  0.09962352 -0.14946415  0.29709145 -0.13796794
  0.01416549 -0.06803799 -0.21393687 -0.33038935  0.20294264 -0.10509757
 -0.03831716 -0.04856103 -0.2231375   0.03069256 -0.14223626  0.05022944
  0.17131303 -0.05100876 -0.06157327 -0.15728332  0.2581841  -0.15258089
  0.00300647  0.181913    0.19735602  0.29344517 -0.16887039  0.00801204
 -0.03389085  0.17700654  0.045801   -0.10638242 -0.14773215  0.0349555
 -0.03557615 -0.14188112 -0.13439603  0.18944854 -0.01960191  0.05564425
 -0.23022547  0.12782864  0.07934867  0.17966075]
[ 0.3486321   0.07712174  0.11692859  0.15471964 -0.06752292  0.06106607
 -0.01558027 -0.14042316  0.14177503 -0.0682463  -0.03269298  0.24099258
  0.16108343 -0.10979612 -0.311876    0.23996599 -0.06583639  0.23681386
 -0.31997448 -0.09571202  0.10918106 -0.10931955  0.20330359  0.02233757
 -0.14134295 -0.1505758  -0.08847135 -0.08559663  0.1420383  -0.10328883
 -0.04990039 -0.0905121  -0.05561505  0.054726    0.02195938  0.00385885
  0.17495805 -0.2592404  -0.02790309 -0.06429632  0.0869481  -0.12333592
  0.01489471  0.09647626  0.16144827  0.22185032 -0.04629908  0.1496868
  0.04086721  0.09851208  0.08740721  0.01450428 -0.12362964 -0.00732038
 -0.1178133  -0.02703223 -0.11333261  0.10006192 -0.02736459  0.13027333
 -0.16370167  0.23681138  0.0529016   0.09337899]
[ 0.11640692  0.05371085 -0.07864137  0.12504025 -0.05584975  0.09970249
  0.11059747 -0.1400039   0.12068356 -0.19246192  0.19238323 -0.01349089
  0.07030086 -0.02537627 -0.06656064 -0.01769351 -0.123783    0.08075564
 -0.3847761   0.01798115  0.1315633   0.02692929  0.17559539  0.00095521
 -0.15652454 -0.24412288 -0.03144345 -0.2282137   0.04503092 -0.017022
 -0.03393536 -0.09600404 -0.09975669 -0.01880252 -0.01079143  0.00945883
  0.04065667 -0.30010772 -0.18997589 -0.1083663   0.23345281 -0.02359695
  0.05722464  0.17986575  0.19097492  0.22222097 -0.01941171  0.17017654
  0.03599754  0.05160946 -0.11286946  0.02857075 -0.10824377  0.08674328
 -0.00050466 -0.11178597 -0.1357727   0.32318193 -0.11167078  0.13208736
 -0.10000466  0.17585811 -0.05714918  0.10581216]
[ 0.11564007  0.11585666 -0.27420017  0.12608935 -0.14240728  0.03974297
  0.0880959  -0.09971253  0.09856206 -0.18708995  0.02908928 -0.00795846
  0.07736696 -0.01086635  0.23265834  0.03375421 -0.07154332  0.1391852
 -0.34858164  0.09098957  0.20697618  0.04472584  0.06439622 -0.01808162
 -0.2326659  -0.25724164 -0.13686807 -0.103861    0.1090515  -0.10045815
 -0.06196155 -0.06434587 -0.11433826 -0.15383393  0.16940261 -0.06633018
  0.05950424 -0.20475672  0.14198507 -0.16331494  0.23637459  0.09108054
 -0.02026195  0.30198765  0.17989354  0.07180739 -0.05821504  0.1422291
  0.08890156 -0.03351657 -0.10278496 -0.04168245 -0.18691836  0.20308967
  0.12247285 -0.08798161 -0.16445354  0.13830514 -0.10827917  0.0292264
 -0.03999778  0.25210527  0.02447562  0.01768494]
[ 0.04723731  0.11770589 -0.21149352  0.1786913  -0.15732068  0.15556388
  0.00494612 -0.04722393  0.24972497 -0.21368925  0.01889409  0.14398097
  0.12361247 -0.0941298   0.19911902  0.01575051 -0.1165533   0.0011208
 -0.2980313   0.05598666  0.1400847  -0.01690863  0.12885386  0.00416935
 -0.27585655 -0.1900718  -0.06352427 -0.07735199  0.07039954 -0.09234213
 -0.11331977 -0.09959578 -0.0147965  -0.30777147 -0.02155047 -0.11571532
  0.05543273 -0.13073425  0.30047283 -0.3896933   0.21637727  0.05764715
  0.03124742  0.19633019  0.19982205  0.1381219   0.01133772  0.20456642
 -0.05924711 -0.02597493 -0.00253713 -0.01868289 -0.10957448  0.09180392
  0.10407472 -0.10756052 -0.06182829  0.29857814 -0.19372639  0.02964721
 -0.12053391  0.06029309 -0.08647631 -0.05638415]
[ 0.08753663  0.11005964 -0.09894305 -0.01362156 -0.05889892  0.19085546
  0.06670342  0.03288821  0.16842557 -0.07706379 -0.02698763  0.10325768
 -0.08340769 -0.07561956  0.1952848   0.20816803 -0.05449869 -0.0120054
 -0.3870304   0.04311224  0.08840857  0.09629673  0.02822677  0.05592043
 -0.24855773 -0.26255652 -0.08627371 -0.00271366  0.03392768 -0.03911621
 -0.13901627 -0.05779809 -0.1351311  -0.17984799  0.07194666 -0.04658802
 -0.01888785 -0.14609924  0.19091591 -0.24634548  0.27857965 -0.06973739
  0.04277247  0.08961172  0.03591721  0.03100853 -0.02385593  0.160569
  0.0391094  -0.10765357 -0.20529407 -0.1445906   0.0041695   0.17779583
  0.07097033 -0.22305037 -0.1401323   0.1509629  -0.20270798  0.07821257
 -0.14315508  0.11745667 -0.13325167 -0.0713871 ]
[ 0.14575441  0.08707009 -0.12022475  0.08657524 -0.00574931  0.05571027
 -0.19995369 -0.13214315  0.17721452  0.01839392  0.00601246  0.20736885
 -0.08512686 -0.05382956  0.2380642   0.17643191 -0.1411381  -0.03656071
 -0.25232458  0.11991474  0.24277782  0.16205528 -0.01334247 -0.0359585
 -0.262839   -0.16533381 -0.016512    0.00815481 -0.1089888  -0.2081753
 -0.02463054 -0.12142929 -0.01747337 -0.1955677   0.08889434  0.01887724
  0.07241142 -0.09677317  0.17262584 -0.26516256  0.4312152  -0.0419275
  0.05873333  0.15407723  0.12064865 -0.0169446  -0.01130835  0.26947674
  0.11734721 -0.05814629 -0.3131688  -0.14154378 -0.04821935  0.22651602
  0.11159233 -0.23277357  0.02720895 -0.00101425 -0.11806915  0.32131043
 -0.0023147   0.2301024  -0.14377442 -0.06709635]
[ 0.0935256   0.04048458 -0.00366146  0.12950525  0.10387564  0.0890127
 -0.12505414 -0.1532098   0.03167225 -0.10014183 -0.10439079  0.01754731
 -0.13715298 -0.07020231  0.18836325  0.1206838   0.05630904  0.03119178
 -0.10655493  0.05685404  0.03904539  0.14009328  0.11461578  0.03500849
  0.00117709 -0.11767212 -0.01075487 -0.08241004 -0.09522014 -0.10955687
 -0.14247248 -0.11472233  0.01304704 -0.00764487 -0.01292581 -0.01364603
  0.10954528 -0.00076186  0.11077285 -0.07904743  0.1229264  -0.08154261
  0.06919139  0.0301468   0.04094741 -0.00833127  0.0008404   0.16233556
  0.01695752  0.07906195 -0.10907201 -0.00924521 -0.03819953  0.03009658
  0.06710646 -0.05843642  0.02374683  0.18237293 -0.10446064  0.12878413
  0.0460247   0.10117655  0.005401   -0.04487065]
[ 0.13997701  0.01006324 -0.0696765  -0.10196074  0.09715316  0.00299425
 -0.00273356 -0.07123891  0.01799844 -0.01398266 -0.05451848  0.09631069
 -0.02742499 -0.05999804  0.05763088  0.07329063  0.02189292 -0.15852283
  0.06474414  0.07426449 -0.0580443   0.13292824 -0.03450539  0.06492944
 -0.0322014  -0.02477839  0.07230978  0.02972929 -0.14246562  0.01788864
 -0.06993611 -0.04287908 -0.05941026  0.02977061  0.10010891  0.00694918
  0.08147143  0.12246707  0.10653358 -0.02945069 -0.07724864 -0.01567712
  0.03997285 -0.00424845 -0.02588266 -0.03328836  0.00826398 -0.0762298
  0.02760291 -0.13619742 -0.02094777 -0.03947273 -0.00368869 -0.04999275
 -0.05664825  0.05054859 -0.03739734  0.21044816 -0.05641562  0.01913856
  0.02879398  0.01880313 -0.04323176 -0.02990667]
[ 0.05817579 -0.06314506 -0.08439373 -0.01193235 -0.0076794   0.03488141
 -0.11442146 -0.05186874 -0.00989724 -0.09225518  0.02971475 -0.03590133
 -0.069309   -0.02451616 -0.13780583 -0.0119563  -0.04732204  0.02589163
  0.02466495  0.04117176 -0.10793154  0.12536052  0.05022753 -0.02377976
 -0.02541571 -0.06055783  0.00332023  0.01817702 -0.06763774  0.00218236
  0.0184581  -0.07308155 -0.08862737 -0.06355582  0.02026722 -0.13097192
 -0.01235162  0.10735518 -0.01943565  0.01902632 -0.08803545  0.05553212
  0.02881403 -0.04310735 -0.00031365  0.05742048 -0.02270616 -0.01477231
 -0.00485842 -0.01605924  0.03744958 -0.0194691   0.02417366  0.02127828
 -0.05921094  0.00446194 -0.09004787  0.16265082  0.0656423   0.00681868
 -0.06416498 -0.06485625  0.06807289  0.03728708]
[-0.0058662   0.01561198  0.03419863  0.00183399 -0.07033749  0.07676252
 -0.06110901 -0.07389126  0.04528735 -0.04728002 -0.0400457  -0.07216139
  0.07785476  0.03259125  0.08311468 -0.03870514 -0.03191822 -0.05485314
 -0.04991878  0.0010187  -0.01244387 -0.0686918   0.04803608  0.07502855
 -0.06757022  0.01403067 -0.03098862 -0.05660089 -0.05313274 -0.03627899
 -0.05915302  0.02494004  0.0476801  -0.01057997 -0.0102796  -0.05729822
  0.05714376 -0.0681117  -0.00704829 -0.04394549  0.03357215  0.01640405
  0.03503174  0.04824806  0.04645018 -0.02656606 -0.01846788  0.07286767
 -0.06979606  0.00665231  0.07257084 -0.0479334   0.0730757  -0.06795723
  0.08322508  0.02758035 -0.08346417 -0.01308358  0.06528651 -0.00835263
  0.02833764 -0.07333743  0.00482733  0.08337637]
[-7.2706401e-02 -4.2222463e-02 -2.5685776e-02 -6.1551012e-02
  4.7441460e-02  7.2808601e-02  1.8411063e-02 -7.1789756e-02
  3.4351982e-02 -7.8675486e-02 -7.4102759e-02 -4.7406543e-02
  4.8294492e-02 -8.3726324e-02 -2.7829953e-02 -8.1527598e-02
 -7.6194130e-02 -4.4986110e-02 -2.3899779e-02  1.1540130e-03
 -5.8958977e-02 -2.1263979e-02 -5.2717987e-02 -3.1021308e-02
 -5.4474887e-02  2.2671744e-02 -1.7710932e-02  2.0627640e-02
  6.4977400e-02  7.5745948e-02 -8.1814118e-02 -8.1377253e-03
 -2.4706863e-02 -3.4382269e-02 -7.2531700e-03 -2.8238326e-02
 -2.0331889e-02 -1.0195807e-02  3.0589066e-02  6.3991614e-02
 -2.7572028e-02  8.4075116e-02  5.2287452e-02 -2.0891003e-02
  5.5573307e-02  5.2276395e-02 -5.9146687e-02  1.1840880e-02
 -9.9380836e-03  4.1291118e-05  3.5630681e-02  8.1947722e-02
 -3.0075546e-02  9.7438917e-03  5.1813349e-03  2.5586382e-02
  7.0832074e-03 -5.1886056e-02 -4.3928623e-02 -7.4324764e-02
  7.2876550e-02 -4.0836558e-03 -5.8187407e-02  1.1720471e-02]
[ 0.04621243 -0.04630708 -0.00323872 -0.05112327 -0.06703947  0.04717364
  0.03756857 -0.04868995 -0.03671538 -0.05679627  0.03957375 -0.06656265
 -0.05602422 -0.08004176  0.02379012  0.04761816  0.04482586 -0.03239773
  0.04785473  0.05765223  0.020395   -0.01549657  0.00164864  0.04281979
 -0.02570192  0.00143249 -0.05177002  0.02215804  0.02889195  0.05265322
  0.07569709  0.01021616  0.02862464 -0.02808725 -0.02707172 -0.08261587
  0.04939532  0.07624228  0.03102173 -0.06025925 -0.03811549 -0.02185445
  0.04401927 -0.03905196 -0.06261715  0.0314634  -0.03779856  0.06192096
  0.07533487  0.02997365  0.04798091  0.03805584 -0.0570519  -0.04093781
 -0.08378702  0.08215999  0.00254854 -0.05894867  0.0505097  -0.04364404
  0.05612781  0.03320086 -0.04399697 -0.00184911]
[-0.0229562  -0.0666467  -0.0059829   0.06986412 -0.01376742 -0.03526337
  0.02041929  0.02030843  0.08109183  0.02008949  0.01496214  0.04363283
 -0.0748082   0.04432238  0.0016484  -0.02424155 -0.07584502  0.04384839
  0.00980739  0.03521298 -0.04978923  0.02680365 -0.00051037 -0.03444229
 -0.03468056 -0.05482035  0.04849751 -0.02175933 -0.04480847  0.0083979
 -0.05872604  0.01252782  0.01229795  0.03287637 -0.06193741 -0.01774952
 -0.04207775 -0.07699104  0.03143462  0.03272017 -0.08372608 -0.07641674
  0.00596297 -0.01577513  0.06402     0.04433874 -0.0792155  -0.07357702
  0.04635131 -0.07662538 -0.03146382 -0.02797184 -0.05974155 -0.02933055
 -0.03892379 -0.0797506  -0.06057844  0.01229482  0.07702648  0.01039331
  0.01786853 -0.0770331   0.00929084  0.07141862]
[-0.06531963  0.07107318  0.06796709 -0.04094879 -0.11169644 -0.03315137
  0.0115056   0.06721488 -0.06965218 -0.13534608 -0.18502498  0.19763432
 -0.04071781  0.0776216  -0.0037398   0.02437703  0.03474797  0.11339817
 -0.05624625 -0.13060887 -0.12907737 -0.09912454  0.04424749 -0.04097898
  0.13040623  0.02209615  0.03429966 -0.12958373  0.18308026 -0.10594152
 -0.00197445  0.04467411  0.05811293  0.04374056  0.03068675 -0.01233615
 -0.03925934  0.19039685  0.21699575  0.11898188 -0.0825799   0.04979752
 -0.03822494  0.02630126  0.06519475  0.04752127 -0.15798418 -0.1460192
  0.02248191 -0.21361859 -0.04336148 -0.03116537  0.19110487 -0.11706799
 -0.04104741  0.07858207  0.16910838 -0.16569088  0.04343675 -0.13470729
  0.03553667 -0.08214379  0.1900178   0.08598741]
[ 0.02730106 -0.01922924 -0.13645205  0.02318418 -0.05820236 -0.08812501
  0.05894046 -0.14756452  0.07957245 -0.04778    -0.00029233 -0.01285298
 -0.11224085 -0.0710568   0.01878512  0.11523983  0.1138707   0.09466189
 -0.15264225  0.11936202 -0.02126144  0.09081561  0.14080977 -0.15431532
  0.07335931  0.12705816  0.13349134 -0.15011634  0.13012068 -0.22165829
  0.16520926 -0.0571945   0.05168017 -0.0651652   0.02747667 -0.08741501
  0.17555031  0.04961081  0.05135725 -0.00422851 -0.08216407  0.08459796
  0.05419098  0.27816206  0.19341184 -0.01485689 -0.02131067 -0.01756899
 -0.07936653 -0.11642165 -0.1044231  -0.19429582  0.11747188 -0.06685358
  0.1387145  -0.13635854  0.11108425  0.17977683 -0.04183317  0.18537167
 -0.16576232  0.18969634 -0.00201513  0.12996441]
[ 0.10564616  0.00286021 -0.14465278 -0.02861965 -0.05438904  0.04443714
 -0.04708523 -0.09933316 -0.04489294 -0.19637883 -0.03367205  0.07871547
 -0.18787505 -0.10488096 -0.12449285  0.02109803  0.19297616  0.09640691
 -0.15612741  0.10734782 -0.04421438  0.11459182  0.01052108 -0.1219399
 -0.05770763  0.01827329 -0.03939526 -0.16859168 -0.02161874 -0.07137918
  0.1978122  -0.05435257 -0.03381368 -0.00502136  0.0807901  -0.0976207
  0.15260974 -0.05391774  0.04778751 -0.01168921 -0.09572394 -0.05849863
  0.07189599  0.17743643  0.02772831  0.09261357 -0.02976697  0.16941427
  0.13282435  0.08389588 -0.11630214 -0.04275958  0.0267921  -0.01922555
 -0.02151696 -0.1984528   0.08004905  0.07146687 -0.08021197  0.07379481
 -0.10887668  0.22013882 -0.11060785  0.11144388]
[ 0.00968318  0.02215113  0.06244063  0.05400065  0.12230884  0.19681089
 -0.01238956 -0.18476962  0.25865865 -0.17526712  0.15364252  0.04553822
 -0.16866943 -0.05897664 -0.17432025 -0.02408854 -0.12753138 -0.08077166
 -0.03383807  0.14730641  0.0616049   0.08789703 -0.04852529  0.06417441
 -0.02540242 -0.17730136  0.03085807  0.027362   -0.02329849  0.01451288
  0.05264513 -0.03251925  0.02310443  0.01400629 -0.2093471  -0.12210491
  0.04061363  0.06188874 -0.09157819 -0.04591109 -0.01775469 -0.13600053
  0.11256203 -0.06479473 -0.05837616 -0.03961769 -0.02744723  0.04882375
  0.15159008  0.00948444 -0.02731345  0.09780521 -0.00680491  0.16906796
  0.00345873 -0.04570822 -0.05985767  0.31332517 -0.0668083   0.19624569
  0.00709649 -0.02904035  0.00100952  0.08369823]
[ 0.07822336 -0.01021471 -0.04682783  0.09106331  0.05193402  0.21210726
  0.04582945  0.02402085  0.20662564 -0.15580212  0.19184273  0.02811741
 -0.04976571  0.00052844 -0.23741314  0.01531815 -0.10569178 -0.09280881
 -0.08986382  0.11230691  0.09807102  0.01215988 -0.01524785  0.03547652
  0.02225142 -0.15892065  0.04288143 -0.17061906 -0.02371819 -0.137059
  0.00991641 -0.16588442 -0.05448369  0.0944683  -0.09613042  0.03861676
  0.02584423  0.10862678 -0.12342872 -0.09215312  0.0607543  -0.21633008
  0.11344381 -0.12171426  0.06340121 -0.08463484 -0.02879114  0.03522882
  0.21608391 -0.13252766 -0.06973346 -0.03453343  0.01888896  0.15374799
  0.03179427 -0.1354768  -0.02302177  0.17105488 -0.06932027  0.2563285
  0.03710759  0.18660727 -0.00323079  0.1770719 ]
[ 0.03180881 -0.11338279 -0.0326324   0.0413841   0.07531561  0.20251518
  0.05951099 -0.06229964  0.30129382 -0.23859507  0.06337554  0.09550345
 -0.09944209  0.19432802 -0.05697204 -0.07653705 -0.23915845  0.00542248
 -0.14860417  0.15494947  0.12385526  0.0956663  -0.09113023 -0.09062582
  0.03623925 -0.1390528   0.04001847 -0.05843028  0.05572001 -0.09969855
  0.0902781   0.01325173 -0.18191604  0.0965604  -0.2152331  -0.00221672
  0.02906954  0.04458819 -0.17074431 -0.04280585 -0.09681345 -0.19906066
  0.00798029 -0.04359359 -0.03848338 -0.0192244  -0.06142559  0.04912768
  0.16925666 -0.03970517  0.04705432 -0.06758071  0.11131168  0.19222127
  0.11397751 -0.15643264  0.07133804  0.16323444 -0.16742405  0.21066596
  0.05868998  0.19504094  0.07339406  0.12091261]
[-2.09190082e-02 -1.32158965e-01  8.28319713e-02  6.68309815e-03
  1.68238536e-01  1.18355416e-01  1.04414865e-01 -1.20211840e-01
  2.26700068e-01 -3.16141725e-01 -4.04817760e-02  1.45724686e-02
 -9.59822237e-02  1.33979484e-01 -2.01766849e-01 -1.66847393e-01
 -2.20150337e-01  4.74654697e-02 -1.46976724e-01  2.07559600e-01
 -6.32162066e-03 -2.09015738e-02 -2.87274159e-02  7.05316961e-02
  3.80593427e-02 -1.69803202e-01  1.61528870e-01 -1.99015528e-01
  4.13460564e-03 -1.13207109e-01 -2.11160690e-01  2.01765706e-05
 -1.51022181e-01  9.38007683e-02 -1.23487003e-01 -1.05597213e-01
  5.79257086e-02  1.07365899e-01 -2.39000935e-02  1.33353084e-01
 -1.48479581e-01 -1.34647161e-01  1.84673846e-01 -1.75699338e-01
 -9.51899588e-02 -1.22822464e-01 -1.74510494e-01 -4.57261913e-02
  1.47709861e-01 -9.61174592e-02 -2.55005434e-02 -1.28661379e-01
  3.92666049e-02  5.01881130e-02  1.67626053e-01 -4.71154563e-02
  2.97464523e-03  1.11136824e-01 -2.41474807e-01  2.38510564e-01
  2.03880399e-01  2.14484259e-02  1.47133812e-01  2.21470490e-01]
[-0.02191281 -0.0869676  -0.14743398  0.10538907  0.2597883   0.10485643
  0.06908531 -0.06378043  0.17991173 -0.24284264 -0.16389786  0.06291582
 -0.0341538   0.17827642 -0.11632057 -0.06979144 -0.30281773  0.04667351
 -0.16346437  0.05496704  0.07194281  0.19884078 -0.02345571  0.21536918
  0.03260656 -0.24231698  0.03692298 -0.25944299 -0.10965983 -0.14972155
 -0.24952559 -0.12570253 -0.18188685 -0.00534942 -0.09627092 -0.03871215
  0.08229844  0.02402632  0.03689068  0.14981411 -0.15510863 -0.29622358
  0.26238388 -0.15655322 -0.00516537 -0.2546923  -0.1496719  -0.15665166
  0.1345689  -0.06847465  0.03183443 -0.10890412  0.03830886  0.16298091
  0.14149523 -0.15011194 -0.00255739  0.02313139  0.10401101  0.07392303
  0.12959158  0.11046741 -0.01250562  0.2776107 ]
[ 0.10753071  0.05692399  0.04213645  0.13343497  0.12225454  0.1262766
  0.0330834  -0.00653099  0.15215221 -0.34636095  0.05769796  0.08121716
 -0.08825014  0.26401365  0.0018337  -0.1064768  -0.13070695 -0.03464224
 -0.16297235  0.00746634 -0.00425509  0.06774087 -0.07669758  0.20369987
 -0.13682868 -0.29335654  0.08797426 -0.07874086 -0.0680177  -0.16120997
 -0.19605635 -0.13205764 -0.16163376  0.00592884 -0.04797806  0.04749936
  0.1064451   0.03253592 -0.05629985 -0.02113797 -0.02506846 -0.21875502
  0.20109907 -0.14426778 -0.1663949  -0.17511217 -0.05728095 -0.19386497
  0.04704306 -0.19931528  0.13343279 -0.12053201  0.11565959  0.00580677
  0.08337569 -0.18635261 -0.05696288  0.11381625  0.06945843  0.2580631
  0.21009076  0.13086349  0.01119777  0.20382436]
[ 0.19450644  0.16565864  0.12701781 -0.04311989  0.23179784  0.12127727
 -0.02402059 -0.09589174  0.17369467 -0.26837662  0.09244785  0.24357192
 -0.07026741  0.2531691  -0.02284547 -0.0211832  -0.06379755 -0.0995842
 -0.10092454  0.0942146  -0.04870095  0.14330074 -0.27859005  0.2611519
 -0.07347204 -0.1379685   0.00826831  0.01424235  0.01948244 -0.18538643
 -0.29477966 -0.03401467 -0.2197468   0.07812499 -0.06449537 -0.04633565
  0.09198345  0.07685827 -0.1330071  -0.07829048  0.05304662 -0.23728068
  0.07604103  0.00371919 -0.09423286 -0.15281557 -0.09846348 -0.03640465
  0.02689438 -0.25957185  0.04668644 -0.10933341  0.14079067 -0.00867376
  0.09063919 -0.18561287 -0.23784606  0.25288185 -0.11870956  0.25807098
  0.18103701 -0.03270191  0.07927714  0.20167795]
[ 0.21072978  0.09133348  0.14657342  0.04011495  0.08412039  0.09832381
  0.03430935 -0.04626435  0.21674801 -0.50768477  0.07709061  0.28123865
 -0.17570674  0.25170067 -0.12041821 -0.09821875 -0.12700638  0.07280334
 -0.24965772 -0.08201533 -0.05067387  0.05623263 -0.01053653  0.25502276
  0.01581533 -0.06377288 -0.0206646  -0.25645858  0.06975763 -0.40433556
 -0.11818314  0.04901395 -0.3196096   0.07372262 -0.06360628 -0.06498984
 -0.17008989  0.15801652  0.08205287 -0.04653454 -0.05869888 -0.2827393
 -0.00672301  0.1284405  -0.05005503  0.03601568 -0.110139   -0.10443447
 -0.11112577 -0.11602253  0.16186135 -0.16495289  0.02439885 -0.08983157
 -0.08010687 -0.24759859 -0.20860524  0.30548826 -0.07732289  0.15188919
  0.05660676 -0.09588256  0.14112093  0.1699834 ]
[ 0.30935803  0.02592481  0.1632849   0.04647655  0.10912602  0.13376042
 -0.1444138   0.05694521  0.163894   -0.4276482   0.05687349  0.09589554
 -0.16606797  0.06213816  0.06688192  0.053787   -0.24082431  0.03607405
 -0.22516115 -0.09444717 -0.03876809  0.05597823  0.12209205  0.00501127
  0.09551892 -0.10839652 -0.05464347 -0.22728486 -0.00490402 -0.4505271
 -0.19518048 -0.16073439 -0.3526277   0.1128884  -0.27071574  0.13660635
 -0.0639981  -0.00808266  0.03163521 -0.1680001   0.06641349 -0.14543892
 -0.03153678  0.14304633 -0.14314339  0.18721178  0.00644593 -0.19694212
 -0.00229342  0.07879479  0.07972062 -0.31812924 -0.19609714 -0.03285246
  0.00824082 -0.14619586 -0.19494872  0.29350898 -0.06077314  0.05351306
 -0.0567046   0.07305335 -0.05706365  0.2026019 ]
[ 0.03026335 -0.06456265  0.0998275  -0.03799115  0.11415782  0.13344337
 -0.14578512  0.24914366  0.19898525 -0.3329896  -0.079151    0.07088168
 -0.1333257   0.07707471  0.14775464  0.05487311 -0.25562945 -0.0499544
 -0.264706    0.01759305  0.06959742  0.11509208 -0.02910868  0.14282422
 -0.08761141 -0.07989023 -0.17395236  0.12931404  0.05376617 -0.37169012
 -0.19731472 -0.08108709 -0.36123928  0.02355757 -0.16302496  0.14988083
 -0.16048571  0.03779881 -0.17533477 -0.28882816  0.05653573 -0.06655968
 -0.13367723  0.1980693   0.03795766  0.12334798  0.07580966  0.05330744
  0.1302305  -0.06814809  0.1234463  -0.09777951 -0.2757039   0.10168286
 -0.0933828  -0.09409636 -0.40214995  0.30307516 -0.17255595  0.10984767
 -0.09804882 -0.02205191  0.13363832  0.17626283]
[ 0.17874871 -0.01992556  0.19297238 -0.07353815 -0.12097277 -0.01136242
 -0.19888099  0.22283584  0.17775652 -0.15869543  0.01204452  0.08320052
 -0.0256193   0.03934873  0.19041674  0.07227784 -0.04711037  0.10315883
 -0.08675779 -0.14050736 -0.02677177 -0.04282121  0.10596139  0.08651714
 -0.15505175 -0.11193866 -0.03994034  0.00574945  0.01452568 -0.1757569
 -0.15231542 -0.13960019 -0.16926496  0.15818284 -0.32175624  0.05311793
 -0.00484227 -0.06265946 -0.09054733 -0.18118708  0.02003691  0.00950707
 -0.10149831  0.16372657  0.01715443  0.16354516  0.09703502 -0.01531388
  0.05909481 -0.0024806  -0.00837594 -0.10196326 -0.23706394 -0.04541958
 -0.14749788  0.01161559 -0.47029066  0.22582343 -0.18430905  0.06785353
 -0.04477521  0.02938792  0.16589457  0.14804968]
[ 0.29943326 -0.00652346  0.13638522 -0.01957304 -0.05312756  0.05164926
 -0.10081053  0.07630979  0.20649925 -0.10926884 -0.1318895   0.0634947
 -0.00235813  0.07012749  0.21131758  0.04648869 -0.16756886  0.11753839
 -0.04294857 -0.13028796 -0.00634478 -0.24024731  0.06497055  0.01195382
 -0.25263557 -0.16146041 -0.10065793  0.01438938  0.05047707 -0.07572511
 -0.08217469 -0.23095827 -0.22214292  0.17424843 -0.27840662 -0.04822135
  0.0979986  -0.02154212  0.00891242 -0.09909769  0.01205815  0.08204576
 -0.04430868  0.1331504   0.2834264   0.06467478  0.09369403 -0.06829242
 -0.03860836 -0.10381714  0.11632127 -0.12668158 -0.08626577  0.06936174
  0.01471076 -0.01027524 -0.43742257  0.27440715 -0.20714173  0.13138303
 -0.150164    0.03093421  0.07606014 -0.03367008]
[ 0.24736385 -0.06439746  0.16555434 -0.03309491 -0.10902977 -0.00309077
 -0.08580276  0.14897504  0.15027623 -0.04220778 -0.06150668 -0.01628696
  0.04875562  0.05800672  0.0534418   0.07348976 -0.12288392  0.17482638
 -0.1942302  -0.10342266  0.03684965 -0.17962252  0.03482153 -0.01458072
 -0.16876048 -0.03688454 -0.14090379 -0.1613604   0.0572703   0.03910413
  0.00433603 -0.18791693 -0.28294444 -0.00037598 -0.15528259 -0.10356966
  0.05480704 -0.02393951 -0.06289395 -0.1037029   0.08567736  0.05518341
  0.00523559  0.07577768  0.17950931  0.06685515  0.17156035  0.07633047
 -0.13432823 -0.05112832 -0.00883225 -0.20089796 -0.00161963 -0.00103979
 -0.0480067   0.04171833 -0.32143235  0.1053668  -0.2353056  -0.00085421
 -0.2210914   0.07504984  0.12967554 -0.08132571]
[ 0.4001799  -0.05916506  0.12908313  0.02527828 -0.17677805 -0.05502691
 -0.01357568  0.12803803  0.18751958  0.0663569   0.06730985 -0.03292877
 -0.00486155  0.10000759  0.08060739 -0.07268772 -0.01206264  0.26871243
 -0.27726388 -0.03011101  0.02433753 -0.01906768  0.03072354 -0.02260397
 -0.01528274 -0.14505133 -0.08415475 -0.15900461  0.12566483  0.16660045
  0.10719293 -0.01491498 -0.13469708 -0.09183207 -0.14941652 -0.0830982
  0.08670134 -0.2281496  -0.21060006 -0.01459666  0.01373492  0.07795683
  0.18037917  0.14842553  0.0620828  -0.06219418  0.05450304  0.00756666
 -0.07319819 -0.08884289 -0.01854151 -0.14297304  0.00785846  0.13603498
 -0.13380836 -0.03709816 -0.09246793  0.2276065  -0.26297507 -0.00923113
 -0.31396723  0.20371331  0.00378336 -0.067563  ]
[ 0.16190837 -0.0804292   0.11137041 -0.04606868 -0.17235713  0.06033563
  0.05199697 -0.09965756  0.23260634  0.03946013 -0.01505725 -0.0059478
 -0.01023355  0.02072397 -0.05033941 -0.00407211 -0.18071401  0.08464754
 -0.33423975  0.04017131  0.06536246  0.02249466 -0.11702664  0.03751304
 -0.05584224 -0.24438567 -0.20054713  0.00761237  0.21969219  0.02665512
  0.01119655 -0.2913338  -0.2425009   0.14649773 -0.03239248 -0.19332086
  0.07676133 -0.21579257  0.00391434 -0.04915946  0.10536568  0.1284437
  0.09808636  0.30120438  0.02840224 -0.0129063  -0.01892244  0.01708
 -0.02672932 -0.10161059  0.03421223  0.05022563  0.04410809  0.06194428
 -0.04650823 -0.18519785 -0.1087931  -0.058538   -0.14105615 -0.06103379
 -0.23461108  0.27632126  0.05883895 -0.05313696]
[ 0.09222916 -0.0547814   0.21342881 -0.23091535 -0.19453444 -0.11639088
  0.05670854  0.0526675   0.1060926  -0.07826846  0.00520619 -0.10326139
  0.17130831  0.09418578 -0.08475339 -0.17935446 -0.16706647  0.06653021
 -0.1878587  -0.05484775 -0.07288462 -0.04932545 -0.04645254  0.12753399
 -0.1576142  -0.05978011 -0.25261492 -0.02177778 -0.056019   -0.09766675
  0.01020851 -0.18361805 -0.17729941 -0.05561323 -0.19553584 -0.06194006
  0.10310889 -0.03262182 -0.1434418  -0.02011196  0.06677429  0.01418726
  0.115405   -0.05141868 -0.02094378  0.04252179  0.04365175  0.12024218
  0.05660716 -0.19805081  0.03808735 -0.1188404  -0.01144786  0.00551038
 -0.08816352 -0.07307208 -0.12969756 -0.01701663 -0.22594361  0.13942339
 -0.10725475  0.23696646  0.11941313 -0.19191407]
[-0.02772459  0.01421433  0.09446887 -0.1093116   0.01630963  0.11363453
  0.1829116  -0.08995541 -0.02856641  0.04627092  0.1344614  -0.00630926
 -0.02361835 -0.03148798  0.01418375 -0.1016788  -0.00857038 -0.12967405
  0.00488012 -0.0332787   0.18728341  0.02636814  0.14195424 -0.02725297
 -0.0006137  -0.11456211 -0.25865453  0.04084674 -0.0796337   0.13386154
  0.13195753 -0.19339637 -0.2400661  -0.19415206 -0.09624296  0.06927799
  0.08313044 -0.06293133 -0.16425589 -0.12677212  0.08370905  0.086906
  0.09856527  0.04400235 -0.01046297  0.00355769 -0.00939973  0.19237813
  0.13451228 -0.06499159  0.0640494  -0.3052096  -0.13572788  0.23434693
 -0.11085402  0.0733019  -0.06399076 -0.07664475 -0.02073752 -0.01256983
 -0.04499409  0.21690357 -0.11051219 -0.05078704]
[ 0.01221228 -0.07351451 -0.06713723 -0.23622929  0.00430556  0.11242452
  0.05214271 -0.02003089 -0.02590791 -0.07337921 -0.05690295  0.10942259
 -0.05349194 -0.21298653  0.15322395 -0.0053851  -0.00221645 -0.2822472
 -0.01209122 -0.0387065   0.10565539  0.10164712  0.0032953  -0.02702874
  0.12438629 -0.09411598 -0.10478885  0.01489862 -0.033263    0.10561614
  0.00551932 -0.09364714 -0.07282345 -0.02258428 -0.07134005  0.03686576
  0.04559119  0.12036952 -0.04102724 -0.04769645  0.05962939  0.04323817
  0.07726612 -0.04489836  0.00044064 -0.03860805 -0.14944677  0.11541649
  0.08105693  0.05653213 -0.06854259 -0.09608229 -0.08070937  0.12577726
  0.02877725  0.1741045  -0.14532107 -0.03090305  0.01339745 -0.12921202
 -0.19690353  0.15779011 -0.18282126 -0.05193183]
[ 0.27441394  0.07696868  0.083069   -0.11481953  0.14245124 -0.08269385
 -0.09584829 -0.10491922  0.15852493 -0.01268183  0.05495936  0.10842795
 -0.1936102  -0.26085886  0.04767955  0.05032814 -0.02549074 -0.06838389
  0.01608192  0.04136116 -0.00102815 -0.00638713 -0.01281119 -0.11776124
  0.22523628 -0.04769848 -0.03734835 -0.21146286 -0.30042937  0.03274102
  0.04173774 -0.09284475  0.01083999 -0.2680068   0.08428472  0.11294273
  0.09287847  0.1410651  -0.0372683  -0.10239267  0.12947199 -0.02360518
 -0.03007727 -0.0859188   0.01062074 -0.18889326  0.03697766 -0.02424481
 -0.13105811 -0.1354032  -0.2866999  -0.04719391 -0.12179317  0.14116757
 -0.03007035  0.06958037 -0.12285267  0.04636838  0.01188345  0.10100236
 -0.26703724  0.05207707  0.02045398 -0.11034229]
[ 0.11964206  0.03741855  0.09407574 -0.076816    0.03502014 -0.06787887
 -0.04998133 -0.12541139  0.00826251 -0.14585361  0.14153668 -0.06994119
  0.06393324 -0.09987111  0.08913006 -0.04694202  0.00821751  0.0775766
  0.08851748  0.04499321  0.11163255 -0.11346456 -0.05634058  0.09851352
  0.12397774 -0.07639052 -0.10577234 -0.09148358 -0.31661516 -0.0301893
 -0.01155761  0.01111226 -0.04306049 -0.23053001  0.1299539  -0.02624303
  0.09154141  0.07927656  0.12630036  0.00978779  0.11072312 -0.06337006
  0.12087862 -0.11727563  0.02294088 -0.14895435 -0.00658713 -0.03406138
 -0.15820074 -0.19728345 -0.10775284 -0.07439047 -0.03742108  0.13660531
 -0.03783268 -0.03425746 -0.13807504  0.1734239  -0.08418524  0.06070762
 -0.14015706  0.19944406  0.00747404 -0.08645989]
[ 0.10240768  0.00659058 -0.04433035 -0.13490316 -0.02487692  0.15016256
 -0.03783664 -0.0937009  -0.06243621 -0.07317418  0.1533446  -0.17657092
  0.13821529 -0.0574922  -0.00491719 -0.1721234  -0.01661196  0.10903773
  0.21160057 -0.06702579 -0.103506   -0.07054494 -0.0337609   0.12893774
  0.06767654  0.096252    0.05457707 -0.01606582 -0.23664147 -0.10134641
 -0.01312963  0.02584389 -0.05366182  0.1064296   0.15982883  0.00248316
  0.05994394  0.04854535 -0.14768553  0.00306522 -0.05060505 -0.13041179
  0.07959985 -0.17908032 -0.07089995 -0.11609387  0.02112951 -0.08223679
  0.00240833 -0.03200911  0.04843446  0.04339328 -0.01857566 -0.05866818
 -0.00975018  0.14285484 -0.12971015 -0.01943354  0.15034118 -0.03041871
  0.00693077  0.04812506 -0.05804802 -0.12333731]
[-0.02817065  0.0618021  -0.09404892  0.08200552  0.02977463  0.11379991
  0.08215875  0.02156869 -0.03039618 -0.0062432  -0.0905319  -0.18225972
 -0.0009178   0.007901   -0.0835285  -0.09441695 -0.06177282  0.10441981
  0.02573483 -0.00261295 -0.03620713  0.01386376 -0.00541426  0.06620114
  0.04951206  0.16075104  0.05940805  0.05614085 -0.13975681 -0.02257916
  0.04910178  0.02693435 -0.02890625  0.0705222   0.05062296 -0.09638992
  0.13078961 -0.01218161 -0.08407687 -0.05010245 -0.02255274 -0.05067974
  0.00375922 -0.18241501  0.07021343 -0.09080864  0.06931869 -0.00787013
  0.06622147  0.14719535 -0.0399098   0.00454423  0.0821651  -0.04264981
 -0.11381623  0.11683369 -0.15617858  0.02070521  0.03946073 -0.115485
 -0.01342459  0.0883589  -0.04682229 -0.04165758]
[ 0.0374316   0.01536805  0.04138475  0.04467366 -0.01072686  0.04924292
  0.02769767  0.00219014 -0.0109449   0.03211622  0.07012486  0.0473593
  0.03801098 -0.0456058  -0.03285379  0.02634203  0.0280436  -0.05422787
 -0.05338665  0.02077202  0.04437231 -0.05177608 -0.05372544  0.07131017
 -0.03996758  0.04536583  0.05832257 -0.08001422  0.04591469 -0.05622499
  0.00243722 -0.01671489  0.03700435  0.02939788 -0.02722665  0.07890748
  0.0621293   0.07267883  0.04968225 -0.00013268  0.00125862 -0.02394785
 -0.0317524  -0.01072798  0.05878656 -0.03609075 -0.06177408  0.00780259
 -0.06800197  0.02370019  0.03696356  0.06547553 -0.01083086 -0.07120031
 -0.04607691 -0.01197807 -0.07200164  0.05944339  0.05253092 -0.01472338
  0.01295354 -0.05222167 -0.076146    0.00372036]
[ 0.07870663 -0.00326351  0.04991093  0.07124483 -0.00374435 -0.04669293
 -0.06686834 -0.0327991   0.00037019 -0.01402992 -0.03336064  0.06489003
 -0.08193653  0.07709628 -0.02609886 -0.06317547  0.01433823  0.07156139
 -0.05815462 -0.08064326 -0.02424059  0.0143734  -0.01147785  0.01122863
  0.00504632  0.04819458  0.07876245  0.04943711 -0.03289122  0.0211629
  0.0022054  -0.04813156  0.03991462 -0.06094785 -0.06360982 -0.03474773
 -0.0835272  -0.08050179 -0.00904517  0.07168277  0.01184867 -0.00035938
 -0.04339904  0.02733905  0.04792901 -0.00656126 -0.01107094  0.04377846
 -0.02169909  0.05049472 -0.02319136 -0.08115008 -0.04325607  0.07664632
  0.0798933  -0.06939341 -0.0663965  -0.02199497  0.01530994 -0.01045448
  0.03043272  0.00972559  0.0770695   0.01739465]
[-0.00202545  0.08053487  0.08234768  0.01117539  0.0763533  -0.0900214
 -0.06437772  0.03826612 -0.00910329 -0.07304344 -0.06046685  0.07804813
 -0.03454003  0.05450374 -0.03020571  0.02939338 -0.01813804  0.08317305
 -0.03912375 -0.05027898  0.03196966 -0.00821525  0.06588512  0.00920838
 -0.07492114 -0.05350704 -0.01759744  0.01614714 -0.04885883  0.00962976
  0.04577171  0.0114749  -0.05160465  0.03081691  0.06513106 -0.02647971
 -0.06429315  0.05351641 -0.02822835  0.0726693   0.04713199 -0.06395811
  0.05471424 -0.04024659 -0.00789725 -0.02807211  0.07260196  0.05923967
 -0.02738027 -0.0008684   0.07722113  0.08092915 -0.04229384 -0.03084035
  0.02592302  0.04700546  0.02615044 -0.04929445  0.03201405  0.05348809
 -0.007059   -0.0810325   0.01680582  0.06251109]
[-0.11384712  0.02172112  0.06706769  0.13105282 -0.05390646  0.11476791
  0.06049584  0.00656028 -0.04040014  0.12915643 -0.11498856  0.06141729
  0.10637937 -0.00211218  0.08410664  0.09449678  0.03947243  0.0407238
 -0.06828844 -0.18899588 -0.1703259  -0.0368148   0.19807158 -0.07870637
  0.01504465  0.00987992  0.06068853  0.01716023  0.01988781 -0.08128548
 -0.0031426   0.04629624 -0.04943889 -0.15940174  0.05371939  0.01627917
  0.01048174  0.21909532  0.14132446  0.02716223 -0.16245049 -0.08516152
 -0.1726587   0.11133844  0.10856298 -0.02795908  0.05049048 -0.14583033
 -0.04201497 -0.04386691 -0.02613945 -0.0589867   0.15967503 -0.15708631
 -0.02408013  0.10845305  0.14606701 -0.03354233  0.08975765 -0.12552424
  0.04736682 -0.18467118  0.18907166 -0.06985505]
[ 0.03560378 -0.11153057  0.13116065  0.11377005  0.03360979 -0.07159249
 -0.00385033 -0.12999235 -0.00216448  0.11951362  0.09481729 -0.04230076
  0.03950311  0.079347   -0.10495795 -0.10298898  0.0675543   0.25372186
  0.04778142 -0.16785051 -0.16363573 -0.18770948 -0.00813716  0.00957888
  0.03928313  0.162353    0.01506371  0.09299936 -0.03425714 -0.11531956
  0.07463927  0.01799509  0.15130751 -0.16248778  0.06590857  0.04392765
  0.12380479  0.00913175  0.02638613 -0.13774356  0.00435338  0.18721136
 -0.02586457  0.09742149  0.22640224 -0.06015763  0.02330814 -0.05776155
  0.11169537 -0.07132488 -0.03819197 -0.07891721  0.09886543 -0.19988182
  0.08976927 -0.05608422  0.04362789 -0.02694265 -0.07091756  0.00922114
  0.1407741   0.09780962  0.07958648 -0.01692188]
[ 0.08513757 -0.05915049 -0.01873653  0.01770462  0.15180363  0.06522624
 -0.02075307 -0.10849618  0.1389036  -0.07290739 -0.0549737  -0.01666377
 -0.00431007 -0.00107553  0.03526007 -0.06135065  0.16468343  0.12479228
 -0.12610666  0.0803597  -0.0778035  -0.06550052  0.03827404 -0.02900767
 -0.05650328 -0.10762427 -0.03525623  0.00174316 -0.0471652  -0.0328634
  0.14866155 -0.00220093  0.18621108  0.03340068 -0.02911251  0.15140453
  0.0632467   0.16924734  0.13456404 -0.07501044  0.0102666   0.00828042
  0.1793467  -0.1457429   0.18501721  0.01920939 -0.15191074 -0.10970075
 -0.0186237  -0.06743953  0.06872045 -0.10740174  0.01744374  0.07269464
  0.253194   -0.16995917  0.21781968  0.2236145  -0.00977203  0.09723604
  0.05705742  0.00783079  0.0024446   0.02681665]
[ 0.0412799  -0.19782712  0.00421358 -0.17915012  0.06818339  0.06903957
 -0.02570178 -0.1200828   0.30863267 -0.01104603 -0.06590085  0.1463049
  0.08607327 -0.01169316 -0.17012422 -0.14429013 -0.09122021 -0.17068993
 -0.25744233  0.04459225 -0.05636369  0.01322544  0.10228734  0.06009528
 -0.01506672 -0.21077032 -0.0445217   0.0193984   0.1291475   0.03497044
  0.1316155  -0.03517224 -0.03390905  0.124231   -0.09671932 -0.06070786
 -0.1638711   0.19565181  0.07555857  0.04853493 -0.0274149   0.0847543
  0.11939267 -0.15167582  0.08567181  0.15500848 -0.19099249 -0.02211312
  0.01626158 -0.07495514 -0.0117914   0.00378596  0.07273768  0.12509522
 -0.03732733 -0.25059164  0.01309874  0.17456004  0.0131722   0.1004689
  0.0854056  -0.14681631 -0.11518594  0.06338865]
[-0.06741104 -0.2721699  -0.04530148 -0.07493281  0.1216165   0.15400776
  0.02019864 -0.22157583  0.07471614 -0.09714491  0.02747608 -0.07305562
  0.04716521  0.13627644 -0.13928573 -0.19341227 -0.09276589 -0.05991345
 -0.30001646 -0.02864085 -0.04482917  0.07547064  0.01530609  0.12926534
  0.07344195 -0.19656418  0.08224341  0.04244267  0.06599063 -0.1010005
  0.01120802 -0.01874019 -0.03833117  0.16058527 -0.08725748 -0.11385015
 -0.217341    0.06435762 -0.095404    0.06696221 -0.19068001  0.05176971
  0.12408045 -0.18417697  0.07409612 -0.11014794 -0.18762797 -0.06287366
  0.03348041 -0.31761366  0.14453672 -0.05131016 -0.02997407  0.05391024
  0.09683523 -0.1751692   0.02224097  0.15879698 -0.0486484   0.04873942
  0.16248709 -0.00324005 -0.09360564  0.14671858]
[-0.03959924 -0.00814388  0.01270734  0.08432056  0.16781305  0.10139511
 -0.02872433 -0.03508966  0.1043392  -0.19748305  0.05233635  0.00705387
  0.07017023  0.16892278 -0.02276575 -0.14176856 -0.19576511 -0.14608608
 -0.24543081  0.1505016  -0.04349718  0.00906394  0.02534426  0.2445936
 -0.02049733 -0.21645617  0.13500196  0.07958587 -0.00865405 -0.07714541
 -0.02654782 -0.11379915  0.05046229  0.11301587 -0.09525659 -0.00356518
 -0.01841939  0.13862175 -0.10005516 -0.04417172 -0.23120362  0.20012078
  0.05589553 -0.11821144 -0.08323642 -0.05803528 -0.14961277 -0.17111199
  0.01384497 -0.2818217   0.20260325  0.0269398   0.13245034 -0.02339016
  0.20676744 -0.04938103 -0.09328465  0.20649001 -0.07118149  0.05016381
  0.1792151   0.06694008 -0.03134839  0.00742659]
[ 0.05484491  0.09014406  0.10652374 -0.00565198  0.13402398  0.09999771
 -0.0376564  -0.13837686  0.20543665 -0.1046327   0.00245891  0.16241817
  0.06681824  0.06212207  0.01864673 -0.10401888 -0.24350189  0.00560881
 -0.3256957   0.18903938 -0.093114    0.02059187  0.14110516  0.12831172
  0.08840808 -0.06435273  0.14089769  0.02932207 -0.10602137 -0.16531876
 -0.0066642  -0.27695277 -0.15769823  0.04008053 -0.19057733  0.05659379
 -0.02244585  0.15825126 -0.10854261 -0.11533923 -0.22817402  0.03344084
  0.07345829 -0.17092894  0.08836143  0.0509253  -0.07553996 -0.16823712
 -0.04503598 -0.24666996  0.08681204 -0.11571053  0.06513901  0.12331012
  0.16026281 -0.19883853 -0.05319334  0.22155197  0.03174407 -0.06506436
  0.18818656 -0.0947357   0.12541106  0.06315108]
[ 0.0683137   0.14458849  0.02760021  0.10265847  0.07656895  0.23107687
 -0.02379218 -0.25918084  0.11862215 -0.3234176   0.01897579  0.08976196
 -0.01760337  0.23848717  0.04844237 -0.03385055 -0.13794947 -0.05636324
 -0.2735506   0.20350936 -0.12857702  0.04538265  0.15153363  0.1965515
  0.08854046 -0.06924318  0.01598779 -0.07200149 -0.10321884 -0.3243684
 -0.25285417 -0.22289746 -0.34045953 -0.01120973 -0.18061802  0.01066541
  0.1346533   0.04535238 -0.17099136 -0.09600113 -0.10902025 -0.13340814
 -0.01210085 -0.08479774 -0.1969159   0.07306439  0.04933517 -0.23762053
  0.03672456  0.04230434  0.1282894  -0.15063784 -0.03873726  0.13967556
  0.10411726 -0.10020497 -0.24806888  0.19065487  0.14048822 -0.01309439
  0.14492117 -0.08428668  0.02939662  0.13582636]
[-0.01450816  0.05562803  0.09779948  0.1694954   0.1388569   0.19584264
  0.02948536 -0.22509553  0.1150857  -0.3924043   0.18995701  0.12450285
  0.04708604  0.18569939 -0.08773172 -0.01437064 -0.15270121  0.08182848
 -0.26354975  0.2338026   0.05767565 -0.01095345  0.12166166  0.20053895
 -0.03874265 -0.21137607  0.18696252  0.03366662 -0.08750588 -0.35759053
 -0.17230432 -0.24343722 -0.2029991   0.13376962 -0.04137691  0.0274887
  0.08677105  0.11797226 -0.03361094 -0.03011328 -0.13633959 -0.14602107
  0.01869226 -0.1778624  -0.02773015  0.07394385  0.02286067 -0.26493573
 -0.00940135 -0.05728231  0.11748093 -0.20142539 -0.02739464  0.16093151
  0.03018946 -0.21284653 -0.36598626  0.17619511  0.02829241 -0.01063363
  0.25791064  0.11529467  0.11103468  0.22715524]
[ 1.2868553e-01  1.6534637e-01 -4.1619721e-03  2.4072371e-02
  1.5740411e-01  6.7337051e-02 -3.4560651e-02  5.0859624e-03
 -1.4560760e-02 -1.8880394e-01  1.3865469e-01  3.3305570e-02
  6.5113954e-02  3.3548826e-01  2.6558334e-02 -1.4401817e-01
 -2.1300171e-01 -6.8148218e-02 -1.6251663e-02  5.6140862e-02
  3.3812597e-02  4.9925841e-02  7.8390196e-02  1.0876375e-01
  4.6336101e-03 -4.6345629e-02  1.5142459e-01  3.1951204e-02
  3.2949019e-02 -2.1126606e-01 -2.5401836e-02 -1.2152953e-01
 -4.8147354e-02  1.0925418e-01  8.6198047e-02  1.1905548e-02
  6.0085151e-02  8.6684965e-02 -1.3372712e-01 -1.2102710e-02
 -2.9947134e-02 -1.5659250e-01  3.4610055e-02 -9.2827566e-02
  9.2624247e-02  2.7799737e-01  8.9183912e-02 -2.7962697e-01
  3.5914324e-02  3.8422331e-02  8.4408358e-02 -2.1254092e-01
 -2.0979144e-02  6.8853363e-02  4.7565877e-02  3.6524508e-02
 -2.0793609e-01  3.4895003e-01  6.7324124e-02  7.1804272e-05
  1.9463454e-01 -6.1107360e-02  1.0605842e-01  4.1836742e-02]
[ 0.12527098  0.02229442  0.0521419   0.02071564  0.18477784  0.10835754
 -0.01928004 -0.06139279  0.0238027  -0.2833855   0.12076102 -0.02142099
  0.14351952  0.28420743  0.03124231 -0.03012407 -0.18501979 -0.00964268
 -0.0133297  -0.0205716  -0.01777056  0.02926114  0.08704568  0.16835864
 -0.02369069 -0.03137849  0.04525272 -0.00345014 -0.07405842 -0.2253641
 -0.11183271 -0.054073    0.06335871  0.10327427 -0.07203764 -0.00401584
 -0.13887812  0.16913171 -0.05688892  0.00152112  0.04765087 -0.14233154
 -0.1223648  -0.09617151 -0.00140993  0.20995055 -0.0392148  -0.22758238
  0.03801493  0.04642381  0.08468302 -0.05641799 -0.04187873  0.1708376
 -0.01411294 -0.02691197 -0.24636218  0.15933213  0.01644569 -0.017256
  0.02022133 -0.17795654  0.01108343  0.10605173]
[ 0.01067434 -0.04405873  0.07958701 -0.03877738  0.02346068  0.05112712
 -0.16802849 -0.00553364  0.02149362 -0.15158167 -0.02132506 -0.0497063
 -0.00952855  0.1635986   0.04250248  0.04341748 -0.35138464 -0.09444989
 -0.08827044 -0.08290836 -0.05458408  0.14815438  0.13996464  0.10520076
  0.03549254 -0.03567968  0.04310663  0.06222514 -0.06081664 -0.12569167
  0.01047918 -0.06265441 -0.07443539  0.10607151 -0.14867489  0.15585004
 -0.11226198  0.18480347 -0.04406726 -0.01397757  0.1120982  -0.09395196
 -0.15542947  0.15164666  0.07326894  0.20527938 -0.17839149 -0.1960853
  0.12475415  0.04402945  0.03805684 -0.06325944 -0.20441891  0.09492914
 -0.05206772  0.09921735 -0.07905152  0.13058014 -0.13010734 -0.13117583
  0.02510817 -0.1513032   0.05729283  0.20622057]
[ 0.16308738 -0.10954648  0.12068905  0.03808175 -0.06418286 -0.00213187
 -0.11278435  0.02248216 -0.00318994 -0.17248288  0.02699947  0.08272485
 -0.09936653  0.0536545   0.1600913   0.18171594 -0.1755636  -0.02162367
 -0.07713833 -0.11413289  0.08487375  0.16269375  0.14328803  0.06633079
 -0.01044712 -0.06327324 -0.02858919 -0.04036219  0.03321847 -0.2019432
